obj_name,pg,hour,day
32,-9.999999667755734e-9,1,1
29,-9.999999667755734e-9,1,1
1,-9.999999667755734e-9,1,1
2,-9.999999667755734e-9,1,1
41,-9.99999966775785e-9,1,1
27,-9.999999667755734e-9,1,1
42,-9.99999966775785e-9,1,1
33,-9.999999667755734e-9,1,1
28,-9.999999667755734e-9,1,1
26,-9.999999667755734e-9,1,1
10,-9.999999667755734e-9,1,1
24,-9.99999966774615e-9,1,1
25,-9.99999966774615e-9,1,1
23,-9.99999966774615e-9,1,1
49,-9.999999667758048e-9,1,1
5,-9.999999667755734e-9,1,1
31,-9.99999966774615e-9,1,1
43,-9.99999966775785e-9,1,1
39,-9.999999667757906e-9,1,1
34,-9.999999667755734e-9,1,1
44,-9.99999966775785e-9,1,1
17,-9.99999966775788e-9,1,1
37,-9.999999667758292e-9,1,1
47,-9.999999667749535e-9,1,1
9,-9.999999667755734e-9,1,1
12,-9.999999667755734e-9,1,1
20,-9.99999966775784e-9,1,1
6,-9.99999966774615e-9,1,1
14,-9.999999667757832e-9,1,1
7,-9.999999667755734e-9,1,1
8,-9.999999667755734e-9,1,1
19,-9.999999667757835e-9,1,1
4,-9.999999667755734e-9,1,1
22,-9.99999966774615e-9,1,1
11,-9.999999667755734e-9,1,1
35,-9.999999667755734e-9,1,1
13,-9.999999667755734e-9,1,1
15,-9.999999667757827e-9,1,1
16,-9.99999966775788e-9,1,1
40,-9.99999966775785e-9,1,1
46,-9.999999667755734e-9,1,1
21,-9.999999667755734e-9,1,1
38,-9.999999667757858e-9,1,1
45,-9.999999667755734e-9,1,1
36,-9.999999667755734e-9,1,1
48,-9.999999667758048e-9,1,1
18,-9.999999667757828e-9,1,1
30,-9.999999667755734e-9,1,1
3,-9.999999667755734e-9,1,1
32,-9.999999752095645e-9,2,1
29,-9.999999752095645e-9,2,1
1,-9.999999752095645e-9,2,1
2,-9.999999752095645e-9,2,1
41,-9.999999752096823e-9,2,1
27,-9.999999752095645e-9,2,1
42,-9.999999752096823e-9,2,1
33,-9.999999752095645e-9,2,1
28,-9.999999752095645e-9,2,1
26,-9.999999752095645e-9,2,1
10,-9.999999752095645e-9,2,1
24,-9.999999752090308e-9,2,1
25,-9.999999752090308e-9,2,1
23,-9.999999752090308e-9,2,1
49,-9.999999752096934e-9,2,1
5,-9.999999752095645e-9,2,1
31,-9.999999752090308e-9,2,1
43,-9.999999752096823e-9,2,1
39,-9.999999752096854e-9,2,1
34,-9.999999752095645e-9,2,1
44,-9.999999752096823e-9,2,1
17,-9.99999975209684e-9,2,1
37,-9.999999752097068e-9,2,1
47,-9.999999752092192e-9,2,1
9,-9.999999752095645e-9,2,1
12,-9.999999752095645e-9,2,1
20,-9.999999752096816e-9,2,1
6,-9.999999752090308e-9,2,1
14,-9.999999752096811e-9,2,1
7,-9.999999752095645e-9,2,1
8,-9.999999752095645e-9,2,1
19,-9.999999752096814e-9,2,1
4,-9.999999752095645e-9,2,1
22,-9.999999752090308e-9,2,1
11,-9.999999752095645e-9,2,1
35,-9.999999752095645e-9,2,1
13,-9.999999752095645e-9,2,1
15,-9.99999975209681e-9,2,1
16,-9.99999975209684e-9,2,1
40,-9.999999752096823e-9,2,1
46,-9.999999752095645e-9,2,1
21,-9.999999752095645e-9,2,1
38,-9.999999752096828e-9,2,1
45,-9.999999752095645e-9,2,1
36,-9.999999752095645e-9,2,1
48,-9.999999752096934e-9,2,1
18,-9.999999752096811e-9,2,1
30,-9.999999752095645e-9,2,1
3,-9.999999752095645e-9,2,1
32,-9.999999574710286e-9,3,1
29,-9.999999574710286e-9,3,1
1,-9.999999574710286e-9,3,1
2,-9.999999574710286e-9,3,1
41,-9.999999574713752e-9,3,1
27,-9.999999574710286e-9,3,1
42,-9.999999574713752e-9,3,1
33,-9.999999574710286e-9,3,1
28,-9.999999574710286e-9,3,1
26,-9.999999574710286e-9,3,1
10,-9.999999574710286e-9,3,1
24,-9.99999957469458e-9,3,1
25,-9.99999957469458e-9,3,1
23,-9.99999957469458e-9,3,1
49,-9.999999574714078e-9,3,1
5,-9.999999574710286e-9,3,1
31,-9.99999957469458e-9,3,1
43,-9.999999574713752e-9,3,1
39,-9.999999574713845e-9,3,1
34,-9.999999574710286e-9,3,1
44,-9.999999574713752e-9,3,1
17,-9.9999995747138e-9,3,1
37,-9.999999574714477e-9,3,1
47,-9.999999574700127e-9,3,1
9,-9.999999574710286e-9,3,1
12,-9.999999574710286e-9,3,1
20,-9.999999574713736e-9,3,1
6,-9.99999957469458e-9,3,1
14,-9.999999574713722e-9,3,1
7,-9.999999574710286e-9,3,1
8,-9.999999574710286e-9,3,1
19,-9.999999574713727e-9,3,1
4,-9.999999574710286e-9,3,1
22,-9.99999957469458e-9,3,1
11,-9.999999574710286e-9,3,1
35,-9.999999574710286e-9,3,1
13,-9.999999574710286e-9,3,1
15,-9.999999574713712e-9,3,1
16,-9.9999995747138e-9,3,1
40,-9.999999574713752e-9,3,1
46,-9.999999574710286e-9,3,1
21,-9.999999574710286e-9,3,1
38,-9.999999574713767e-9,3,1
45,-9.999999574710286e-9,3,1
36,-9.999999574710286e-9,3,1
48,-9.999999574714078e-9,3,1
18,-9.999999574713717e-9,3,1
30,-9.999999574710286e-9,3,1
3,-9.999999574710286e-9,3,1
32,-9.999999694891865e-9,4,1
29,-9.999999694891865e-9,4,1
1,-9.999999694891865e-9,4,1
2,-9.999999694891865e-9,4,1
41,-9.99999969489365e-9,4,1
27,-9.999999694891865e-9,4,1
42,-9.99999969489365e-9,4,1
33,-9.999999694891865e-9,4,1
28,-9.999999694891865e-9,4,1
26,-9.999999694891865e-9,4,1
10,-9.999999694891865e-9,4,1
24,-9.999999694883782e-9,4,1
25,-9.999999694883782e-9,4,1
23,-9.999999694883782e-9,4,1
49,-9.999999694893818e-9,4,1
5,-9.999999694891865e-9,4,1
31,-9.999999694883782e-9,4,1
43,-9.99999969489365e-9,4,1
39,-9.999999694893697e-9,4,1
34,-9.999999694891865e-9,4,1
44,-9.99999969489365e-9,4,1
17,-9.999999694893675e-9,4,1
37,-9.999999694894023e-9,4,1
47,-9.999999694886638e-9,4,1
9,-9.999999694891865e-9,4,1
12,-9.999999694891865e-9,4,1
20,-9.99999969489364e-9,4,1
6,-9.999999694883782e-9,4,1
14,-9.999999694893634e-9,4,1
7,-9.999999694891865e-9,4,1
8,-9.999999694891865e-9,4,1
19,-9.999999694893637e-9,4,1
4,-9.999999694891865e-9,4,1
22,-9.999999694883782e-9,4,1
11,-9.999999694891865e-9,4,1
35,-9.999999694891865e-9,4,1
13,-9.999999694891865e-9,4,1
15,-9.999999694893629e-9,4,1
16,-9.999999694893675e-9,4,1
40,-9.99999969489365e-9,4,1
46,-9.999999694891865e-9,4,1
21,-9.999999694891865e-9,4,1
38,-9.999999694893657e-9,4,1
45,-9.999999694891865e-9,4,1
36,-9.999999694891865e-9,4,1
48,-9.999999694893818e-9,4,1
18,-9.999999694893632e-9,4,1
30,-9.999999694891865e-9,4,1
3,-9.999999694891865e-9,4,1
32,-9.999999648820848e-9,5,1
29,-9.999999648820848e-9,5,1
1,-9.999999648820848e-9,5,1
2,-9.999999648820848e-9,5,1
41,-9.99999964882321e-9,5,1
27,-9.999999648820848e-9,5,1
42,-9.99999964882321e-9,5,1
33,-9.999999648820848e-9,5,1
28,-9.999999648820848e-9,5,1
26,-9.999999648820848e-9,5,1
10,-9.999999648820848e-9,5,1
24,-9.99999964881014e-9,5,1
25,-9.99999964881014e-9,5,1
23,-9.99999964881014e-9,5,1
49,-9.999999648823434e-9,5,1
5,-9.999999648820848e-9,5,1
31,-9.99999964881014e-9,5,1
43,-9.99999964882321e-9,5,1
39,-9.999999648823275e-9,5,1
34,-9.999999648820848e-9,5,1
44,-9.99999964882321e-9,5,1
17,-9.999999648823244e-9,5,1
37,-9.999999648823705e-9,5,1
47,-9.999999648813922e-9,5,1
9,-9.999999648820848e-9,5,1
12,-9.999999648820848e-9,5,1
20,-9.9999996488232e-9,5,1
6,-9.99999964881014e-9,5,1
14,-9.999999648823191e-9,5,1
7,-9.999999648820848e-9,5,1
8,-9.999999648820848e-9,5,1
19,-9.999999648823194e-9,5,1
4,-9.999999648820848e-9,5,1
22,-9.99999964881014e-9,5,1
11,-9.999999648820848e-9,5,1
35,-9.999999648820848e-9,5,1
13,-9.999999648820848e-9,5,1
15,-9.999999648823184e-9,5,1
16,-9.999999648823244e-9,5,1
40,-9.99999964882321e-9,5,1
46,-9.999999648820848e-9,5,1
21,-9.999999648820848e-9,5,1
38,-9.99999964882322e-9,5,1
45,-9.999999648820848e-9,5,1
36,-9.999999648820848e-9,5,1
48,-9.999999648823434e-9,5,1
18,-9.999999648823188e-9,5,1
30,-9.999999648820848e-9,5,1
3,-9.999999648820848e-9,5,1
32,-9.999999798122219e-9,6,1
29,-9.999999798122219e-9,6,1
1,-9.999999798122219e-9,6,1
2,-9.999999798122219e-9,6,1
41,-9.999999798123e-9,6,1
27,-9.999999798122219e-9,6,1
42,-9.999999798123e-9,6,1
33,-9.999999798122219e-9,6,1
28,-9.999999798122219e-9,6,1
26,-9.999999798122219e-9,6,1
10,-9.999999798122219e-9,6,1
24,-9.99999979811868e-9,6,1
25,-9.99999979811868e-9,6,1
23,-9.99999979811868e-9,6,1
49,-9.999999798123074e-9,6,1
5,-9.999999798122219e-9,6,1
31,-9.99999979811868e-9,6,1
43,-9.999999798123e-9,6,1
39,-9.999999798123021e-9,6,1
34,-9.999999798122219e-9,6,1
44,-9.999999798123e-9,6,1
17,-9.999999798123012e-9,6,1
37,-9.999999798123164e-9,6,1
47,-9.99999979811993e-9,6,1
9,-9.999999798122219e-9,6,1
12,-9.999999798122219e-9,6,1
20,-9.999999798122997e-9,6,1
6,-9.99999979811868e-9,6,1
14,-9.999999798122993e-9,6,1
7,-9.999999798122219e-9,6,1
8,-9.999999798122219e-9,6,1
19,-9.999999798122995e-9,6,1
4,-9.999999798122219e-9,6,1
22,-9.99999979811868e-9,6,1
11,-9.999999798122219e-9,6,1
35,-9.999999798122219e-9,6,1
13,-9.999999798122219e-9,6,1
15,-9.999999798122992e-9,6,1
16,-9.999999798123012e-9,6,1
40,-9.999999798123e-9,6,1
46,-9.999999798122219e-9,6,1
21,-9.999999798122219e-9,6,1
38,-9.999999798123003e-9,6,1
45,-9.999999798122219e-9,6,1
36,-9.999999798122219e-9,6,1
48,-9.999999798123074e-9,6,1
18,-9.999999798122992e-9,6,1
30,-9.999999798122219e-9,6,1
3,-9.999999798122219e-9,6,1
32,-9.999999697356144e-9,7,1
29,-9.999999697356144e-9,7,1
1,-9.999999697356144e-9,7,1
2,-9.999999697356144e-9,7,1
41,-9.999999697357901e-9,7,1
27,-9.999999697356144e-9,7,1
42,-9.999999697357901e-9,7,1
33,-9.999999697356144e-9,7,1
28,-9.999999697356144e-9,7,1
26,-9.999999697356144e-9,7,1
10,-9.999999697356144e-9,7,1
24,-9.999999697348191e-9,7,1
25,-9.999999697348191e-9,7,1
23,-9.999999697348191e-9,7,1
49,-9.999999697358065e-9,7,1
5,-9.999999697356144e-9,7,1
31,-9.999999697348191e-9,7,1
43,-9.999999697357901e-9,7,1
39,-9.999999697357947e-9,7,1
34,-9.999999697356144e-9,7,1
44,-9.999999697357901e-9,7,1
17,-9.999999697357924e-9,7,1
37,-9.999999697358266e-9,7,1
47,-9.999999697351e-9,7,1
9,-9.999999697356144e-9,7,1
12,-9.999999697356144e-9,7,1
20,-9.999999697357891e-9,7,1
6,-9.999999697348191e-9,7,1
14,-9.999999697357884e-9,7,1
7,-9.999999697356144e-9,7,1
8,-9.999999697356144e-9,7,1
19,-9.999999697357888e-9,7,1
4,-9.999999697356144e-9,7,1
22,-9.999999697348191e-9,7,1
11,-9.999999697356144e-9,7,1
35,-9.999999697356144e-9,7,1
13,-9.999999697356144e-9,7,1
15,-9.99999969735788e-9,7,1
16,-9.999999697357924e-9,7,1
40,-9.999999697357901e-9,7,1
46,-9.999999697356144e-9,7,1
21,-9.999999697356144e-9,7,1
38,-9.999999697357907e-9,7,1
45,-9.999999697356144e-9,7,1
36,-9.999999697356144e-9,7,1
48,-9.999999697358065e-9,7,1
18,-9.999999697357883e-9,7,1
30,-9.999999697356144e-9,7,1
3,-9.999999697356144e-9,7,1
32,-9.999999666270817e-9,8,1
29,-9.999999666270817e-9,8,1
1,-9.999999666270817e-9,8,1
2,-9.999999666270817e-9,8,1
41,-9.999999666272953e-9,8,1
27,-9.999999666270817e-9,8,1
42,-9.999999666272953e-9,8,1
33,-9.999999666270817e-9,8,1
28,-9.999999666270817e-9,8,1
26,-9.999999666270817e-9,8,1
10,-9.999999666270817e-9,8,1
24,-9.999999666261148e-9,8,1
25,-9.999999666261148e-9,8,1
23,-9.999999666261148e-9,8,1
49,-9.999999666273153e-9,8,1
5,-9.999999666270817e-9,8,1
31,-9.999999666261148e-9,8,1
43,-9.999999666272953e-9,8,1
39,-9.99999966627301e-9,8,1
34,-9.999999666270817e-9,8,1
44,-9.999999666272953e-9,8,1
17,-9.999999666272983e-9,8,1
37,-9.999999666273398e-9,8,1
47,-9.999999666264562e-9,8,1
9,-9.999999666270817e-9,8,1
12,-9.999999666270817e-9,8,1
20,-9.999999666272941e-9,8,1
6,-9.999999666261148e-9,8,1
14,-9.999999666272933e-9,8,1
7,-9.999999666270817e-9,8,1
8,-9.999999666270817e-9,8,1
19,-9.999999666272937e-9,8,1
4,-9.999999666270817e-9,8,1
22,-9.999999666261148e-9,8,1
11,-9.999999666270817e-9,8,1
35,-9.999999666270817e-9,8,1
13,-9.999999666270817e-9,8,1
15,-9.999999666272928e-9,8,1
16,-9.999999666272983e-9,8,1
40,-9.999999666272953e-9,8,1
46,-9.999999666270817e-9,8,1
21,-9.999999666270817e-9,8,1
38,-9.999999666272961e-9,8,1
45,-9.999999666270817e-9,8,1
36,-9.999999666270817e-9,8,1
48,-9.999999666273153e-9,8,1
18,-9.999999666272932e-9,8,1
30,-9.999999666270817e-9,8,1
3,-9.999999666270817e-9,8,1
32,-9.999999660451698e-9,9,1
29,-9.999999660451698e-9,9,1
1,-9.999999660451698e-9,9,1
2,-9.999999660451698e-9,9,1
41,-9.999999660453908e-9,9,1
27,-9.999999660451698e-9,9,1
42,-9.999999660453908e-9,9,1
33,-9.999999660451698e-9,9,1
28,-9.999999660451698e-9,9,1
26,-9.999999660451698e-9,9,1
10,-9.999999660451698e-9,9,1
24,-9.999999660441685e-9,9,1
25,-9.999999660441685e-9,9,1
23,-9.999999660441685e-9,9,1
49,-9.999999660454115e-9,9,1
5,-9.999999660451698e-9,9,1
31,-9.999999660441685e-9,9,1
43,-9.999999660453908e-9,9,1
39,-9.999999660453966e-9,9,1
34,-9.999999660451698e-9,9,1
44,-9.999999660453908e-9,9,1
17,-9.999999660453938e-9,9,1
37,-9.99999966045437e-9,9,1
47,-9.999999660445222e-9,9,1
9,-9.999999660451698e-9,9,1
12,-9.999999660451698e-9,9,1
20,-9.999999660453896e-9,9,1
6,-9.999999660441685e-9,9,1
14,-9.999999660453888e-9,9,1
7,-9.999999660451698e-9,9,1
8,-9.999999660451698e-9,9,1
19,-9.999999660453891e-9,9,1
4,-9.999999660451698e-9,9,1
22,-9.999999660441685e-9,9,1
11,-9.999999660451698e-9,9,1
35,-9.999999660451698e-9,9,1
13,-9.999999660451698e-9,9,1
15,-9.999999660453881e-9,9,1
16,-9.999999660453938e-9,9,1
40,-9.999999660453908e-9,9,1
46,-9.999999660451698e-9,9,1
21,-9.999999660451698e-9,9,1
38,-9.999999660453916e-9,9,1
45,-9.999999660451698e-9,9,1
36,-9.999999660451698e-9,9,1
48,-9.999999660454115e-9,9,1
18,-9.999999660453885e-9,9,1
30,-9.999999660451698e-9,9,1
3,-9.999999660451698e-9,9,1
32,-9.999999695445982e-9,10,1
29,-9.999999695445982e-9,10,1
1,-9.999999695445982e-9,10,1
2,-9.999999695445982e-9,10,1
41,-9.99999969544776e-9,10,1
27,-9.999999695445982e-9,10,1
42,-9.99999969544776e-9,10,1
33,-9.999999695445982e-9,10,1
28,-9.999999695445982e-9,10,1
26,-9.999999695445982e-9,10,1
10,-9.999999695445982e-9,10,1
24,-9.999999695437929e-9,10,1
25,-9.999999695437929e-9,10,1
23,-9.999999695437929e-9,10,1
49,-9.999999695447928e-9,10,1
5,-9.999999695445982e-9,10,1
31,-9.999999695437929e-9,10,1
43,-9.99999969544776e-9,10,1
39,-9.999999695447807e-9,10,1
34,-9.999999695445982e-9,10,1
44,-9.99999969544776e-9,10,1
17,-9.999999695447784e-9,10,1
37,-9.999999695448131e-9,10,1
47,-9.999999695440772e-9,10,1
9,-9.999999695445982e-9,10,1
12,-9.999999695445982e-9,10,1
20,-9.99999969544775e-9,10,1
6,-9.999999695437929e-9,10,1
14,-9.999999695447744e-9,10,1
7,-9.999999695445982e-9,10,1
8,-9.999999695445982e-9,10,1
19,-9.999999695447747e-9,10,1
4,-9.999999695445982e-9,10,1
22,-9.999999695437929e-9,10,1
11,-9.999999695445982e-9,10,1
35,-9.999999695445982e-9,10,1
13,-9.999999695445982e-9,10,1
15,-9.999999695447739e-9,10,1
16,-9.999999695447784e-9,10,1
40,-9.99999969544776e-9,10,1
46,-9.999999695445982e-9,10,1
21,-9.999999695445982e-9,10,1
38,-9.999999695447767e-9,10,1
45,-9.999999695445982e-9,10,1
36,-9.999999695445982e-9,10,1
48,-9.999999695447928e-9,10,1
18,-9.999999695447742e-9,10,1
30,-9.999999695445982e-9,10,1
3,-9.999999695445982e-9,10,1
32,-9.99999980306194e-9,11,1
29,-9.99999980306194e-9,11,1
1,-9.99999980306194e-9,11,1
2,-9.99999980306194e-9,11,1
41,-9.999999803062683e-9,11,1
27,-9.99999980306194e-9,11,1
42,-9.999999803062683e-9,11,1
33,-9.99999980306194e-9,11,1
28,-9.99999980306194e-9,11,1
26,-9.99999980306194e-9,11,1
10,-9.99999980306194e-9,11,1
24,-9.999999803058572e-9,11,1
25,-9.999999803058572e-9,11,1
23,-9.999999803058572e-9,11,1
49,-9.999999803062752e-9,11,1
5,-9.99999980306194e-9,11,1
31,-9.999999803058572e-9,11,1
43,-9.999999803062683e-9,11,1
39,-9.999999803062703e-9,11,1
34,-9.99999980306194e-9,11,1
44,-9.999999803062683e-9,11,1
17,-9.999999803062693e-9,11,1
37,-9.999999803062838e-9,11,1
47,-9.999999803059761e-9,11,1
9,-9.99999980306194e-9,11,1
12,-9.99999980306194e-9,11,1
20,-9.99999980306268e-9,11,1
6,-9.999999803058572e-9,11,1
14,-9.999999803062676e-9,11,1
7,-9.99999980306194e-9,11,1
8,-9.99999980306194e-9,11,1
19,-9.999999803062678e-9,11,1
4,-9.99999980306194e-9,11,1
22,-9.999999803058572e-9,11,1
11,-9.99999980306194e-9,11,1
35,-9.99999980306194e-9,11,1
13,-9.99999980306194e-9,11,1
15,-9.999999803062674e-9,11,1
16,-9.999999803062693e-9,11,1
40,-9.999999803062683e-9,11,1
46,-9.99999980306194e-9,11,1
21,-9.99999980306194e-9,11,1
38,-9.999999803062686e-9,11,1
45,-9.99999980306194e-9,11,1
36,-9.99999980306194e-9,11,1
48,-9.999999803062752e-9,11,1
18,-9.999999803062674e-9,11,1
30,-9.99999980306194e-9,11,1
3,-9.99999980306194e-9,11,1
32,-9.999999654092396e-9,12,1
29,-9.999999654092396e-9,12,1
1,-9.999999654092396e-9,12,1
2,-9.999999654092396e-9,12,1
41,-9.99999965409469e-9,12,1
27,-9.999999654092396e-9,12,1
42,-9.99999965409469e-9,12,1
33,-9.999999654092396e-9,12,1
28,-9.999999654092396e-9,12,1
26,-9.999999654092396e-9,12,1
10,-9.999999654092396e-9,12,1
24,-9.999999654082007e-9,12,1
25,-9.999999654082007e-9,12,1
23,-9.999999654082007e-9,12,1
49,-9.999999654094906e-9,12,1
5,-9.999999654092396e-9,12,1
31,-9.999999654082007e-9,12,1
43,-9.99999965409469e-9,12,1
39,-9.999999654094752e-9,12,1
34,-9.999999654092396e-9,12,1
44,-9.99999965409469e-9,12,1
17,-9.999999654094722e-9,12,1
37,-9.999999654095169e-9,12,1
47,-9.999999654081168e-9,12,1
9,-9.999999654092396e-9,12,1
12,-9.999999654092396e-9,12,1
20,-9.999999654094679e-9,12,1
6,-9.999999654082007e-9,12,1
14,-9.999999654094669e-9,12,1
7,-9.999999654092396e-9,12,1
8,-9.999999654092396e-9,12,1
19,-9.999999654094674e-9,12,1
4,-9.999999654092396e-9,12,1
22,-9.999999654082007e-9,12,1
11,-9.999999654092396e-9,12,1
35,-9.999999654092396e-9,12,1
13,-9.999999654092396e-9,12,1
15,-9.999999654094664e-9,12,1
16,-9.999999654094722e-9,12,1
40,-9.99999965409469e-9,12,1
46,-9.999999654092396e-9,12,1
21,-9.999999654092396e-9,12,1
38,-9.999999654094699e-9,12,1
45,-9.999999654092396e-9,12,1
36,-9.999999654092396e-9,12,1
48,-9.999999654094906e-9,12,1
18,-9.999999654094667e-9,12,1
30,-9.999999654092396e-9,12,1
3,-9.999999654092396e-9,12,1
32,0.05400000994761572,13,1
29,4.464000044549323,13,1
1,0.045300009947659314,13,1
2,0.045300009947659314,13,1
41,0.011955003648350802,13,1
27,1.3005000129455155,13,1
42,0.011955003586845196,13,1
33,0.772200009943747,13,1
28,1.3005000129455155,13,1
26,1.3005000129455155,13,1
10,0.27920000994646116,13,1
24,0.01400000999056768,13,1
25,1.3350000133405677,13,1
23,1.5480000154705678,13,1
49,-9.437804808610267e-9,13,1
5,0.09070000994743097,13,1
31,0.9240000099905677,13,1
43,0.011955003592955989,13,1
39,-7.95887187551132e-9,13,1
34,0.772200009943747,13,1
44,0.01195500346218654,13,1
17,-5.885476231382166e-9,13,1
37,-9.748838368554957e-9,13,1
47,1.138300001356455,13,1
9,0.27920000994646116,13,1
12,0.27920000994646116,13,1
20,0.06284034038437013,13,1
6,0.8650000099905677,13,1
14,0.04000000146022166,13,1
7,0.0470000099476508,13,1
8,0.27920000994646116,13,1
19,0.0499999949069711,13,1
4,0.045300009947659314,13,1
22,0.6760000099905676,13,1
11,0.27920000994646116,13,1
35,0.772200009943747,13,1
13,0.27920000994646116,13,1
15,0.02400000492089785,13,1
16,-5.885476288844544e-9,13,1
40,0.011955003640522717,13,1
46,0.2660000099465302,13,1
21,0.18000000994697593,13,1
38,6.6045235111804285e-9,13,1
45,0.1750000099470016,13,1
36,0.772200009943747,13,1
48,-9.437804808608932e-9,13,1
18,0.032000003538220724,13,1
30,4.464000044549323,13,1
3,0.045300009947659314,13,1
32,-9.9999996595261e-9,14,1
29,-9.9999996595261e-9,14,1
1,-9.9999996595261e-9,14,1
2,-9.9999996595261e-9,14,1
41,-9.999999659528323e-9,14,1
27,-9.9999996595261e-9,14,1
42,-9.999999659528323e-9,14,1
33,-9.9999996595261e-9,14,1
28,-9.9999996595261e-9,14,1
26,-9.9999996595261e-9,14,1
10,-9.9999996595261e-9,14,1
24,-9.999999659516034e-9,14,1
25,-9.999999659516034e-9,14,1
23,-9.999999659516034e-9,14,1
49,-9.999999659528531e-9,14,1
5,-9.9999996595261e-9,14,1
31,-9.999999659516034e-9,14,1
43,-9.999999659528323e-9,14,1
39,-9.99999965952838e-9,14,1
34,-9.9999996595261e-9,14,1
44,-9.999999659528323e-9,14,1
17,-9.999999659528352e-9,14,1
37,-9.999999659528786e-9,14,1
47,-9.999999659515222e-9,14,1
9,-9.9999996595261e-9,14,1
12,-9.9999996595261e-9,14,1
20,-9.999999659528311e-9,14,1
6,-9.999999659516034e-9,14,1
14,-9.999999659528303e-9,14,1
7,-9.9999996595261e-9,14,1
8,-9.9999996595261e-9,14,1
19,-9.999999659528306e-9,14,1
4,-9.9999996595261e-9,14,1
22,-9.999999659516034e-9,14,1
11,-9.9999996595261e-9,14,1
35,-9.9999996595261e-9,14,1
13,-9.9999996595261e-9,14,1
15,-9.999999659528296e-9,14,1
16,-9.999999659528352e-9,14,1
40,-9.999999659528323e-9,14,1
46,-9.9999996595261e-9,14,1
21,-9.9999996595261e-9,14,1
38,-9.99999965952833e-9,14,1
45,-9.9999996595261e-9,14,1
36,-9.9999996595261e-9,14,1
48,-9.999999659528531e-9,14,1
18,-9.9999996595283e-9,14,1
30,-9.9999996595261e-9,14,1
3,-9.9999996595261e-9,14,1
32,-9.999999696005699e-9,15,1
29,-9.999999696005699e-9,15,1
1,-9.999999696005699e-9,15,1
2,-9.999999696005699e-9,15,1
41,-9.99999969600747e-9,15,1
27,-9.999999696005699e-9,15,1
42,-9.99999969600747e-9,15,1
33,-9.999999696005699e-9,15,1
28,-9.999999696005699e-9,15,1
26,-9.999999696005699e-9,15,1
10,-9.999999696005699e-9,15,1
24,-9.999999695997673e-9,15,1
25,-9.999999695997673e-9,15,1
23,-9.999999695997673e-9,15,1
49,-9.999999696007636e-9,15,1
5,-9.999999696005699e-9,15,1
31,-9.999999695997673e-9,15,1
43,-9.99999969600747e-9,15,1
39,-9.999999696007517e-9,15,1
34,-9.999999696005699e-9,15,1
44,-9.99999969600747e-9,15,1
17,-9.999999696007494e-9,15,1
37,-9.99999969600784e-9,15,1
47,-9.999999696000507e-9,15,1
9,-9.999999696005699e-9,15,1
12,-9.999999696005699e-9,15,1
20,-9.99999969600746e-9,15,1
6,-9.999999695997673e-9,15,1
14,-9.999999696007454e-9,15,1
7,-9.999999696005699e-9,15,1
8,-9.999999696005699e-9,15,1
19,-9.999999696007457e-9,15,1
4,-9.999999696005699e-9,15,1
22,-9.999999695997673e-9,15,1
11,-9.999999696005699e-9,15,1
35,-9.999999696005699e-9,15,1
13,-9.999999696005699e-9,15,1
15,-9.999999696007449e-9,15,1
16,-9.999999696007494e-9,15,1
40,-9.99999969600747e-9,15,1
46,-9.999999696005699e-9,15,1
21,-9.999999696005699e-9,15,1
38,-9.999999696007477e-9,15,1
45,-9.999999696005699e-9,15,1
36,-9.999999696005699e-9,15,1
48,-9.999999696007636e-9,15,1
18,-9.999999696007452e-9,15,1
30,-9.999999696005699e-9,15,1
3,-9.999999696005699e-9,15,1
32,-9.999999688787625e-9,16,1
29,-9.999999688787625e-9,16,1
1,-9.999999688787625e-9,16,1
2,-9.999999688787625e-9,16,1
41,-9.999999688789481e-9,16,1
27,-9.999999688787625e-9,16,1
42,-9.999999688789481e-9,16,1
33,-9.999999688787625e-9,16,1
28,-9.999999688787625e-9,16,1
26,-9.999999688787625e-9,16,1
10,-9.999999688787625e-9,16,1
24,-9.999999688779214e-9,16,1
25,-9.999999688779214e-9,16,1
23,-9.999999688779214e-9,16,1
49,-9.999999688789655e-9,16,1
5,-9.999999688787625e-9,16,1
31,-9.999999688779214e-9,16,1
43,-9.999999688789481e-9,16,1
39,-9.99999968878953e-9,16,1
34,-9.999999688787625e-9,16,1
44,-9.999999688789481e-9,16,1
17,-9.999999688789506e-9,16,1
37,-9.999999688789868e-9,16,1
47,-9.999999688782185e-9,16,1
9,-9.999999688787625e-9,16,1
12,-9.999999688787625e-9,16,1
20,-9.999999688789471e-9,16,1
6,-9.999999688779214e-9,16,1
14,-9.999999688789464e-9,16,1
7,-9.999999688787625e-9,16,1
8,-9.999999688787625e-9,16,1
19,-9.999999688789468e-9,16,1
4,-9.999999688787625e-9,16,1
22,-9.999999688779214e-9,16,1
11,-9.999999688787625e-9,16,1
35,-9.999999688787625e-9,16,1
13,-9.999999688787625e-9,16,1
15,-9.99999968878946e-9,16,1
16,-9.999999688789506e-9,16,1
40,-9.999999688789481e-9,16,1
46,-9.999999688787625e-9,16,1
21,-9.999999688787625e-9,16,1
38,-9.999999688789488e-9,16,1
45,-9.999999688787625e-9,16,1
36,-9.999999688787625e-9,16,1
48,-9.999999688789655e-9,16,1
18,-9.999999688789463e-9,16,1
30,-9.999999688787625e-9,16,1
3,-9.999999688787625e-9,16,1
32,-9.999999651465553e-9,17,1
29,-9.999999651465553e-9,17,1
1,-9.999999651465553e-9,17,1
2,-9.999999651465553e-9,17,1
41,-9.999999651467883e-9,17,1
27,-9.999999651465553e-9,17,1
42,-9.999999651467883e-9,17,1
33,-9.999999651465553e-9,17,1
28,-9.999999651465553e-9,17,1
26,-9.999999651465553e-9,17,1
10,-9.999999651465553e-9,17,1
24,-9.999999651455007e-9,17,1
25,-9.999999651455007e-9,17,1
23,-9.999999651455007e-9,17,1
49,-9.999999651468101e-9,17,1
5,-9.999999651465553e-9,17,1
31,-9.999999651455007e-9,17,1
43,-9.999999651467883e-9,17,1
39,-9.999999651467944e-9,17,1
34,-9.999999651465553e-9,17,1
44,-9.999999651467883e-9,17,1
17,-9.999999651467914e-9,17,1
37,-9.999999651468369e-9,17,1
47,-9.99999965145873e-9,17,1
9,-9.999999651465553e-9,17,1
12,-9.999999651465553e-9,17,1
20,-9.999999651467871e-9,17,1
6,-9.999999651455007e-9,17,1
14,-9.999999651467861e-9,17,1
7,-9.999999651465553e-9,17,1
8,-9.999999651465553e-9,17,1
19,-9.999999651467866e-9,17,1
4,-9.999999651465553e-9,17,1
22,-9.999999651455007e-9,17,1
11,-9.999999651465553e-9,17,1
35,-9.999999651465553e-9,17,1
13,-9.999999651465553e-9,17,1
15,-9.999999651467856e-9,17,1
16,-9.999999651467914e-9,17,1
40,-9.999999651467883e-9,17,1
46,-9.999999651465553e-9,17,1
21,-9.999999651465553e-9,17,1
38,-9.999999651467892e-9,17,1
45,-9.999999651465553e-9,17,1
36,-9.999999651465553e-9,17,1
48,-9.999999651468101e-9,17,1
18,-9.99999965146786e-9,17,1
30,-9.999999651465553e-9,17,1
3,-9.999999651465553e-9,17,1
32,-9.99999968450923e-9,18,1
29,-9.99999968450923e-9,18,1
1,-9.99999968450923e-9,18,1
2,-9.99999968450923e-9,18,1
41,-9.999999684511137e-9,18,1
27,-9.99999968450923e-9,18,1
42,-9.999999684511137e-9,18,1
33,-9.99999968450923e-9,18,1
28,-9.99999968450923e-9,18,1
26,-9.99999968450923e-9,18,1
10,-9.99999968450923e-9,18,1
24,-9.999999684500588e-9,18,1
25,-9.999999684500588e-9,18,1
23,-9.999999684500588e-9,18,1
49,-9.999999684511318e-9,18,1
5,-9.99999968450923e-9,18,1
31,-9.999999684500588e-9,18,1
43,-9.999999684511137e-9,18,1
39,-9.999999684511189e-9,18,1
34,-9.99999968450923e-9,18,1
44,-9.999999684511137e-9,18,1
17,-9.999999684511164e-9,18,1
37,-9.999999684511536e-9,18,1
47,-9.99999968450364e-9,18,1
9,-9.99999968450923e-9,18,1
12,-9.99999968450923e-9,18,1
20,-9.999999684511129e-9,18,1
6,-9.999999684500588e-9,18,1
14,-9.999999684511121e-9,18,1
7,-9.99999968450923e-9,18,1
8,-9.99999968450923e-9,18,1
19,-9.999999684511124e-9,18,1
4,-9.99999968450923e-9,18,1
22,-9.999999684500588e-9,18,1
11,-9.99999968450923e-9,18,1
35,-9.99999968450923e-9,18,1
13,-9.99999968450923e-9,18,1
15,-9.999999684511116e-9,18,1
16,-9.999999684511164e-9,18,1
40,-9.999999684511137e-9,18,1
46,-9.99999968450923e-9,18,1
21,-9.99999968450923e-9,18,1
38,-9.999999684511146e-9,18,1
45,-9.99999968450923e-9,18,1
36,-9.99999968450923e-9,18,1
48,-9.999999684511318e-9,18,1
18,-9.99999968451112e-9,18,1
30,-9.99999968450923e-9,18,1
3,-9.99999968450923e-9,18,1
32,-9.99999972447299e-9,19,1
29,-9.99999972447299e-9,19,1
1,-9.99999972447299e-9,19,1
2,-9.99999972447299e-9,19,1
41,-9.999999724474445e-9,19,1
27,-9.99999972447299e-9,19,1
42,-9.999999724474445e-9,19,1
33,-9.99999972447299e-9,19,1
28,-9.99999972447299e-9,19,1
26,-9.99999972447299e-9,19,1
10,-9.99999972447299e-9,19,1
24,-9.999999724466398e-9,19,1
25,-9.999999724466398e-9,19,1
23,-9.999999724466398e-9,19,1
49,-9.999999724474582e-9,19,1
5,-9.99999972447299e-9,19,1
31,-9.999999724466398e-9,19,1
43,-9.999999724474445e-9,19,1
39,-9.999999724474484e-9,19,1
34,-9.99999972447299e-9,19,1
44,-9.999999724474445e-9,19,1
17,-9.999999724474466e-9,19,1
37,-9.999999724474749e-9,19,1
47,-9.999999724468727e-9,19,1
9,-9.99999972447299e-9,19,1
12,-9.99999972447299e-9,19,1
20,-9.999999724474438e-9,19,1
6,-9.999999724466398e-9,19,1
14,-9.999999724474433e-9,19,1
7,-9.99999972447299e-9,19,1
8,-9.99999972447299e-9,19,1
19,-9.999999724474435e-9,19,1
4,-9.99999972447299e-9,19,1
22,-9.999999724466398e-9,19,1
11,-9.99999972447299e-9,19,1
35,-9.99999972447299e-9,19,1
13,-9.99999972447299e-9,19,1
15,-9.999999724474428e-9,19,1
16,-9.999999724474466e-9,19,1
40,-9.999999724474445e-9,19,1
46,-9.99999972447299e-9,19,1
21,-9.99999972447299e-9,19,1
38,-9.999999724474451e-9,19,1
45,-9.99999972447299e-9,19,1
36,-9.99999972447299e-9,19,1
48,-9.999999724474582e-9,19,1
18,-9.999999724474431e-9,19,1
30,-9.99999972447299e-9,19,1
3,-9.99999972447299e-9,19,1
32,-9.999999649952233e-9,20,1
29,-9.999999649952233e-9,20,1
1,-9.999999649952233e-9,20,1
2,-9.999999649952233e-9,20,1
41,-9.999999649954582e-9,20,1
27,-9.999999649952233e-9,20,1
42,-9.999999649954582e-9,20,1
33,-9.999999649952233e-9,20,1
28,-9.999999649952233e-9,20,1
26,-9.999999649952233e-9,20,1
10,-9.999999649952233e-9,20,1
24,-9.999999649941594e-9,20,1
25,-9.999999649941594e-9,20,1
23,-9.999999649941594e-9,20,1
49,-9.999999649954802e-9,20,1
5,-9.999999649952233e-9,20,1
31,-9.999999649941594e-9,20,1
43,-9.999999649954582e-9,20,1
39,-9.999999649954645e-9,20,1
34,-9.999999649952233e-9,20,1
44,-9.999999649954582e-9,20,1
17,-9.999999649954615e-9,20,1
37,-9.999999649955073e-9,20,1
47,-9.99999964994535e-9,20,1
9,-9.999999649952233e-9,20,1
12,-9.999999649952233e-9,20,1
20,-9.99999964995457e-9,20,1
6,-9.999999649941594e-9,20,1
14,-9.99999964995456e-9,20,1
7,-9.999999649952233e-9,20,1
8,-9.999999649952233e-9,20,1
19,-9.999999649954566e-9,20,1
4,-9.999999649952233e-9,20,1
22,-9.999999649941594e-9,20,1
11,-9.999999649952233e-9,20,1
35,-9.999999649952233e-9,20,1
13,-9.999999649952233e-9,20,1
15,-9.999999649954556e-9,20,1
16,-9.999999649954615e-9,20,1
40,-9.999999649954582e-9,20,1
46,-9.999999649952233e-9,20,1
21,-9.999999649952233e-9,20,1
38,-9.999999649954592e-9,20,1
45,-9.999999649952233e-9,20,1
36,-9.999999649952233e-9,20,1
48,-9.999999649954802e-9,20,1
18,-9.999999649954559e-9,20,1
30,-9.999999649952233e-9,20,1
3,-9.999999649952233e-9,20,1
32,-9.999999690916055e-9,21,1
29,-9.999999690916055e-9,21,1
1,-9.999999690916055e-9,21,1
2,-9.999999690916055e-9,21,1
41,-9.999999690917886e-9,21,1
27,-9.999999690916055e-9,21,1
42,-9.999999690917886e-9,21,1
33,-9.999999690916055e-9,21,1
28,-9.999999690916055e-9,21,1
26,-9.999999690916055e-9,21,1
10,-9.999999690916055e-9,21,1
24,-9.99999969090776e-9,21,1
25,-9.99999969090776e-9,21,1
23,-9.99999969090776e-9,21,1
49,-9.999999690918058e-9,21,1
5,-9.999999690916055e-9,21,1
31,-9.99999969090776e-9,21,1
43,-9.999999690917886e-9,21,1
39,-9.999999690917936e-9,21,1
34,-9.999999690916055e-9,21,1
44,-9.999999690917886e-9,21,1
17,-9.999999690917913e-9,21,1
37,-9.999999690918268e-9,21,1
47,-9.99999969091069e-9,21,1
9,-9.999999690916055e-9,21,1
12,-9.999999690916055e-9,21,1
20,-9.999999690917878e-9,21,1
6,-9.99999969090776e-9,21,1
14,-9.99999969091787e-9,21,1
7,-9.999999690916055e-9,21,1
8,-9.999999690916055e-9,21,1
19,-9.999999690917873e-9,21,1
4,-9.999999690916055e-9,21,1
22,-9.99999969090776e-9,21,1
11,-9.999999690916055e-9,21,1
35,-9.999999690916055e-9,21,1
13,-9.999999690916055e-9,21,1
15,-9.999999690917866e-9,21,1
16,-9.999999690917913e-9,21,1
40,-9.999999690917886e-9,21,1
46,-9.999999690916055e-9,21,1
21,-9.999999690916055e-9,21,1
38,-9.999999690917894e-9,21,1
45,-9.999999690916055e-9,21,1
36,-9.999999690916055e-9,21,1
48,-9.999999690918058e-9,21,1
18,-9.999999690917868e-9,21,1
30,-9.999999690916055e-9,21,1
3,-9.999999690916055e-9,21,1
32,-9.999999692154566e-9,22,1
29,-9.999999692154566e-9,22,1
1,-9.999999692154566e-9,22,1
2,-9.999999692154566e-9,22,1
41,-9.999999692156382e-9,22,1
27,-9.999999692154566e-9,22,1
42,-9.999999692156382e-9,22,1
33,-9.999999692154566e-9,22,1
28,-9.999999692154566e-9,22,1
26,-9.999999692154566e-9,22,1
10,-9.999999692154566e-9,22,1
24,-9.999999692146337e-9,22,1
25,-9.999999692146337e-9,22,1
23,-9.999999692146337e-9,22,1
49,-9.999999692156553e-9,22,1
5,-9.999999692154566e-9,22,1
31,-9.999999692146337e-9,22,1
43,-9.999999692156382e-9,22,1
39,-9.99999969215643e-9,22,1
34,-9.999999692154566e-9,22,1
44,-9.999999692156382e-9,22,1
17,-9.999999692156407e-9,22,1
37,-9.999999692156761e-9,22,1
47,-9.999999692149244e-9,22,1
9,-9.999999692154566e-9,22,1
12,-9.999999692154566e-9,22,1
20,-9.999999692156374e-9,22,1
6,-9.999999692146337e-9,22,1
14,-9.999999692156366e-9,22,1
7,-9.999999692154566e-9,22,1
8,-9.999999692154566e-9,22,1
19,-9.999999692156369e-9,22,1
4,-9.999999692154566e-9,22,1
22,-9.999999692146337e-9,22,1
11,-9.999999692154566e-9,22,1
35,-9.999999692154566e-9,22,1
13,-9.999999692154566e-9,22,1
15,-9.999999692156363e-9,22,1
16,-9.999999692156407e-9,22,1
40,-9.999999692156382e-9,22,1
46,-9.999999692154566e-9,22,1
21,-9.999999692154566e-9,22,1
38,-9.99999969215639e-9,22,1
45,-9.999999692154566e-9,22,1
36,-9.999999692154566e-9,22,1
48,-9.999999692156553e-9,22,1
18,-9.999999692156364e-9,22,1
30,-9.999999692154566e-9,22,1
3,-9.999999692154566e-9,22,1
32,-9.99999964979324e-9,23,1
29,-9.99999964979324e-9,23,1
1,-9.99999964979324e-9,23,1
2,-9.99999964979324e-9,23,1
41,-9.999999649795591e-9,23,1
27,-9.99999964979324e-9,23,1
42,-9.999999649795591e-9,23,1
33,-9.99999964979324e-9,23,1
28,-9.99999964979324e-9,23,1
26,-9.99999964979324e-9,23,1
10,-9.99999964979324e-9,23,1
24,-9.999999649782591e-9,23,1
25,-9.999999649782591e-9,23,1
23,-9.999999649782591e-9,23,1
49,-9.999999649795813e-9,23,1
5,-9.99999964979324e-9,23,1
31,-9.999999649782591e-9,23,1
43,-9.999999649795591e-9,23,1
39,-9.999999649795654e-9,23,1
34,-9.99999964979324e-9,23,1
44,-9.999999649795591e-9,23,1
17,-9.999999649795624e-9,23,1
37,-9.999999649796083e-9,23,1
47,-9.999999649786352e-9,23,1
9,-9.99999964979324e-9,23,1
12,-9.99999964979324e-9,23,1
20,-9.99999964979558e-9,23,1
6,-9.999999649782591e-9,23,1
14,-9.999999649795572e-9,23,1
7,-9.99999964979324e-9,23,1
8,-9.99999964979324e-9,23,1
19,-9.999999649795575e-9,23,1
4,-9.99999964979324e-9,23,1
22,-9.999999649782591e-9,23,1
11,-9.99999964979324e-9,23,1
35,-9.99999964979324e-9,23,1
13,-9.99999964979324e-9,23,1
15,-9.999999649795565e-9,23,1
16,-9.999999649795624e-9,23,1
40,-9.999999649795591e-9,23,1
46,-9.99999964979324e-9,23,1
21,-9.99999964979324e-9,23,1
38,-9.999999649795601e-9,23,1
45,-9.99999964979324e-9,23,1
36,-9.99999964979324e-9,23,1
48,-9.999999649795813e-9,23,1
18,-9.999999649795568e-9,23,1
30,-9.99999964979324e-9,23,1
3,-9.99999964979324e-9,23,1
32,-9.999999661375976e-9,24,1
29,-9.999999661375976e-9,24,1
1,-9.999999661375976e-9,24,1
2,-9.999999661375976e-9,24,1
41,-9.999999661378175e-9,24,1
27,-9.999999661375976e-9,24,1
42,-9.999999661378175e-9,24,1
33,-9.999999661375976e-9,24,1
28,-9.999999661375976e-9,24,1
26,-9.999999661375976e-9,24,1
10,-9.999999661375976e-9,24,1
24,-9.99999966136602e-9,24,1
25,-9.99999966136602e-9,24,1
23,-9.99999966136602e-9,24,1
49,-9.999999661378381e-9,24,1
5,-9.999999661375976e-9,24,1
31,-9.99999966136602e-9,24,1
43,-9.999999661378175e-9,24,1
39,-9.999999661378233e-9,24,1
34,-9.999999661375976e-9,24,1
44,-9.999999661378175e-9,24,1
17,-9.999999661378204e-9,24,1
37,-9.999999661378633e-9,24,1
47,-9.999999661369536e-9,24,1
9,-9.999999661375976e-9,24,1
12,-9.999999661375976e-9,24,1
20,-9.999999661378163e-9,24,1
6,-9.99999966136602e-9,24,1
14,-9.999999661378155e-9,24,1
7,-9.999999661375976e-9,24,1
8,-9.999999661375976e-9,24,1
19,-9.999999661378158e-9,24,1
4,-9.999999661375976e-9,24,1
22,-9.99999966136602e-9,24,1
11,-9.999999661375976e-9,24,1
35,-9.999999661375976e-9,24,1
13,-9.999999661375976e-9,24,1
15,-9.99999966137815e-9,24,1
16,-9.999999661378204e-9,24,1
40,-9.999999661378175e-9,24,1
46,-9.999999661375976e-9,24,1
21,-9.999999661375976e-9,24,1
38,-9.999999661378183e-9,24,1
45,-9.999999661375976e-9,24,1
36,-9.999999661375976e-9,24,1
48,-9.999999661378381e-9,24,1
18,-9.999999661378151e-9,24,1
30,-9.999999661375976e-9,24,1
3,-9.999999661375976e-9,24,1
32,-9.999999709964658e-9,1,2
29,-9.999999709964676e-9,1,2
1,-9.999999709964655e-9,1,2
2,-9.999999709964655e-9,1,2
41,-9.99999970996525e-9,1,2
27,-9.999999709964676e-9,1,2
42,-9.99999970996525e-9,1,2
33,-9.999999709964676e-9,1,2
28,-9.999999709964676e-9,1,2
26,-9.999999709964676e-9,1,2
10,-9.999999709964673e-9,1,2
24,-9.999999709961955e-9,1,2
25,-9.999999709962026e-9,1,2
23,-9.999999709962026e-9,1,2
49,-9.999999709965315e-9,1,2
5,-9.999999709964666e-9,1,2
31,-9.999999709962026e-9,1,2
43,-9.99999970996525e-9,1,2
39,-9.999999709965273e-9,1,2
34,-9.999999709964676e-9,1,2
44,-9.99999970996525e-9,1,2
17,-9.999999709965263e-9,1,2
37,-9.999999709965382e-9,1,2
47,-9.999999709962962e-9,1,2
9,-9.999999709964673e-9,1,2
12,-9.999999709964673e-9,1,2
20,-9.999999709965242e-9,1,2
6,-9.999999709962026e-9,1,2
14,-9.999999709965232e-9,1,2
7,-9.999999709964655e-9,1,2
8,-9.999999709964673e-9,1,2
19,-9.999999709965237e-9,1,2
4,-9.999999709964655e-9,1,2
22,-9.999999709962026e-9,1,2
11,-9.999999709964673e-9,1,2
35,-9.999999709964676e-9,1,2
13,-9.999999709964673e-9,1,2
15,-9.999999709965214e-9,1,2
16,-9.999999709965263e-9,1,2
40,-9.99999970996525e-9,1,2
46,-9.999999709964673e-9,1,2
21,-9.999999709964671e-9,1,2
38,-9.999999709965255e-9,1,2
45,-9.999999709964671e-9,1,2
36,-9.999999709964676e-9,1,2
48,-9.999999709965315e-9,1,2
18,-9.999999709965224e-9,1,2
30,-9.999999709964676e-9,1,2
3,-9.999999709964655e-9,1,2
32,-9.999999731501667e-9,2,2
29,-9.999999731501683e-9,2,2
1,-9.999999731501665e-9,2,2
2,-9.999999731501665e-9,2,2
41,-9.999999731502175e-9,2,2
27,-9.999999731501683e-9,2,2
42,-9.999999731502175e-9,2,2
33,-9.999999731501682e-9,2,2
28,-9.999999731501683e-9,2,2
26,-9.999999731501683e-9,2,2
10,-9.99999973150168e-9,2,2
24,-9.999999731499352e-9,2,2
25,-9.999999731499412e-9,2,2
23,-9.999999731499412e-9,2,2
49,-9.99999973150223e-9,2,2
5,-9.999999731501673e-9,2,2
31,-9.999999731499412e-9,2,2
43,-9.999999731502175e-9,2,2
39,-9.999999731502194e-9,2,2
34,-9.999999731501682e-9,2,2
44,-9.999999731502175e-9,2,2
17,-9.999999731502186e-9,2,2
37,-9.999999731502289e-9,2,2
47,-9.999999731500214e-9,2,2
9,-9.99999973150168e-9,2,2
12,-9.99999973150168e-9,2,2
20,-9.999999731502168e-9,2,2
6,-9.999999731499412e-9,2,2
14,-9.999999731502158e-9,2,2
7,-9.999999731501665e-9,2,2
8,-9.99999973150168e-9,2,2
19,-9.999999731502163e-9,2,2
4,-9.999999731501665e-9,2,2
22,-9.999999731499412e-9,2,2
11,-9.99999973150168e-9,2,2
35,-9.999999731501682e-9,2,2
13,-9.99999973150168e-9,2,2
15,-9.999999731502143e-9,2,2
16,-9.999999731502186e-9,2,2
40,-9.999999731502175e-9,2,2
46,-9.99999973150168e-9,2,2
21,-9.999999731501678e-9,2,2
38,-9.99999973150218e-9,2,2
45,-9.999999731501678e-9,2,2
36,-9.999999731501682e-9,2,2
48,-9.99999973150223e-9,2,2
18,-9.999999731502153e-9,2,2
30,-9.999999731501683e-9,2,2
3,-9.999999731501665e-9,2,2
32,-9.999999728732584e-9,3,2
29,-9.999999728732598e-9,3,2
1,-9.99999972873258e-9,3,2
2,-9.99999972873258e-9,3,2
41,-9.999999728733101e-9,3,2
27,-9.999999728732598e-9,3,2
42,-9.999999728733101e-9,3,2
33,-9.999999728732598e-9,3,2
28,-9.999999728732598e-9,3,2
26,-9.999999728732598e-9,3,2
10,-9.999999728732597e-9,3,2
24,-9.99999972873022e-9,3,2
25,-9.99999972873028e-9,3,2
23,-9.99999972873028e-9,3,2
49,-9.999999728733158e-9,3,2
5,-9.99999972873259e-9,3,2
31,-9.99999972873028e-9,3,2
43,-9.999999728733101e-9,3,2
39,-9.999999728733121e-9,3,2
34,-9.999999728732598e-9,3,2
44,-9.999999728733101e-9,3,2
17,-9.999999728733113e-9,3,2
37,-9.999999728733217e-9,3,2
47,-9.9999997287311e-9,3,2
9,-9.999999728732597e-9,3,2
12,-9.999999728732597e-9,3,2
20,-9.999999728733095e-9,3,2
6,-9.99999972873028e-9,3,2
14,-9.999999728733085e-9,3,2
7,-9.99999972873258e-9,3,2
8,-9.999999728732597e-9,3,2
19,-9.99999972873309e-9,3,2
4,-9.99999972873258e-9,3,2
22,-9.99999972873028e-9,3,2
11,-9.999999728732597e-9,3,2
35,-9.999999728732598e-9,3,2
13,-9.999999728732597e-9,3,2
15,-9.999999728733068e-9,3,2
16,-9.999999728733113e-9,3,2
40,-9.999999728733101e-9,3,2
46,-9.999999728732595e-9,3,2
21,-9.999999728732593e-9,3,2
38,-9.999999728733106e-9,3,2
45,-9.999999728732593e-9,3,2
36,-9.999999728732598e-9,3,2
48,-9.999999728733158e-9,3,2
18,-9.999999728733078e-9,3,2
30,-9.999999728732598e-9,3,2
3,-9.99999972873258e-9,3,2
32,-9.999999738697655e-9,4,2
29,-9.99999973869767e-9,4,2
1,-9.999999738697652e-9,4,2
2,-9.999999738697652e-9,4,2
41,-9.999999738698136e-9,4,2
27,-9.99999973869767e-9,4,2
42,-9.999999738698136e-9,4,2
33,-9.999999738697668e-9,4,2
28,-9.99999973869767e-9,4,2
26,-9.99999973869767e-9,4,2
10,-9.999999738697666e-9,4,2
24,-9.999999738695461e-9,4,2
25,-9.999999738695519e-9,4,2
23,-9.999999738695519e-9,4,2
49,-9.999999738698188e-9,4,2
5,-9.999999738697661e-9,4,2
31,-9.999999738695517e-9,4,2
43,-9.999999738698136e-9,4,2
39,-9.999999738698154e-9,4,2
34,-9.999999738697668e-9,4,2
44,-9.999999738698136e-9,4,2
17,-9.999999738698146e-9,4,2
37,-9.999999738698244e-9,4,2
47,-9.999999738696278e-9,4,2
9,-9.999999738697666e-9,4,2
12,-9.999999738697666e-9,4,2
20,-9.99999973869813e-9,4,2
6,-9.999999738695517e-9,4,2
14,-9.99999973869812e-9,4,2
7,-9.999999738697653e-9,4,2
8,-9.999999738697666e-9,4,2
19,-9.999999738698125e-9,4,2
4,-9.999999738697652e-9,4,2
22,-9.999999738695517e-9,4,2
11,-9.999999738697666e-9,4,2
35,-9.999999738697668e-9,4,2
13,-9.999999738697666e-9,4,2
15,-9.999999738698105e-9,4,2
16,-9.999999738698146e-9,4,2
40,-9.999999738698136e-9,4,2
46,-9.999999738697666e-9,4,2
21,-9.999999738697665e-9,4,2
38,-9.99999973869814e-9,4,2
45,-9.999999738697665e-9,4,2
36,-9.999999738697668e-9,4,2
48,-9.999999738698188e-9,4,2
18,-9.999999738698115e-9,4,2
30,-9.99999973869767e-9,4,2
3,-9.999999738697652e-9,4,2
32,-9.999999735648058e-9,5,2
29,-9.999999735648073e-9,5,2
1,-9.999999735648055e-9,5,2
2,-9.999999735648055e-9,5,2
41,-9.99999973564855e-9,5,2
27,-9.999999735648072e-9,5,2
42,-9.99999973564855e-9,5,2
33,-9.999999735648072e-9,5,2
28,-9.999999735648072e-9,5,2
26,-9.999999735648072e-9,5,2
10,-9.99999973564807e-9,5,2
24,-9.999999735645813e-9,5,2
25,-9.999999735645871e-9,5,2
23,-9.999999735645871e-9,5,2
49,-9.999999735648603e-9,5,2
5,-9.999999735648063e-9,5,2
31,-9.999999735645871e-9,5,2
43,-9.99999973564855e-9,5,2
39,-9.999999735648568e-9,5,2
34,-9.999999735648072e-9,5,2
44,-9.99999973564855e-9,5,2
17,-9.999999735648561e-9,5,2
37,-9.999999735648659e-9,5,2
47,-9.999999735646649e-9,5,2
9,-9.99999973564807e-9,5,2
12,-9.99999973564807e-9,5,2
20,-9.999999735648543e-9,5,2
6,-9.999999735645871e-9,5,2
14,-9.999999735648533e-9,5,2
7,-9.999999735648055e-9,5,2
8,-9.99999973564807e-9,5,2
19,-9.999999735648538e-9,5,2
4,-9.999999735648055e-9,5,2
22,-9.99999973564587e-9,5,2
11,-9.99999973564807e-9,5,2
35,-9.999999735648072e-9,5,2
13,-9.99999973564807e-9,5,2
15,-9.999999735648518e-9,5,2
16,-9.999999735648561e-9,5,2
40,-9.99999973564855e-9,5,2
46,-9.99999973564807e-9,5,2
21,-9.999999735648068e-9,5,2
38,-9.999999735648553e-9,5,2
45,-9.999999735648068e-9,5,2
36,-9.999999735648072e-9,5,2
48,-9.999999735648603e-9,5,2
18,-9.999999735648528e-9,5,2
30,-9.999999735648073e-9,5,2
3,-9.999999735648055e-9,5,2
32,-9.999999736784624e-9,6,2
29,-9.99999973678464e-9,6,2
1,-9.999999736784621e-9,6,2
2,-9.999999736784621e-9,6,2
41,-9.999999736785112e-9,6,2
27,-9.999999736784638e-9,6,2
42,-9.999999736785112e-9,6,2
33,-9.999999736784638e-9,6,2
28,-9.999999736784638e-9,6,2
26,-9.999999736784638e-9,6,2
10,-9.999999736784636e-9,6,2
24,-9.999999736782398e-9,6,2
25,-9.999999736782455e-9,6,2
23,-9.999999736782455e-9,6,2
49,-9.999999736785165e-9,6,2
5,-9.99999973678463e-9,6,2
31,-9.999999736782455e-9,6,2
43,-9.999999736785112e-9,6,2
39,-9.99999973678513e-9,6,2
34,-9.999999736784638e-9,6,2
44,-9.999999736785112e-9,6,2
17,-9.999999736785122e-9,6,2
37,-9.99999973678522e-9,6,2
47,-9.999999736783226e-9,6,2
9,-9.999999736784636e-9,6,2
12,-9.999999736784636e-9,6,2
20,-9.999999736785106e-9,6,2
6,-9.999999736782455e-9,6,2
14,-9.999999736785096e-9,6,2
7,-9.999999736784621e-9,6,2
8,-9.999999736784636e-9,6,2
19,-9.9999997367851e-9,6,2
4,-9.999999736784621e-9,6,2
22,-9.999999736782455e-9,6,2
11,-9.999999736784636e-9,6,2
35,-9.999999736784638e-9,6,2
13,-9.999999736784636e-9,6,2
15,-9.999999736785081e-9,6,2
16,-9.999999736785122e-9,6,2
40,-9.999999736785112e-9,6,2
46,-9.999999736784636e-9,6,2
21,-9.999999736784634e-9,6,2
38,-9.999999736785116e-9,6,2
45,-9.999999736784634e-9,6,2
36,-9.999999736784638e-9,6,2
48,-9.999999736785165e-9,6,2
18,-9.999999736785091e-9,6,2
30,-9.99999973678464e-9,6,2
3,-9.999999736784621e-9,6,2
32,-9.999999736870004e-9,7,2
29,-9.999999736870019e-9,7,2
1,-9.999999736870001e-9,7,2
2,-9.999999736870001e-9,7,2
41,-9.999999736870492e-9,7,2
27,-9.999999736870018e-9,7,2
42,-9.999999736870492e-9,7,2
33,-9.999999736870018e-9,7,2
28,-9.999999736870018e-9,7,2
26,-9.999999736870018e-9,7,2
10,-9.999999736870016e-9,7,2
24,-9.999999736867779e-9,7,2
25,-9.999999736867837e-9,7,2
23,-9.999999736867837e-9,7,2
49,-9.999999736870544e-9,7,2
5,-9.99999973687001e-9,7,2
31,-9.999999736867837e-9,7,2
43,-9.999999736870492e-9,7,2
39,-9.99999973687051e-9,7,2
34,-9.999999736870018e-9,7,2
44,-9.999999736870492e-9,7,2
17,-9.999999736870502e-9,7,2
37,-9.9999997368706e-9,7,2
47,-9.999999736868608e-9,7,2
9,-9.999999736870016e-9,7,2
12,-9.999999736870016e-9,7,2
20,-9.999999736870484e-9,7,2
6,-9.999999736867837e-9,7,2
14,-9.999999736870476e-9,7,2
7,-9.999999736870001e-9,7,2
8,-9.999999736870016e-9,7,2
19,-9.99999973687048e-9,7,2
4,-9.999999736870001e-9,7,2
22,-9.999999736867837e-9,7,2
11,-9.999999736870016e-9,7,2
35,-9.999999736870018e-9,7,2
13,-9.999999736870016e-9,7,2
15,-9.999999736870461e-9,7,2
16,-9.999999736870502e-9,7,2
40,-9.999999736870492e-9,7,2
46,-9.999999736870016e-9,7,2
21,-9.999999736870014e-9,7,2
38,-9.999999736870496e-9,7,2
45,-9.999999736870014e-9,7,2
36,-9.999999736870018e-9,7,2
48,-9.999999736870544e-9,7,2
18,-9.999999736870469e-9,7,2
30,-9.999999736870019e-9,7,2
3,-9.999999736870001e-9,7,2
32,-9.999999732061858e-9,8,2
29,-9.999999732061875e-9,8,2
1,-9.999999732061855e-9,8,2
2,-9.999999732061855e-9,8,2
41,-9.999999732062364e-9,8,2
27,-9.999999732061873e-9,8,2
42,-9.999999732062364e-9,8,2
33,-9.999999732061873e-9,8,2
28,-9.999999732061873e-9,8,2
26,-9.999999732061873e-9,8,2
10,-9.999999732061871e-9,8,2
24,-9.999999732059552e-9,8,2
25,-9.999999732059612e-9,8,2
23,-9.999999732059612e-9,8,2
49,-9.999999732062419e-9,8,2
5,-9.999999732061865e-9,8,2
31,-9.999999732059612e-9,8,2
43,-9.999999732062364e-9,8,2
39,-9.999999732062383e-9,8,2
34,-9.999999732061873e-9,8,2
44,-9.999999732062364e-9,8,2
17,-9.999999732062376e-9,8,2
37,-9.999999732062477e-9,8,2
47,-9.99999973206041e-9,8,2
9,-9.999999732061871e-9,8,2
12,-9.999999732061871e-9,8,2
20,-9.999999732062358e-9,8,2
6,-9.999999732059612e-9,8,2
14,-9.999999732062348e-9,8,2
7,-9.999999732061856e-9,8,2
8,-9.999999732061871e-9,8,2
19,-9.999999732062353e-9,8,2
4,-9.999999732061855e-9,8,2
22,-9.999999732059612e-9,8,2
11,-9.999999732061871e-9,8,2
35,-9.999999732061873e-9,8,2
13,-9.999999732061871e-9,8,2
15,-9.999999732062333e-9,8,2
16,-9.999999732062376e-9,8,2
40,-9.999999732062364e-9,8,2
46,-9.999999732061871e-9,8,2
21,-9.99999973206187e-9,8,2
38,-9.999999732062368e-9,8,2
45,-9.99999973206187e-9,8,2
36,-9.999999732061873e-9,8,2
48,-9.999999732062419e-9,8,2
18,-9.999999732062341e-9,8,2
30,-9.999999732061875e-9,8,2
3,-9.999999732061855e-9,8,2
32,-9.999999734815494e-9,9,2
29,-9.99999973481551e-9,9,2
1,-9.999999734815491e-9,9,2
2,-9.999999734815491e-9,9,2
41,-9.999999734815989e-9,9,2
27,-9.99999973481551e-9,9,2
42,-9.999999734815989e-9,9,2
33,-9.999999734815508e-9,9,2
28,-9.99999973481551e-9,9,2
26,-9.99999973481551e-9,9,2
10,-9.999999734815506e-9,9,2
24,-9.999999734813235e-9,9,2
25,-9.999999734813294e-9,9,2
23,-9.999999734813294e-9,9,2
49,-9.999999734816044e-9,9,2
5,-9.999999734815501e-9,9,2
31,-9.999999734813294e-9,9,2
43,-9.999999734815989e-9,9,2
39,-9.999999734816009e-9,9,2
34,-9.999999734815508e-9,9,2
44,-9.999999734815989e-9,9,2
17,-9.999999734816e-9,9,2
37,-9.9999997348161e-9,9,2
47,-9.999999734814077e-9,9,2
9,-9.999999734815506e-9,9,2
12,-9.999999734815506e-9,9,2
20,-9.999999734815982e-9,9,2
6,-9.999999734813294e-9,9,2
14,-9.999999734815974e-9,9,2
7,-9.999999734815491e-9,9,2
8,-9.999999734815506e-9,9,2
19,-9.999999734815979e-9,9,2
4,-9.999999734815491e-9,9,2
22,-9.999999734813292e-9,9,2
11,-9.999999734815506e-9,9,2
35,-9.999999734815508e-9,9,2
13,-9.999999734815506e-9,9,2
15,-9.999999734815958e-9,9,2
16,-9.999999734816e-9,9,2
40,-9.999999734815989e-9,9,2
46,-9.999999734815506e-9,9,2
21,-9.999999734815504e-9,9,2
38,-9.999999734815994e-9,9,2
45,-9.999999734815504e-9,9,2
36,-9.999999734815508e-9,9,2
48,-9.999999734816044e-9,9,2
18,-9.999999734815968e-9,9,2
30,-9.99999973481551e-9,9,2
3,-9.999999734815491e-9,9,2
32,-8.203346568012646e-9,10,2
29,-8.27986601868716e-9,10,2
1,-8.1882165284857e-9,10,2
2,-8.188216385210288e-9,10,2
41,-8.410386686028848e-9,10,2
27,-8.277624628411686e-9,10,2
42,-8.410385134218486e-9,10,2
33,-8.275455031218029e-9,10,2
28,-8.27762463603399e-9,10,2
26,-8.277624613421595e-9,10,2
10,-8.266014245805033e-9,10,2
24,-7.2737667372269355e-9,10,2
25,-7.623798548110057e-9,10,2
23,-7.446968929955891e-9,10,2
49,-8.457447833975974e-9,10,2
5,-8.235002381907948e-9,10,2
31,-8.031115887862251e-9,10,2
43,-8.410385289437373e-9,10,2
39,-8.438602890674997e-9,10,2
34,-8.275454999342521e-9,10,2
44,-8.410381997138734e-9,10,2
17,-8.430561740164147e-9,10,2
37,-8.477951954208508e-9,10,2
47,-7.773806199226932e-9,10,2
9,-8.26601431568415e-9,10,2
12,-8.266013948871315e-9,10,2
20,-8.390912638271831e-9,10,2
6,-8.066054715232615e-9,10,2
14,-8.357335581124524e-9,10,2
7,-8.191634666804225e-9,10,2
8,-8.266014513618793e-9,10,2
19,-8.37572852398204e-9,10,2
4,-8.188204547606058e-9,10,2
22,-8.097471222739244e-9,10,2
11,-8.266013946412104e-9,10,2
35,-8.275455052720658e-9,10,2
13,-8.266013404781362e-9,10,2
15,-8.295156957904057e-9,10,2
16,-8.43056227978673e-9,10,2
40,-8.410386487112742e-9,10,2
46,-8.265281341815497e-9,10,2
21,-8.257836728279185e-9,10,2
38,-8.419205887968753e-9,10,2
45,-8.257179096863707e-9,10,2
36,-8.27545505414902e-9,10,2
48,-8.457447894096706e-9,10,2
18,-8.334056090073111e-9,10,2
30,-8.279866019522113e-9,10,2
3,-8.188204024093964e-9,10,2
32,-9.999999739682743e-9,11,2
29,-9.999999739682756e-9,11,2
1,-9.99999973968274e-9,11,2
2,-9.99999973968274e-9,11,2
41,-9.999999739683219e-9,11,2
27,-9.999999739682756e-9,11,2
42,-9.999999739683219e-9,11,2
33,-9.999999739682756e-9,11,2
28,-9.999999739682756e-9,11,2
26,-9.999999739682756e-9,11,2
10,-9.999999739682754e-9,11,2
24,-9.999999739680565e-9,11,2
25,-9.999999739680622e-9,11,2
23,-9.999999739680622e-9,11,2
49,-9.99999973968327e-9,11,2
5,-9.999999739682748e-9,11,2
31,-9.999999739680622e-9,11,2
43,-9.999999739683219e-9,11,2
39,-9.999999739683237e-9,11,2
34,-9.999999739682756e-9,11,2
44,-9.999999739683219e-9,11,2
17,-9.99999973968323e-9,11,2
37,-9.999999739683325e-9,11,2
47,-9.999999739681376e-9,11,2
9,-9.999999739682754e-9,11,2
12,-9.999999739682754e-9,11,2
20,-9.999999739683212e-9,11,2
6,-9.999999739680622e-9,11,2
14,-9.999999739683204e-9,11,2
7,-9.99999973968274e-9,11,2
8,-9.999999739682754e-9,11,2
19,-9.999999739683209e-9,11,2
4,-9.99999973968274e-9,11,2
22,-9.999999739680622e-9,11,2
11,-9.999999739682754e-9,11,2
35,-9.999999739682756e-9,11,2
13,-9.999999739682754e-9,11,2
15,-9.99999973968319e-9,11,2
16,-9.99999973968323e-9,11,2
40,-9.999999739683219e-9,11,2
46,-9.999999739682754e-9,11,2
21,-9.999999739682753e-9,11,2
38,-9.999999739683222e-9,11,2
45,-9.999999739682753e-9,11,2
36,-9.999999739682756e-9,11,2
48,-9.99999973968327e-9,11,2
18,-9.999999739683198e-9,11,2
30,-9.999999739682756e-9,11,2
3,-9.99999973968274e-9,11,2
32,-9.940881151544466e-9,12,2
29,-9.944548405476977e-9,12,2
1,-9.940112887665347e-9,12,2
2,-9.940112917041204e-9,12,2
41,-9.956827738887177e-9,12,2
27,-9.94444449440064e-9,12,2
42,-9.956827982504474e-9,12,2
33,-9.944345932834189e-9,12,2
28,-9.944444492903099e-9,12,2
26,-9.94444449734582e-9,12,2
10,-9.943905176231318e-9,12,2
24,-6.80897275737308e-9,12,2
25,8.939861700450993e-8,12,2
23,8.938023877663142e-8,12,2
49,-9.958799840557124e-9,12,2
5,-9.942412289852249e-9,12,2
31,8.738887472840544e-8,12,2
43,-9.956827958147076e-9,12,2
39,-9.957862507612616e-9,12,2
34,-9.94434593910449e-9,12,2
44,-9.95682847513871e-9,12,2
17,-9.957541149231877e-9,12,2
37,-9.960001173614095e-9,12,2
47,-9.733383995073301e-9,12,2
9,-9.943905162416416e-9,12,2
12,-9.943905234950666e-9,12,2
20,-9.956174364533377e-9,12,2
6,8.714551284828053e-8,12,2
14,-9.95506203358694e-9,12,2
7,-9.94029388471739e-9,12,2
8,-9.943905123271582e-9,12,2
19,-9.95567008286896e-9,12,2
4,-9.940115338745868e-9,12,2
22,8.05905585697067e-8,12,2
11,-9.943905235436625e-9,12,2
35,-9.94434592860441e-9,12,2
13,-9.94390534253911e-9,12,2
15,-9.953037419950688e-9,12,2
16,-9.957541065175544e-9,12,2
40,-9.956827770101182e-9,12,2
46,-9.943869698652112e-9,12,2
21,-9.943515180244324e-9,12,2
38,-9.957129339949327e-9,12,2
45,-9.943485329933187e-9,12,2
36,-9.944345928323454e-9,12,2
48,-9.958799831398395e-9,12,2
18,-9.95433045507007e-9,12,2
30,-9.944548405313109e-9,12,2
3,-9.940115445675757e-9,12,2
32,-9.999999733874715e-9,13,2
29,-9.99999973387473e-9,13,2
1,-9.999999733874712e-9,13,2
2,-9.999999733874712e-9,13,2
41,-9.999999733875215e-9,13,2
27,-9.99999973387473e-9,13,2
42,-9.999999733875215e-9,13,2
33,-9.99999973387473e-9,13,2
28,-9.99999973387473e-9,13,2
26,-9.99999973387473e-9,13,2
10,-9.999999733874729e-9,13,2
24,-9.99999973387244e-9,13,2
25,-9.9999997338725e-9,13,2
23,-9.9999997338725e-9,13,2
49,-9.999999733875268e-9,13,2
5,-9.999999733874722e-9,13,2
31,-9.999999733872499e-9,13,2
43,-9.999999733875215e-9,13,2
39,-9.999999733875233e-9,13,2
34,-9.99999973387473e-9,13,2
44,-9.999999733875215e-9,13,2
17,-9.999999733875225e-9,13,2
37,-9.999999733875326e-9,13,2
47,-9.999999733873288e-9,13,2
9,-9.999999733874729e-9,13,2
12,-9.999999733874729e-9,13,2
20,-9.999999733875208e-9,13,2
6,-9.999999733872499e-9,13,2
14,-9.999999733875199e-9,13,2
7,-9.999999733874714e-9,13,2
8,-9.999999733874729e-9,13,2
19,-9.999999733875203e-9,13,2
4,-9.999999733874712e-9,13,2
22,-9.999999733872499e-9,13,2
11,-9.999999733874729e-9,13,2
35,-9.99999973387473e-9,13,2
13,-9.999999733874729e-9,13,2
15,-9.999999733875184e-9,13,2
16,-9.999999733875225e-9,13,2
40,-9.999999733875215e-9,13,2
46,-9.999999733874729e-9,13,2
21,-9.999999733874727e-9,13,2
38,-9.999999733875218e-9,13,2
45,-9.999999733874727e-9,13,2
36,-9.99999973387473e-9,13,2
48,-9.999999733875268e-9,13,2
18,-9.999999733875192e-9,13,2
30,-9.99999973387473e-9,13,2
3,-9.999999733874712e-9,13,2
32,-9.999999734947173e-9,14,2
29,-9.99999973494719e-9,14,2
1,-9.999999734947172e-9,14,2
2,-9.999999734947172e-9,14,2
41,-9.99999973494767e-9,14,2
27,-9.999999734947188e-9,14,2
42,-9.99999973494767e-9,14,2
33,-9.999999734947188e-9,14,2
28,-9.999999734947188e-9,14,2
26,-9.999999734947188e-9,14,2
10,-9.999999734947187e-9,14,2
24,-9.999999734944917e-9,14,2
25,-9.999999734944976e-9,14,2
23,-9.999999734944976e-9,14,2
49,-9.999999734947723e-9,14,2
5,-9.99999973494718e-9,14,2
31,-9.999999734944976e-9,14,2
43,-9.99999973494767e-9,14,2
39,-9.999999734947688e-9,14,2
34,-9.999999734947188e-9,14,2
44,-9.99999973494767e-9,14,2
17,-9.99999973494768e-9,14,2
37,-9.999999734947779e-9,14,2
47,-9.999999734945757e-9,14,2
9,-9.999999734947187e-9,14,2
12,-9.999999734947187e-9,14,2
20,-9.999999734947663e-9,14,2
6,-9.999999734944976e-9,14,2
14,-9.999999734947653e-9,14,2
7,-9.999999734947172e-9,14,2
8,-9.999999734947187e-9,14,2
19,-9.999999734947658e-9,14,2
4,-9.999999734947172e-9,14,2
22,-9.999999734944975e-9,14,2
11,-9.999999734947187e-9,14,2
35,-9.999999734947188e-9,14,2
13,-9.999999734947187e-9,14,2
15,-9.999999734947638e-9,14,2
16,-9.99999973494768e-9,14,2
40,-9.99999973494767e-9,14,2
46,-9.999999734947187e-9,14,2
21,-9.999999734947185e-9,14,2
38,-9.999999734947673e-9,14,2
45,-9.999999734947185e-9,14,2
36,-9.999999734947188e-9,14,2
48,-9.999999734947723e-9,14,2
18,-9.999999734947646e-9,14,2
30,-9.99999973494719e-9,14,2
3,-9.999999734947172e-9,14,2
32,-9.999999737196403e-9,15,2
29,-9.999999737196418e-9,15,2
1,-9.9999997371964e-9,15,2
2,-9.9999997371964e-9,15,2
41,-9.99999973719689e-9,15,2
27,-9.999999737196416e-9,15,2
42,-9.99999973719689e-9,15,2
33,-9.999999737196416e-9,15,2
28,-9.999999737196416e-9,15,2
26,-9.999999737196416e-9,15,2
10,-9.999999737196415e-9,15,2
24,-9.999999737194185e-9,15,2
25,-9.999999737194241e-9,15,2
23,-9.999999737194241e-9,15,2
49,-9.999999737196942e-9,15,2
5,-9.999999737196408e-9,15,2
31,-9.999999737194241e-9,15,2
43,-9.99999973719689e-9,15,2
39,-9.999999737196908e-9,15,2
34,-9.999999737196416e-9,15,2
44,-9.99999973719689e-9,15,2
17,-9.9999997371969e-9,15,2
37,-9.999999737196997e-9,15,2
47,-9.99999973719501e-9,15,2
9,-9.999999737196415e-9,15,2
12,-9.999999737196415e-9,15,2
20,-9.999999737196883e-9,15,2
6,-9.999999737194241e-9,15,2
14,-9.999999737196873e-9,15,2
7,-9.9999997371964e-9,15,2
8,-9.999999737196415e-9,15,2
19,-9.999999737196878e-9,15,2
4,-9.9999997371964e-9,15,2
22,-9.999999737194241e-9,15,2
11,-9.999999737196415e-9,15,2
35,-9.999999737196416e-9,15,2
13,-9.999999737196415e-9,15,2
15,-9.999999737196858e-9,15,2
16,-9.9999997371969e-9,15,2
40,-9.99999973719689e-9,15,2
46,-9.999999737196415e-9,15,2
21,-9.999999737196413e-9,15,2
38,-9.999999737196893e-9,15,2
45,-9.999999737196413e-9,15,2
36,-9.999999737196416e-9,15,2
48,-9.999999737196942e-9,15,2
18,-9.999999737196868e-9,15,2
30,-9.999999737196418e-9,15,2
3,-9.9999997371964e-9,15,2
32,-9.999999730010525e-9,16,2
29,-9.999999730010541e-9,16,2
1,-9.999999730010521e-9,16,2
2,-9.999999730010521e-9,16,2
41,-9.99999973001104e-9,16,2
27,-9.99999973001054e-9,16,2
42,-9.99999973001104e-9,16,2
33,-9.99999973001054e-9,16,2
28,-9.99999973001054e-9,16,2
26,-9.99999973001054e-9,16,2
10,-9.999999730010538e-9,16,2
24,-9.999999730008184e-9,16,2
25,-9.999999730008245e-9,16,2
23,-9.999999730008245e-9,16,2
49,-9.999999730011094e-9,16,2
5,-9.999999730010531e-9,16,2
31,-9.999999730008243e-9,16,2
43,-9.99999973001104e-9,16,2
39,-9.999999730011057e-9,16,2
34,-9.99999973001054e-9,16,2
44,-9.99999973001104e-9,16,2
17,-9.99999973001105e-9,16,2
37,-9.999999730011153e-9,16,2
47,-9.999999730009056e-9,16,2
9,-9.999999730010538e-9,16,2
12,-9.999999730010538e-9,16,2
20,-9.999999730011031e-9,16,2
6,-9.999999730008243e-9,16,2
14,-9.999999730011021e-9,16,2
7,-9.999999730010523e-9,16,2
8,-9.999999730010538e-9,16,2
19,-9.999999730011028e-9,16,2
4,-9.999999730010521e-9,16,2
22,-9.999999730008243e-9,16,2
11,-9.999999730010538e-9,16,2
35,-9.99999973001054e-9,16,2
13,-9.999999730010538e-9,16,2
15,-9.999999730011006e-9,16,2
16,-9.99999973001105e-9,16,2
40,-9.99999973001104e-9,16,2
46,-9.999999730010538e-9,16,2
21,-9.999999730010536e-9,16,2
38,-9.999999730011042e-9,16,2
45,-9.999999730010536e-9,16,2
36,-9.99999973001054e-9,16,2
48,-9.999999730011094e-9,16,2
18,-9.999999730011016e-9,16,2
30,-9.999999730010541e-9,16,2
3,-9.999999730010521e-9,16,2
32,-9.966030276841033e-9,17,2
29,-9.966506010944103e-9,17,2
1,-9.965933400424006e-9,17,2
2,-9.965933397389775e-9,17,2
41,-9.972658020156178e-9,17,2
27,-9.966492658202823e-9,17,2
42,-9.972657975808788e-9,17,2
33,-9.96647979775424e-9,17,2
28,-9.966492658302925e-9,17,2
26,-9.966492658005947e-9,17,2
10,-9.96642291734674e-9,17,2
24,4.441167858780038e-8,17,2
25,7.73728510069069e-8,17,2
23,7.735522621237434e-8,17,2
49,-9.973271538966108e-9,17,2
5,-9.966232674597983e-9,17,2
31,7.793201281683474e-8,17,2
43,-9.972657980252475e-9,17,2
39,-9.972899073753088e-9,17,2
34,-9.966479797336467e-9,17,2
44,-9.972657886368409e-9,17,2
17,-9.972807508784032e-9,17,2
37,-9.973838980977406e-9,17,2
47,-9.89673413649707e-9,17,2
9,-9.966422918290038e-9,17,2
12,-9.96642291335214e-9,17,2
20,-9.972548769123963e-9,17,2
6,7.564534889528114e-8,17,2
14,-9.972377966476983e-9,17,2
7,-9.965954609897315e-9,17,2
8,-9.966422920951455e-9,17,2
19,-9.972470351272877e-9,17,2
4,-9.965933143487692e-9,17,2
22,7.583688848097682e-8,17,2
11,-9.96642291331892e-9,17,2
35,-9.966479798035911e-9,17,2
13,-9.966422906031201e-9,17,2
15,-9.972062914734436e-9,17,2
16,-9.972807523617994e-9,17,2
40,-9.972658014458068e-9,17,2
46,-9.966418426124646e-9,17,2
21,-9.96637337275475e-9,17,2
38,-9.972714918129307e-9,17,2
45,-9.966369153188747e-9,17,2
36,-9.966479798054678e-9,17,2
48,-9.973271540613276e-9,17,2
18,-9.972257278564444e-9,17,2
30,-9.966506010955028e-9,17,2
3,-9.965933132169995e-9,17,2
32,-9.999998847458409e-9,18,2
29,-9.999998847458756e-9,18,2
1,-9.999998847458343e-9,18,2
2,-9.999998847458343e-9,18,2
41,-9.999998847467763e-9,18,2
27,-9.999998847458746e-9,18,2
42,-9.999998847467763e-9,18,2
33,-9.999998847458736e-9,18,2
28,-9.999998847458746e-9,18,2
26,-9.999998847458746e-9,18,2
10,-9.999998847458693e-9,18,2
24,-9.999998847415708e-9,18,2
25,-9.999998847417051e-9,18,2
23,-9.999998847417051e-9,18,2
49,-9.999998847468802e-9,18,2
5,-9.999998847458551e-9,18,2
31,-9.999998847417045e-9,18,2
43,-9.999998847467763e-9,18,2
39,-9.999998847468136e-9,18,2
34,-9.999998847458736e-9,18,2
44,-9.999998847467763e-9,18,2
17,-9.999998847467986e-9,18,2
37,-9.999998847469874e-9,18,2
47,-9.999998847431787e-9,18,2
9,-9.999998847458693e-9,18,2
12,-9.999998847458693e-9,18,2
20,-9.999998847467617e-9,18,2
6,-9.999998847417043e-9,18,2
14,-9.999998847467409e-9,18,2
7,-9.999998847458358e-9,18,2
8,-9.999998847458693e-9,18,2
19,-9.99999884746752e-9,18,2
4,-9.999998847458343e-9,18,2
22,-9.999998847417037e-9,18,2
11,-9.999998847458693e-9,18,2
35,-9.999998847458736e-9,18,2
13,-9.999998847458693e-9,18,2
15,-9.999998847467068e-9,18,2
16,-9.999998847467986e-9,18,2
40,-9.999998847467763e-9,18,2
46,-9.99999884745869e-9,18,2
21,-9.999998847458655e-9,18,2
38,-9.999998847467844e-9,18,2
45,-9.999998847458652e-9,18,2
36,-9.999998847458736e-9,18,2
48,-9.999998847468802e-9,18,2
18,-9.99999884746728e-9,18,2
30,-9.999998847458756e-9,18,2
3,-9.999998847458343e-9,18,2
32,-9.999999738425694e-9,19,2
29,-9.99999973842571e-9,19,2
1,-9.999999738425691e-9,19,2
2,-9.999999738425691e-9,19,2
41,-9.999999738426178e-9,19,2
27,-9.99999973842571e-9,19,2
42,-9.999999738426178e-9,19,2
33,-9.99999973842571e-9,19,2
28,-9.99999973842571e-9,19,2
26,-9.99999973842571e-9,19,2
10,-9.999999738425706e-9,19,2
24,-9.999999738423497e-9,19,2
25,-9.999999738423554e-9,19,2
23,-9.999999738423554e-9,19,2
49,-9.999999738426229e-9,19,2
5,-9.999999738425701e-9,19,2
31,-9.999999738423554e-9,19,2
43,-9.999999738426178e-9,19,2
39,-9.999999738426196e-9,19,2
34,-9.99999973842571e-9,19,2
44,-9.999999738426178e-9,19,2
17,-9.999999738426187e-9,19,2
37,-9.999999738426283e-9,19,2
47,-9.999999738424315e-9,19,2
9,-9.999999738425706e-9,19,2
12,-9.999999738425706e-9,19,2
20,-9.999999738426171e-9,19,2
6,-9.999999738423554e-9,19,2
14,-9.999999738426161e-9,19,2
7,-9.999999738425693e-9,19,2
8,-9.999999738425706e-9,19,2
19,-9.999999738426166e-9,19,2
4,-9.999999738425691e-9,19,2
22,-9.999999738423554e-9,19,2
11,-9.999999738425706e-9,19,2
35,-9.99999973842571e-9,19,2
13,-9.999999738425706e-9,19,2
15,-9.999999738426146e-9,19,2
16,-9.999999738426187e-9,19,2
40,-9.999999738426178e-9,19,2
46,-9.999999738425706e-9,19,2
21,-9.999999738425704e-9,19,2
38,-9.99999973842618e-9,19,2
45,-9.999999738425704e-9,19,2
36,-9.99999973842571e-9,19,2
48,-9.999999738426229e-9,19,2
18,-9.999999738426156e-9,19,2
30,-9.99999973842571e-9,19,2
3,-9.999999738425691e-9,19,2
32,-9.999999736679364e-9,20,2
29,-9.999999736679379e-9,20,2
1,-9.99999973667936e-9,20,2
2,-9.99999973667936e-9,20,2
41,-9.999999736679852e-9,20,2
27,-9.999999736679377e-9,20,2
42,-9.999999736679852e-9,20,2
33,-9.999999736679377e-9,20,2
28,-9.999999736679377e-9,20,2
26,-9.999999736679377e-9,20,2
10,-9.999999736679376e-9,20,2
24,-9.999999736677136e-9,20,2
25,-9.999999736677193e-9,20,2
23,-9.999999736677193e-9,20,2
49,-9.999999736679905e-9,20,2
5,-9.999999736679369e-9,20,2
31,-9.999999736677193e-9,20,2
43,-9.999999736679852e-9,20,2
39,-9.99999973667987e-9,20,2
34,-9.999999736679377e-9,20,2
44,-9.999999736679852e-9,20,2
17,-9.999999736679862e-9,20,2
37,-9.999999736679961e-9,20,2
47,-9.999999736677966e-9,20,2
9,-9.999999736679376e-9,20,2
12,-9.999999736679376e-9,20,2
20,-9.999999736679845e-9,20,2
6,-9.999999736677193e-9,20,2
14,-9.999999736679835e-9,20,2
7,-9.99999973667936e-9,20,2
8,-9.999999736679376e-9,20,2
19,-9.99999973667984e-9,20,2
4,-9.99999973667936e-9,20,2
22,-9.999999736677193e-9,20,2
11,-9.999999736679376e-9,20,2
35,-9.999999736679377e-9,20,2
13,-9.999999736679376e-9,20,2
15,-9.99999973667982e-9,20,2
16,-9.999999736679862e-9,20,2
40,-9.999999736679852e-9,20,2
46,-9.999999736679376e-9,20,2
21,-9.999999736679374e-9,20,2
38,-9.999999736679855e-9,20,2
45,-9.999999736679374e-9,20,2
36,-9.999999736679377e-9,20,2
48,-9.999999736679905e-9,20,2
18,-9.99999973667983e-9,20,2
30,-9.999999736679379e-9,20,2
3,-9.99999973667936e-9,20,2
32,-9.999999740866954e-9,21,2
29,-9.999999740866969e-9,21,2
1,-9.999999740866953e-9,21,2
2,-9.999999740866953e-9,21,2
41,-9.999999740867427e-9,21,2
27,-9.999999740866969e-9,21,2
42,-9.999999740867427e-9,21,2
33,-9.999999740866969e-9,21,2
28,-9.999999740866969e-9,21,2
26,-9.999999740866969e-9,21,2
10,-9.999999740866967e-9,21,2
24,-9.999999740864799e-9,21,2
25,-9.999999740864853e-9,21,2
23,-9.999999740864853e-9,21,2
49,-9.999999740867479e-9,21,2
5,-9.999999740866961e-9,21,2
31,-9.999999740864853e-9,21,2
43,-9.999999740867427e-9,21,2
39,-9.999999740867446e-9,21,2
34,-9.999999740866969e-9,21,2
44,-9.999999740867427e-9,21,2
17,-9.999999740867439e-9,21,2
37,-9.999999740867533e-9,21,2
47,-9.999999740865601e-9,21,2
9,-9.999999740866967e-9,21,2
12,-9.999999740866967e-9,21,2
20,-9.99999974086742e-9,21,2
6,-9.999999740864853e-9,21,2
14,-9.999999740867412e-9,21,2
7,-9.999999740866953e-9,21,2
8,-9.999999740866967e-9,21,2
19,-9.999999740867417e-9,21,2
4,-9.999999740866953e-9,21,2
22,-9.999999740864853e-9,21,2
11,-9.999999740866967e-9,21,2
35,-9.999999740866969e-9,21,2
13,-9.999999740866967e-9,21,2
15,-9.999999740867398e-9,21,2
16,-9.999999740867439e-9,21,2
40,-9.999999740867427e-9,21,2
46,-9.999999740866966e-9,21,2
21,-9.999999740866966e-9,21,2
38,-9.999999740867432e-9,21,2
45,-9.999999740866964e-9,21,2
36,-9.999999740866969e-9,21,2
48,-9.999999740867479e-9,21,2
18,-9.999999740867408e-9,21,2
30,-9.999999740866969e-9,21,2
3,-9.999999740866953e-9,21,2
32,-9.999915109320633e-9,22,2
29,-9.999915117535221e-9,22,2
1,-9.99991510772363e-9,22,2
2,-9.99991510772363e-9,22,2
41,-9.999915149337902e-9,22,2
27,-9.999915117290551e-9,22,2
42,-9.999915149337902e-9,22,2
33,-9.999915117054343e-9,22,2
28,-9.999915117290551e-9,22,2
26,-9.999915117290551e-9,22,2
10,-9.999915116027615e-9,22,2
24,-9.999914919849257e-9,22,2
25,-9.999914951723463e-9,22,2
23,-9.99991495177244e-9,22,2
49,-9.999915156870516e-9,22,2
5,-9.999915112685281e-9,22,2
31,-9.99991495156973e-9,22,2
43,-9.999915149337902e-9,22,2
39,-9.999915153358263e-9,22,2
34,-9.999915117054343e-9,22,2
44,-9.9999151493379e-9,22,2
17,-9.99991515212201e-9,22,2
37,-9.999915161401231e-9,22,2
47,-9.999915010516632e-9,22,2
9,-9.999915116027615e-9,22,2
12,-9.999915116027615e-9,22,2
20,-9.99991514680753e-9,22,2
6,-9.999914951536454e-9,22,2
14,-9.999915142575456e-9,22,2
7,-9.999915108082173e-9,22,2
8,-9.999915116027615e-9,22,2
19,-9.999915144878469e-9,22,2
4,-9.999915107723623e-9,22,2
22,-9.999914951388984e-9,22,2
11,-9.999915116027615e-9,22,2
35,-9.999915117054343e-9,22,2
13,-9.999915116027615e-9,22,2
15,-9.999915135007117e-9,22,2
16,-9.99991515212201e-9,22,2
40,-9.999915149337902e-9,22,2
46,-9.99991511594781e-9,22,2
21,-9.999915115141317e-9,22,2
38,-9.999915150519564e-9,22,2
45,-9.999915115070046e-9,22,2
36,-9.999915117054343e-9,22,2
48,-9.999915156870516e-9,22,2
18,-9.999915139729435e-9,22,2
30,-9.999915117535221e-9,22,2
3,-9.999915107723623e-9,22,2
32,-9.907909389420114e-9,23,2
29,-9.91550132215231e-9,23,2
1,-9.906302311975965e-9,23,2
2,-9.906302435191241e-9,23,2
41,-9.935461172571959e-9,23,2
27,-9.915285502586524e-9,23,2
42,-9.935462185478448e-9,23,2
33,-9.915084686387835e-9,23,2
28,-9.91528549576382e-9,23,2
26,-9.915285516006484e-9,23,2
10,-9.914171361583367e-9,23,2
24,3.505199593939969e-8,23,2
25,8.66795973048704e-8,23,2
23,9.315434472267728e-8,23,2
49,-9.939178509101944e-9,23,2
5,-9.911063015195776e-9,23,2
31,7.384733585993486e-8,23,2
43,-9.935462084169543e-9,23,2
39,-9.93751601185523e-9,23,2
34,-9.915084714914065e-9,23,2
44,-9.9354642333793e-9,23,2
17,-9.936897773053972e-9,23,2
37,-9.941198183580812e-9,23,2
47,-9.561129430300182e-9,23,2
9,-9.91417129921919e-9,23,2
12,-9.914171626592891e-9,23,2
20,-9.934108577221504e-9,23,2
6,7.105543453049119e-8,23,2
14,-9.93179752414151e-9,23,2
7,-9.906683166093287e-9,23,2
8,-9.914171122566908e-9,23,2
19,-9.933059901572746e-9,23,2
4,-9.906312613611568e-9,23,2
22,6.531967922565419e-8,23,2
11,-9.91417162878803e-9,23,2
35,-9.915084667144107e-9,23,2
13,-9.91417211218657e-9,23,2
15,-9.927667701906469e-9,23,2
16,-9.936897419614076e-9,23,2
40,-9.935461302397076e-9,23,2
46,-9.91409521247339e-9,23,2
21,-9.913356371143677e-9,23,2
38,-9.93607610660997e-9,23,2
45,-9.913294578037351e-9,23,2
36,-9.915084665866291e-9,23,2
48,-9.93917847036466e-9,23,2
18,-9.93034180893867e-9,23,2
30,-9.915501321404558e-9,23,2
3,-9.906313063709815e-9,23,2
32,-9.999999735176868e-9,24,2
29,-9.999999735176883e-9,24,2
1,-9.999999735176865e-9,24,2
2,-9.999999735176865e-9,24,2
41,-9.999999735177363e-9,24,2
27,-9.999999735176883e-9,24,2
42,-9.999999735177363e-9,24,2
33,-9.999999735176881e-9,24,2
28,-9.999999735176883e-9,24,2
26,-9.999999735176883e-9,24,2
10,-9.99999973517688e-9,24,2
24,-9.999999735174615e-9,24,2
25,-9.999999735174673e-9,24,2
23,-9.999999735174673e-9,24,2
49,-9.999999735177416e-9,24,2
5,-9.999999735176875e-9,24,2
31,-9.999999735174673e-9,24,2
43,-9.999999735177363e-9,24,2
39,-9.999999735177381e-9,24,2
34,-9.999999735176881e-9,24,2
44,-9.999999735177363e-9,24,2
17,-9.999999735177373e-9,24,2
37,-9.999999735177472e-9,24,2
47,-9.999999735175454e-9,24,2
9,-9.99999973517688e-9,24,2
12,-9.99999973517688e-9,24,2
20,-9.999999735177355e-9,24,2
6,-9.999999735174673e-9,24,2
14,-9.999999735177346e-9,24,2
7,-9.999999735176865e-9,24,2
8,-9.99999973517688e-9,24,2
19,-9.999999735177351e-9,24,2
4,-9.999999735176865e-9,24,2
22,-9.999999735174673e-9,24,2
11,-9.99999973517688e-9,24,2
35,-9.999999735176881e-9,24,2
13,-9.99999973517688e-9,24,2
15,-9.999999735177331e-9,24,2
16,-9.999999735177373e-9,24,2
40,-9.999999735177363e-9,24,2
46,-9.99999973517688e-9,24,2
21,-9.999999735176878e-9,24,2
38,-9.999999735177366e-9,24,2
45,-9.999999735176878e-9,24,2
36,-9.999999735176881e-9,24,2
48,-9.999999735177416e-9,24,2
18,-9.99999973517734e-9,24,2
30,-9.999999735176883e-9,24,2
3,-9.999999735176865e-9,24,2
32,0.05400000755039598,1,3
29,0.6695800767093482,1,3
1,0.045300007584533813,1,3
2,0.045300007584533813,1,3
41,-9.846371578841953e-9,1,3
27,0.6695800740343892,1,3
42,-9.846371578841953e-9,1,3
33,0.6695800575502951,1,3
28,0.6695800740405826,1,3
26,0.6695800740221439,1,3
10,0.2792000061372837,1,3
24,0.014000009968695439,1,3
25,1.3350000133186954,1,3
23,1.5480000154486955,1,3
49,-9.860382514889479e-9,1,3
5,0.09070000739509526,1,3
31,0.9240000099686956,1,3
43,-9.846371578841953e-9,1,3
39,-9.850632516642146e-9,1,3
34,0.6695800575238381,1,3
44,-9.846371578841953e-9,1,3
17,-9.84860804276702e-9,1,3
37,-9.874396107957999e-9,1,3
47,5.691500056866968,1,3
9,0.2792000061372837,1,3
12,0.2792000061372837,1,3
20,-9.845545443738604e-9,1,3
6,0.8650000099686955,1,3
14,-9.844910019377044e-9,1,3
7,0.04700000757793821,1,3
8,0.2792000061372837,1,3
19,-9.84518865968062e-9,1,3
4,0.045300007584533813,1,3
22,0.6760000099686955,1,3
11,0.2792000061372837,1,3
35,0.669580057567967,1,3
13,0.2792000061372837,1,3
15,-9.844470123985288e-9,1,3
16,-9.84860804276702e-9,1,3
40,-9.846371578841953e-9,1,3
46,0.2660000062636226,1,3
21,0.18000000691995743,1,3
38,-9.847033909984121e-9,1,3
45,0.17500000695109538,1,3
36,0.6695800575691353,1,3
48,-9.860382514889479e-9,1,3
18,-9.844710375775164e-9,1,3
30,0.6695800767100257,1,3
3,0.045300007584533813,1,3
32,0.054000007585059615,2,3
29,0.6784160069311025,2,3
1,0.04530000761824469,2,3
2,0.04530000761824469,2,3
41,-9.84623315653003e-9,2,3
27,0.6784160042017837,2,3
42,-9.84623315653003e-9,2,3
33,0.6784159863197021,2,3
28,0.6784160042080662,2,3
26,0.6784160041893822,2,3
10,0.27920000622277796,2,3
24,0.01400000996870118,2,3
25,1.3350000133187012,2,3
23,1.5480000154487012,2,3
49,-9.860268198922132e-9,2,3
5,0.09070000743425831,2,3
31,0.9240000099687012,2,3
43,-9.84623315653003e-9,2,3
39,-9.850501669500928e-9,2,3
34,0.6784159862928827,2,3
44,-9.84623315653003e-9,2,3
17,-9.848473623083084e-9,2,3
37,-9.874303596019228e-9,2,3
47,5.691500056866982,2,3
9,0.27920000622277796,2,3
12,0.27920000622277796,2,3
20,-9.845405528017105e-9,2,3
6,0.8650000099687012,2,3
14,-9.844768949539826e-9,2,3
7,0.04700000761183213,2,3
8,0.27920000622277796,2,3
19,-9.845048096518587e-9,2,3
4,0.04530000761824468,2,3
22,0.6760000099687011,2,3
11,0.27920000622277796,2,3
35,0.6784159863376191,2,3
13,0.27920000622277796,2,3
15,-9.844328252389478e-9,2,3
16,-9.848473623083084e-9,2,3
40,-9.84623315653003e-9,2,3
46,0.2660000063436737,2,3
21,0.18000000697456048,2,3
38,-9.846896679179918e-9,2,3
45,0.1750000070046096,2,3
36,0.6784159863388061,2,3
48,-9.860268198922132e-9,2,3
18,-9.844568942345377e-9,2,3
30,0.6784160069317887,2,3
3,0.04530000761824468,2,3
32,0.05400000751275588,3,3
29,0.6602643464345976,3,3
1,0.045300007547943354,3,3
2,0.045300007547943354,3,3
41,-9.846517247997129e-9,3,3
27,0.6602643438096987,3,3
42,-9.846517247997129e-9,3,3
33,0.6602643286708219,3,3
28,0.6602643438158158,3,3
26,0.6602643437976299,3,3
10,0.2792000060428534,3,3
24,0.014000009968689385,3,3
25,1.3350000133186894,3,3
23,1.5480000154486895,3,3
49,-9.860502835948156e-9,3,3
5,0.09070000735248973,3,3
31,0.9240000099686895,3,3
43,-9.846517247997129e-9,3,3
39,-9.850770221105096e-9,3,3
34,0.660264328644753,3,3
44,-9.846517247997129e-9,3,3
17,-9.848749503553193e-9,3,3
37,-9.874493496032636e-9,3,3
47,5.691500056866953,3,3
9,0.2792000060428534,3,3
12,0.2792000060428534,3,3
20,-9.845692683021308e-9,3,3
6,0.8650000099686894,3,3
14,-9.845058472053194e-9,3,3
7,0.047000007541146124,3,3
8,0.2792000060428534,3,3
19,-9.845336579657363e-9,3,3
4,0.045300007547943354,3,3
22,0.6760000099686894,3,3
11,0.2792000060428534,3,3
35,0.660264328688251,3,3
13,0.2792000060428534,3,3
15,-9.844619419589254e-9,3,3
16,-9.848749503553193e-9,3,3
40,-9.846517247997129e-9,3,3
46,0.266000006175339,3,3
21,0.18000000686021356,3,3
38,-9.847178326403745e-9,3,3
45,0.17500000689256487,3,3
36,0.6602643286894024,3,3
48,-9.860502835948156e-9,3,3
18,-9.844859210711007e-9,3,3
30,0.6602643464352653,3,3
3,0.04530000754794335,3,3
32,0.05400000748043238,4,3
29,0.6524865870557016,4,3
1,0.04530000751653372,4,3
2,0.04530000751653372,4,3
41,-9.846638656619048e-9,4,3
27,0.6524865844719852,4,3
42,-9.846638656619048e-9,4,3
33,0.6524865703494748,4,3
28,0.6524865844780233,4,3
26,0.6524865844600509,4,3
10,0.2792000059604027,4,3
24,0.014000009968684326,4,3
25,1.3350000133186843,4,3
23,1.5480000154486844,4,3
49,-9.860603133986724e-9,4,3
5,0.09070000731583577,4,3
31,0.9240000099686845,4,3
43,-9.846638656619048e-9,4,3
39,-9.850884997052092e-9,4,3
34,0.6524865703237156,4,3
44,-9.846638656619048e-9,4,3
17,-9.848867407676398e-9,4,3
37,-9.874574690318843e-9,4,3
47,5.69150005687729,4,3
9,0.2792000059604027,4,3
12,0.2792000059604027,4,3
20,-9.845815399130435e-9,4,3
6,0.8650000099686844,4,3
14,-9.84518219856885e-9,4,3
7,0.04700000750956099,4,3
8,0.2792000059604027,4,3
19,-9.845459862591024e-9,4,3
4,0.04530000751653372,4,3
22,0.6760000099686844,4,3
11,0.2792000059604027,4,3
35,0.6524865703666864,4,3
13,0.2792000059604027,4,3
15,-9.84474384801596e-9,4,3
16,-9.848867407676398e-9,4,3
40,-9.846638656619048e-9,4,3
46,0.2660000060983705,4,3
21,0.18000000680852848,4,3
38,-9.847298691829639e-9,4,3
45,0.175000006841948,4,3
36,0.6524865703678268,4,3
48,-9.860603133986724e-9,4,3
18,-9.844983255539965e-9,4,3
30,0.6524865870563675,4,3
3,0.04530000751653372,4,3
32,0.05400000794763434,5,3
29,0.788726498846996,5,3
1,0.04530000797165231,5,3
2,0.04530000797165231,5,3
41,-9.844483814763333e-9,5,3
27,0.7887264953798248,5,3
42,-9.844483814763333e-9,5,3
33,0.772199918757405,5,3
28,0.7887264953871348,5,3
26,0.7887264953653715,5,3
10,0.2792000070405318,5,3
24,0.01400000996877268,5,3
25,1.3350000133187727,5,3
23,1.5480000154487727,5,3
49,-9.858825123450615e-9,5,3
5,0.09070000783972748,5,3
31,0.9240000099687727,5,3
43,-9.844483814763333e-9,5,3
39,-9.84884862395595e-9,5,3
34,0.7721999187574048,5,3
44,-9.844483814763333e-9,5,3
17,-9.84677516919668e-9,5,3
37,-9.87313707127066e-9,5,3
47,4.55320052496181,5,3
9,0.2792000070405318,5,3
12,0.2792000070405318,5,3
20,-9.84363719611841e-9,5,3
6,0.8650000099687727,5,3
14,-9.842985940649311e-9,5,3
7,0.04700000796700343,5,3
8,0.2792000070405318,5,3
19,-9.843271531208677e-9,5,3
4,0.04530000797165231,5,3
22,0.6760000099687726,5,3
11,0.2792000070405318,5,3
35,0.7721999187574051,5,3
13,0.2792000070405318,5,3
15,-9.842535046816642e-9,5,3
16,-9.84677516919668e-9,5,3
40,-9.844483814763333e-9,5,3
46,0.2660000071152649,5,3
21,0.1800000075228161,5,3
38,-9.845162487219221e-9,5,3
45,0.1750000075429976,5,3
36,0.7721999187574051,5,3
48,-9.858825123450615e-9,5,3
18,-9.842781309405969e-9,5,3
30,0.7887264988477952,5,3
3,0.04530000797165231,5,3
32,0.054000008407617414,6,3
29,1.000963028097219,6,3
1,0.045300008422113874,6,3
2,0.045300008422113874,6,3
41,-9.841003628469184e-9,6,3
27,1.0009630219757724,6,3
42,-9.841003628469184e-9,6,3
33,0.7722000034083426,6,3
28,1.000963021985064,6,3
26,1.0009630219573193,6,3
10,0.27920000791077204,6,3
24,0.014000009968909329,6,3
25,1.3350000133189093,6,3
23,1.5480000154489093,6,3
49,-9.855963115607309e-9,6,3
5,0.09070000834341568,6,3
31,0.9240000099689094,6,3
43,-9.841003628469184e-9,6,3
39,-9.8455631137051e-9,6,3
34,0.7722000034083426,6,3
44,-9.841003628469184e-9,6,3
17,-9.843397894143254e-9,6,3
37,-9.8708306756455e-9,6,3
47,3.414900513626655,6,3
9,0.27920000791077204,6,3
12,0.27920000791077204,6,3
20,-9.840118586270045e-9,6,3
6,0.8650000099689094,6,3
14,-9.839437626984938e-9,6,3
7,0.04700000841930202,6,3
8,0.27920000791077204,6,3
19,-9.839736259065178e-9,6,3
4,0.045300008422113874,6,3
22,0.6760000099689093,6,3
11,0.27920000791077204,6,3
35,0.7722000034083426,6,3
13,0.27920000791077204,6,3
15,-9.838966093050317e-9,6,3
16,-9.843397894143254e-9,6,3
40,-9.841003628469184e-9,6,3
46,0.2660000079482948,6,3
21,0.1800000081632212,6,3
38,-9.841712946582899e-9,6,3
45,0.17500000817434022,6,3
36,0.7722000034083426,6,3
48,-9.855963115607309e-9,6,3
18,-9.839223636126994e-9,6,3
30,1.0009630280982271,6,3
3,0.045300008422113874,6,3
32,0.054000008758415693,7,3
29,1.2685187669670044,7,3
1,0.04530000876724632,7,3
2,0.04530000876724632,7,3
41,-9.836387941559432e-9,7,3
27,1.268518717320721,7,3
42,-9.836387941559432e-9,7,3
33,0.7722000069617763,7,3
28,1.2685187173325359,7,3
26,1.268518717297144,7,3
10,0.2792000084757921,7,3
24,0.014000009969079899,7,3
25,1.3350000133190798,7,3
23,1.5480000154490798,7,3
49,-9.8521854391817e-9,7,3
5,0.09070000871972879,7,3
31,0.92400000996908,7,3
43,-9.836387941559432e-9,7,3
39,-9.841211978335258e-9,7,3
34,0.7722000069617763,7,3
44,-9.836387941559432e-9,7,3
17,-9.838922128913246e-9,7,3
37,-9.86780081977328e-9,7,3
47,2.276600502267498,7,3
9,0.2792000084757921,7,3
12,0.2792000084757921,7,3
20,-9.835450616229646e-9,7,3
6,0.86500000996908,7,3
14,-9.834729223583367e-9,7,3
7,0.04700000876553068,7,3
8,0.2792000084757921,7,3
19,-9.83504560964392e-9,7,3
4,0.04530000876724632,7,3
22,0.6760000099690799,7,3
11,0.2792000084757921,7,3
35,0.7722000069617763,7,3
13,0.2792000084757921,7,3
15,-9.8342295861901e-9,7,3
16,-9.838922128913246e-9,7,3
40,-9.836387941559432e-9,7,3
46,0.2660000084958611,7,3
21,0.18000000861469775,7,3
38,-9.837138943396276e-9,7,3
45,0.1750000086210319,7,3
36,0.7722000069617763,7,3
48,-9.8521854391817e-9,7,3
18,-9.834502489511676e-9,7,3
30,1.2685187669682967,7,3
3,0.04530000876724632,7,3
32,0.05400000913514566,8,3
29,1.7975623271709087,8,3
1,0.04530000913943967,8,3
2,0.04530000913943967,8,3
41,-9.826424370107083e-9,8,3
27,1.3005000099713213,8,3
42,-9.826424370107083e-9,8,3
33,0.7722000085293711,8,3
28,1.3005000099713213,8,3
26,1.3005000099713213,8,3
10,0.2792000090068724,8,3
24,0.014000009969411722,8,3
25,1.3350000133194118,8,3
23,1.5480000154494118,8,3
49,-9.844100575330874e-9,8,3
5,0.09070000911655003,8,3
31,0.9240000099694118,8,3
43,-9.826424370107083e-9,8,3
39,-9.831844109434458e-9,8,3
34,0.7722000085293711,8,3
44,-9.826424370107083e-9,8,3
17,-9.829273919251776e-9,8,3
37,-9.861371077105119e-9,8,3
47,1.1383004909003314,8,3
9,0.2792000090068724,8,3
12,0.2792000090068724,8,3
20,-9.82536903890598e-9,8,3
6,0.8650000099694117,8,3
14,-9.824556323780534e-9,8,3
7,0.047000009138603964,8,3
8,0.2792000090068724,8,3
19,-9.824912815513912e-9,8,3
4,0.04530000913943967,8,3
22,0.6760000099694117,8,3
11,0.2792000090068724,8,3
35,0.7722000085293711,8,3
13,0.2792000090068724,8,3
15,-9.82399318030156e-9,8,3
16,-9.829273919251776e-9,8,3
40,-9.826424370107083e-9,8,3
46,0.26600000901543186,8,3
21,0.18000000906777783,8,3
38,-9.827269389160186e-9,8,3
45,0.1750000090706505,8,3
36,0.7722000085293711,8,3
48,-9.844100575330874e-9,8,3
18,-9.824300796791208e-9,8,3
30,1.7975623271727343,8,3
3,0.04530000913943967,8,3
32,-9.990485481426918e-9,9,3
29,-9.990485481425264e-9,9,3
1,-9.990485481427239e-9,9,3
2,-9.990485481427239e-9,9,3
41,-9.991075873500719e-9,9,3
27,-9.990485481425313e-9,9,3
42,-9.991075873500719e-9,9,3
33,-9.990485481425361e-9,9,3
28,-9.990485481425313e-9,9,3
26,-9.990485481425313e-9,9,3
10,-9.990485481425568e-9,9,3
24,-9.986413476171458e-9,9,3
25,-9.98641347615838e-9,9,3
23,-9.986413476158356e-9,9,3
49,-9.991127594022302e-9,9,3
5,-9.99048548142624e-9,9,3
31,-9.986413476158453e-9,9,3
43,-9.991075873500719e-9,9,3
39,-9.991090637021314e-9,9,3
34,-9.990485481425361e-9,9,3
44,-9.991075873500719e-9,9,3
17,-9.991083524998232e-9,9,3
37,-9.991190056773642e-9,9,3
47,4.795291341614192e-7,9,3
9,-9.990485481425568e-9,9,3
12,-9.990485481425568e-9,9,3
20,-9.991073099892096e-9,9,3
6,-9.986413476158468e-9,9,3
14,-9.991070985509416e-9,9,3
7,-9.990485481427168e-9,9,3
8,-9.990485481425568e-9,9,3
19,-9.99107191067499e-9,9,3
4,-9.990485481427239e-9,9,3
22,-9.986413476158533e-9,9,3
11,-9.990485481425568e-9,9,3
35,-9.990485481425361e-9,9,3
13,-9.990485481425568e-9,9,3
15,-9.991069531291049e-9,9,3
16,-9.991083524998232e-9,9,3
40,-9.991075873500719e-9,9,3
46,-9.990485481425585e-9,9,3
21,-9.990485481425747e-9,9,3
38,-9.991078117541048e-9,9,3
45,-9.99048548142576e-9,9,3
36,-9.990485481425361e-9,9,3
48,-9.991127594022302e-9,9,3
18,-9.991070324559676e-9,9,3
30,-9.990485481425264e-9,9,3
3,-9.990485481427239e-9,9,3
32,-9.9682665275074e-9,10,3
29,-9.96826652748898e-9,10,3
1,-9.968266527510983e-9,10,3
2,-9.968266527510983e-9,10,3
41,-9.974002825803085e-9,10,3
27,-9.968266527489527e-9,10,3
42,-9.974002825803085e-9,10,3
33,-9.968266527490057e-9,10,3
28,-9.968266527489527e-9,10,3
26,-9.968266527489527e-9,10,3
10,-9.96826652749236e-9,10,3
24,7.203137093790036e-8,10,3
25,6.928562750194959e-8,10,3
23,7.961665930195347e-8,10,3
49,-9.974436930926216e-9,10,3
5,-9.968266527499855e-9,10,3
31,6.924445122562638e-8,10,3
43,-9.974002825803085e-9,10,3
39,-9.974127718898632e-9,10,3
34,-9.968266527490057e-9,10,3
44,-9.974002825803085e-9,10,3
17,-9.974067652739948e-9,10,3
37,-9.974948672076396e-9,10,3
47,-9.910207531223751e-9,10,3
9,-9.96826652749236e-9,10,3
12,-9.96826652749236e-9,10,3
20,-9.973979273990259e-9,10,3
6,6.924435365469396e-8,10,3
14,-9.973961301093461e-9,10,3
7,-9.968266527510178e-9,10,3
8,-9.96826652749236e-9,10,3
19,-9.973969167289249e-9,10,3
4,-9.968266527510983e-9,10,3
22,6.92543439963509e-8,10,3
11,-9.96826652749236e-9,10,3
35,-9.968266527490057e-9,10,3
13,-9.96826652749236e-9,10,3
15,-9.973948930324778e-9,10,3
16,-9.974067652739948e-9,10,3
40,-9.974002825803085e-9,10,3
46,-9.96826652749254e-9,10,3
21,-9.968266527494348e-9,10,3
38,-9.974021860354002e-9,10,3
45,-9.968266527494507e-9,10,3
36,-9.968266527490057e-9,10,3
48,-9.974436930926216e-9,10,3
18,-9.97395567947268e-9,10,3
30,-9.96826652748898e-9,10,3
3,-9.968266527510983e-9,10,3
32,-9.968266527569977e-9,11,3
29,-9.968266527551554e-9,11,3
1,-9.968266527573557e-9,11,3
2,-9.968266527573557e-9,11,3
41,-9.974002825818237e-9,11,3
27,-9.968266527552102e-9,11,3
42,-9.974002825818237e-9,11,3
33,-9.968266527552633e-9,11,3
28,-9.968266527552102e-9,11,3
26,-9.968266527552102e-9,11,3
10,-9.968266527554934e-9,11,3
24,7.144566604343424e-8,11,3
25,7.144623058329247e-8,11,3
23,7.144623270831875e-8,11,3
49,-9.974436930939821e-9,11,3
5,-9.96826652756243e-9,11,3
31,7.144622846380717e-8,11,3
43,-9.974002825818237e-9,11,3
39,-9.97412771891332e-9,11,3
34,-9.968266527552633e-9,11,3
44,-9.974002825818237e-9,11,3
17,-9.974067652754857e-9,11,3
37,-9.974948672088389e-9,11,3
47,-9.910207748565859e-9,11,3
9,-9.968266527554934e-9,11,3
12,-9.968266527554934e-9,11,3
20,-9.973979274005499e-9,11,3
6,7.144622410532546e-8,11,3
14,-9.973961301108771e-9,11,3
7,-9.968266527572753e-9,11,3
8,-9.968266527554934e-9,11,3
19,-9.973969167304527e-9,11,3
4,-9.968266527573557e-9,11,3
22,7.14462249334541e-8,11,3
11,-9.968266527554934e-9,11,3
35,-9.968266527552633e-9,11,3
13,-9.968266527554934e-9,11,3
15,-9.973948930340135e-9,11,3
16,-9.974067652754857e-9,11,3
40,-9.974002825818237e-9,11,3
46,-9.968266527555114e-9,11,3
21,-9.968266527556922e-9,11,3
38,-9.974021860369083e-9,11,3
45,-9.968266527557083e-9,11,3
36,-9.968266527552633e-9,11,3
48,-9.974436930939821e-9,11,3
18,-9.973955679488012e-9,11,3
30,-9.968266527551554e-9,11,3
3,-9.968266527573557e-9,11,3
32,-9.968266525987857e-9,12,3
29,-9.968266525969437e-9,12,3
1,-9.968266525991438e-9,12,3
2,-9.968266525991438e-9,12,3
41,-9.974002825449052e-9,12,3
27,-9.968266525969986e-9,12,3
42,-9.974002825449052e-9,12,3
33,-9.968266525970516e-9,12,3
28,-9.968266525969986e-9,12,3
26,-9.968266525969986e-9,12,3
10,-9.968266525972819e-9,12,3
24,2.8557154757731777e-8,12,3
25,1.0435231351029479e-7,12,3
23,1.2531478303901556e-8,12,3
49,-9.974436930610369e-9,12,3
5,-9.968266525980313e-9,12,3
31,1.0348107393857782e-7,12,3
43,-9.974002825449052e-9,12,3
39,-9.974127718556032e-9,12,3
34,-9.968266525970516e-9,12,3
44,-9.974002825449052e-9,12,3
17,-9.974067652391893e-9,12,3
37,-9.97494867180032e-9,12,3
47,-9.91020347585813e-9,12,3
9,-9.968266525972819e-9,12,3
12,-9.968266525972819e-9,12,3
20,-9.973979273634027e-9,12,3
6,9.857567071222179e-8,12,3
14,-9.973961300735544e-9,12,3
7,-9.968266525990634e-9,12,3
8,-9.968266525972819e-9,12,3
19,-9.97396916693207e-9,12,3
4,-9.968266525991438e-9,12,3
22,8.117911129653497e-8,12,3
11,-9.968266525972819e-9,12,3
35,-9.968266525970516e-9,12,3
13,-9.968266525972819e-9,12,3
15,-9.973948929965694e-9,12,3
16,-9.974067652391893e-9,12,3
40,-9.974002825449052e-9,12,3
46,-9.968266525972997e-9,12,3
21,-9.968266525974806e-9,12,3
38,-9.974021860001734e-9,12,3
45,-9.968266525974966e-9,12,3
36,-9.968266525970516e-9,12,3
48,-9.974436930610369e-9,12,3
18,-9.973955679114233e-9,12,3
30,-9.968266525969437e-9,12,3
3,-9.968266525991438e-9,12,3
32,-9.968266281029173e-9,13,3
29,-9.968266281010751e-9,13,3
1,-9.968266281032754e-9,13,3
2,-9.968266281032754e-9,13,3
41,-9.974002711754023e-9,13,3
27,-9.9682662810113e-9,13,3
42,-9.974002711754023e-9,13,3
33,-9.96826628101183e-9,13,3
28,-9.9682662810113e-9,13,3
26,-9.9682662810113e-9,13,3
10,-9.968266281014133e-9,13,3
24,8.067236055065348e-8,13,3
25,6.951338775685972e-8,13,3
23,6.947851995635715e-8,13,3
49,-9.974436824272155e-9,13,3
5,-9.968266281021629e-9,13,3
31,6.962203886572134e-8,13,3
43,-9.974002711754023e-9,13,3
39,-9.974127607011753e-9,13,3
34,-9.96826628101183e-9,13,3
44,-9.974002711754023e-9,13,3
17,-9.9740675398167e-9,13,3
37,-9.974948573711874e-9,13,3
47,-9.910200340163212e-9,13,3
9,-9.968266281014133e-9,13,3
12,-9.968266281014133e-9,13,3
20,-9.973979159530303e-9,13,3
6,6.96423795168218e-8,13,3
14,-9.973961186319268e-9,13,3
7,-9.96826628103195e-9,13,3
8,-9.968266281014133e-9,13,3
19,-9.973969052652659e-9,13,3
4,-9.968266281032754e-9,13,3
22,6.974810471194169e-8,13,3
11,-9.968266281014133e-9,13,3
35,-9.96826628101183e-9,13,3
13,-9.968266281014133e-9,13,3
15,-9.973948815333952e-9,13,3
16,-9.9740675398167e-9,13,3
40,-9.974002711754023e-9,13,3
46,-9.968266281014312e-9,13,3
21,-9.968266281016121e-9,13,3
38,-9.97402174663629e-9,13,3
45,-9.96826628101628e-9,13,3
36,-9.96826628101183e-9,13,3
48,-9.974436824272155e-9,13,3
18,-9.973955564600076e-9,13,3
30,-9.968266281010751e-9,13,3
3,-9.968266281032754e-9,13,3
32,-9.968266524930515e-9,14,3
29,-9.968266524912098e-9,14,3
1,-9.968266524934095e-9,14,3
2,-9.968266524934095e-9,14,3
41,-9.97400282520437e-9,14,3
27,-9.968266524912646e-9,14,3
42,-9.97400282520437e-9,14,3
33,-9.968266524913175e-9,14,3
28,-9.968266524912646e-9,14,3
26,-9.968266524912646e-9,14,3
10,-9.968266524915478e-9,14,3
24,7.222362690245933e-8,14,3
25,7.187978253034641e-8,14,3
23,6.889094296159923e-8,14,3
49,-9.974436930392651e-9,14,3
5,-9.968266524922971e-9,14,3
31,7.189079062372835e-8,14,3
43,-9.97400282520437e-9,14,3
39,-9.97412771831942e-9,14,3
34,-9.968266524913175e-9,14,3
44,-9.97400282520437e-9,14,3
17,-9.974067652151435e-9,14,3
37,-9.974948671610705e-9,14,3
47,-9.910201527333687e-9,14,3
9,-9.968266524915478e-9,14,3
12,-9.968266524915478e-9,14,3
20,-9.973979273387794e-9,14,3
6,7.189252020583728e-8,14,3
14,-9.97396130048812e-9,14,3
7,-9.968266524933291e-9,14,3
8,-9.968266524915478e-9,14,3
19,-9.973969166685167e-9,14,3
4,-9.968266524934095e-9,14,3
22,7.18991373162881e-8,14,3
11,-9.968266524915478e-9,14,3
35,-9.968266524913175e-9,14,3
13,-9.968266524915478e-9,14,3
15,-9.973948929717449e-9,14,3
16,-9.974067652151435e-9,14,3
40,-9.97400282520437e-9,14,3
46,-9.968266524915657e-9,14,3
21,-9.968266524917465e-9,14,3
38,-9.9740218597583e-9,14,3
45,-9.968266524917624e-9,14,3
36,-9.968266524913175e-9,14,3
48,-9.974436930392651e-9,14,3
18,-9.973955678866437e-9,14,3
30,-9.968266524912098e-9,14,3
3,-9.968266524934095e-9,14,3
32,-9.968455655895431e-9,15,3
29,-9.96845565587673e-9,15,3
1,-9.968455655899244e-9,15,3
2,-9.968455655899244e-9,15,3
41,-9.97409745394561e-9,15,3
27,-9.968455655877683e-9,15,3
42,-9.97409745394561e-9,15,3
33,-9.968455655878133e-9,15,3
28,-9.968455655877683e-9,15,3
26,-9.968455655877683e-9,15,3
10,-9.96845565588114e-9,15,3
24,-5.275802524342998e-9,15,3
25,9.510950488015893e-8,15,3
23,9.904306641528368e-8,15,3
49,-9.974526018099477e-9,15,3
5,-9.968455655888508e-9,15,3
31,8.411430776954947e-8,15,3
43,-9.97409745394561e-9,15,3
39,-9.974220730941686e-9,15,3
34,-9.968455655878133e-9,15,3
44,-9.97409745394561e-9,15,3
17,-9.974161439808835e-9,15,3
37,-9.97503149996566e-9,15,3
47,-9.914178530276194e-9,15,3
9,-9.96845565588114e-9,15,3
12,-9.96845565588114e-9,15,3
20,-9.974074208886196e-9,15,3
6,8.203485771187864e-8,15,3
14,-9.974056470506978e-9,15,3
7,-9.968455655898856e-9,15,3
8,-9.96845565588114e-9,15,3
19,-9.974064234016197e-9,15,3
4,-9.968455655899244e-9,15,3
22,7.36611564294523e-8,15,3
11,-9.96845565588114e-9,15,3
35,-9.968455655878133e-9,15,3
13,-9.96845565588114e-9,15,3
15,-9.974044261372336e-9,15,3
16,-9.974161439808835e-9,15,3
40,-9.97409745394561e-9,15,3
46,-9.968455655881518e-9,15,3
21,-9.968455655882795e-9,15,3
38,-9.974116241041562e-9,15,3
45,-9.96845565588293e-9,15,3
36,-9.968455655878133e-9,15,3
48,-9.974526018099477e-9,15,3
18,-9.974050922315649e-9,15,3
30,-9.96845565587673e-9,15,3
3,-9.968455655899244e-9,15,3
32,-9.990474741468163e-9,16,3
29,-9.990474741466507e-9,16,3
1,-9.990474741468486e-9,16,3
2,-9.990474741468486e-9,16,3
41,-9.991066425715885e-9,16,3
27,-9.990474741466555e-9,16,3
42,-9.991066425715885e-9,16,3
33,-9.990474741466603e-9,16,3
28,-9.990474741466555e-9,16,3
26,-9.990474741466555e-9,16,3
10,-9.99047474146681e-9,16,3
24,-9.986391565507149e-9,16,3
25,-9.98639156549403e-9,16,3
23,-9.986391565494004e-9,16,3
49,-9.991118255488283e-9,16,3
5,-9.990474741467485e-9,16,3
31,-9.986391565494103e-9,16,3
43,-9.991066425715885e-9,16,3
39,-9.991081220486773e-9,16,3
34,-9.990474741466603e-9,16,3
44,-9.991066425715885e-9,16,3
17,-9.991074093415972e-9,16,3
37,-9.991180849333692e-9,16,3
47,4.795285740635461e-7,16,3
9,-9.99047474146681e-9,16,3
12,-9.99047474146681e-9,16,3
20,-9.991063646230516e-9,16,3
6,-9.986391565494118e-9,16,3
14,-9.991061527366635e-9,16,3
7,-9.990474741468413e-9,16,3
8,-9.99047474146681e-9,16,3
19,-9.991062454493127e-9,16,3
4,-9.990474741468486e-9,16,3
22,-9.98639156549418e-9,16,3
11,-9.99047474146681e-9,16,3
35,-9.990474741466603e-9,16,3
13,-9.99047474146681e-9,16,3
15,-9.991060070065595e-9,16,3
16,-9.991074093415972e-9,16,3
40,-9.991066425715885e-9,16,3
46,-9.990474741466827e-9,16,3
21,-9.99047474146699e-9,16,3
38,-9.991068674509568e-9,16,3
45,-9.990474741467004e-9,16,3
36,-9.990474741466603e-9,16,3
48,-9.991118255488283e-9,16,3
18,-9.991060865015868e-9,16,3
30,-9.990474741466507e-9,16,3
3,-9.990474741468486e-9,16,3
32,0.0540000090853879,17,3
29,1.7027070766470929,17,3
1,0.045300009090188845,17,3
2,0.045300009090188845,17,3
41,-9.828299115120876e-9,17,3
27,1.300500009255868,17,3
42,-9.828299115120876e-9,17,3
33,0.7722000083794562,17,3
28,1.300500009255868,17,3
26,1.300500009255868,17,3
10,0.27920000894069547,17,3
24,0.014000009969352753,17,3
25,1.3350000133193527,17,3
23,1.5480000154493527,17,3
49,-9.845614595553653e-9,17,3
5,0.09070000906456523,17,3
31,0.9240000099693528,17,3
43,-9.828299115120876e-9,17,3
39,-9.833604201421e-9,17,3
34,0.7722000083794562,17,3
44,-9.828299115120876e-9,17,3
17,-9.831087936705634e-9,17,3
37,-9.862569521343962e-9,17,3
47,1.1383004908997547,17,3
9,0.27920000894069547,17,3
12,0.27920000894069547,17,3
20,-9.827266525329625e-9,17,3
6,0.8650000099693528,17,3
14,-9.826471415885737e-9,17,3
7,0.047000009089254696,17,3
8,0.27920000894069547,17,3
19,-9.826820175111399e-9,17,3
4,0.045300009090188845,17,3
22,0.6760000099693527,17,3
11,0.27920000894069547,17,3
35,0.7722000083794562,17,3
13,0.27920000894069547,17,3
15,-9.825920518829375e-9,17,3
16,-9.831087936705634e-9,17,3
40,-9.828299115120876e-9,17,3
46,0.266000008950428,17,3
21,0.18000000900970614,17,3
38,-9.829126022570455e-9,17,3
45,0.17500000901294724,17,3
36,0.7722000083794562,17,3
48,-9.845614595553653e-9,17,3
18,-9.826221440940157e-9,17,3
30,1.7027070766488213,17,3
3,0.045300009090188845,17,3
32,0.054000008730920535,18,3
29,1.2422056867377753,18,3
1,0.04530000874014515,18,3
2,0.04530000874014515,18,3
41,-9.836853724642617e-9,18,3
27,1.242205658583703,18,3
42,-9.836853724642617e-9,18,3
33,0.7722000067916824,18,3
28,1.2422056585952745,18,3
26,1.242205658560642,18,3
10,0.2792000084341448,18,3
24,0.014000009969063207,18,3
25,1.3350000133190632,18,3
23,1.5480000154490632,18,3
49,-9.852565722191722e-9,18,3
5,0.09070000869047329,18,3
31,0.9240000099690633,18,3
43,-9.836853724642617e-9,18,3
39,-9.841650736312437e-9,18,3
34,0.7722000067916824,18,3
44,-9.836853724642617e-9,18,3
17,-9.83937361462003e-9,18,3
37,-9.868105082017964e-9,18,3
47,2.2766005022669074,18,3
9,0.2792000084341448,18,3
12,0.2792000084341448,18,3
20,-9.835921743813409e-9,18,3
6,0.8650000099690632,18,3
14,-9.835204485147895e-9,18,3
7,0.047000008738353194,18,3
8,0.2792000084341448,18,3
19,-9.835519055924828e-9,18,3
4,0.04530000874014515,18,3
22,0.6760000099690632,18,3
11,0.2792000084341448,18,3
35,0.7722000067916824,18,3
13,0.2792000084341448,18,3
15,-9.834707721510065e-9,18,3
16,-9.83937361462003e-9,18,3
40,-9.836853724642617e-9,18,3
46,0.2660000084553179,18,3
21,0.1800000085803809,18,3
38,-9.837600466307438e-9,18,3
45,0.175000008587032,18,3
36,0.7722000067916824,18,3
48,-9.852565722191722e-9,18,3
18,-9.83497905411009e-9,18,3
30,1.2422056867390288,18,3
3,0.04530000874014515,18,3
32,0.054000008369998735,19,3
29,0.9791081414143576,19,3
1,0.04530000838518496,19,3
2,0.04530000838518496,19,3
41,-9.841369175199521e-9,19,3
27,0.9791081356975,19,3
42,-9.841369175199521e-9,19,3
33,0.7722000027120919,19,3
28,0.9791081357065867,19,3
26,0.9791081356794643,19,3
10,0.27920000784553517,19,3
24,0.014000009968895312,19,3
25,1.3350000133188953,19,3
23,1.5480000154488953,19,3
49,-9.85626317682586e-9,19,3
5,0.09070000830266362,19,3
31,0.9240000099688954,19,3
43,-9.841369175199521e-9,19,3
39,-9.845908018462572e-9,19,3
34,0.7722000027120919,19,3
44,-9.841369175199521e-9,19,3
17,-9.843752526786086e-9,19,3
37,-9.871072040817587e-9,19,3
47,3.4149005136260424,19,3
9,0.27920000784553517,19,3
12,0.27920000784553517,19,3
20,-9.840488209176824e-9,19,3
6,0.8650000099688954,19,3
14,-9.839810401487206e-9,19,3
7,0.04700000838223982,19,3
8,0.27920000784553517,19,3
19,-9.840107649803787e-9,19,3
4,0.04530000838518496,19,3
22,0.6760000099688953,19,3
11,0.27920000784553517,19,3
35,0.7722000027120919,19,3
13,0.27920000784553517,19,3
15,-9.839341057713133e-9,19,3
16,-9.843752526786086e-9,19,3
40,-9.841369175199521e-9,19,3
46,0.26600000788541545,19,3
21,0.18000000811298697,19,3
38,-9.842075242734264e-9,19,3
45,0.17500000812472052,19,3
36,0.7722000027120919,19,3
48,-9.85626317682586e-9,19,3
18,-9.839597403771148e-9,19,3
30,0.9791081414153527,19,3
3,0.04530000838518496,19,3
32,0.05400000784289621,20,3
29,0.7530518659315162,20,3
1,0.0453000078694123,20,3
2,0.0453000078694123,20,3
41,-9.845053894131447e-9,20,3
27,0.7530518627242614,20,3
42,-9.845053894131447e-9,20,3
33,0.753051781227064,20,3
28,0.7530518627312397,20,3
26,0.7530518627104752,20,3
10,0.27920000681772383,20,3
24,0.014000009968749592,20,3
25,1.3350000133187496,20,3
23,1.5480000154487497,20,3
49,-9.859295067119032e-9,20,3
5,0.09070000772337403,20,3
31,0.9240000099687496,20,3
43,-9.845053894131447e-9,20,3
39,-9.849387207437396e-9,20,3
34,0.7530517811971276,20,3
44,-9.845053894131447e-9,20,3
17,-9.847328603267025e-9,20,3
37,-9.873516689464944e-9,20,3
47,4.553200524961143,20,3
9,0.27920000681772383,20,3
12,0.27920000681772383,20,3
20,-9.844213487819387e-9,20,3
6,0.8650000099687496,20,3
14,-9.843567033970352e-9,20,3
7,0.047000007864282364,20,3
8,0.27920000681772383,20,3
19,-9.843850516464668e-9,20,3
4,0.045300007869412295,20,3
22,0.6760000099687495,20,3
11,0.27920000681772383,20,3
35,0.7530517812470061,20,3
13,0.27920000681772383,20,3
15,-9.843119476144402e-9,20,3
16,-9.847328603267025e-9,20,3
40,-9.845053894131447e-9,20,3
46,0.2660000069039694,20,3
21,0.18000000736860208,20,3
38,-9.845727610833176e-9,20,3
45,0.175000007391363,20,3
36,0.7530517812483258,20,3
48,-9.859295067119032e-9,20,3
18,-9.84336391554265e-9,20,3
30,0.7530518659322774,20,3
3,0.045300007869412295,20,3
32,0.05400000739806104,21,3
29,0.6335398939523902,21,3
1,0.045300007436543444,21,3
2,0.045300007436543444,21,3
41,-9.846933606839282e-9,21,3
27,0.6335398914698908,21,3
42,-9.846933606839282e-9,21,3
33,0.6335398791562818,21,3
28,0.6335398914757556,21,3
26,0.6335398914583118,21,3
10,0.27920000574440385,21,3
24,0.014000009968672,21,3
25,1.335000013318672,21,3
23,1.548000015448672,21,3
49,-9.860846858379473e-9,21,3
5,0.09070000722215063,21,3
31,0.924000009968672,21,3
43,-9.846933606839282e-9,21,3
39,-9.851163854807212e-9,21,3
34,0.6335398791313116,21,3
44,-9.846933606839282e-9,21,3
17,-9.849153855361571e-9,21,3
37,-9.874772041374205e-9,21,3
47,5.691500056866908,21,3
9,0.27920000574440385,21,3
12,0.27920000574440385,21,3
20,-9.846113521410618e-9,21,3
6,0.865000009968672,21,3
14,-9.845482772128217e-9,21,3
7,0.04700000742911364,21,3
8,0.27920000574440385,21,3
19,-9.845759360010165e-9,21,3
4,0.045300007436543444,21,3
22,0.6760000099686719,21,3
11,0.27920000574440385,21,3
35,0.6335398791729859,21,3
13,0.27920000574440385,21,3
15,-9.84504612440907e-9,21,3
16,-9.849153855361571e-9,21,3
40,-9.846933606839282e-9,21,3
46,0.2660000058972413,21,3
21,0.18000000667520433,21,3
38,-9.847591111125176e-9,21,3
45,0.1750000067114585,21,3
36,0.6335398791740943,21,3
48,-9.860846858379473e-9,21,3
18,-9.84528460132711e-9,21,3
30,0.6335398939530381,21,3
3,0.045300007436543444,21,3
32,0.05400000760960622,22,3
29,0.6848280440554335,22,3
1,0.04530000764212464,22,3
2,0.04530000764212464,22,3
41,-9.846132550263357e-9,22,3
27,0.6848280412918937,22,3
42,-9.846132550263357e-9,22,3
33,0.6848280221515025,22,3
28,0.6848280412982302,22,3
26,0.6848280412793712,22,3
10,0.2792000062824871,22,3
24,0.014000009968705346,22,3
25,1.3350000133187052,22,3
23,1.5480000154487052,22,3
49,-9.86018512509569e-9,22,3
5,0.0907000074619487,22,3
31,0.9240000099687055,22,3
43,-9.846132550263357e-9,22,3
39,-9.850406573022945e-9,22,3
34,0.6848280221244161,22,3
44,-9.846132550263357e-9,22,3
17,-9.848375928165332e-9,22,3
37,-9.874236376799131e-9,22,3
47,5.691500056866992,22,3
9,0.2792000062824871,22,3
12,0.2792000062824871,22,3
20,-9.845303835480515e-9,22,3
6,0.8650000099687054,22,3
14,-9.844666417515453e-9,22,3
7,0.0470000076358402,22,3
8,0.2792000062824871,22,3
19,-9.844945933044776e-9,22,3
4,0.04530000764212464,22,3
22,0.6760000099687054,22,3
11,0.2792000062824871,22,3
35,0.6848280221695904,22,3
13,0.2792000062824871,22,3
15,-9.844225137173547e-9,22,3
16,-9.848375928165332e-9,22,3
40,-9.846132550263357e-9,22,3
46,0.26600000639965016,22,3
21,0.18000000701298788,22,3
38,-9.846796939578101e-9,22,3
45,0.1750000070422822,22,3
36,0.6848280221707909,22,3
48,-9.86018512509569e-9,22,3
18,-9.844466145849604e-9,22,3
30,0.6848280440561298,22,3
3,0.04530000764212464,22,3
32,0.05400000751931319,23,3
29,0.6618669123715396,23,3
1,0.04530000755431668,23,3
2,0.04530000755431668,23,3
41,-9.846492208508025e-9,23,3
27,0.6618669097381699,23,3
42,-9.846492208508025e-9,23,3
33,0.6618668943499871,23,3
28,0.6618669097442926,23,3
26,0.6618669097260652,23,3
10,0.27920000605942547,23,3
24,0.014000009968690426,23,3
25,1.3350000133186903,23,3
23,1.5480000154486904,23,3
49,-9.860482152135209e-9,23,3
5,0.09070000735991805,23,3
31,0.9240000099686905,23,3
43,-9.846492208508025e-9,23,3
39,-9.850746550174291e-9,23,3
34,0.6618668943238432,23,3
44,-9.846492208508025e-9,23,3
17,-9.848725187174812e-9,23,3
37,-9.874476753319304e-9,23,3
47,5.691500056866956,23,3
9,0.27920000605942547,23,3
12,0.27920000605942547,23,3
20,-9.845667373745904e-9,23,3
6,0.8650000099686904,23,3
14,-9.845032954287358e-9,23,3
7,0.04700000754755478,23,3
8,0.27920000605942547,23,3
19,-9.84531115342237e-9,23,3
4,0.04530000755431668,23,3
22,0.6760000099686904,23,3
11,0.27920000605942547,23,3
