obj_name,pg,hour,day
32,-9.999156913091046e-9,1,1
29,-9.999156913090854e-9,1,1
1,-9.999156913091115e-9,1,1
2,-9.999156913091115e-9,1,1
41,-9.99915691980347e-9,1,1
27,-9.999156913090869e-9,1,1
42,-9.99915691980347e-9,1,1
33,-9.999156913090816e-9,1,1
28,-9.999156913090869e-9,1,1
26,-9.999156913090869e-9,1,1
10,-9.999156913090773e-9,1,1
24,-9.99915688284549e-9,1,1
25,-9.999156882737437e-9,1,1
23,-9.999156882780412e-9,1,1
49,-9.999156920433849e-9,1,1
5,-9.999156913090902e-9,1,1
31,-9.999156882655288e-9,1,1
43,-9.99915691980347e-9,1,1
39,-9.999156919982633e-9,1,1
34,-9.999156913090816e-9,1,1
44,-9.99915691980347e-9,1,1
17,-9.999156919896243e-9,1,1
37,-9.999156921205109e-9,1,1
47,-9.999156893405034e-9,1,1
9,-9.999156913090773e-9,1,1
12,-9.999156913090773e-9,1,1
20,-9.999156919769909e-9,1,1
6,-9.999156882669171e-9,1,1
14,-9.999156919744377e-9,1,1
7,-9.999156913091099e-9,1,1
8,-9.999156913090773e-9,1,1
19,-9.999156919755539e-9,1,1
4,-9.999156913091114e-9,1,1
22,-9.999156882573431e-9,1,1
11,-9.999156913090773e-9,1,1
35,-9.999156913090816e-9,1,1
13,-9.999156913090773e-9,1,1
15,-9.999156919726892e-9,1,1
16,-9.999156919896243e-9,1,1
40,-9.99915691980347e-9,1,1
46,-9.999156913090788e-9,1,1
21,-9.999156913090804e-9,1,1
38,-9.999156919830655e-9,1,1
45,-9.999156913090814e-9,1,1
36,-9.999156913090816e-9,1,1
48,-9.999156920433849e-9,1,1
18,-9.999156919736415e-9,1,1
30,-9.999156913090854e-9,1,1
3,-9.999156913091114e-9,1,1
32,-9.999174578809204e-9,2,1
29,-9.999174578806586e-9,2,1
1,-9.99917457881016e-9,2,1
2,-9.999174578810162e-9,2,1
41,-9.999174585272698e-9,2,1
27,-9.999174578806804e-9,2,1
42,-9.999174585272695e-9,2,1
33,-9.999174578806036e-9,2,1
28,-9.999174578806804e-9,2,1
26,-9.999174578806804e-9,2,1
10,-9.99917457880539e-9,2,1
24,-9.999174551943741e-9,2,1
25,-9.999174550359643e-9,2,1
23,-9.99917455098996e-9,2,1
49,-9.99917458587699e-9,2,1
5,-9.999174578807168e-9,2,1
31,-9.999174549154781e-9,2,1
43,-9.999174585272695e-9,2,1
39,-9.999174585444062e-9,2,1
34,-9.999174578806036e-9,2,1
44,-9.999174585272691e-9,2,1
17,-9.999174585361343e-9,2,1
37,-9.99917458661742e-9,2,1
47,-9.999174559641719e-9,2,1
9,-9.99917457880539e-9,2,1
12,-9.999174578805388e-9,2,1
20,-9.999174585240995e-9,2,1
6,-9.99917454935841e-9,2,1
14,-9.999174585217341e-9,2,1
7,-9.999174578809934e-9,2,1
8,-9.99917457880539e-9,2,1
19,-9.999174585227587e-9,2,1
4,-9.999174578810152e-9,2,1
22,-9.999174547954201e-9,2,1
11,-9.999174578805388e-9,2,1
35,-9.999174578806036e-9,2,1
13,-9.999174578805386e-9,2,1
15,-9.999174585201969e-9,2,1
16,-9.999174585361343e-9,2,1
40,-9.999174585272696e-9,2,1
46,-9.999174578805605e-9,2,1
21,-9.999174578805805e-9,2,1
38,-9.999174585298582e-9,2,1
45,-9.999174578805952e-9,2,1
36,-9.999174578806036e-9,2,1
48,-9.999174585876988e-9,2,1
18,-9.999174585210148e-9,2,1
30,-9.999174578806586e-9,2,1
3,-9.999174578810149e-9,2,1
32,-9.999159163975188e-9,3,1
29,-9.999159163975303e-9,3,1
1,-9.999159163975145e-9,3,1
2,-9.999159163975143e-9,3,1
41,-9.999159170648128e-9,3,1
27,-9.999159163975294e-9,3,1
42,-9.999159170648128e-9,3,1
33,-9.999159163975332e-9,3,1
28,-9.999159163975294e-9,3,1
26,-9.999159163975294e-9,3,1
10,-9.999159163975365e-9,3,1
24,-9.999159133622913e-9,3,1
25,-9.999159133702032e-9,3,1
23,-9.99915913367053e-9,3,1
49,-9.999159171275141e-9,3,1
5,-9.999159163975282e-9,3,1
31,-9.999159133762249e-9,3,1
43,-9.999159170648128e-9,3,1
39,-9.999159170826382e-9,3,1
34,-9.999159163975332e-9,3,1
44,-9.999159170648128e-9,3,1
17,-9.999159170740441e-9,3,1
37,-9.999159172042146e-9,3,1
47,-9.999159144431636e-9,3,1
9,-9.999159163975365e-9,3,1
12,-9.999159163975365e-9,3,1
20,-9.999159170614687e-9,3,1
6,-9.999159133752071e-9,3,1
14,-9.999159170589188e-9,3,1
7,-9.999159163975155e-9,3,1
8,-9.999159163975365e-9,3,1
19,-9.999159170600349e-9,3,1
4,-9.999159163975145e-9,3,1
22,-9.99915913382225e-9,3,1
11,-9.999159163975365e-9,3,1
35,-9.999159163975332e-9,3,1
13,-9.999159163975365e-9,3,1
15,-9.999159170571622e-9,3,1
16,-9.999159170740441e-9,3,1
40,-9.999159170648128e-9,3,1
46,-9.999159163975355e-9,3,1
21,-9.999159163975346e-9,3,1
38,-9.99915917067519e-9,3,1
45,-9.999159163975338e-9,3,1
36,-9.999159163975332e-9,3,1
48,-9.999159171275141e-9,3,1
18,-9.999159170581213e-9,3,1
30,-9.999159163975303e-9,3,1
3,-9.999159163975145e-9,3,1
32,-9.999168961321944e-9,4,1
29,-9.999168961320174e-9,4,1
1,-9.99916896132259e-9,4,1
2,-9.999168961322591e-9,4,1
41,-9.999168967863032e-9,4,1
27,-9.999168961320322e-9,4,1
42,-9.999168967863029e-9,4,1
33,-9.999168961319804e-9,4,1
28,-9.999168961320322e-9,4,1
26,-9.999168961320322e-9,4,1
10,-9.999168961319367e-9,4,1
24,-9.999168933317608e-9,4,1
25,-9.999168932249486e-9,4,1
23,-9.999168932674488e-9,4,1
49,-9.999168968475558e-9,4,1
5,-9.99916896132057e-9,4,1
31,-9.999168931437087e-9,4,1
43,-9.999168967863029e-9,4,1
39,-9.999168968036871e-9,4,1
34,-9.999168961319804e-9,4,1
44,-9.999168967863027e-9,4,1
17,-9.99916896795299e-9,4,1
37,-9.999168969225682e-9,4,1
47,-9.999168942000815e-9,4,1
9,-9.999168961319367e-9,4,1
12,-9.999168961319367e-9,4,1
20,-9.999168967830728e-9,4,1
6,-9.999168931574387e-9,4,1
14,-9.999168967806453e-9,4,1
7,-9.999168961322437e-9,4,1
8,-9.999168961319367e-9,4,1
19,-9.999168967817003e-9,4,1
4,-9.999168961322585e-9,4,1
22,-9.999168930627575e-9,4,1
11,-9.999168961319367e-9,4,1
35,-9.999168961319804e-9,4,1
13,-9.999168961319365e-9,4,1
15,-9.999168967790366e-9,4,1
16,-9.99916896795299e-9,4,1
40,-9.99916896786303e-9,4,1
46,-9.999168961319513e-9,4,1
21,-9.999168961319648e-9,4,1
38,-9.999168967889332e-9,4,1
45,-9.999168961319747e-9,4,1
36,-9.999168961319804e-9,4,1
48,-9.999168968475556e-9,4,1
18,-9.999168967799002e-9,4,1
30,-9.999168961320174e-9,4,1
3,-9.999168961322581e-9,4,1
32,-9.999156942860275e-9,5,1
29,-9.99915694286025e-9,5,1
1,-9.999156942860282e-9,5,1
2,-9.999156942860282e-9,5,1
41,-9.999156949570202e-9,5,1
27,-9.999156942860252e-9,5,1
42,-9.999156949570202e-9,5,1
33,-9.999156942860249e-9,5,1
28,-9.999156942860252e-9,5,1
26,-9.999156942860252e-9,5,1
10,-9.999156942860247e-9,5,1
24,-9.999156912470272e-9,5,1
25,-9.999156912464293e-9,5,1
23,-9.999156912466652e-9,5,1
49,-9.999156950200534e-9,5,1
5,-9.99915694286026e-9,5,1
31,-9.999156912459785e-9,5,1
43,-9.999156949570202e-9,5,1
39,-9.999156949749378e-9,5,1
34,-9.999156942860249e-9,5,1
44,-9.999156949570202e-9,5,1
17,-9.999156949662989e-9,5,1
37,-9.999156950971661e-9,5,1
47,-9.999156923196167e-9,5,1
9,-9.999156942860247e-9,5,1
12,-9.999156942860247e-9,5,1
20,-9.999156949536612e-9,5,1
6,-9.999156912460546e-9,5,1
14,-9.999156949511026e-9,5,1
7,-9.99915694286028e-9,5,1
8,-9.999156942860247e-9,5,1
19,-9.999156949522219e-9,5,1
4,-9.999156942860282e-9,5,1
22,-9.999156912455291e-9,5,1
11,-9.999156942860247e-9,5,1
35,-9.999156942860249e-9,5,1
13,-9.999156942860247e-9,5,1
15,-9.999156949493446e-9,5,1
16,-9.999156949662989e-9,5,1
40,-9.999156949570202e-9,5,1
46,-9.999156942860249e-9,5,1
21,-9.99915694286025e-9,5,1
38,-9.999156949597398e-9,5,1
45,-9.999156942860252e-9,5,1
36,-9.999156942860249e-9,5,1
48,-9.999156950200534e-9,5,1
18,-9.999156949503033e-9,5,1
30,-9.99915694286025e-9,5,1
3,-9.999156942860282e-9,5,1
32,-9.999192160030349e-9,6,1
29,-9.999192160024354e-9,6,1
1,-9.999192160032538e-9,6,1
2,-9.999192160032543e-9,6,1
41,-9.99919216626358e-9,6,1
27,-9.999192160024855e-9,6,1
42,-9.99919216626357e-9,6,1
33,-9.999192160023091e-9,6,1
28,-9.999192160024855e-9,6,1
26,-9.999192160024855e-9,6,1
10,-9.9991921600216e-9,6,1
24,-9.999192137344525e-9,6,1
25,-9.999192133704967e-9,6,1
23,-9.999192135153192e-9,6,1
49,-9.99919216684248e-9,6,1
5,-9.99919216002568e-9,6,1
31,-9.999192130936673e-9,6,1
43,-9.999192166263574e-9,6,1
39,-9.999192166427193e-9,6,1
34,-9.99919216002309e-9,6,1
44,-9.999192166263565e-9,6,1
17,-9.999192166348088e-9,6,1
37,-9.999192167553355e-9,6,1
47,-9.999192141243866e-9,6,1
9,-9.999192160021602e-9,6,1
12,-9.999192160021599e-9,6,1
20,-9.999192166233883e-9,6,1
6,-9.999192131404531e-9,6,1
14,-9.999192166212397e-9,6,1
7,-9.999192160032022e-9,6,1
8,-9.999192160021602e-9,6,1
19,-9.99919216622156e-9,6,1
4,-9.99919216003252e-9,6,1
22,-9.999192128178211e-9,6,1
11,-9.999192160021599e-9,6,1
35,-9.999192160023091e-9,6,1
13,-9.999192160021594e-9,6,1
15,-9.999192166199657e-9,6,1
16,-9.99919216634809e-9,6,1
40,-9.999192166263577e-9,6,1
46,-9.999192160022097e-9,6,1
21,-9.999192160022554e-9,6,1
38,-9.999192166288123e-9,6,1
45,-9.999192160022891e-9,6,1
36,-9.999192160023091e-9,6,1
48,-9.999192166842474e-9,6,1
18,-9.999192166206136e-9,6,1
30,-9.999192160024354e-9,6,1
3,-9.999192160032511e-9,6,1
32,-9.999211955129922e-9,7,1
29,-9.999211955121897e-9,7,1
1,-9.999211955132854e-9,7,1
2,-9.999211955132859e-9,7,1
41,-9.999211961089474e-9,7,1
27,-9.999211955122569e-9,7,1
42,-9.999211961089463e-9,7,1
33,-9.999211955120205e-9,7,1
28,-9.999211955122569e-9,7,1
26,-9.99921195512257e-9,7,1
10,-9.99921195511821e-9,7,1
24,-9.999211935570163e-9,7,1
25,-9.999211930694522e-9,7,1
23,-9.999211932634607e-9,7,1
49,-9.999211961640405e-9,7,1
5,-9.99921195512367e-9,7,1
31,-9.999211926986032e-9,7,1
43,-9.999211961089466e-9,7,1
39,-9.999211961244817e-9,7,1
34,-9.999211955120205e-9,7,1
44,-9.999211961089456e-9,7,1
17,-9.999211961169626e-9,7,1
37,-9.999211962317966e-9,7,1
47,-9.99921193696879e-9,7,1
9,-9.999211955118211e-9,7,1
12,-9.999211955118208e-9,7,1
20,-9.999211961061661e-9,7,1
6,-9.999211927612788e-9,7,1
14,-9.999211961041996e-9,7,1
7,-9.999211955132162e-9,7,1
8,-9.999211955118211e-9,7,1
19,-9.99921196105028e-9,7,1
4,-9.999211955132829e-9,7,1
22,-9.999211923290712e-9,7,1
11,-9.999211955118208e-9,7,1
35,-9.999211955120206e-9,7,1
13,-9.999211955118201e-9,7,1
15,-9.999211961031193e-9,7,1
16,-9.999211961169628e-9,7,1
40,-9.99921196108947e-9,7,1
46,-9.999211955118873e-9,7,1
21,-9.999211955119485e-9,7,1
38,-9.999211961112665e-9,7,1
45,-9.999211955119937e-9,7,1
36,-9.999211955120206e-9,7,1
48,-9.999211961640396e-9,7,1
18,-9.999211961036453e-9,7,1
30,-9.999211955121897e-9,7,1
3,-9.999211955132817e-9,7,1
32,-9.999181554106636e-9,8,1
29,-9.999181554102761e-9,8,1
1,-9.99918155410805e-9,8,1
2,-9.999181554108053e-9,8,1
41,-9.999181560477055e-9,8,1
27,-9.999181554103085e-9,8,1
42,-9.99918156047705e-9,8,1
33,-9.999181554101946e-9,8,1
28,-9.999181554103084e-9,8,1
26,-9.999181554103085e-9,8,1
10,-9.999181554100986e-9,8,1
24,-9.999181528829243e-9,8,1
25,-9.999181526480747e-9,8,1
23,-9.999181527415233e-9,8,1
49,-9.999181561071205e-9,8,1
5,-9.99918155410362e-9,8,1
31,-9.999181524694469e-9,8,1
43,-9.99918156047705e-9,8,1
39,-9.999181560645338e-9,8,1
34,-9.999181554101946e-9,8,1
44,-9.999181560477045e-9,8,1
17,-9.999181560564059e-9,8,1
37,-9.99918156179979e-9,8,1
47,-9.99918153510265e-9,8,1
9,-9.999181554100986e-9,8,1
12,-9.999181554100984e-9,8,1
20,-9.999181560446136e-9,8,1
6,-9.99918152499636e-9,8,1
14,-9.999181560423318e-9,8,1
7,-9.999181554107718e-9,8,1
8,-9.999181554100986e-9,8,1
19,-9.999181560433146e-9,8,1
4,-9.999181554108039e-9,8,1
22,-9.999181522914533e-9,8,1
11,-9.999181554100984e-9,8,1
35,-9.999181554101946e-9,8,1
13,-9.999181554100981e-9,8,1
15,-9.999181560408943e-9,8,1
16,-9.99918156056406e-9,8,1
40,-9.999181560477053e-9,8,1
46,-9.999181554101305e-9,8,1
21,-9.999181554101601e-9,8,1
38,-9.99918156050241e-9,8,1
45,-9.99918155410182e-9,8,1
36,-9.999181554101946e-9,8,1
48,-9.9991815610712e-9,8,1
18,-9.999181560416479e-9,8,1
30,-9.999181554102761e-9,8,1
3,-9.999181554108034e-9,8,1
32,-9.999169368491458e-9,9,1
29,-9.999169368488262e-9,9,1
1,-9.999169368492624e-9,9,1
2,-9.999169368492628e-9,9,1
41,-9.99916937504337e-9,9,1
27,-9.999169368488528e-9,9,1
42,-9.999169375043367e-9,9,1
33,-9.99916936848759e-9,9,1
28,-9.999169368488528e-9,9,1
26,-9.999169368488528e-9,9,1
10,-9.999169368486798e-9,9,1
24,-9.999169341762488e-9,9,1
25,-9.999169339826406e-9,9,1
23,-9.999169340596785e-9,9,1
49,-9.999169375655327e-9,9,1
5,-9.999169368488972e-9,9,1
31,-9.999169338353819e-9,9,1
43,-9.999169375043367e-9,9,1
39,-9.999169375216822e-9,9,1
34,-9.99916936848759e-9,9,1
44,-9.999169375043364e-9,9,1
17,-9.999169375133077e-9,9,1
37,-9.99916937640539e-9,9,1
47,-9.99916934901455e-9,9,1
9,-9.9991693684868e-9,9,1
12,-9.999169368486798e-9,9,1
20,-9.999169375011373e-9,9,1
6,-9.999169338602695e-9,9,1
14,-9.999169374987602e-9,9,1
7,-9.99916936849235e-9,9,1
8,-9.9991693684868e-9,9,1
19,-9.999169374997874e-9,9,1
4,-9.999169368492616e-9,9,1
22,-9.99916933688646e-9,9,1
11,-9.999169368486798e-9,9,1
35,-9.99916936848759e-9,9,1
13,-9.999169368486794e-9,9,1
15,-9.999169374972344e-9,9,1
16,-9.999169375133078e-9,9,1
40,-9.99916937504337e-9,9,1
46,-9.999169368487062e-9,9,1
21,-9.999169368487306e-9,9,1
38,-9.999169375069544e-9,9,1
45,-9.999169368487486e-9,9,1
36,-9.99916936848759e-9,9,1
48,-9.999169375655324e-9,9,1
18,-9.999169374980415e-9,9,1
30,-9.999169368488262e-9,9,1
3,-9.999169368492611e-9,9,1
32,-9.999168659659282e-9,10,1
29,-9.999168659657592e-9,10,1
1,-9.999168659659895e-9,10,1
2,-9.999168659659897e-9,10,1
41,-9.999168666204105e-9,10,1
27,-9.999168659657733e-9,10,1
42,-9.999168666204102e-9,10,1
33,-9.999168659657238e-9,10,1
28,-9.999168659657733e-9,10,1
26,-9.999168659657733e-9,10,1
10,-9.999168659656823e-9,10,1
24,-9.999168631561567e-9,10,1
25,-9.999168630543545e-9,10,1
23,-9.999168630948613e-9,10,1
49,-9.999168666817072e-9,10,1
5,-9.99916865965797e-9,10,1
31,-9.999168629769256e-9,10,1
43,-9.999168666204102e-9,10,1
39,-9.999168666378083e-9,10,1
34,-9.999168659657238e-9,10,1
44,-9.9991686662041e-9,10,1
17,-9.999168666294137e-9,10,1
37,-9.999168667567702e-9,10,1
47,-9.999168640334362e-9,10,1
9,-9.999168659656823e-9,10,1
12,-9.999168659656823e-9,10,1
20,-9.99916866617176e-9,10,1
6,-9.999168629900114e-9,10,1
14,-9.99916866614744e-9,10,1
7,-9.999168659659751e-9,10,1
8,-9.999168659656823e-9,10,1
19,-9.999168666158013e-9,10,1
4,-9.99916865965989e-9,10,1
22,-9.999168628997715e-9,10,1
11,-9.999168659656823e-9,10,1
35,-9.99916865965724e-9,10,1
13,-9.999168659656822e-9,10,1
15,-9.999168666131293e-9,10,1
16,-9.999168666294139e-9,10,1
40,-9.999168666204103e-9,10,1
46,-9.999168659656962e-9,10,1
21,-9.999168659657091e-9,10,1
38,-9.999168666230429e-9,10,1
45,-9.999168659657185e-9,10,1
36,-9.99916865965724e-9,10,1
48,-9.99916866681707e-9,10,1
18,-9.999168666139969e-9,10,1
30,-9.999168659657592e-9,10,1
3,-9.999168659659889e-9,10,1
32,-9.999163534807447e-9,11,1
29,-9.999163534804766e-9,11,1
1,-9.999163534808423e-9,11,1
2,-9.999163534808425e-9,11,1
41,-9.999163541444917e-9,11,1
27,-9.999163534804989e-9,11,1
42,-9.999163541444912e-9,11,1
33,-9.999163534804203e-9,11,1
28,-9.999163534804989e-9,11,1
26,-9.99916353480499e-9,11,1
10,-9.999163534803541e-9,11,1
24,-9.999163507211036e-9,11,1
25,-9.999163505589403e-9,11,1
23,-9.999163506234659e-9,11,1
49,-9.999163542065484e-9,11,1
5,-9.999163534805361e-9,11,1
31,-9.999163504355991e-9,11,1
43,-9.999163541444913e-9,11,1
39,-9.999163541620898e-9,11,1
34,-9.999163534804203e-9,11,1
44,-9.99916354144491e-9,11,1
17,-9.999163541535951e-9,11,1
37,-9.999163542825852e-9,11,1
47,-9.999163515124754e-9,11,1
9,-9.999163534803541e-9,11,1
12,-9.99916353480354e-9,11,1
20,-9.999163541412359e-9,11,1
6,-9.999163504564445e-9,11,1
14,-9.999163541388065e-9,11,1
7,-9.999163534808194e-9,11,1
8,-9.999163534803541e-9,11,1
19,-9.999163541398586e-9,11,1
4,-9.999163534808415e-9,11,1
22,-9.99916350312696e-9,11,1
11,-9.99916353480354e-9,11,1
35,-9.999163534804203e-9,11,1
13,-9.999163534803538e-9,11,1
15,-9.999163541372272e-9,11,1
16,-9.999163541535951e-9,11,1
40,-9.999163541444915e-9,11,1
46,-9.999163534803761e-9,11,1
21,-9.999163534803967e-9,11,1
38,-9.999163541471497e-9,11,1
45,-9.999163534804117e-9,11,1
36,-9.999163534804203e-9,11,1
48,-9.999163542065481e-9,11,1
18,-9.999163541380675e-9,11,1
30,-9.999163534804766e-9,11,1
3,-9.999163534808412e-9,11,1
32,-9.999158744750953e-9,12,1
29,-9.999158744751093e-9,12,1
1,-9.9991587447509e-9,12,1
2,-9.9991587447509e-9,12,1
41,-9.999158751430244e-9,12,1
27,-9.999158744751082e-9,12,1
42,-9.999158751430244e-9,12,1
33,-9.999158744751126e-9,12,1
28,-9.999158744751082e-9,12,1
26,-9.999158744751082e-9,12,1
10,-9.999158744751166e-9,12,1
24,-9.999158714346202e-9,12,1
25,-9.999158714440853e-9,12,1
23,-9.99915871440317e-9,12,1
49,-9.99915875205788e-9,12,1
5,-9.999158744751067e-9,12,1
31,-9.999158714512886e-9,12,1
43,-9.999158751430244e-9,12,1
39,-9.99915875160868e-9,12,1
34,-9.999158744751126e-9,12,1
44,-9.999158751430244e-9,12,1
17,-9.999158751522653e-9,12,1
37,-9.999158752825638e-9,12,1
47,-9.999158725191008e-9,12,1
9,-9.999158744751166e-9,12,1
12,-9.999158744751166e-9,12,1
20,-9.999158751396765e-9,12,1
6,-9.999158714500711e-9,12,1
14,-9.999158751371231e-9,12,1
7,-9.999158744750911e-9,12,1
8,-9.999158744751166e-9,12,1
19,-9.999158751382408e-9,12,1
4,-9.9991587447509e-9,12,1
22,-9.99915871458466e-9,12,1
11,-9.999158744751166e-9,12,1
35,-9.999158744751126e-9,12,1
13,-9.999158744751166e-9,12,1
15,-9.999158751353632e-9,12,1
16,-9.999158751522653e-9,12,1
40,-9.999158751430244e-9,12,1
46,-9.999158744751154e-9,12,1
21,-9.999158744751143e-9,12,1
38,-9.999158751457334e-9,12,1
45,-9.999158744751135e-9,12,1
36,-9.999158744751126e-9,12,1
48,-9.99915875205788e-9,12,1
18,-9.999158751363244e-9,12,1
30,-9.999158744751093e-9,12,1
3,-9.9991587447509e-9,12,1
32,-9.999172642466962e-9,13,1
29,-9.999172642464522e-9,13,1
1,-9.999172642467853e-9,13,1
2,-9.999172642467854e-9,13,1
41,-9.999172648958489e-9,13,1
27,-9.999172642464727e-9,13,1
42,-9.999172648958486e-9,13,1
33,-9.999172642464011e-9,13,1
28,-9.999172642464726e-9,13,1
26,-9.999172642464727e-9,13,1
10,-9.999172642463409e-9,13,1
24,-9.999172615307786e-9,13,1
25,-9.999172613832936e-9,13,1
23,-9.999172614419783e-9,13,1
49,-9.999172649565615e-9,13,1
5,-9.999172642465067e-9,13,1
31,-9.999172612711171e-9,13,1
43,-9.999172648958487e-9,13,1
39,-9.999172649130688e-9,13,1
34,-9.999172642464011e-9,13,1
44,-9.999172648958484e-9,13,1
17,-9.999172649047573e-9,13,1
37,-9.999172650309432e-9,13,1
47,-9.999172623232937e-9,13,1
9,-9.999172642463409e-9,13,1
12,-9.999172642463409e-9,13,1
20,-9.999172648926603e-9,13,1
6,-9.999172612900756e-9,13,1
14,-9.999172648902772e-9,13,1
7,-9.999172642467642e-9,13,1
8,-9.999172642463409e-9,13,1
19,-9.9991726489131e-9,13,1
4,-9.999172642467844e-9,13,1
22,-9.999172611593392e-9,13,1
11,-9.999172642463409e-9,13,1
35,-9.999172642464011e-9,13,1
13,-9.999172642463407e-9,13,1
15,-9.999172648887217e-9,13,1
16,-9.999172649047575e-9,13,1
40,-9.999172648958489e-9,13,1
46,-9.99917264246361e-9,13,1
21,-9.999172642463796e-9,13,1
38,-9.999172648984509e-9,13,1
45,-9.999172642463933e-9,13,1
36,-9.999172642464011e-9,13,1
48,-9.999172649565613e-9,13,1
18,-9.999172648895509e-9,13,1
30,-9.999172642464522e-9,13,1
3,-9.999172642467841e-9,13,1
32,-9.99928662747535e-9,14,1
29,-9.999286627461636e-9,14,1
1,-9.999286627480367e-9,14,1
2,-9.999286627480377e-9,14,1
41,-9.999286632445992e-9,14,1
27,-9.999286627462788e-9,14,1
42,-9.999286632445972e-9,14,1
33,-9.999286627458733e-9,14,1
28,-9.999286627462786e-9,14,1
26,-9.99928662746279e-9,14,1
10,-9.999286627455302e-9,14,1
24,-9.9992866177185e-9,14,1
25,-9.9992866093548e-9,14,1
23,-9.999286612682907e-9,14,1
49,-9.99928663289766e-9,14,1
5,-9.999286627464647e-9,14,1
31,-9.999286602993095e-9,14,1
43,-9.999286632445977e-9,14,1
39,-9.999286632572225e-9,14,1
34,-9.999286627458731e-9,14,1
44,-9.99928663244596e-9,14,1
17,-9.999286632510864e-9,14,1
37,-9.999286633456322e-9,14,1
47,-9.99928661171375e-9,14,1
9,-9.999286627455305e-9,14,1
12,-9.999286627455299e-9,14,1
20,-9.999286632424566e-9,14,1
6,-9.999286604068259e-9,14,1
14,-9.999286632410843e-9,14,1
7,-9.999286627479184e-9,14,1
8,-9.999286627455305e-9,14,1
19,-9.999286632416301e-9,14,1
4,-9.999286627480326e-9,14,1
22,-9.999286596653983e-9,14,1
11,-9.999286627455299e-9,14,1
35,-9.999286627458733e-9,14,1
13,-9.999286627455289e-9,14,1
15,-9.999286632406039e-9,14,1
16,-9.999286632510868e-9,14,1
40,-9.999286632445985e-9,14,1
46,-9.999286627456442e-9,14,1
21,-9.999286627457484e-9,14,1
38,-9.999286632464491e-9,14,1
45,-9.99928662745826e-9,14,1
36,-9.999286627458733e-9,14,1
48,-9.999286632897647e-9,14,1
18,-9.99928663240758e-9,14,1
30,-9.999286627461636e-9,14,1
3,-9.999286627480306e-9,14,1
32,-9.999156987458474e-9,15,1
29,-9.999156987458591e-9,15,1
1,-9.99915698745843e-9,15,1
2,-9.99915698745843e-9,15,1
41,-9.999156994165982e-9,15,1
27,-9.999156987458582e-9,15,1
42,-9.999156994165982e-9,15,1
33,-9.99915698745862e-9,15,1
28,-9.999156987458582e-9,15,1
26,-9.999156987458582e-9,15,1
10,-9.999156987458654e-9,15,1
24,-9.99915695694794e-9,15,1
25,-9.999156957028137e-9,15,1
23,-9.999156956996206e-9,15,1
49,-9.999156994796244e-9,15,1
5,-9.99915698745857e-9,15,1
31,-9.999156957089176e-9,15,1
43,-9.999156994165982e-9,15,1
39,-9.999156994345161e-9,15,1
34,-9.99915698745862e-9,15,1
44,-9.999156994165982e-9,15,1
17,-9.999156994258774e-9,15,1
37,-9.999156995567223e-9,15,1
47,-9.999156967813775e-9,15,1
9,-9.999156987458654e-9,15,1
12,-9.999156987458654e-9,15,1
20,-9.999156994132367e-9,15,1
6,-9.99915695707886e-9,15,1
14,-9.999156994106736e-9,15,1
7,-9.999156987458441e-9,15,1
8,-9.999156987458654e-9,15,1
19,-9.999156994117955e-9,15,1
4,-9.99915698745843e-9,15,1
22,-9.999156957149997e-9,15,1
11,-9.999156987458654e-9,15,1
35,-9.99915698745862e-9,15,1
13,-9.999156987458654e-9,15,1
15,-9.999156994089078e-9,15,1
16,-9.999156994258774e-9,15,1
40,-9.999156994165982e-9,15,1
46,-9.999156987458643e-9,15,1
21,-9.999156987458634e-9,15,1
38,-9.999156994193185e-9,15,1
45,-9.999156987458628e-9,15,1
36,-9.99915698745862e-9,15,1
48,-9.999156994796244e-9,15,1
18,-9.99915699409872e-9,15,1
30,-9.999156987458591e-9,15,1
3,-9.99915698745843e-9,15,1
32,-9.99915855942395e-9,16,1
29,-9.99915855942431e-9,16,1
1,-9.999158559423816e-9,16,1
2,-9.999158559423816e-9,16,1
41,-9.999158566103545e-9,16,1
27,-9.99915855942428e-9,16,1
42,-9.999158566103545e-9,16,1
33,-9.999158559424389e-9,16,1
28,-9.99915855942428e-9,16,1
26,-9.999158559424278e-9,16,1
10,-9.999158559424483e-9,16,1
24,-9.999158528814855e-9,16,1
25,-9.999158529042523e-9,16,1
23,-9.99915852895191e-9,16,1
49,-9.999158566731454e-9,16,1
5,-9.999158559424235e-9,16,1
31,-9.999158529215731e-9,16,1
43,-9.999158566103545e-9,16,1
39,-9.999158566282092e-9,16,1
34,-9.999158559424389e-9,16,1
44,-9.999158566103545e-9,16,1
17,-9.999158566196019e-9,16,1
37,-9.999158567499447e-9,16,1
47,-9.99915853988213e-9,16,1
9,-9.999158559424483e-9,16,1
12,-9.999158559424483e-9,16,1
20,-9.999158566070009e-9,16,1
6,-9.999158529186459e-9,16,1
14,-9.999158566044391e-9,16,1
7,-9.999158559423848e-9,16,1
8,-9.999158559424483e-9,16,1
19,-9.999158566055613e-9,16,1
4,-9.999158559423818e-9,16,1
22,-9.999158529388326e-9,16,1
11,-9.999158559424483e-9,16,1
35,-9.999158559424389e-9,16,1
13,-9.999158559424483e-9,16,1
15,-9.99915856602666e-9,16,1
16,-9.999158566196019e-9,16,1
40,-9.999158566103545e-9,16,1
46,-9.999158559424453e-9,16,1
21,-9.999158559424425e-9,16,1
38,-9.999158566130663e-9,16,1
45,-9.999158559424405e-9,16,1
36,-9.999158559424389e-9,16,1
48,-9.999158566731454e-9,16,1
18,-9.99915856603636e-9,16,1
30,-9.99915855942431e-9,16,1
3,-9.999158559423818e-9,16,1
32,-9.99923245056742e-9,17,1
29,-9.999232450557051e-9,17,1
1,-9.999232450571209e-9,17,1
2,-9.999232450571216e-9,17,1
41,-9.999232456254405e-9,17,1
27,-9.999232450557918e-9,17,1
42,-9.99923245625439e-9,17,1
33,-9.999232450554862e-9,17,1
28,-9.999232450557918e-9,17,1
26,-9.99923245055792e-9,17,1
10,-9.99923245055228e-9,17,1
24,-9.999232434424354e-9,17,1
25,-9.999232428118872e-9,17,1
23,-9.999232430627924e-9,17,1
49,-9.999232456777117e-9,17,1
5,-9.999232450559339e-9,17,1
31,-9.999232423322796e-9,17,1
43,-9.999232456254395e-9,17,1
39,-9.999232456401358e-9,17,1
34,-9.999232450554862e-9,17,1
44,-9.99923245625438e-9,17,1
17,-9.999232456330127e-9,17,1
37,-9.999232457421201e-9,17,1
47,-9.999232433000689e-9,17,1
9,-9.999232450552283e-9,17,1
12,-9.999232450552278e-9,17,1
20,-9.999232456228549e-9,17,1
6,-9.999232424133359e-9,17,1
14,-9.999232456210819e-9,17,1
7,-9.999232450570314e-9,17,1
8,-9.999232450552282e-9,17,1
19,-9.999232456218163e-9,17,1
4,-9.999232450571178e-9,17,1
22,-9.999232418543754e-9,17,1
11,-9.999232450552278e-9,17,1
35,-9.999232450554862e-9,17,1
13,-9.99923245055227e-9,17,1
15,-9.999232456202137e-9,17,1
16,-9.99923245633013e-9,17,1
40,-9.9992324562544e-9,17,1
46,-9.999232450553139e-9,17,1
21,-9.999232450553928e-9,17,1
38,-9.99923245627621e-9,17,1
45,-9.999232450554513e-9,17,1
36,-9.999232450554862e-9,17,1
48,-9.999232456777107e-9,17,1
18,-9.999232456206056e-9,17,1
30,-9.999232450557051e-9,17,1
3,-9.999232450571161e-9,17,1
32,-9.999166972154369e-9,18,1
29,-9.999166972153262e-9,18,1
1,-9.99916697215477e-9,18,1
2,-9.99916697215477e-9,18,1
41,-9.999166978718684e-9,18,1
27,-9.999166972153353e-9,18,1
42,-9.999166978718682e-9,18,1
33,-9.999166972153032e-9,18,1
28,-9.999166972153353e-9,18,1
26,-9.999166972153353e-9,18,1
10,-9.99916697215276e-9,18,1
24,-9.999166943428279e-9,18,1
25,-9.999166942764191e-9,18,1
23,-9.999166943028423e-9,18,1
49,-9.999166979334131e-9,18,1
5,-9.99916697215351e-9,18,1
31,-9.999166942259112e-9,18,1
43,-9.999166978718682e-9,18,1
39,-9.999166978893457e-9,18,1
34,-9.99916697215303e-9,18,1
44,-9.99916697871868e-9,18,1
17,-9.99916697880915e-9,18,1
37,-9.999166980087534e-9,18,1
47,-9.999166952822916e-9,18,1
9,-9.99916697215276e-9,18,1
12,-9.99916697215276e-9,18,1
20,-9.999166978686094e-9,18,1
6,-9.999166942344473e-9,18,1
14,-9.999166978661478e-9,18,1
7,-9.999166972154675e-9,18,1
8,-9.99916697215276e-9,18,1
19,-9.999166978672203e-9,18,1
4,-9.999166972154767e-9,18,1
22,-9.999166941755825e-9,18,1
11,-9.99916697215276e-9,18,1
35,-9.999166972153032e-9,18,1
13,-9.999166972152759e-9,18,1
15,-9.99916697864493e-9,18,1
16,-9.99916697880915e-9,18,1
40,-9.999166978718682e-9,18,1
46,-9.999166972152852e-9,18,1
21,-9.999166972152936e-9,18,1
38,-9.999166978745158e-9,18,1
45,-9.999166972152997e-9,18,1
36,-9.999166972153032e-9,18,1
48,-9.99916697933413e-9,18,1
18,-9.999166978653869e-9,18,1
30,-9.999166972153262e-9,18,1
3,-9.999166972154766e-9,18,1
32,-9.99919093027309e-9,19,1
29,-9.999190930267416e-9,19,1
1,-9.99919093027516e-9,19,1
2,-9.999190930275165e-9,19,1
41,-9.999190936521184e-9,19,1
27,-9.99919093026789e-9,19,1
42,-9.999190936521176e-9,19,1
33,-9.999190930266221e-9,19,1
28,-9.99919093026789e-9,19,1
26,-9.999190930267892e-9,19,1
10,-9.999190930264813e-9,19,1
24,-9.999190907219806e-9,19,1
25,-9.99919090377693e-9,19,1
23,-9.99919090514689e-9,19,1
49,-9.999190937101842e-9,19,1
5,-9.999190930268671e-9,19,1
31,-9.999190901158239e-9,19,1
43,-9.999190936521178e-9,19,1
39,-9.999190936685348e-9,19,1
34,-9.999190930266221e-9,19,1
44,-9.999190936521171e-9,19,1
17,-9.99919093660599e-9,19,1
37,-9.99919093781472e-9,19,1
47,-9.999190911471159e-9,19,1
9,-9.999190930264815e-9,19,1
12,-9.999190930264812e-9,19,1
20,-9.999190936491331e-9,19,1
6,-9.999190901600812e-9,19,1
14,-9.999190936469667e-9,19,1
7,-9.999190930274672e-9,19,1
8,-9.999190930264813e-9,19,1
19,-9.99919093647892e-9,19,1
4,-9.999190930275143e-9,19,1
22,-9.999190898548846e-9,19,1
11,-9.999190930264812e-9,19,1
35,-9.999190930266223e-9,19,1
13,-9.999190930264807e-9,19,1
15,-9.999190936456694e-9,19,1
16,-9.999190936605992e-9,19,1
40,-9.99919093652118e-9,19,1
46,-9.999190930265282e-9,19,1
21,-9.999190930265715e-9,19,1
38,-9.999190936545827e-9,19,1
45,-9.999190930266034e-9,19,1
36,-9.999190930266223e-9,19,1
48,-9.999190937101835e-9,19,1
18,-9.999190936463323e-9,19,1
30,-9.999190930267416e-9,19,1
3,-9.999190930275135e-9,19,1
32,-9.999190134671648e-9,20,1
29,-9.999190134666731e-9,20,1
1,-9.999190134673443e-9,20,1
2,-9.999190134673446e-9,20,1
41,-9.99919014092275e-9,20,1
27,-9.999190134667141e-9,20,1
42,-9.999190140922741e-9,20,1
33,-9.999190134665697e-9,20,1
28,-9.999190134667141e-9,20,1
26,-9.999190134667143e-9,20,1
10,-9.999190134664476e-9,20,1
24,-9.999190110901769e-9,20,1
25,-9.999190107919588e-9,20,1
23,-9.999190109106228e-9,20,1
49,-9.99919014150453e-9,20,1
5,-9.99919013466782e-9,20,1
31,-9.999190105651313e-9,20,1
43,-9.999190140922744e-9,20,1
39,-9.999190141087352e-9,20,1
34,-9.999190134665697e-9,20,1
44,-9.999190140922738e-9,20,1
17,-9.99919014100781e-9,20,1
37,-9.999190142218448e-9,20,1
47,-9.99919011592675e-9,20,1
9,-9.999190134664478e-9,20,1
12,-9.999190134664476e-9,20,1
20,-9.999190140892691e-9,20,1
6,-9.999190106034665e-9,20,1
14,-9.999190140870725e-9,20,1
7,-9.99919013467302e-9,20,1
8,-9.999190134664478e-9,20,1
19,-9.99919014088014e-9,20,1
4,-9.999190134673428e-9,20,1
22,-9.999190103391095e-9,20,1
11,-9.999190134664476e-9,20,1
35,-9.999190134665697e-9,20,1
13,-9.999190134664471e-9,20,1
15,-9.99919014085729e-9,20,1
16,-9.999190141007812e-9,20,1
40,-9.999190140922746e-9,20,1
46,-9.999190134664883e-9,20,1
21,-9.999190134665257e-9,20,1
38,-9.999190140947495e-9,20,1
45,-9.999190134665535e-9,20,1
36,-9.999190134665697e-9,20,1
48,-9.999190141504525e-9,20,1
18,-9.999190140864231e-9,20,1
30,-9.999190134666731e-9,20,1
3,-9.999190134673421e-9,20,1
32,-9.999160458593672e-9,21,1
29,-9.999160458593447e-9,21,1
1,-9.999160458593753e-9,21,1
2,-9.999160458593753e-9,21,1
41,-9.99916046525019e-9,21,1
27,-9.999160458593465e-9,21,1
42,-9.99916046525019e-9,21,1
33,-9.999160458593402e-9,21,1
28,-9.999160458593465e-9,21,1
26,-9.999160458593465e-9,21,1
10,-9.999160458593351e-9,21,1
24,-9.999160428632101e-9,21,1
25,-9.99916042850393e-9,21,1
23,-9.999160428554912e-9,21,1
49,-9.99916046587528e-9,21,1
5,-9.999160458593501e-9,21,1
31,-9.99916042840648e-9,21,1
43,-9.99916046525019e-9,21,1
39,-9.999160465427843e-9,21,1
34,-9.999160458593402e-9,21,1
44,-9.99916046525019e-9,21,1
17,-9.99916046534218e-9,21,1
37,-9.999160466640084e-9,21,1
47,-9.999160439068618e-9,21,1
9,-9.999160458593351e-9,21,1
12,-9.999160458593351e-9,21,1
20,-9.999160465216917e-9,21,1
6,-9.999160428422949e-9,21,1
14,-9.99916046519161e-9,21,1
7,-9.999160458593733e-9,21,1
8,-9.999160458593351e-9,21,1
19,-9.999160465202673e-9,21,1
4,-9.999160458593751e-9,21,1
22,-9.999160428309374e-9,21,1
11,-9.999160458593351e-9,21,1
35,-9.999160458593402e-9,21,1
13,-9.999160458593351e-9,21,1
15,-9.999160465174292e-9,21,1
16,-9.99916046534218e-9,21,1
40,-9.99916046525019e-9,21,1
46,-9.999160458593369e-9,21,1
21,-9.999160458593386e-9,21,1
38,-9.999160465277144e-9,21,1
45,-9.999160458593397e-9,21,1
36,-9.999160458593402e-9,21,1
48,-9.999160465875278e-9,21,1
18,-9.99916046518372e-9,21,1
30,-9.999160458593447e-9,21,1
3,-9.999160458593751e-9,21,1
32,-9.999484382135201e-9,22,1
29,-9.999484382135481e-9,22,1
1,-9.999484382135147e-9,22,1
2,-9.999484382135147e-9,22,1
41,-9.999484384646158e-9,22,1
27,-9.999484382135473e-9,22,1
42,-9.999484384646158e-9,22,1
33,-9.999484382135466e-9,22,1
28,-9.999484382135473e-9,22,1
26,-9.999484382135473e-9,22,1
10,-9.999484382135431e-9,22,1
24,-9.999484370758088e-9,22,1
25,-9.999484370759901e-9,22,1
23,-9.999484370759545e-9,22,1
49,-9.999484384882175e-9,22,1
5,-9.999484382135317e-9,22,1
31,-9.999484370760578e-9,22,1
43,-9.999484384646158e-9,22,1
39,-9.999484384713313e-9,22,1
34,-9.999484382135466e-9,22,1
44,-9.999484384646158e-9,22,1
17,-9.999484384680959e-9,22,1
37,-9.999484385170747e-9,22,1
47,-9.999484374777772e-9,22,1
9,-9.999484382135431e-9,22,1
12,-9.999484382135431e-9,22,1
20,-9.999484384633507e-9,22,1
6,-9.999484370760462e-9,22,1
14,-9.999484384623787e-9,22,1
7,-9.999484382135158e-9,22,1
8,-9.999484382135431e-9,22,1
19,-9.999484384628056e-9,22,1
4,-9.999484382135147e-9,22,1
22,-9.999484370761251e-9,22,1
11,-9.999484382135431e-9,22,1
35,-9.999484382135466e-9,22,1
13,-9.999484382135431e-9,22,1
15,-9.999484384616948e-9,22,1
16,-9.999484384680959e-9,22,1
40,-9.999484384646158e-9,22,1
46,-9.999484382135428e-9,22,1
21,-9.999484382135401e-9,22,1
38,-9.99948438465637e-9,22,1
45,-9.999484382135398e-9,22,1
36,-9.999484382135466e-9,22,1
48,-9.999484384882175e-9,22,1
18,-9.999484384620699e-9,22,1
30,-9.999484382135481e-9,22,1
3,-9.999484382135147e-9,22,1
32,-9.999159469709334e-9,23,1
29,-9.999159469708901e-9,23,1
1,-9.999159469709492e-9,23,1
2,-9.999159469709492e-9,23,1
41,-9.999159476384047e-9,23,1
27,-9.999159469708937e-9,23,1
42,-9.999159476384045e-9,23,1
33,-9.999159469708813e-9,23,1
28,-9.999159469708937e-9,23,1
26,-9.999159469708937e-9,23,1
10,-9.99915946970871e-9,23,1
24,-9.999159439858497e-9,23,1
25,-9.999159439603737e-9,23,1
23,-9.999159439705092e-9,23,1
49,-9.999159477010613e-9,23,1
5,-9.999159469709002e-9,23,1
31,-9.99915943941e-9,23,1
43,-9.999159476384045e-9,23,1
39,-9.999159476562087e-9,23,1
34,-9.999159469708813e-9,23,1
44,-9.999159476384045e-9,23,1
17,-9.99915947647623e-9,23,1
37,-9.99915947777732e-9,23,1
47,-9.999159450112872e-9,23,1
9,-9.99915946970871e-9,23,1
12,-9.99915946970871e-9,23,1
20,-9.999159476350735e-9,23,1
6,-9.999159439442743e-9,23,1
14,-9.99915947632544e-9,23,1
7,-9.999159469709455e-9,23,1
8,-9.99915946970871e-9,23,1
19,-9.999159476336489e-9,23,1
4,-9.99915946970949e-9,23,1
22,-9.99915943921695e-9,23,1
11,-9.99915946970871e-9,23,1
35,-9.999159469708813e-9,23,1
13,-9.999159469708709e-9,23,1
15,-9.999159476308198e-9,23,1
16,-9.99915947647623e-9,23,1
40,-9.999159476384047e-9,23,1
46,-9.999159469708746e-9,23,1
21,-9.999159469708779e-9,23,1
38,-9.99915947641105e-9,23,1
45,-9.999159469708802e-9,23,1
36,-9.999159469708813e-9,23,1
48,-9.999159477010613e-9,23,1
18,-9.999159476317568e-9,23,1
30,-9.999159469708901e-9,23,1
3,-9.99915946970949e-9,23,1
32,-9.999171928357637e-9,24,1
29,-9.999171928355441e-9,24,1
1,-9.999171928358437e-9,24,1
2,-9.999171928358439e-9,24,1
41,-9.999171934857385e-9,24,1
27,-9.999171928355625e-9,24,1
42,-9.999171934857382e-9,24,1
33,-9.999171928354981e-9,24,1
28,-9.999171928355625e-9,24,1
26,-9.999171928355625e-9,24,1
10,-9.999171928354439e-9,24,1
24,-9.999171900934971e-9,24,1
25,-9.999171899608389e-9,24,1
23,-9.999171900136238e-9,24,1
49,-9.999171935465555e-9,24,1
5,-9.999171928355931e-9,24,1
31,-9.9991718985994e-9,24,1
43,-9.999171934857384e-9,24,1
39,-9.999171935029919e-9,24,1
34,-9.999171928354981e-9,24,1
44,-9.99917193485738e-9,24,1
17,-9.999171934946651e-9,24,1
37,-9.99917193621054e-9,24,1
47,-9.99917190912071e-9,24,1
9,-9.99917192835444e-9,24,1
12,-9.999171928354439e-9,24,1
20,-9.999171934825395e-9,24,1
6,-9.999171898769925e-9,24,1
14,-9.999171934801441e-9,24,1
7,-9.999171928358249e-9,24,1
8,-9.999171928354439e-9,24,1
19,-9.999171934811832e-9,24,1
4,-9.99917192835843e-9,24,1
22,-9.999171897593997e-9,24,1
11,-9.999171928354439e-9,24,1
35,-9.999171928354981e-9,24,1
13,-9.999171928354437e-9,24,1
15,-9.999171934785718e-9,24,1
16,-9.999171934946653e-9,24,1
40,-9.999171934857384e-9,24,1
46,-9.99917192835462e-9,24,1
21,-9.999171928354788e-9,24,1
38,-9.999171934883466e-9,24,1
45,-9.99917192835491e-9,24,1
36,-9.999171928354981e-9,24,1
48,-9.999171935465553e-9,24,1
18,-9.999171934794121e-9,24,1
30,-9.999171928355441e-9,24,1
3,-9.999171928358427e-9,24,1
32,-9.999298059415907e-9,1,2
29,-9.999298059415872e-9,1,2
1,-9.99929805941591e-9,1,2
2,-9.99929805941591e-9,1,2
41,-9.99929806406969e-9,1,2
27,-9.999298059415874e-9,1,2
42,-9.99929806406969e-9,1,2
33,-9.999298059415877e-9,1,2
28,-9.999298059415874e-9,1,2
26,-9.999298059415874e-9,1,2
10,-9.99929805941588e-9,1,2
24,-9.999298038200947e-9,1,2
25,-9.999298038251326e-9,1,2
23,-9.999298038210323e-9,1,2
49,-9.999298064506858e-9,1,2
5,-9.999298059415892e-9,1,2
31,-9.999298038372022e-9,1,2
43,-9.99929806406969e-9,1,2
39,-9.99929806419395e-9,1,2
34,-9.999298059415877e-9,1,2
44,-9.99929806406969e-9,1,2
17,-9.999298064134034e-9,1,2
37,-9.999298065041696e-9,1,2
47,-9.999298045775909e-9,1,2
9,-9.99929805941588e-9,1,2
12,-9.99929805941588e-9,1,2
20,-9.9992980640464e-9,1,2
6,-9.999298038396849e-9,1,2
14,-9.99929806402867e-9,1,2
7,-9.999298059415912e-9,1,2
8,-9.99929805941588e-9,1,2
19,-9.999298064036423e-9,1,2
4,-9.99929805941591e-9,1,2
22,-9.99929803851017e-9,1,2
11,-9.99929805941588e-9,1,2
35,-9.999298059415877e-9,1,2
13,-9.99929805941588e-9,1,2
15,-9.999298064016505e-9,1,2
16,-9.999298064134034e-9,1,2
40,-9.99929806406969e-9,1,2
46,-9.99929805941588e-9,1,2
21,-9.999298059415884e-9,1,2
38,-9.999298064088547e-9,1,2
45,-9.999298059415884e-9,1,2
36,-9.999298059415877e-9,1,2
48,-9.999298064506858e-9,1,2
18,-9.999298064023137e-9,1,2
30,-9.999298059415872e-9,1,2
3,-9.99929805941591e-9,1,2
32,-9.999437204164336e-9,2,2
29,-9.999437204164318e-9,2,2
1,-9.999437204164338e-9,2,2
2,-9.999437204164338e-9,2,2
41,-9.999437207155916e-9,2,2
27,-9.99943720416432e-9,2,2
42,-9.999437207155916e-9,2,2
33,-9.999437204164321e-9,2,2
28,-9.99943720416432e-9,2,2
26,-9.99943720416432e-9,2,2
10,-9.999437204164323e-9,2,2
24,-9.999437190545757e-9,2,2
25,-9.999437190570892e-9,2,2
23,-9.999437190550432e-9,2,2
49,-9.999437207436942e-9,2,2
5,-9.999437204164328e-9,2,2
31,-9.999437190631115e-9,2,2
43,-9.999437207155916e-9,2,2
39,-9.999437207235795e-9,2,2
34,-9.999437204164321e-9,2,2
44,-9.999437207155916e-9,2,2
17,-9.99943720719728e-9,2,2
37,-9.999437207780751e-9,2,2
47,-9.999437195396546e-9,2,2
9,-9.999437204164323e-9,2,2
12,-9.999437204164323e-9,2,2
20,-9.999437207140942e-9,2,2
6,-9.999437190643505e-9,2,2
14,-9.999437207129542e-9,2,2
7,-9.999437204164338e-9,2,2
8,-9.999437204164323e-9,2,2
19,-9.999437207134528e-9,2,2
4,-9.999437204164338e-9,2,2
22,-9.99943719070005e-9,2,2
11,-9.999437204164323e-9,2,2
35,-9.999437204164321e-9,2,2
13,-9.999437204164323e-9,2,2
15,-9.999437207121717e-9,2,2
16,-9.99943720719728e-9,2,2
40,-9.999437207155916e-9,2,2
46,-9.999437204164323e-9,2,2
21,-9.999437204164324e-9,2,2
38,-9.999437207168037e-9,2,2
45,-9.999437204164324e-9,2,2
36,-9.999437204164321e-9,2,2
48,-9.999437207436942e-9,2,2
18,-9.999437207125983e-9,2,2
30,-9.999437204164318e-9,2,2
3,-9.999437204164338e-9,2,2
32,-9.999306397943997e-9,3,2
29,-9.999306397943966e-9,3,2
1,-9.999306397944e-9,3,2
2,-9.999306397944e-9,3,2
41,-9.999306402487862e-9,3,2
27,-9.999306397943967e-9,3,2
42,-9.999306402487862e-9,3,2
33,-9.999306397943969e-9,3,2
28,-9.999306397943967e-9,3,2
26,-9.999306397943967e-9,3,2
10,-9.999306397943974e-9,3,2
24,-9.999306377233206e-9,3,2
25,-9.99930637728121e-9,3,2
23,-9.99930637724214e-9,3,2
49,-9.999306402914706e-9,3,2
5,-9.999306397943982e-9,3,2
31,-9.999306377396222e-9,3,2
43,-9.999306402487862e-9,3,2
39,-9.999306402609188e-9,3,2
34,-9.999306397943969e-9,3,2
44,-9.999306402487862e-9,3,2
17,-9.999306402550688e-9,3,2
37,-9.999306403436911e-9,3,2
47,-9.99930638462622e-9,3,2
9,-9.999306397943974e-9,3,2
12,-9.999306397943974e-9,3,2
20,-9.999306402465123e-9,3,2
6,-9.99930637741988e-9,3,2
14,-9.99930640244781e-9,3,2
7,-9.999306397944002e-9,3,2
8,-9.999306397943974e-9,3,2
19,-9.999306402455382e-9,3,2
4,-9.999306397944e-9,3,2
22,-9.999306377527864e-9,3,2
11,-9.999306397943974e-9,3,2
35,-9.999306397943969e-9,3,2
13,-9.999306397943974e-9,3,2
15,-9.999306402435934e-9,3,2
16,-9.999306402550688e-9,3,2
40,-9.999306402487862e-9,3,2
46,-9.999306397943972e-9,3,2
21,-9.999306397943976e-9,3,2
38,-9.999306402506275e-9,3,2
45,-9.999306397943976e-9,3,2
36,-9.999306397943969e-9,3,2
48,-9.999306402914706e-9,3,2
18,-9.999306402442409e-9,3,2
30,-9.999306397943966e-9,3,2
3,-9.999306397944e-9,3,2
32,-9.999291353352638e-9,4,2
29,-9.999291353352605e-9,4,2
1,-9.999291353352641e-9,4,2
2,-9.999291353352641e-9,4,2
41,-9.99929135809575e-9,4,2
27,-9.999291353352606e-9,4,2
42,-9.99929135809575e-9,4,2
33,-9.99929135335261e-9,4,2
28,-9.999291353352606e-9,4,2
26,-9.999291353352606e-9,4,2
10,-9.999291353352613e-9,4,2
24,-9.99929133173617e-9,4,2
25,-9.999291331785316e-9,4,2
23,-9.999291331745315e-9,4,2
49,-9.999291358541312e-9,4,2
5,-9.999291353352623e-9,4,2
31,-9.999291331903065e-9,4,2
43,-9.99929135809575e-9,4,2
39,-9.999291358222397e-9,4,2
34,-9.99929135335261e-9,4,2
44,-9.99929135809575e-9,4,2
17,-9.999291358161331e-9,4,2
37,-9.999291359086417e-9,4,2
47,-9.999291339450913e-9,4,2
9,-9.999291353352613e-9,4,2
12,-9.999291353352613e-9,4,2
20,-9.999291358072014e-9,4,2
6,-9.999291331927287e-9,4,2
14,-9.999291358053942e-9,4,2
7,-9.999291353352643e-9,4,2
8,-9.999291353352613e-9,4,2
19,-9.999291358061846e-9,4,2
4,-9.999291353352641e-9,4,2
22,-9.999291332037843e-9,4,2
11,-9.999291353352613e-9,4,2
35,-9.99929135335261e-9,4,2
13,-9.999291353352613e-9,4,2
15,-9.999291358041542e-9,4,2
16,-9.999291358161331e-9,4,2
40,-9.99929135809575e-9,4,2
46,-9.999291353352613e-9,4,2
21,-9.999291353352616e-9,4,2
38,-9.999291358114971e-9,4,2
45,-9.999291353352616e-9,4,2
36,-9.99929135335261e-9,4,2
48,-9.999291358541312e-9,4,2
18,-9.999291358048304e-9,4,2
30,-9.999291353352605e-9,4,2
3,-9.999291353352641e-9,4,2
32,-9.99935694112647e-9,5,2
29,-9.999356941126446e-9,5,2
1,-9.999356941126472e-9,5,2
2,-9.999356941126472e-9,5,2
41,-9.999356945032201e-9,5,2
27,-9.999356941126446e-9,5,2
42,-9.999356945032201e-9,5,2
33,-9.99935694112645e-9,5,2
28,-9.999356941126446e-9,5,2
26,-9.999356941126446e-9,5,2
10,-9.999356941126451e-9,5,2
24,-9.999356923338132e-9,5,2
25,-9.999356923374091e-9,5,2
23,-9.99935692334482e-9,5,2
49,-9.999356945399102e-9,5,2
5,-9.99935694112646e-9,5,2
31,-9.999356923460249e-9,5,2
43,-9.999356945032201e-9,5,2
39,-9.99935694513649e-9,5,2
34,-9.99935694112645e-9,5,2
44,-9.999356945032201e-9,5,2
17,-9.999356945086204e-9,5,2
37,-9.99935694584797e-9,5,2
47,-9.999356929679287e-9,5,2
9,-9.999356941126451e-9,5,2
12,-9.999356941126451e-9,5,2
20,-9.999356945012655e-9,5,2
6,-9.999356923477972e-9,5,2
14,-9.99935694499777e-9,5,2
7,-9.999356941126474e-9,5,2
8,-9.999356941126451e-9,5,2
19,-9.99935694500428e-9,5,2
4,-9.999356941126472e-9,5,2
22,-9.999356923558867e-9,5,2
11,-9.999356941126451e-9,5,2
35,-9.99935694112645e-9,5,2
13,-9.999356941126451e-9,5,2
15,-9.999356944987558e-9,5,2
16,-9.999356945086204e-9,5,2
40,-9.999356945032201e-9,5,2
46,-9.999356941126451e-9,5,2
21,-9.999356941126454e-9,5,2
38,-9.999356945048028e-9,5,2
45,-9.999356941126454e-9,5,2
36,-9.99935694112645e-9,5,2
48,-9.999356945399102e-9,5,2
18,-9.999356944993127e-9,5,2
30,-9.999356941126446e-9,5,2
3,-9.999356941126472e-9,5,2
32,-9.999284125425701e-9,6,2
29,-9.999284125425665e-9,6,2
1,-9.999284125425704e-9,6,2
2,-9.999284125425704e-9,6,2
41,-9.999284130266084e-9,6,2
27,-9.999284125425666e-9,6,2
42,-9.999284130266084e-9,6,2
33,-9.99928412542567e-9,6,2
28,-9.999284125425666e-9,6,2
26,-9.999284125425666e-9,6,2
10,-9.999284125425674e-9,6,2
24,-9.999284103357617e-9,6,2
25,-9.99928410341096e-9,6,2
23,-9.999284103367545e-9,6,2
49,-9.999284130720782e-9,6,2
5,-9.999284125425684e-9,6,2
31,-9.999284103538757e-9,6,2
43,-9.999284130266084e-9,6,2
39,-9.999284130395328e-9,6,2
34,-9.99928412542567e-9,6,2
44,-9.999284130266084e-9,6,2
17,-9.99928413033301e-9,6,2
37,-9.999284131277066e-9,6,2
47,-9.999284111238735e-9,6,2
9,-9.999284125425673e-9,6,2
12,-9.999284125425674e-9,6,2
20,-9.99928413024186e-9,6,2
6,-9.999284103565045e-9,6,2
14,-9.99928413022342e-9,6,2
7,-9.999284125425706e-9,6,2
8,-9.999284125425674e-9,6,2
19,-9.999284130231486e-9,6,2
4,-9.999284125425704e-9,6,2
22,-9.999284103685035e-9,6,2
11,-9.999284125425674e-9,6,2
35,-9.99928412542567e-9,6,2
13,-9.999284125425674e-9,6,2
15,-9.999284130210769e-9,6,2
16,-9.99928413033301e-9,6,2
40,-9.999284130266084e-9,6,2
46,-9.999284125425673e-9,6,2
21,-9.999284125425676e-9,6,2
38,-9.999284130285698e-9,6,2
45,-9.999284125425676e-9,6,2
36,-9.99928412542567e-9,6,2
48,-9.999284130720782e-9,6,2
18,-9.999284130217667e-9,6,2
30,-9.999284125425665e-9,6,2
3,-9.999284125425704e-9,6,2
32,-9.99940176625414e-9,7,2
29,-9.999401766254118e-9,7,2
1,-9.999401766254141e-9,7,2
2,-9.999401766254141e-9,7,2
41,-9.99940176963434e-9,7,2
27,-9.999401766254118e-9,7,2
42,-9.99940176963434e-9,7,2
33,-9.99940176625412e-9,7,2
28,-9.999401766254118e-9,7,2
26,-9.999401766254118e-9,7,2
10,-9.999401766254123e-9,7,2
24,-9.999401750859914e-9,7,2
25,-9.999401750890805e-9,7,2
23,-9.99940175086566e-9,7,2
49,-9.999401769951873e-9,7,2
5,-9.99940176625413e-9,7,2
31,-9.99940175096482e-9,7,2
43,-9.99940176963434e-9,7,2
39,-9.999401769724597e-9,7,2
34,-9.99940176625412e-9,7,2
44,-9.99940176963434e-9,7,2
17,-9.999401769681077e-9,7,2
37,-9.999401770340345e-9,7,2
47,-9.999401756347239e-9,7,2
9,-9.999401766254123e-9,7,2
12,-9.999401766254123e-9,7,2
20,-9.999401769617424e-9,7,2
6,-9.999401750980046e-9,7,2
14,-9.999401769604543e-9,7,2
7,-9.999401766254143e-9,7,2
8,-9.999401766254123e-9,7,2
19,-9.999401769610177e-9,7,2
4,-9.999401766254141e-9,7,2
22,-9.99940175104954e-9,7,2
11,-9.999401766254123e-9,7,2
35,-9.99940176625412e-9,7,2
13,-9.999401766254123e-9,7,2
15,-9.999401769595704e-9,7,2
16,-9.999401769681077e-9,7,2
40,-9.99940176963434e-9,7,2
46,-9.999401766254123e-9,7,2
21,-9.999401766254124e-9,7,2
38,-9.999401769648038e-9,7,2
45,-9.999401766254124e-9,7,2
36,-9.99940176625412e-9,7,2
48,-9.999401769951873e-9,7,2
18,-9.999401769600523e-9,7,2
30,-9.999401766254118e-9,7,2
3,-9.999401766254141e-9,7,2
32,-9.999399570546644e-9,8,2
29,-9.999399570546622e-9,8,2
1,-9.999399570546645e-9,8,2
2,-9.999399570546645e-9,8,2
41,-9.999399573951701e-9,8,2
27,-9.999399570546622e-9,8,2
42,-9.999399573951701e-9,8,2
33,-9.999399570546624e-9,8,2
28,-9.999399570546622e-9,8,2
26,-9.999399570546622e-9,8,2
10,-9.999399570546627e-9,8,2
24,-9.999399555039507e-9,8,2
25,-9.999399555070511e-9,8,2
23,-9.999399555045276e-9,8,2
49,-9.99939957427157e-9,8,2
5,-9.999399570546634e-9,8,2
31,-9.999399555144797e-9,8,2
43,-9.999399573951701e-9,8,2
39,-9.999399574042621e-9,8,2
34,-9.999399570546624e-9,8,2
44,-9.999399573951703e-9,8,2
17,-9.999399573998783e-9,8,2
37,-9.9993995746629e-9,8,2
47,-9.999399560566893e-9,8,2
9,-9.999399570546627e-9,8,2
12,-9.999399570546627e-9,8,2
20,-9.999399573934661e-9,8,2
6,-9.999399555160078e-9,8,2
14,-9.999399573921684e-9,8,2
7,-9.999399570546645e-9,8,2
8,-9.999399570546627e-9,8,2
19,-9.99939957392736e-9,8,2
4,-9.999399570546645e-9,8,2
22,-9.999399555229824e-9,8,2
11,-9.999399570546627e-9,8,2
35,-9.999399570546624e-9,8,2
13,-9.999399570546627e-9,8,2
15,-9.99939957391278e-9,8,2
16,-9.999399573998783e-9,8,2
40,-9.999399573951701e-9,8,2
46,-9.999399570546627e-9,8,2
21,-9.999399570546629e-9,8,2
38,-9.9993995739655e-9,8,2
45,-9.999399570546629e-9,8,2
36,-9.999399570546624e-9,8,2
48,-9.99939957427157e-9,8,2
18,-9.999399573917636e-9,8,2
30,-9.999399570546622e-9,8,2
3,-9.999399570546645e-9,8,2
32,-9.999321964028022e-9,9,2
29,-9.999321964027992e-9,9,2
1,-9.999321964028024e-9,9,2
2,-9.999321964028024e-9,9,2
41,-9.9993219683702e-9,9,2
27,-9.999321964027994e-9,9,2
42,-9.9993219683702e-9,9,2
33,-9.999321964027995e-9,9,2
28,-9.999321964027994e-9,9,2
26,-9.999321964027994e-9,9,2
10,-9.999321964027999e-9,9,2
24,-9.99932194424555e-9,9,2
25,-9.999321944287954e-9,9,2
23,-9.999321944253437e-9,9,2
49,-9.9993219687781e-9,9,2
5,-9.999321964028009e-9,9,2
31,-9.999321944389558e-9,9,2
43,-9.9993219683702e-9,9,2
39,-9.999321968486143e-9,9,2
34,-9.999321964027995e-9,9,2
44,-9.9993219683702e-9,9,2
17,-9.999321968430239e-9,9,2
37,-9.999321969277128e-9,9,2
47,-9.999321951301534e-9,9,2
9,-9.999321964027999e-9,9,2
12,-9.999321964027999e-9,9,2
20,-9.99932196834847e-9,9,2
6,-9.999321944410458e-9,9,2
14,-9.999321968331925e-9,9,2
7,-9.999321964028025e-9,9,2
8,-9.999321964027999e-9,9,2
19,-9.999321968339162e-9,9,2
4,-9.999321964028024e-9,9,2
22,-9.999321944505851e-9,9,2
11,-9.999321964027999e-9,9,2
35,-9.999321964027995e-9,9,2
13,-9.999321964027999e-9,9,2
15,-9.999321968320572e-9,9,2
16,-9.999321968430239e-9,9,2
40,-9.9993219683702e-9,9,2
46,-9.999321964027999e-9,9,2
21,-9.999321964028002e-9,9,2
38,-9.999321968387796e-9,9,2
45,-9.999321964028002e-9,9,2
36,-9.999321964027995e-9,9,2
48,-9.9993219687781e-9,9,2
18,-9.999321968326762e-9,9,2
30,-9.999321964027992e-9,9,2
3,-9.999321964028024e-9,9,2
32,-9.999336217691089e-9,10,2
29,-9.999336217691061e-9,10,2
1,-9.999336217691092e-9,10,2
2,-9.999336217691092e-9,10,2
41,-9.999336221852641e-9,10,2
27,-9.999336217691063e-9,10,2
42,-9.999336221852641e-9,10,2
33,-9.999336217691064e-9,10,2
28,-9.999336217691063e-9,10,2
26,-9.999336217691063e-9,10,2
10,-9.999336217691068e-9,10,2
24,-9.999336198725831e-9,10,2
25,-9.999336198768603e-9,10,2
23,-9.999336198733646e-9,10,2
49,-9.999336222243572e-9,10,2
5,-9.999336217691078e-9,10,2
31,-9.99933619887138e-9,10,2
43,-9.999336221852641e-9,10,2
39,-9.99933622196376e-9,10,2
34,-9.999336217691064e-9,10,2
44,-9.999336221852641e-9,10,2
17,-9.999336221910182e-9,10,2
37,-9.999336222721841e-9,10,2
47,-9.999336205493912e-9,10,2
9,-9.999336217691068e-9,10,2
12,-9.999336217691068e-9,10,2
20,-9.999336221831816e-9,10,2
6,-9.999336198892493e-9,10,2
14,-9.99933622181596e-9,10,2
7,-9.999336217691094e-9,10,2
8,-9.999336217691068e-9,10,2
19,-9.999336221822894e-9,10,2
4,-9.999336217691092e-9,10,2
22,-9.999336198988861e-9,10,2
11,-9.999336217691068e-9,10,2
35,-9.999336217691064e-9,10,2
13,-9.999336217691068e-9,10,2
15,-9.99933622180508e-9,10,2
16,-9.999336221910182e-9,10,2
40,-9.999336221852641e-9,10,2
46,-9.999336217691068e-9,10,2
21,-9.999336217691071e-9,10,2
38,-9.999336221869504e-9,10,2
45,-9.999336217691071e-9,10,2
36,-9.999336217691064e-9,10,2
48,-9.999336222243572e-9,10,2
18,-9.999336221811013e-9,10,2
30,-9.999336217691061e-9,10,2
3,-9.999336217691092e-9,10,2
32,-9.999283446186938e-9,11,2
29,-9.999283446186903e-9,11,2
1,-9.999283446186941e-9,11,2
2,-9.999283446186941e-9,11,2
41,-9.999283451036505e-9,11,2
27,-9.999283446186905e-9,11,2
42,-9.999283451036505e-9,11,2
33,-9.999283446186907e-9,11,2
28,-9.999283446186905e-9,11,2
26,-9.999283446186905e-9,11,2
10,-9.999283446186912e-9,11,2
24,-9.999283424079335e-9,11,2
25,-9.999283424130702e-9,11,2
23,-9.999283424081923e-9,11,2
49,-9.999283451492066e-9,11,2
5,-9.999283446186922e-9,11,2
31,-9.999283424261652e-9,11,2
43,-9.999283451036505e-9,11,2
39,-9.999283451165993e-9,11,2
34,-9.999283446186907e-9,11,2
44,-9.999283451036505e-9,11,2
17,-9.999283451103557e-9,11,2
37,-9.999283452049404e-9,11,2
47,-9.999283431973113e-9,11,2
9,-9.999283446186912e-9,11,2
12,-9.999283446186912e-9,11,2
20,-9.999283451012237e-9,11,2
6,-9.999283424286968e-9,11,2
14,-9.999283450993759e-9,11,2
7,-9.999283446186943e-9,11,2
8,-9.999283446186912e-9,11,2
19,-9.99928345100184e-9,11,2
4,-9.999283446186941e-9,11,2
22,-9.99928342440296e-9,11,2
11,-9.999283446186912e-9,11,2
35,-9.999283446186907e-9,11,2
13,-9.999283446186912e-9,11,2
15,-9.999283450981083e-9,11,2
16,-9.999283451103557e-9,11,2
40,-9.999283451036505e-9,11,2
46,-9.99928344618691e-9,11,2
21,-9.999283446186913e-9,11,2
38,-9.999283451056157e-9,11,2
45,-9.999283446186915e-9,11,2
36,-9.999283446186907e-9,11,2
48,-9.999283451492066e-9,11,2
18,-9.999283450987995e-9,11,2
30,-9.999283446186903e-9,11,2
3,-9.999283446186941e-9,11,2
32,-9.999351221947269e-9,12,2
29,-9.999351221947276e-9,12,2
1,-9.999351221947266e-9,12,2
2,-9.999351221947266e-9,12,2
41,-9.999351225922573e-9,12,2
27,-9.999351221947277e-9,12,2
42,-9.999351225922573e-9,12,2
33,-9.999351221947276e-9,12,2
28,-9.999351221947277e-9,12,2
26,-9.999351221947277e-9,12,2
10,-9.999351221947276e-9,12,2
24,-9.999351203883128e-9,12,2
25,-9.999351204062044e-9,12,2
23,-9.999351203966518e-9,12,2
49,-9.99935122629602e-9,12,2
5,-9.999351221947272e-9,12,2
31,-9.999351203908745e-9,12,2
43,-9.999351225922573e-9,12,2
39,-9.999351226028727e-9,12,2
34,-9.999351221947276e-9,12,2
44,-9.999351225922573e-9,12,2
17,-9.999351225977543e-9,12,2
37,-9.99935122675289e-9,12,2
47,-9.999351202515514e-9,12,2
9,-9.999351221947276e-9,12,2
12,-9.999351221947276e-9,12,2
20,-9.999351225902673e-9,12,2
6,-9.999351203874695e-9,12,2
14,-9.999351225887514e-9,12,2
7,-9.999351221947267e-9,12,2
8,-9.999351221947276e-9,12,2
19,-9.999351225894145e-9,12,2
4,-9.999351221947266e-9,12,2
22,-9.999351203794261e-9,12,2
11,-9.999351221947276e-9,12,2
35,-9.999351221947276e-9,12,2
13,-9.999351221947276e-9,12,2
15,-9.999351225877103e-9,12,2
16,-9.999351225977543e-9,12,2
40,-9.999351225922573e-9,12,2
46,-9.999351221947274e-9,12,2
21,-9.999351221947274e-9,12,2
38,-9.999351225938684e-9,12,2
45,-9.999351221947274e-9,12,2
36,-9.999351221947276e-9,12,2
48,-9.99935122629602e-9,12,2
18,-9.999351225882781e-9,12,2
30,-9.999351221947276e-9,12,2
3,-9.999351221947266e-9,12,2
32,0.05399990374178626,13,2
29,4.463999860771641,13,2
1,0.04529990383028043,13,2
2,0.045299903830280285,13,2
41,0.01694609085764152,13,2
27,1.3004998923517952,13,2
42,0.016946061944324242,13,2
33,0.7721998958980044,13,2
28,1.3004998923517954,13,2
26,1.300499892351795,13,2
10,0.27919990140078077,13,2
24,0.013999990859677533,13,2
25,1.3349999942096442,13,2
23,1.5479999963396445,13,2
49,1.1371948121030637e-6,13,2
5,0.09069990336714652,13,2
31,0.9239999908596443,13,2
43,0.016946064828908994,13,2
39,4.221111534649913e-6,13,2
34,0.7721998958980041,13,2
44,0.016946003389318592,13,2
17,8.718681462005403e-6,13,2
37,5.009158030437453e-7,13,2
47,1.1382999475268476,13,2
9,0.27919990140078105,13,2
12,0.27919990140077894,13,2
20,0.06281785576554848,13,2
6,0.8649999908596451,13,2
14,0.039984021159755745,13,2
7,0.04699990381300787,13,2
8,0.2791999014007824,13,2
19,0.04997354245403189,13,2
4,0.045299903830269383,13,2
22,0.6759999908596447,13,2
11,0.27919990140077894,13,2
35,0.7721998958980046,13,2
13,0.27919990140077583,13,2
15,0.023990179414715436,13,2
16,8.71870067428352e-6,13,2
40,0.016946087161328085,13,2
46,0.2659999015408398,13,2
21,0.17999990244453445,13,2
38,4.912022199352132e-5,13,2
45,0.17499990249661826,13,2
36,0.7721998958980046,13,2
48,1.1371947552573358e-6,13,2
18,0.031987664725697765,13,2
30,4.463999860771641,13,2
3,0.04529990383026893,13,2
32,-9.999317860742654e-9,14,2
29,-9.99931786074266e-9,14,2
1,-9.999317860742651e-9,14,2
2,-9.999317860742651e-9,14,2
41,-9.999317865137298e-9,14,2
27,-9.999317860742663e-9,14,2
42,-9.999317865137298e-9,14,2
33,-9.999317860742661e-9,14,2
28,-9.999317860742663e-9,14,2
26,-9.999317860742663e-9,14,2
10,-9.999317860742661e-9,14,2
24,-9.9993178407759e-9,14,2
25,-9.999317840963987e-9,14,2
23,-9.999317840863562e-9,14,2
49,-9.99931786555014e-9,14,2
5,-9.999317860742658e-9,14,2
31,-9.999317840802827e-9,14,2
43,-9.999317865137298e-9,14,2
39,-9.99931786525465e-9,14,2
34,-9.999317860742661e-9,14,2
44,-9.999317865137298e-9,14,2
17,-9.999317865198068e-9,14,2
37,-9.999317866055204e-9,14,2
47,-9.999317839259257e-9,14,2
9,-9.999317860742661e-9,14,2
12,-9.999317860742661e-9,14,2
20,-9.999317865115298e-9,14,2
6,-9.999317840767032e-9,14,2
14,-9.999317865098541e-9,14,2
7,-9.999317860742653e-9,14,2
8,-9.999317860742661e-9,14,2
19,-9.999317865105872e-9,14,2
4,-9.999317860742651e-9,14,2
22,-9.999317840682472e-9,14,2
11,-9.999317860742661e-9,14,2
35,-9.999317860742661e-9,14,2
13,-9.999317860742661e-9,14,2
15,-9.99931786508703e-9,14,2
16,-9.999317865198068e-9,14,2
40,-9.999317865137298e-9,14,2
46,-9.99931786074266e-9,14,2
21,-9.99931786074266e-9,14,2
38,-9.999317865155109e-9,14,2
45,-9.999317860742658e-9,14,2
36,-9.999317860742661e-9,14,2
48,-9.99931786555014e-9,14,2
18,-9.999317865093309e-9,14,2
30,-9.99931786074266e-9,14,2
3,-9.999317860742651e-9,14,2
32,-9.999336166511984e-9,15,2
29,-9.999336166511957e-9,15,2
1,-9.999336166511985e-9,15,2
2,-9.999336166511985e-9,15,2
41,-9.99933617067415e-9,15,2
27,-9.999336166511957e-9,15,2
42,-9.99933617067415e-9,15,2
33,-9.99933616651196e-9,15,2
28,-9.999336166511957e-9,15,2
26,-9.999336166511957e-9,15,2
10,-9.999336166511964e-9,15,2
24,-9.9993361475546e-9,15,2
25,-9.99933614759248e-9,15,2
23,-9.999336147556505e-9,15,2
49,-9.999336171065138e-9,15,2
5,-9.999336166511972e-9,15,2
31,-9.999336147689059e-9,15,2
43,-9.99933617067415e-9,15,2
39,-9.999336170785285e-9,15,2
34,-9.99933616651196e-9,15,2
44,-9.99933617067415e-9,15,2
17,-9.999336170731698e-9,15,2
37,-9.999336171543479e-9,15,2
47,-9.999336154313207e-9,15,2
9,-9.999336166511964e-9,15,2
12,-9.999336166511964e-9,15,2
20,-9.999336170653318e-9,15,2
6,-9.999336147707728e-9,15,2
14,-9.99933617063746e-9,15,2
7,-9.999336166511987e-9,15,2
8,-9.999336166511964e-9,15,2
19,-9.999336170644396e-9,15,2
4,-9.999336166511985e-9,15,2
22,-9.999336147793275e-9,15,2
11,-9.999336166511964e-9,15,2
35,-9.99933616651196e-9,15,2
13,-9.999336166511964e-9,15,2
15,-9.999336170626575e-9,15,2
16,-9.999336170731698e-9,15,2
40,-9.99933617067415e-9,15,2
46,-9.999336166511962e-9,15,2
21,-9.999336166511965e-9,15,2
38,-9.999336170691016e-9,15,2
45,-9.999336166511965e-9,15,2
36,-9.99933616651196e-9,15,2
48,-9.999336171065138e-9,15,2
18,-9.99933617063251e-9,15,2
30,-9.999336166511957e-9,15,2
3,-9.999336166511985e-9,15,2
32,-9.999329614343328e-9,16,2
29,-9.999329614343299e-9,16,2
1,-9.99932961434333e-9,16,2
2,-9.99932961434333e-9,16,2
41,-9.999329618588077e-9,16,2
27,-9.9993296143433e-9,16,2
42,-9.999329618588077e-9,16,2
33,-9.999329614343303e-9,16,2
28,-9.9993296143433e-9,16,2
26,-9.9993296143433e-9,16,2
10,-9.999329614343307e-9,16,2
24,-9.999329595003854e-9,16,2
25,-9.999329595045585e-9,16,2
23,-9.999329595011477e-9,16,2
49,-9.999329618986824e-9,16,2
5,-9.999329614343315e-9,16,2
31,-9.999329595145866e-9,16,2
43,-9.999329618588077e-9,16,2
39,-9.999329618701417e-9,16,2
34,-9.999329614343303e-9,16,2
44,-9.999329618588077e-9,16,2
17,-9.999329618646767e-9,16,2
37,-9.999329619474654e-9,16,2
47,-9.999329601902388e-9,16,2
9,-9.999329614343307e-9,16,2
12,-9.999329614343307e-9,16,2
20,-9.999329618566835e-9,16,2
6,-9.999329595166466e-9,16,2
14,-9.99932961855066e-9,16,2
7,-9.999329614343332e-9,16,2
8,-9.999329614343307e-9,16,2
19,-9.999329618557734e-9,16,2
4,-9.99932961434333e-9,16,2
22,-9.999329595260493e-9,16,2
11,-9.999329614343307e-9,16,2
35,-9.999329614343303e-9,16,2
13,-9.999329614343307e-9,16,2
15,-9.999329618539563e-9,16,2
16,-9.999329618646767e-9,16,2
40,-9.999329618588077e-9,16,2
46,-9.999329614343305e-9,16,2
21,-9.999329614343308e-9,16,2
38,-9.999329618605277e-9,16,2
45,-9.999329614343308e-9,16,2
36,-9.999329614343303e-9,16,2
48,-9.999329618986824e-9,16,2
18,-9.999329618545613e-9,16,2
30,-9.999329614343299e-9,16,2
3,-9.99932961434333e-9,16,2
32,-9.999325694202768e-9,17,2
29,-9.999325694202738e-9,17,2
1,-9.999325694202771e-9,17,2
2,-9.999325694202771e-9,17,2
41,-9.999325698497323e-9,17,2
27,-9.999325694202738e-9,17,2
42,-9.999325698497323e-9,17,2
33,-9.999325694202741e-9,17,2
28,-9.999325694202738e-9,17,2
26,-9.99932569420274e-9,17,2
10,-9.999325694202745e-9,17,2
24,-9.99932567462998e-9,17,2
25,-9.999325674674723e-9,17,2
23,-9.999325674638305e-9,17,2
49,-9.999325698900747e-9,17,2
5,-9.999325694202755e-9,17,2
31,-9.999325674781922e-9,17,2
43,-9.999325698497323e-9,17,2
39,-9.999325698611991e-9,17,2
34,-9.999325694202741e-9,17,2
44,-9.999325698497323e-9,17,2
17,-9.999325698556701e-9,17,2
37,-9.9993256993943e-9,17,2
47,-9.999325681615742e-9,17,2
9,-9.999325694202745e-9,17,2
12,-9.999325694202745e-9,17,2
20,-9.99932569847583e-9,17,2
6,-9.999325674803973e-9,17,2
14,-9.999325698459467e-9,17,2
7,-9.999325694202771e-9,17,2
8,-9.999325694202745e-9,17,2
19,-9.999325698466624e-9,17,2
4,-9.999325694202771e-9,17,2
22,-9.99932567490462e-9,17,2
11,-9.999325694202745e-9,17,2
35,-9.999325694202741e-9,17,2
13,-9.999325694202745e-9,17,2
15,-9.999325698448241e-9,17,2
16,-9.999325698556701e-9,17,2
40,-9.999325698497323e-9,17,2
46,-9.999325694202745e-9,17,2
21,-9.999325694202748e-9,17,2
38,-9.999325698514725e-9,17,2
45,-9.999325694202748e-9,17,2
36,-9.999325694202741e-9,17,2
48,-9.999325698900747e-9,17,2
18,-9.999325698454362e-9,17,2
30,-9.999325694202738e-9,17,2
3,-9.999325694202771e-9,17,2
32,-9.999346203748508e-9,18,2
29,-9.999346203748482e-9,18,2
1,-9.99934620374851e-9,18,2
2,-9.99934620374851e-9,18,2
41,-9.999346207785765e-9,18,2
27,-9.999346203748483e-9,18,2
42,-9.999346207785765e-9,18,2
33,-9.999346203748485e-9,18,2
28,-9.999346203748483e-9,18,2
26,-9.999346203748483e-9,18,2
10,-9.999346203748488e-9,18,2
24,-9.99934618535869e-9,18,2
25,-9.999346185396798e-9,18,2
23,-9.999346185365779e-9,18,2
49,-9.99934620816502e-9,18,2
5,-9.999346203748497e-9,18,2
31,-9.999346185488107e-9,18,2
43,-9.999346207785765e-9,18,2
39,-9.999346207893565e-9,18,2
34,-9.999346203748485e-9,18,2
44,-9.999346207785765e-9,18,2
17,-9.999346207841586e-9,18,2
37,-9.999346208629004e-9,18,2
47,-9.999346191915792e-9,18,2
9,-9.999346203748488e-9,18,2
12,-9.999346203748488e-9,18,2
20,-9.999346207765559e-9,18,2
6,-9.999346185506891e-9,18,2
14,-9.999346207750175e-9,18,2
7,-9.999346203748511e-9,18,2
8,-9.999346203748488e-9,18,2
19,-9.999346207756903e-9,18,2
4,-9.99934620374851e-9,18,2
22,-9.999346185592622e-9,18,2
11,-9.999346203748488e-9,18,2
35,-9.999346203748485e-9,18,2
13,-9.999346203748488e-9,18,2
15,-9.999346207739618e-9,18,2
16,-9.999346207841586e-9,18,2
40,-9.999346207785765e-9,18,2
46,-9.999346203748488e-9,18,2
21,-9.99934620374849e-9,18,2
38,-9.999346207802125e-9,18,2
45,-9.99934620374849e-9,18,2
36,-9.999346203748485e-9,18,2
48,-9.99934620816502e-9,18,2
18,-9.999346207745375e-9,18,2
30,-9.999346203748482e-9,18,2
3,-9.99934620374851e-9,18,2
32,-9.999301105589492e-9,19,2
29,-9.999301105589462e-9,19,2
1,-9.999301105589495e-9,19,2
2,-9.999301105589495e-9,19,2
41,-9.999301110202925e-9,19,2
27,-9.999301105589464e-9,19,2
42,-9.999301110202925e-9,19,2
33,-9.999301105589465e-9,19,2
28,-9.999301105589464e-9,19,2
26,-9.999301105589464e-9,19,2
10,-9.999301105589469e-9,19,2
24,-9.999301084576308e-9,19,2
25,-9.999301084619403e-9,19,2
23,-9.999301084584325e-9,19,2
49,-9.999301110636304e-9,19,2
5,-9.999301105589479e-9,19,2
31,-9.999301084722656e-9,19,2
43,-9.999301110202925e-9,19,2
39,-9.99930111032611e-9,19,2
34,-9.999301105589465e-9,19,2
44,-9.999301110202925e-9,19,2
17,-9.999301110266713e-9,19,2
37,-9.999301111166506e-9,19,2
47,-9.999301092068072e-9,19,2
9,-9.999301105589469e-9,19,2
12,-9.999301105589469e-9,19,2
20,-9.999301110179836e-9,19,2
6,-9.999301084743895e-9,19,2
14,-9.999301110162255e-9,19,2
7,-9.999301105589495e-9,19,2
8,-9.999301105589469e-9,19,2
19,-9.999301110169945e-9,19,2
4,-9.999301105589495e-9,19,2
22,-9.99930108484084e-9,19,2
11,-9.999301105589469e-9,19,2
35,-9.999301105589465e-9,19,2
13,-9.999301105589469e-9,19,2
15,-9.999301110150192e-9,19,2
16,-9.999301110266713e-9,19,2
40,-9.999301110202925e-9,19,2
46,-9.999301105589469e-9,19,2
21,-9.999301105589472e-9,19,2
38,-9.999301110221619e-9,19,2
45,-9.999301105589472e-9,19,2
36,-9.999301105589465e-9,19,2
48,-9.999301110636304e-9,19,2
18,-9.99930111015677e-9,19,2
30,-9.999301105589462e-9,19,2
3,-9.999301105589495e-9,19,2
32,-9.999376301115087e-9,20,2
29,-9.999376301115063e-9,20,2
1,-9.999376301115089e-9,20,2
2,-9.999376301115089e-9,20,2
41,-9.999376304789199e-9,20,2
27,-9.999376301115064e-9,20,2
42,-9.999376304789199e-9,20,2
33,-9.999376301115066e-9,20,2
28,-9.999376301115064e-9,20,2
26,-9.999376301115064e-9,20,2
10,-9.999376301115069e-9,20,2
24,-9.999376284377005e-9,20,2
25,-9.999376284412618e-9,20,2
23,-9.99937628438363e-9,20,2
49,-9.99937630513434e-9,20,2
5,-9.999376301115076e-9,20,2
31,-9.999376284497947e-9,20,2
43,-9.999376304789199e-9,20,2
39,-9.999376304887302e-9,20,2
34,-9.999376301115066e-9,20,2
44,-9.999376304789199e-9,20,2
17,-9.999376304839999e-9,20,2
37,-9.999376305556589e-9,20,2
47,-9.999376290346676e-9,20,2
9,-9.999376301115069e-9,20,2
12,-9.999376301115069e-9,20,2
20,-9.99937630477081e-9,20,2
6,-9.9993762845155e-9,20,2
14,-9.999376304756811e-9,20,2
7,-9.99937630111509e-9,20,2
8,-9.999376301115069e-9,20,2
19,-9.999376304762934e-9,20,2
4,-9.999376301115089e-9,20,2
22,-9.999376284595616e-9,20,2
11,-9.999376301115069e-9,20,2
35,-9.999376301115066e-9,20,2
13,-9.999376301115069e-9,20,2
15,-9.999376304747204e-9,20,2
16,-9.999376304839999e-9,20,2
40,-9.999376304789199e-9,20,2
46,-9.999376301115068e-9,20,2
21,-9.99937630111507e-9,20,2
38,-9.999376304804086e-9,20,2
45,-9.99937630111507e-9,20,2
36,-9.999376301115066e-9,20,2
48,-9.99937630513434e-9,20,2
18,-9.999376304752442e-9,20,2
30,-9.999376301115063e-9,20,2
3,-9.999376301115089e-9,20,2
32,-9.99930294382734e-9,21,2
29,-9.999302943827307e-9,21,2
1,-9.999302943827342e-9,21,2
2,-9.999302943827342e-9,21,2
41,-9.999302948416582e-9,21,2
27,-9.999302943827309e-9,21,2
42,-9.999302948416582e-9,21,2
33,-9.99930294382731e-9,21,2
28,-9.999302943827309e-9,21,2
26,-9.999302943827309e-9,21,2
10,-9.999302943827314e-9,21,2
24,-9.999302922906803e-9,21,2
25,-9.999302922956407e-9,21,2
23,-9.999302922916034e-9,21,2
49,-9.999302948847688e-9,21,2
5,-9.999302943827326e-9,21,2
31,-9.999302923075248e-9,21,2
43,-9.999302948416582e-9,21,2
39,-9.999302948539118e-9,21,2
34,-9.99930294382731e-9,21,2
44,-9.999302948416582e-9,21,2
17,-9.999302948480035e-9,21,2
37,-9.999302949375109e-9,21,2
47,-9.999302930376514e-9,21,2
9,-9.999302943827314e-9,21,2
12,-9.999302943827314e-9,21,2
20,-9.999302948393616e-9,21,2
6,-9.999302923099693e-9,21,2
14,-9.999302948376131e-9,21,2
7,-9.999302943827344e-9,21,2
8,-9.999302943827314e-9,21,2
19,-9.999302948383777e-9,21,2
4,-9.999302943827342e-9,21,2
22,-9.999302923211275e-9,21,2
11,-9.999302943827314e-9,21,2
35,-9.99930294382731e-9,21,2
13,-9.999302943827314e-9,21,2
15,-9.999302948364135e-9,21,2
16,-9.999302948480035e-9,21,2
40,-9.999302948416582e-9,21,2
46,-9.999302943827314e-9,21,2
21,-9.999302943827317e-9,21,2
38,-9.999302948435178e-9,21,2
45,-9.999302943827317e-9,21,2
36,-9.99930294382731e-9,21,2
48,-9.999302948847688e-9,21,2
18,-9.999302948370675e-9,21,2
30,-9.999302943827307e-9,21,2
3,-9.999302943827344e-9,21,2
32,-9.999281538668205e-9,22,2
29,-9.999281538668172e-9,22,2
1,-9.999281538668208e-9,22,2
2,-9.999281538668208e-9,22,2
41,-9.999281543543612e-9,22,2
27,-9.999281538668174e-9,22,2
42,-9.999281543543612e-9,22,2
33,-9.999281538668175e-9,22,2
28,-9.999281538668174e-9,22,2
26,-9.999281538668174e-9,22,2
10,-9.99928153866818e-9,22,2
24,-9.999281516448228e-9,22,2
25,-9.999281516498967e-9,22,2
23,-9.99928151645767e-9,22,2
49,-9.999281544001601e-9,22,2
5,-9.99928153866819e-9,22,2
31,-9.99928151662053e-9,22,2
43,-9.999281543543612e-9,22,2
39,-9.99928154367379e-9,22,2
34,-9.999281538668175e-9,22,2
44,-9.999281543543612e-9,22,2
17,-9.999281543611023e-9,22,2
37,-9.99928154456191e-9,22,2
47,-9.999281524378721e-9,22,2
9,-9.99928153866818e-9,22,2
12,-9.99928153866818e-9,22,2
20,-9.999281543519214e-9,22,2
6,-9.999281516645534e-9,22,2
14,-9.999281543500639e-9,22,2
7,-9.99928153866821e-9,22,2
8,-9.99928153866818e-9,22,2
19,-9.999281543508762e-9,22,2
4,-9.999281538668208e-9,22,2
22,-9.99928151675967e-9,22,2
11,-9.99928153866818e-9,22,2
35,-9.999281538668175e-9,22,2
13,-9.99928153866818e-9,22,2
15,-9.999281543487894e-9,22,2
16,-9.999281543611023e-9,22,2
40,-9.999281543543612e-9,22,2
46,-9.99928153866818e-9,22,2
21,-9.999281538668182e-9,22,2
38,-9.999281543563369e-9,22,2
45,-9.999281538668183e-9,22,2
36,-9.999281538668175e-9,22,2
48,-9.999281544001601e-9,22,2
18,-9.999281543494842e-9,22,2
30,-9.999281538668172e-9,22,2
3,-9.999281538668208e-9,22,2
32,-9.999307297229623e-9,23,2
29,-9.999307297229591e-9,23,2
1,-9.999307297229626e-9,23,2
2,-9.999307297229626e-9,23,2
41,-9.999307301761719e-9,23,2
27,-9.999307297229593e-9,23,2
42,-9.999307301761719e-9,23,2
33,-9.999307297229595e-9,23,2
28,-9.999307297229593e-9,23,2
26,-9.999307297229593e-9,23,2
10,-9.9993072972296e-9,23,2
24,-9.999307276570408e-9,23,2
25,-9.999307276619084e-9,23,2
23,-9.999307276579467e-9,23,2
49,-9.999307302187457e-9,23,2
5,-9.99930729722961e-9,23,2
31,-9.9993072767357e-9,23,2
43,-9.999307301761719e-9,23,2
39,-9.99930730188273e-9,23,2
34,-9.999307297229595e-9,23,2
44,-9.999307301761719e-9,23,2
17,-9.999307301824381e-9,23,2
37,-9.99930730270831e-9,23,2
47,-9.999307283946306e-9,23,2
9,-9.9993072972296e-9,23,2
12,-9.9993072972296e-9,23,2
20,-9.999307301739039e-9,23,2
6,-9.999307276759688e-9,23,2
14,-9.999307301721771e-9,23,2
7,-9.999307297229628e-9,23,2
8,-9.9993072972296e-9,23,2
19,-9.999307301729323e-9,23,2
4,-9.999307297229626e-9,23,2
22,-9.99930727686918e-9,23,2
11,-9.9993072972296e-9,23,2
35,-9.999307297229595e-9,23,2
13,-9.9993072972296e-9,23,2
15,-9.999307301709924e-9,23,2
16,-9.999307301824381e-9,23,2
40,-9.999307301761719e-9,23,2
46,-9.999307297229598e-9,23,2
21,-9.999307297229601e-9,23,2
38,-9.999307301780084e-9,23,2
45,-9.999307297229601e-9,23,2
36,-9.999307297229595e-9,23,2
48,-9.999307302187457e-9,23,2
18,-9.999307301716384e-9,23,2
30,-9.999307297229591e-9,23,2
3,-9.999307297229626e-9,23,2
32,-9.999356351335388e-9,24,2
29,-9.999356351335362e-9,24,2
1,-9.999356351335391e-9,24,2
2,-9.999356351335391e-9,24,2
41,-9.999356355248311e-9,24,2
27,-9.999356351335363e-9,24,2
42,-9.999356355248311e-9,24,2
33,-9.999356351335365e-9,24,2
28,-9.999356351335363e-9,24,2
26,-9.999356351335363e-9,24,2
10,-9.999356351335368e-9,24,2
24,-9.999356333504749e-9,24,2
25,-9.999356333544439e-9,24,2
23,-9.999356333512136e-9,24,2
49,-9.999356355615886e-9,24,2
5,-9.999356351335377e-9,24,2
31,-9.99935633363953e-9,24,2
43,-9.999356355248311e-9,24,2
39,-9.999356355352791e-9,24,2
34,-9.999356351335365e-9,24,2
44,-9.999356355248311e-9,24,2
17,-9.999356355302414e-9,24,2
37,-9.99935635606558e-9,24,2
47,-9.999356339866956e-9,24,2
9,-9.999356351335368e-9,24,2
12,-9.999356351335368e-9,24,2
20,-9.999356355228729e-9,24,2
6,-9.99935633365909e-9,24,2
14,-9.99935635521382e-9,24,2
7,-9.999356351335391e-9,24,2
8,-9.999356351335368e-9,24,2
19,-9.999356355220341e-9,24,2
4,-9.999356351335391e-9,24,2
22,-9.999356333748372e-9,24,2
11,-9.999356351335368e-9,24,2
35,-9.999356351335365e-9,24,2
13,-9.999356351335368e-9,24,2
15,-9.99935635520359e-9,24,2
16,-9.999356355302414e-9,24,2
40,-9.999356355248311e-9,24,2
46,-9.999356351335368e-9,24,2
21,-9.99935635133537e-9,24,2
38,-9.999356355264167e-9,24,2
45,-9.99935635133537e-9,24,2
36,-9.999356351335365e-9,24,2
48,-9.999356355615886e-9,24,2
18,-9.999356355209168e-9,24,2
30,-9.999356351335362e-9,24,2
3,-9.999356351335391e-9,24,2
32,0.05290784756422546,1,3
29,4.451220231600844,1,3
1,0.04318904207874792,1,3
2,0.04320714974933184,1,3
41,0.036739608700948334,1,3
27,1.297928306727116,1,3
42,0.03448686461989352,1,3
33,0.770906858599258,1,3
28,1.2979376719392541,1,3
26,1.297916039614977,1,3
10,0.27734139122781776,1,3
24,0.012723402445662143,1,3
25,1.3327895484713335,1,3
23,1.5458135936436235,1,3
49,0.041648841917775056,1,3
5,0.08819727218441469,1,3
31,0.9223637000932887,1,3
43,0.035338103093758635,1,3
39,0.037558889358572864,1,3
34,0.7709061594454595,1,3
44,0.03550334694102833,1,3
17,0.02904411216340065,1,3
37,0.07252883380313233,1,3
47,1.1366741309646242,1,3
9,0.2773432536407187,1,3
12,0.2773458189699597,1,3
20,0.046391192185021635,1,3
6,0.8632151784126095,1,3
14,0.01971968254483624,1,3
7,0.0454914804396965,1,3
8,0.27733684246720675,1,3
19,0.04078945954319408,1,3
4,0.0432070743466733,1,3
22,0.673783429829209,1,3
11,0.27734577091395574,1,3
35,0.7709071140046092,1,3
13,0.27734723724119226,1,3
15,0.010052856304606648,1,3
16,0.029681270083398874,1,3
40,0.03546284502442725,1,3
46,0.2647755992249184,1,3
21,0.1785732803323644,1,3
38,0.03781498287168084,1,3
45,0.17379475279950768,1,3
36,0.770907119100887,1,3
48,0.0422938608255741,1,3
18,0.018811831319135115,1,3
30,4.451269700930964,1,3
3,0.04317201337336543,1,3
32,7.666075343195401e-15,2,3
29,-1.3588054798310177e-14,2,3
1,1.9075442483614705e-14,2,3
2,1.8979981992429512e-14,2,3
41,4.629411511604608e-15,2,3
27,-1.3616103572927762e-14,2,3
42,4.756193256771038e-15,2,3
33,-1.0670338434053102e-14,2,3
28,-1.3609822940088316e-14,2,3
26,-1.3625063166549439e-14,2,3
10,-3.025200180249334e-15,2,3
24,6.043891661808664e-14,2,3
25,-1.2312590348539676e-14,2,3
23,-1.2411247308505606e-14,2,3
49,-8.652200563192894e-15,2,3
5,7.894926619633266e-15,2,3
31,-1.1896505840245282e-14,2,3
43,4.7088038780076975e-15,2,3
39,-2.3457353160047305e-15,2,3
34,-1.067895134255403e-14,2,3
44,4.6992900349892595e-15,2,3
17,-5.077674249189489e-15,2,3
37,-1.1600688812529306e-14,2,3
47,1.9585935591127738e-13,2,3
9,-3.047111688725672e-15,2,3
12,-3.050992190920894e-15,2,3
20,7.086752597232684e-15,2,3
6,-5.09626513511098e-15,2,3
14,1.4828147539129994e-14,2,3
7,1.5086443356501394e-14,2,3
8,-3.009747945704079e-15,2,3
19,1.1305031125441906e-14,2,3
4,1.8963640028549195e-14,2,3
22,-1.108050992304793e-14,2,3
11,-3.0496875687027353e-15,2,3
35,-1.0663883917392818e-14,2,3
13,-3.0367066441457782e-15,2,3
15,3.343824320078671e-14,2,3
16,-5.091519895447037e-15,2,3
40,4.702056662104719e-15,2,3
46,-7.431704603178392e-15,2,3
21,-1.4833094558117711e-15,2,3
38,2.2635170574122103e-15,2,3
45,-5.343775140523581e-15,2,3
36,-1.0663419936187128e-14,2,3
48,-8.647120605475692e-15,2,3
18,2.486440228899664e-14,2,3
30,-1.3587134633368539e-14,2,3
3,1.9142758689385144e-14,2,3
32,1.0983780418387005e-14,3,3
29,-8.488467875418285e-15,3,3
1,2.2056071556746564e-14,3,3
2,2.1961146914002288e-14,3,3
41,8.815611685357402e-15,3,3
27,-8.572859907391262e-15,3,3
42,8.94208016077272e-15,3,3
33,-5.7082550939181446e-15,3,3
28,-8.566533071564446e-15,3,3
26,-8.581879499796113e-15,3,3
10,1.707633289344376e-15,3,3
24,5.871849955907832e-14,3,3
25,-7.0440062599686054e-15,3,3
23,-7.0962411670529e-15,3,3
49,-3.6673177376415885e-15,3,3
5,1.1930299938932121e-14,3,3
31,-6.7393989256928045e-15,3,3
43,8.894751394495944e-15,3,3
39,2.4409963438555426e-15,3,3
34,-5.7170123564607296e-15,3,3
44,8.884931650509784e-15,3,3
17,-4.364819430639941e-16,3,3
37,-6.5773601719678696e-15,3,3
47,-6.215600362351791e-15,3,3
9,1.6861098862695542e-15,3,3
12,1.6822949898754395e-15,3,3
20,1.0826405236680738e-14,3,3
6,4.669817141819844e-18,3,3
14,1.7734503119696674e-14,3,3
7,1.813123902149327e-14,3,3
8,1.722818134357428e-15,3,3
19,1.4673095650575842e-14,3,3
4,2.1944835625339505e-14,3,3
22,-6.006171019943848e-15,3,3
11,1.6835762814385718e-15,3,3
35,-5.701679209764095e-15,3,3
13,1.6963209666893272e-15,3,3
15,3.485112053337357e-14,3,3
16,-4.50111133590653e-16,3,3
40,8.888125621321393e-15,3,3
46,-2.7050228902888243e-15,3,3
21,3.07462011708191e-15,3,3
38,6.655431586405512e-15,3,3
45,-8.040258623047468e-16,3,3
36,-5.7012058842996905e-15,3,3
48,-3.661735244838472e-15,3,3
18,2.722229993047934e-14,3,3
30,-8.487540597214518e-15,3,3
3,2.212294770855743e-14,3,3
32,9.501989381073989e-15,4,3
29,-6.776897052127746e-15,4,3
1,1.9960066059283337e-14,4,3
2,1.98650590251366e-14,4,3
41,8.715123375523098e-15,4,3
27,-6.957073887316596e-15,4,3
42,8.84170378227887e-15,4,3
33,-4.182145561063397e-15,4,3
28,-6.950740692525897e-15,4,3
26,-6.966102546861732e-15,4,3
10,2.8394937965082366e-15,4,3
24,4.800008757151583e-14,4,3
25,-5.423311817683517e-15,4,3
23,-5.457062596805355e-15,4,3
49,-2.1719190155284873e-15,4,3
5,1.17646798230448e-14,4,3
31,-5.176792633688008e-15,4,3
43,8.794332322367248e-15,4,3
39,3.5270805603739268e-15,4,3
34,-4.190912258182479e-15,4,3
44,8.784496168397279e-15,4,3
17,3.467010113024209e-16,4,3
37,-4.9512932264880065e-15,4,3
47,-4.493266435924455e-15,4,3
9,2.8179503005184022e-15,4,3
12,2.8141310824157797e-15,4,3
20,9.808951905503978e-15,4,3
6,1.5607400404653974e-15,4,3
14,1.5121578091531944e-14,4,3
7,1.6171993652038935e-14,4,3
8,2.8546933281647633e-15,4,3
19,1.2934837023178836e-14,4,3
4,1.9848711964931905e-14,4,3
22,-4.512812848358104e-15,4,3
11,2.815413536568338e-15,4,3
35,-4.17556270241969e-15,4,3
13,2.828169325788239e-15,4,3
15,2.9328700267181654e-14,4,3
16,3.330607613580475e-16,4,3
40,8.787703088139766e-15,4,3
46,-1.6086378244664938e-15,4,3
21,3.861205910741278e-15,4,3
38,6.957611165823545e-15,4,3
45,-4.90599010813635e-17,4,3
36,-4.175088876989229e-15,4,3
48,-2.1663295360477247e-15,4,3
18,2.3520561987070276e-14,4,3
30,-6.775968849032657e-15,4,3
3,2.0026977174609905e-14,4,3
32,1.886007469521527e-15,5,3
29,1.1892625379706359e-15,5,3
1,9.345264947460873e-15,5,3
2,9.249885405075153e-15,5,3
41,7.83872548387538e-15,5,3
27,5.415051586399696e-16,5,3
42,7.965851887919026e-15,5,3
33,2.879243330222653e-15,5,3
28,5.478704948516885e-16,5,3
26,5.324300814670192e-16,5,3
10,7.977657550836623e-15,5,3
24,-4.6521205933532105e-15,5,3
25,2.09996471584575e-15,5,3
23,2.1542425015701602e-15,5,3
49,4.74008633854945e-15,5,3
5,1.0570391071478559e-14,5,3
31,2.062749216139807e-15,5,3
43,7.91827170973689e-15,5,3
39,8.441960182097989e-15,5,3
34,2.8704293704590615e-15,5,3
44,7.908355862821488e-15,5,3
17,3.782715286972383e-15,5,3
37,2.5979191886551503e-15,5,3
47,3.5256245588174697e-15,5,3
9,7.956012384190694e-15,5,3
12,7.952171646971511e-15,5,3
20,4.458112023494979e-15,5,3
6,8.769951851454115e-15,5,3
14,1.9872605625682287e-15,5,3
7,6.225331732842848e-15,5,3
8,7.992930893240925e-15,5,3
19,4.0670576851092074e-15,5,3
4,9.233368565506894e-15,5,3
22,2.389672935638876e-15,5,3
11,7.95346014941701e-15,5,3
35,2.885861722555071e-15,5,3
13,7.966271909890607e-15,5,3
15,2.0023618970809986e-15,5,3
16,3.769018717169383e-15,5,3
40,7.911626265935953e-15,5,3
46,3.3556986471671507e-15,5,3
21,7.31409628845901e-15,5,3
38,8.046414758548505e-15,5,3
45,3.249097470499354e-15,5,3
36,2.8863382621719177e-15,5,3
48,4.745710245817219e-15,5,3
18,5.073026071002021e-15,5,3
30,1.1901954517042176e-15,5,3
3,9.412325772862338e-15,5,3
32,1.1031125460114417e-14,6,3
29,-8.417522734299254e-15,6,3
1,2.2098844032439786e-14,6,3
2,2.2003918988099322e-14,6,3
41,8.873149230785788e-15,6,3
27,-8.502623565655201e-15,6,3
42,8.999617871572604e-15,6,3
33,-5.6386690914282926e-15,6,3
28,-8.496296732465024e-15,6,3
26,-8.511643283558861e-15,6,3
10,1.774298094027194e-15,6,3
24,5.869749475793544e-14,6,3
25,-6.973827171629116e-15,6,3
23,-7.02548156275206e-15,6,3
49,-3.597981532439316e-15,6,3
5,1.198734555113218e-14,6,3
31,-6.669577026879437e-15,6,3
43,8.952289040297527e-15,6,3
39,2.5073067423974515e-15,6,3
34,-5.64742651833425e-15,6,3
44,8.942469225690822e-15,6,3
17,-3.7241771705367656e-16,6,3
37,-6.507047134045413e-15,6,3
47,-6.14450541101731e-15,6,3
9,1.7527745356104382e-15,6,3
12,1.7489596351191945e-15,6,3
20,1.0877172533439537e-14,6,3
6,7.442016082554541e-17,6,3
14,1.777345447263929e-14,6,3
7,1.8175048286102975e-14,6,3
8,1.789483003004572e-15,6,3
19,1.4718532899288203e-14,6,3
4,2.1987607503394735e-14,6,3
22,-5.937032761569551e-15,6,3
11,1.7502409196900657e-15,6,3
35,-5.632093163808487e-15,6,3
13,1.7629856529172966e-15,6,3
15,3.4868547410491506e-14,6,3
16,-3.8604687091296983e-16,6,3
40,8.945663283214224e-15,6,3
46,-2.638620082877043e-15,6,3
21,3.1387294218248228e-15,6,3
38,6.7159465030239654e-15,6,3
45,-7.401474754471339e-16,6,3
36,-5.6316198664035995e-15,6,3
48,-3.592398831781222e-15,6,3
18,2.7253209062050922e-14,6,3
30,-8.41659541904038e-15,6,3
3,2.2165720320877626e-14,6,3
32,9.266219120685217e-15,7,3
29,-6.547880647614601e-15,7,3
1,1.9634899925188208e-14,7,3
2,1.9539880970102223e-14,7,3
41,8.680400400519548e-15,7,3
27,-6.741999766167969e-15,7,3
42,8.806997255115566e-15,7,3
33,-3.980120881625473e-15,7,3
28,-6.73566567134014e-15,7,3
26,-6.75102984134225e-15,7,3
10,2.9841422519595755e-15,7,3
24,4.642014529381306e-14,7,3
25,-5.207518852775289e-15,7,3
23,-5.2386458130037054e-15,7,3
49,-1.9743573752044685e-15,7,3
5,1.172048400609103e-14,7,3
31,-4.969443412318469e-15,7,3
43,8.75961942792948e-15,7,3
39,3.6650687191563255e-15,7,3
34,-3.988888936509832e-15,7,3
44,8.749780879724002e-15,7,3
17,4.405950186172651e-16,7,3
37,-4.734717823657697e-15,7,3
47,-4.262689971205877e-15,7,3
9,2.962595793306055e-15,7,3
12,2.9587759421646945e-15,7,3
20,9.64076321562188e-15,7,3
6,1.7671574290066953e-15,7,3
14,1.4721181991121353e-14,7,3
7,1.5866728103072486e-14,7,3
8,2.9993438703730677e-15,7,3
19,1.2661738130690343e-14,7,3
4,1.9523528720411934e-14,7,3
22,-4.315521326939192e-15,7,3
11,2.9600585213636972e-15,7,3
35,-3.97353694060301e-15,7,3
13,2.972815968240621e-15,7,3
15,2.850486357220511e-14,7,3
16,4.2695313961822346e-16,7,3
40,8.752989790968438e-15,7,3
46,-1.4691588370967385e-15,7,3
21,3.955598156791785e-15,7,3
38,6.981497764364352e-15,7,3
45,4.072506887256263e-17,7,3
36,-3.973062980548904e-15,7,3
48,-1.9687669096856417e-15,7,3
18,2.2961690769779833e-14,7,3
30,-6.5469522842532674e-15,7,3
3,1.970181600918192e-14,7,3
32,9.918762916614397e-15,8,3
29,-7.102127906759782e-15,8,3
1,2.0519568532789107e-14,8,3
2,2.0424580447230553e-14,8,3
41,8.81094341048091e-15,8,3
27,-7.260047522201619e-15,8,3
42,8.9374977359347e-15,8,3
33,-4.4642799513991506e-15,8,3
28,-7.253715878878632e-15,8,3
26,-7.269074153680839e-15,8,3
10,2.648964306520857e-15,8,3
24,5.0562831290631165e-14,8,3
25,-5.727457124528385e-15,8,3
23,-5.765400078646837e-15,8,3
49,-2.4469235995409114e-15,8,3
5,1.187563716326565e-14,8,3
31,-5.4674090621215534e-15,8,3
43,8.89013614875973e-15,8,3
39,3.3471838616092938e-15,8,3
34,-4.4730444825716485e-15,8,3
44,8.880303746945644e-15,8,3
17,2.3718580629922727e-16,8,3
37,-5.256656304068257e-15,8,3
47,-4.820984148826118e-15,8,3
9,2.6274254394725047e-15,8,3
12,2.623607228966341e-15,8,3
20,1.0117835622589932e-14,8,3
6,1.2716352716378215e-15,8,3
14,1.580116500181691e-14,8,3
7,1.669971402083573e-14,8,3
8,2.664160318756522e-15,8,3
19,1.3411203247859977e-14,8,3
4,2.0408241680545475e-14,8,3
22,-4.7873818656848336e-15,8,3
11,2.6248893880480655e-15,8,3
35,-4.457698706739916e-15,8,3
13,2.63764255806518e-15,8,3
15,3.068429668304097e-14,8,3
16,2.235481139326844e-16,8,3
40,8.883507704761153e-15,8,3
46,-1.7909224415617323e-15,8,3
21,3.750905984551943e-15,8,3
38,6.959866145334194e-15,8,3
45,-1.5201194546759368e-16,8,3
36,-4.457224955639387e-15,8,3
48,-2.4413356697313277e-15,8,3
18,2.4453148300205802e-14,8,3
30,-7.101199840588933e-15,8,3
3,2.0586471660290993e-14,8,3
32,3.3727062646121394e-15,9,3
29,-2.756497950361027e-16,9,3
1,1.1400252927599664e-14,9,3
2,1.1304939978268037e-14,9,3
41,8.048871618130941e-15,9,3
27,-8.348107591677641e-16,9,3
42,8.175895034194593e-15,9,3
33,1.585683475019647e-15,9,3
28,-8.284516843255413e-16,9,3
26,-8.438769059437249e-16,9,3
10,7.048335227218985e-15,9,3
24,5.3611266885520295e-15,9,3
25,7.189232060461965e-16,9,3
23,7.565228220234529e-16,9,3
49,3.4747770066174967e-15,9,3
5,1.0840773031872392e-14,9,3
31,7.354635398573721e-16,9,3
43,8.128354202512653e-15,9,3
39,7.554932130463204e-15,9,3
34,1.5768786085042282e-15,9,3
44,8.118453355961899e-15,9,3
17,3.175931297271541e-15,9,3
37,1.2119522944795331e-15,9,3
47,2.0506511609927697e-15,9,3
9,7.026709768551816e-15,9,3
12,7.022873139072781e-15,9,3
20,5.515824735606514e-15,9,3
6,7.448227820839086e-15,9,3
14,4.519138594723429e-15,9,3
7,8.153635245431393e-15,9,3
8,7.063594289073794e-15,9,3
19,5.79092699514777e-15,9,3
4,1.1288454639469414e-14,9,3
22,1.1262298611916827e-15,9,3
11,7.02416052812025e-15,9,3
35,1.5922950115757508e-15,9,3
13,7.036961437250831e-15,9,3
15,7.221905641847497e-15,9,3
16,3.1622455276297574e-15,9,3
40,8.121711785973039e-15,9,3
46,2.4593973118225773e-15,9,3
21,6.704068892944815e-15,9,3
38,7.884259226191801e-15,9,3
45,2.668435880719164e-15,9,3
36,1.5927709512927828e-15,9,3
48,3.4803942965308388e-15,9,3
18,8.611384609220545e-15,9,3
30,-2.7471779940837745e-16,9,3
3,1.1467288099377374e-14,9,3
32,1.0233645108020874e-14,10,3
29,-7.480469300921627e-15,10,3
1,2.0967782322827195e-14,10,3
2,2.087281212679422e-14,10,3
41,8.82596670073553e-15,10,3
27,-7.617595593262889e-15,10,3
42,8.952496514423777e-15,10,3
33,-4.802359290131581e-15,10,3
28,-7.611265224599376e-15,10,3
26,-7.626620218169963e-15,10,3
10,2.3964669814545804e-15,10,3
24,5.2882729267061304e-14,10,3
25,-6.0860896065476965e-15,10,3
23,-6.127947841980418e-15,10,3
49,-2.7783418841266802e-15,10,3
5,1.1904796530917121e-14,10,3
31,-5.8134198245355926e-15,10,3
43,8.905144259022264e-15,10,3
39,3.104620344793616e-15,10,3
34,-4.811121677510425e-15,10,3
44,8.89531552420323e-15,10,3
17,6.037755327402367e-17,10,3
37,-5.616437263747941e-15,10,3
47,-5.201647816459027e-15,10,3
9,2.3749325633713032e-15,10,3
12,2.3711153239105553e-15,10,3
20,1.0331917695354124e-14,10,3
6,9.270342194396402e-16,10,3
14,1.636158759292115e-14,10,3
7,1.7118243965580946e-14,10,3
8,2.411659942414836e-15,10,3
19,1.3781758431150443e-14,10,3
4,2.085648106136744e-14,10,3
22,-5.118396868017701e-15,10,3
11,2.372397178861233e-15,10,3
35,-4.795779467990355e-15,10,3
13,2.385147936535338e-15,10,3
15,3.187630470138395e-14,10,3
16,4.674230907775063e-17,10,3
40,8.898516689909356e-15,10,3
46,-2.0357169714542584e-15,10,3
21,3.573362222830756e-15,10,3
38,6.887476706372569e-15,10,3
45,-3.226900449932944e-16,10,3
36,-4.795305861930777e-15,10,3
48,-2.77275543958451e-15,10,3
18,2.5249934921924087e-14,10,3
30,-7.479541543108201e-15,10,3
3,2.1034677963297637e-14,10,3
32,8.783986175967949e-15,11,3
29,-6.152951865356113e-15,11,3
1,1.8983933192562616e-14,11,3
2,1.8888892124418542e-14,11,3
41,8.577581714488942e-15,11,3
27,-6.3733840269247176e-15,11,3
42,8.704209484404592e-15,11,3
33,-3.636134653945318e-15,11,3
28,-6.367048159371288e-15,11,3
26,-6.382416585114252e-15,11,3
10,3.21984345231855e-15,11,3
24,4.3401297590761685e-14,11,3
25,-4.8375268984182725e-15,11,3
23,-4.86369951145913e-15,11,3
49,-1.6387954905757112e-15,11,3
5,1.1599776149081848e-14,11,3
31,-4.615422725528994e-15,11,3
43,8.656819811630242e-15,11,3
39,3.888200447558498e-15,11,3
34,-3.64490526654968e-15,11,3
44,8.646976756957712e-15,11,3
17,5.805145187216395e-16,11,3
37,-4.363271379119525e-15,11,3
47,-3.864816397105852e-15,11,3
9,3.19829138437235e-15,11,3
12,3.1944703866681875e-15,11,3
20,9.286068055506151e-15,11,3
6,2.1194103372911118e-15,11,3
14,1.3928268549382582e-14,11,3
7,1.525333368124383e-14,11,3
8,3.2350491645005924e-15,11,3
19,1.2109054617835424e-14,11,3
4,1.88725300713326e-14,11,3
22,-3.980475232461603e-15,11,3
11,3.1957534207648283e-15,11,3
35,-3.629548799434379e-15,11,3
13,3.208513795331208e-15,11,3
15,2.6912840088507394e-14,11,3
16,5.66869516624647e-16,11,3
40,8.650189320553519e-15,11,3
46,-1.2432121222740513e-15,11,3
21,4.096452017433256e-15,11,3
38,6.989290167018658e-15,11,3
45,1.7288700002267352e-16,11,3
36,-3.629074760384524e-15,11,3
48,-1.6332031504071225e-15,11,3
18,2.1869693079451985e-14,11,3
30,-6.15202321034899e-15,11,3
3,1.905085866384136e-14,11,3
32,1.0014176031482371e-14,12,3
29,-7.366756158212985e-15,12,3
1,2.0684230645663064e-14,12,3
2,2.0589251861724648e-14,12,3
41,8.750617651702553e-15,12,3
27,-7.513876158365121e-15,12,3
42,8.877159255545037e-15,12,3
33,-4.707997474117105e-15,12,3
28,-7.5075451639524e-15,12,3
26,-7.522901691180466e-15,12,3
10,2.449695009750715e-15,12,3
24,5.169958008293967e-14,12,3
25,-5.981849234574194e-15,12,3
23,-6.021825715758669e-15,12,3
49,-2.6871818785280692e-15,12,3
5,1.182265304861187e-14,12,3
31,-5.715245747433961e-15,12,3
43,8.82980252273119e-15,12,3
39,3.1530738133886103e-15,12,3
34,-4.716760853065784e-15,12,3
44,8.81997202867994e-15,12,3
17,7.722810989067672e-17,12,3
37,-5.511644994594997e-15,12,3
47,-5.086819061953228e-15,12,3
9,2.428158440920297e-15,12,3
12,2.424340744726604e-15,12,3
20,1.0160895939623357e-14,12,3
6,1.024529350507274e-15,12,3
14,1.6024104746523217e-14,12,3
7,1.6848959027366623e-14,12,3
8,2.4648893873094682e-15,12,3
19,1.353553141368039e-14,12,3
4,2.0572917041414875e-14,12,3
22,-5.027430339460303e-15,12,3
11,2.425622804197688e-15,12,3
35,-4.701416953576948e-15,12,3
13,2.4383746563222162e-15,12,3
15,3.123526244258594e-14,12,3
16,6.359176270075563e-17,12,3
40,8.823174521571509e-15,12,3
46,-1.9861902978850016e-15,12,3
21,3.5905657453117754e-15,12,3
38,6.854140392520226e-15,12,3
45,-3.0878571237801175e-16,12,3
36,-4.700943310229619e-15,12,3
48,-2.6815947776697816e-15,12,3
18,2.4798848933466718e-14,12,3
30,-7.365828315884965e-15,12,3
3,2.0751129816243093e-14,12,3
32,8.987225612192371e-15,13,3
29,-6.2650013682642445e-15,13,3
1,1.9247824508200636e-14,13,3
2,1.9152791364718248e-14,13,3
41,8.644444576505895e-15,13,3
27,-6.4759755830014674e-15,13,3
42,8.771061153336613e-15,13,3
33,-3.729873398709554e-15,13,3
28,-6.469640343265198e-15,13,3
26,-6.485007279100783e-15,13,3
10,3.165027176086647e-15,13,3
24,4.451628301606289e-14,13,3
25,-4.940613187484153e-15,13,3
23,-4.968566572641625e-15,13,3
49,-1.7295061860766207e-15,13,3
5,1.167306944268949e-14,13,3
31,-4.712768211054743e-15,13,3
43,8.723675846434461e-15,13,3
39,3.837902251775167e-15,13,3
34,-3.7386430057983326e-15,13,3
44,8.713834374908075e-15,13,3
17,5.601263933657703e-16,13,3
37,-4.466880544676559e-15,13,3
47,-3.977924597132106e-15,13,3
9,3.1434771427204106e-15,13,3
12,3.139656600573046e-15,13,3
20,9.443465664120927e-15,13,3
6,2.0227000004470825e-15,13,3
14,1.4243179129912024e-14,13,3
7,1.5503719034216927e-14,13,3
8,3.180231474100035e-15,13,3
19,1.2337617429484472e-14,13,3
4,1.9136432837735237e-14,13,3
22,-4.071000420134417e-15,13,3
11,3.140939402089763e-15,13,3
35,-3.723288167776474e-15,13,3
13,3.1536987059225383e-15,13,3
15,2.75149816073085e-14,13,3
16,5.464824130307047e-16,13,3
40,8.717045608526704e-15,13,3
46,-1.2945222504420256e-15,13,3
21,4.075728090934514e-15,13,3
38,7.016394483795882e-15,13,3
45,1.5528726495587892e-16,13,3
36,-3.722814175630345e-15,13,3
48,-1.7239144708817588e-15,13,3
18,2.229210765801741e-14,13,3
30,-6.264072924601768e-15,13,3
3,1.931474661289306e-14,13,3
32,1.1471928163440021e-14,14,3
29,-8.994383259566888e-15,14,3
1,2.2735343208970868e-14,14,3
2,2.2640444992553362e-14,14,3
41,8.873741175190804e-15,14,3
27,-9.048962320367768e-15,14,3
42,9.000173847437475e-15,14,3
33,-6.156420431050521e-15,14,3
28,-9.042637392717378e-15,14,3
26,-9.057979110620746e-15,14,3
10,1.3821894713379978e-15,14,3
24,6.208229225455316e-14,14,3
25,-7.521752264175244e-15,14,3
23,-7.579153846003893e-15,14,3
49,-4.105948949700498e-15,14,3
5,1.2008685805950378e-14,14,3
31,-7.198974238869056e-15,14,3
43,8.952858803582999e-15,14,3
39,2.129780987558964e-15,14,3
34,-6.165174835787487e-15,14,3
44,8.943044094968344e-15,14,3
17,-6.534276525533113e-16,14,3
37,-7.056656464184506e-15,14,3
47,-6.724765966071871e-15,14,3
9,1.360672301224188e-15,14,3
12,1.3568587409723318e-15,14,3
20,1.1169986660431706e-14,14,3
6,-4.52884925421461e-16,14,3
14,1.8574730841724668e-14,14,3
7,1.876798929903905e-14,14,3
8,1.3973697267911198e-15,14,3
19,1.5241056571544095e-14,14,3
4,2.2624145001381214e-14,14,3
22,-6.444415598310647e-15,14,3
11,1.3581396545526982e-15,14,3
35,-6.14984663544997e-15,14,3
13,1.3708808100686835e-15,14,3
15,3.6597087364968824e-14,14,3
16,-6.670532619695292e-16,14,3
40,8.94623404533321e-15,14,3
46,-3.0194320685303512e-15,14,3
21,2.856644760799089e-15,14,3
38,6.588221489477045e-15,14,3
45,-1.0121591267274212e-15,14,3
36,-6.149373454289808e-15,14,3
48,-4.100368326545286e-15,14,3
18,2.8401465443363677e-14,14,3
30,-8.993456323725422e-15,14,3
3,2.2802208050948015e-14,14,3
32,9.399112096185847e-15,15,3
29,-6.673923941648513e-15,15,3
1,1.9817597733526776e-14,15,3
2,1.9722585471986308e-14,15,3
41,8.701287744561612e-15,15,3
27,-6.860275501115941e-15,15,3
42,8.827875421149294e-15,15,3
33,-4.091126554565276e-15,15,3
28,-6.853941933072915e-15,15,3
26,-6.869304831982768e-15,15,3
10,2.905100327020719e-15,15,3
24,4.7301875689988065e-14,15,3
25,-5.326201103993864e-15,15,3
23,-5.358790638891927e-15,15,3
49,-2.08287671974845e-15,15,3
5,1.174665093032647e-14,15,3
31,-5.083411010310892e-15,15,3
43,8.780501156397461e-15,15,3
39,3.589737103549294e-15,15,3
34,-4.0998938246361795e-15,15,3
44,8.770663972070642e-15,15,3
17,3.898287736315398e-16,15,3
37,-4.853829678584952e-15,15,3
47,-4.3896031377423554e-15,15,3
9,2.883555478047746e-15,15,3
12,2.879736023461941e-15,15,3
20,9.736005505376126e-15,15,3
6,1.6537100146577162e-15,15,3
14,1.494578804802901e-14,15,3
7,1.603833696369762e-14,15,3
8,2.920300715571737e-15,15,3
19,1.2815426661360882e-14,15,3
4,1.9706236125221756e-14,15,3
22,-4.4238879433364136e-15,15,3
11,2.8810185813351935e-15,15,3
35,-4.084543236435664e-15,15,3
13,2.893775020835378e-15,15,3
15,2.89653698542453e-14,15,3
16,3.761876985874301e-16,15,3
40,8.773871793465847e-15,15,3
46,-1.5453199419903375e-15,15,3
21,3.9045547562047285e-15,15,3
38,6.969733139479606e-15,15,3
45,-7.75105230907553e-18,15,3
36,-4.084069310864649e-15,15,3
48,-2.077286819517099e-15,15,3
18,2.3274584348347338e-14,15,3
30,-6.672995704005708e-15,15,3
3,1.9884511106591127e-14,15,3
32,8.85811262081658e-15,16,3
29,-6.221660098599057e-15,16,3
1,1.90855368636876e-14,16,3
2,1.8990499336484007e-14,16,3
41,8.589925889381953e-15,16,3
27,-6.437807449214248e-15,16,3
42,8.716548554520474e-15,16,3
33,-3.696547622207636e-15,16,3
28,-6.431471897553339e-15,16,3
26,-6.446839586717818e-15,16,3
10,3.1770634349999635e-15,16,3
24,4.3888466642972114e-14,16,3
25,-4.902174528723694e-15,16,3
23,-4.929153955368041e-15,16,3
49,-1.6978366937879379e-15,16,3
5,1.1615033497276921e-14,16,3
31,-4.677469655437118e-15,16,3
43,8.669160864885793e-15,16,3
39,3.847467123875786e-15,16,3
34,-3.7053177934335925e-15,16,3
44,8.659318475822238e-15,16,3
17,5.533314936541043e-16,16,3
37,-4.428155920531052e-15,16,3
47,-3.93400434016119e-15,16,3
9,3.1555121968710143e-15,16,3
12,3.1516914079007097e-15,16,3
20,9.339426959763042e-15,16,3
6,2.057650987644311e-15,16,3
14,1.405298505611834e-14,16,3
7,1.534881858669065e-14,16,3
8,3.1922684204004404e-15,16,3
19,1.2194653303507769e-14,16,3
4,1.897413890473669e-14,16,3
22,-4.039432334773385e-15,16,3
11,3.152974348151125e-15,16,3
35,-3.689961998544711e-15,16,3
13,3.1657342609051535e-15,16,3
15,2.7167679631997814e-14,16,3
16,5.396868935668895e-16,16,3
40,8.662530402165855e-15,16,3
46,-1.284403700229181e-15,16,3
21,4.069116773969013e-15,16,3
38,6.98362249398657e-15,16,3
45,1.4696718458272474e-16,16,3
36,-3.6894880302317234e-15,16,3
48,-1.692244626472629e-15,16,3
18,2.2043111947341523e-14,16,3
30,-6.220731586771729e-15,16,3
3,1.9152460782128613e-14,16,3
32,9.581885162217876e-15,17,3
29,-6.966840174910767e-15,17,3
1,2.0091870832934725e-14,17,3
2,1.9996870626814977e-14,17,3
41,8.678301277048673e-15,17,3
27,-7.138922746078732e-15,17,3
42,8.804872164222215e-15,17,3
33,-4.356415501643505e-15,17,3
28,-7.132590074712415e-15,17,3
26,-7.147950720537375e-15,17,3
10,2.698536960837318e-15,17,3
24,4.886037044692131e-14,17,3
25,-5.605593457794505e-15,17,3
23,-5.640869701029362e-15,17,3
49,-2.3435957887546636e-15,17,3
5,1.1733365670551293e-14,17,3
31,-5.354142260126085e-15,17,3
43,8.757504287178792e-15,17,3
39,3.3899903449334703e-15,17,3
34,-4.365181359251814e-15,17,3
44,8.7476695048423e-15,17,3
17,2.3520519377019445e-16,17,3
37,-5.1340103420363276e-15,17,3
47,-4.6841143832615355e-15,17,3
9,2.6769951388025494e-15,17,3
12,2.67317629559369e-15,17,3
20,9.849612390001318e-15,17,3
6,1.3839424759061776e-15,17,3
14,1.529704748890065e-14,17,3
7,1.6292237147184248e-14,17,3
8,2.7137352056205313e-15,17,3
19,1.303640427368362e-14,17,3
4,1.9980526603345408e-14,17,3
22,-4.684329006800292e-15,17,3
11,2.6744586785828665e-15,17,3
35,-4.3498332014501095e-15,17,3
13,2.6872134377690342e-15,17,3
15,2.97500056818228e-14,17,3
16,2.2156590599196983e-16,17,3
40,8.7508754182291e-15,17,3
46,-1.7465961558656363e-15,17,3
21,3.7494260688291606e-15,17,3
38,6.886762917733412e-15,17,3
45,-1.5816796896320596e-16,17,3
36,-4.349359404105015e-15,17,3
48,-2.3380069058391438e-15,17,3
18,2.378803810764809e-14,17,3
30,-6.965912023436917e-15,17,3
3,2.015877914437751e-14,17,3
32,1.0937343576058855e-14,18,3
29,-8.344516681434067e-15,18,3
1,2.1972986977138513e-14,18,3
2,2.1878057520603737e-14,18,3
41,8.851513972380655e-15,18,3
27,-8.434619949182309e-15,18,3
42,8.977988437682206e-15,18,3
33,-5.575350698077635e-15,18,3
28,-8.428292732464671e-15,18,3
26,-8.443640112845847e-15,18,3
10,1.8170245361370504e-15,18,3
24,5.812123629147546e-14,18,3
25,-6.9055633365044496e-15,18,3
23,-6.956275778393186e-15,18,3
49,-3.5362664959436047e-15,18,3
5,1.1962309385831403e-14,18,3
31,-6.6043498980965174e-15,18,3
43,8.930657410514021e-15,18,3
39,2.5476431153907874e-15,18,3
34,-5.584108481020223e-15,18,3
44,8.920836663209476e-15,18,3
17,-3.478998239628925e-16,18,3
37,-6.438507271283579e-15,18,3
47,-6.070941985205047e-15,18,3
9,1.795499967448423e-15,18,3
12,1.7916848160758847e-15,18,3
20,1.080764433928105e-14,18,3
6,1.3930480104638183e-16,18,3
14,1.7620594101795127e-14,18,3
7,1.805633108526275e-14,18,3
8,1.832210246044981e-15,18,3
19,1.4611357120612695e-14,18,3
4,2.1861744152305497e-14,18,3
22,-5.875413558639469e-15,18,3
11,1.7929661716550415e-15,18,3
35,-5.568774343309516e-15,18,3
13,1.8057114701309742e-15,18,3
15,3.456371848574824e-14,18,3
16,-3.615295543799974e-16,18,3
40,8.924031446855285e-15,18,3
46,-2.5977451436504145e-15,18,3
21,3.1634233467435505e-15,18,3
38,6.715341615568809e-15,18,3
45,-7.171043011230632e-16,18,3
36,-5.56830095708611e-15,18,3
48,-3.5306834306927305e-15,18,3
18,2.7043480694833818e-14,18,3
30,-8.343589364805175e-15,18,3
3,2.203986517953012e-14,18,3
32,6.018779501117953e-15,19,3
29,-3.2054501081285632e-15,19,3
1,1.5119568513929594e-14,19,3
2,1.5024386500322522e-14,19,3
41,8.283318436999116e-15,19,3
27,-3.597277675667301e-15,19,3
42,8.41014675828892e-15,19,3
33,-1.0203748287462937e-15,19,3
28,-3.590930241983408e-15,19,3
26,-3.606326974712889e-15,19,3
10,5.130440715343785e-15,19,3
24,2.4120194781340756e-14,19,3
25,-2.0524122062605667e-15,19,3
23,-2.046314932505404e-15,19,3
49,9.221463849274832e-16,19,3
5,1.1188987257091927e-14,19,3
31,-1.934330466543687e-15,19,3
43,8.362680516894935e-15,19,3
39,5.7169366447097355e-15,19,3
34,-1.029162512445643e-15,19,3
44,8.352808232464217e-15,19,3
17,1.8671967647854218e-15,19,3
37,-1.568668687469711e-15,19,3
47,-8.980622809888054e-16,19,3
9,5.108851864989266e-15,19,3
12,5.1050230777123504e-15,19,3
20,7.351396754063673e-15,19,3
6,4.78917777191086e-15,19,3
14,9.139805952194167e-15,19,3
7,1.1633788267762738e-14,19,3
8,5.1456731713477816e-15,19,3
19,8.884972237845523e-15,19,3
4,1.5007961583487505e-14,19,3
22,-1.422955814506874e-15,19,3
11,5.106308193667497e-15,19,3
35,-1.013776099854129e-15,19,3
13,5.1190888771722756e-15,19,3
15,1.692062684360368e-14,19,3
16,1.8535312845657452e-15,19,3
40,8.356043908080874e-15,19,3
46,6.037607566578583e-16,19,3
21,5.389268478569671e-15,19,3
38,7.415454213646107e-15,19,3
45,1.4090376418286996e-15,19,3
36,-1.0133010254714153e-15,19,3
48,9.27751204963844e-16,19,3
18,1.5133343425207077e-14,19,3
30,-3.204519908258249e-15,19,3
3,1.5186551773325475e-14,19,3
32,-3.052111208657157e-11,20,3
29,2.6214961573550047e-11,20,3
1,-8.15661986397571e-11,20,3
2,-8.035150988844388e-11,20,3
41,-2.4414294785806673e-11,20,3
27,2.2186930751364625e-11,20,3
42,-2.5053015281245462e-11,20,3
33,2.631489550311366e-11,20,3
28,2.2201502207938458e-11,20,3
26,2.21661868664462e-11,20,3
10,3.9892782922484454e-11,20,3
24,-6.761976616463092e-11,20,3
25,2.6525509815223533e-11,20,3
23,2.722240962895244e-11,20,3
49,3.3545398415045365e-11,20,3
5,-5.771814508284213e-11,20,3
31,2.4769957089330443e-11,20,3
43,-2.4810090942051833e-11,20,3
39,4.248116774827508e-11,20,3
34,2.628409095272208e-11,20,3
44,-2.47603637237299e-11,20,3
17,6.864999581042177e-12,20,3
37,2.8395225662186363e-11,20,3
47,3.57821295626074e-11,20,3
9,3.961080685936863e-11,20,3
12,3.956114279212823e-11,20,3
20,-3.1273814927925864e-11,20,3
6,1.2396477022480536e-10,20,3
14,-4.2771388539075e-11,20,3
7,-5.2800541618799066e-11,20,3
8,4.0094193699535785e-11,20,3
19,-4.0083060065011964e-11,20,3
4,-8.014551937306107e-11,20,3
22,2.3788582618050068e-11,20,3
11,3.957777757606014e-11,20,3
35,2.6338073029831495e-11,20,3
13,3.9743865810080164e-11,20,3
15,-6.405919929255092e-11,20,3
16,6.852579291836044e-12,20,3
40,-2.4776431950286755e-11,20,3
46,1.4875675460542237e-11,20,3
21,1.2782950917536178e-11,20,3
38,-9.977667741045188e-12,20,3
45,5.7219695896556996e-12,20,3
36,2.633974245397792e-11,20,3
48,3.3578371571872065e-11,20,3
18,-6.449697558324402e-11,20,3
30,2.6217698880441677e-11,20,3
3,-8.244326019371083e-11,20,3
32,5.5295988159810716e-15,21,3
29,-2.46936064121866e-15,21,3
1,1.4394582967219198e-14,21,3
2,1.429937172185061e-14,21,3
41,8.324091536449988e-15,21,3
27,-2.8979551297354724e-15,21,3
42,8.45096278586742e-15,21,3
33,-3.554304701849676e-16,21,3
28,-2.8916051923697355e-15,21,3
26,-2.9070081248566815e-15,21,3
10,5.644155131870058e-15,21,3
24,2.0089645517206517e-14,21,3
25,-1.3511472495853325e-15,21,3
23,-1.3381280356908503e-15,21,3
49,1.5753435427630013e-15,21,3
5,1.1204763237010368e-14,21,3
31,-1.2553778973278203e-15,21,3
43,8.403480225427794e-15,21,3
39,6.213093524439196e-15,21,3
34,-3.642219681950672e-16,21,3
44,8.393601596366681e-15,21,3
17,2.2470674936451678e-15,21,3
37,-8.653654675119865e-16,21,3
47,-1.5782706235819493e-16,21,3
9,5.622558372415187e-15,21,3
12,5.618727823786404e-15,21,3
20,7.0403314543789695e-15,21,3
6,5.4657430779231665e-15,21,3
14,8.216701207156864e-15,21,3
7,1.096133989890592e-14,21,3
8,5.659393444067222e-15,21,3
19,8.297359289480173e-15,21,3
4,1.4282933332117496e-14,21,3
22,-7.7050670238812155e-16,21,3
11,5.620013440909604e-15,21,3
35,-3.4882907161907465e-16,21,3
13,5.6327986070999925e-15,21,3
15,1.4881555897090665e-14,21,3
16,2.233397557209661e-15,21,3
40,8.396842289596311e-15,21,3
46,1.1038078537283622e-15,21,3
21,5.770465466740771e-15,21,3
38,7.610756508483882e-15,21,3
45,1.7780682351421824e-15,21,3
36,-3.4835381617427974e-16,21,3
48,1.5809511248846744e-15,21,3
18,1.3792444524780338e-14,21,3
30,-2.4684300023480853e-15,21,3
3,1.4461578108974106e-14,21,3
32,9.675762977795347e-15,22,3
29,-7.065449668978402e-15,22,3
1,2.0222773991841796e-14,22,3
2,2.012777874837921e-14,22,3
41,8.688919073335146e-15,22,3
27,-7.231758470447371e-15,22,3
42,8.81548321985265e-15,22,3
33,-4.443845332521646e-15,22,3
28,-7.225426243974976e-15,22,3
26,-7.240785814310044e-15,22,3
10,2.634871245036174e-15,22,3
24,4.951094796661517e-14,22,3
25,-5.698730325084586e-15,22,3
23,-5.735093714918867e-15,22,3
49,-2.4291760341930108e-15,22,3
5,1.1747909228026333e-14,22,3
