obj_name,pg,hour,day
32,-9.999999667755734e-9,1,1
29,-9.999999667755734e-9,1,1
1,-9.999999667755734e-9,1,1
2,-9.999999667755734e-9,1,1
41,-9.99999966775785e-9,1,1
27,-9.999999667755734e-9,1,1
42,-9.99999966775785e-9,1,1
33,-9.999999667755734e-9,1,1
28,-9.999999667755734e-9,1,1
26,-9.999999667755734e-9,1,1
10,-9.999999667755734e-9,1,1
24,-9.99999966774615e-9,1,1
25,-9.99999966774615e-9,1,1
23,-9.99999966774615e-9,1,1
49,-9.999999667758048e-9,1,1
5,-9.999999667755734e-9,1,1
31,-9.99999966774615e-9,1,1
43,-9.99999966775785e-9,1,1
39,-9.999999667757906e-9,1,1
34,-9.999999667755734e-9,1,1
44,-9.99999966775785e-9,1,1
17,-9.99999966775788e-9,1,1
37,-9.999999667758292e-9,1,1
47,-9.999999667749535e-9,1,1
9,-9.999999667755734e-9,1,1
12,-9.999999667755734e-9,1,1
20,-9.99999966775784e-9,1,1
6,-9.99999966774615e-9,1,1
14,-9.999999667757832e-9,1,1
7,-9.999999667755734e-9,1,1
8,-9.999999667755734e-9,1,1
19,-9.999999667757835e-9,1,1
4,-9.999999667755734e-9,1,1
22,-9.99999966774615e-9,1,1
11,-9.999999667755734e-9,1,1
35,-9.999999667755734e-9,1,1
13,-9.999999667755734e-9,1,1
15,-9.999999667757827e-9,1,1
16,-9.99999966775788e-9,1,1
40,-9.99999966775785e-9,1,1
46,-9.999999667755734e-9,1,1
21,-9.999999667755734e-9,1,1
38,-9.999999667757858e-9,1,1
45,-9.999999667755734e-9,1,1
36,-9.999999667755734e-9,1,1
48,-9.999999667758048e-9,1,1
18,-9.999999667757828e-9,1,1
30,-9.999999667755734e-9,1,1
3,-9.999999667755734e-9,1,1
32,-9.999999752095645e-9,2,1
29,-9.999999752095645e-9,2,1
1,-9.999999752095645e-9,2,1
2,-9.999999752095645e-9,2,1
41,-9.999999752096823e-9,2,1
27,-9.999999752095645e-9,2,1
42,-9.999999752096823e-9,2,1
33,-9.999999752095645e-9,2,1
28,-9.999999752095645e-9,2,1
26,-9.999999752095645e-9,2,1
10,-9.999999752095645e-9,2,1
24,-9.999999752090308e-9,2,1
25,-9.999999752090308e-9,2,1
23,-9.999999752090308e-9,2,1
49,-9.999999752096934e-9,2,1
5,-9.999999752095645e-9,2,1
31,-9.999999752090308e-9,2,1
43,-9.999999752096823e-9,2,1
39,-9.999999752096854e-9,2,1
34,-9.999999752095645e-9,2,1
44,-9.999999752096823e-9,2,1
17,-9.99999975209684e-9,2,1
37,-9.999999752097068e-9,2,1
47,-9.999999752092192e-9,2,1
9,-9.999999752095645e-9,2,1
12,-9.999999752095645e-9,2,1
20,-9.999999752096816e-9,2,1
6,-9.999999752090308e-9,2,1
14,-9.999999752096811e-9,2,1
7,-9.999999752095645e-9,2,1
8,-9.999999752095645e-9,2,1
19,-9.999999752096814e-9,2,1
4,-9.999999752095645e-9,2,1
22,-9.999999752090308e-9,2,1
11,-9.999999752095645e-9,2,1
35,-9.999999752095645e-9,2,1
13,-9.999999752095645e-9,2,1
15,-9.99999975209681e-9,2,1
16,-9.99999975209684e-9,2,1
40,-9.999999752096823e-9,2,1
46,-9.999999752095645e-9,2,1
21,-9.999999752095645e-9,2,1
38,-9.999999752096828e-9,2,1
45,-9.999999752095645e-9,2,1
36,-9.999999752095645e-9,2,1
48,-9.999999752096934e-9,2,1
18,-9.999999752096811e-9,2,1
30,-9.999999752095645e-9,2,1
3,-9.999999752095645e-9,2,1
32,-9.999999574710286e-9,3,1
29,-9.999999574710286e-9,3,1
1,-9.999999574710286e-9,3,1
2,-9.999999574710286e-9,3,1
41,-9.999999574713752e-9,3,1
27,-9.999999574710286e-9,3,1
42,-9.999999574713752e-9,3,1
33,-9.999999574710286e-9,3,1
28,-9.999999574710286e-9,3,1
26,-9.999999574710286e-9,3,1
10,-9.999999574710286e-9,3,1
24,-9.99999957469458e-9,3,1
25,-9.99999957469458e-9,3,1
23,-9.99999957469458e-9,3,1
49,-9.999999574714078e-9,3,1
5,-9.999999574710286e-9,3,1
31,-9.99999957469458e-9,3,1
43,-9.999999574713752e-9,3,1
39,-9.999999574713845e-9,3,1
34,-9.999999574710286e-9,3,1
44,-9.999999574713752e-9,3,1
17,-9.9999995747138e-9,3,1
37,-9.999999574714477e-9,3,1
47,-9.999999574700127e-9,3,1
9,-9.999999574710286e-9,3,1
12,-9.999999574710286e-9,3,1
20,-9.999999574713736e-9,3,1
6,-9.99999957469458e-9,3,1
14,-9.999999574713722e-9,3,1
7,-9.999999574710286e-9,3,1
8,-9.999999574710286e-9,3,1
19,-9.999999574713727e-9,3,1
4,-9.999999574710286e-9,3,1
22,-9.99999957469458e-9,3,1
11,-9.999999574710286e-9,3,1
35,-9.999999574710286e-9,3,1
13,-9.999999574710286e-9,3,1
15,-9.999999574713712e-9,3,1
16,-9.9999995747138e-9,3,1
40,-9.999999574713752e-9,3,1
46,-9.999999574710286e-9,3,1
21,-9.999999574710286e-9,3,1
38,-9.999999574713767e-9,3,1
45,-9.999999574710286e-9,3,1
36,-9.999999574710286e-9,3,1
48,-9.999999574714078e-9,3,1
18,-9.999999574713717e-9,3,1
30,-9.999999574710286e-9,3,1
3,-9.999999574710286e-9,3,1
32,-9.999999694891865e-9,4,1
29,-9.999999694891865e-9,4,1
1,-9.999999694891865e-9,4,1
2,-9.999999694891865e-9,4,1
41,-9.99999969489365e-9,4,1
27,-9.999999694891865e-9,4,1
42,-9.99999969489365e-9,4,1
33,-9.999999694891865e-9,4,1
28,-9.999999694891865e-9,4,1
26,-9.999999694891865e-9,4,1
10,-9.999999694891865e-9,4,1
24,-9.999999694883782e-9,4,1
25,-9.999999694883782e-9,4,1
23,-9.999999694883782e-9,4,1
49,-9.999999694893818e-9,4,1
5,-9.999999694891865e-9,4,1
31,-9.999999694883782e-9,4,1
43,-9.99999969489365e-9,4,1
39,-9.999999694893697e-9,4,1
34,-9.999999694891865e-9,4,1
44,-9.99999969489365e-9,4,1
17,-9.999999694893675e-9,4,1
37,-9.999999694894023e-9,4,1
47,-9.999999694886638e-9,4,1
9,-9.999999694891865e-9,4,1
12,-9.999999694891865e-9,4,1
20,-9.99999969489364e-9,4,1
6,-9.999999694883782e-9,4,1
14,-9.999999694893634e-9,4,1
7,-9.999999694891865e-9,4,1
8,-9.999999694891865e-9,4,1
19,-9.999999694893637e-9,4,1
4,-9.999999694891865e-9,4,1
22,-9.999999694883782e-9,4,1
11,-9.999999694891865e-9,4,1
35,-9.999999694891865e-9,4,1
13,-9.999999694891865e-9,4,1
15,-9.999999694893629e-9,4,1
16,-9.999999694893675e-9,4,1
40,-9.99999969489365e-9,4,1
46,-9.999999694891865e-9,4,1
21,-9.999999694891865e-9,4,1
38,-9.999999694893657e-9,4,1
45,-9.999999694891865e-9,4,1
36,-9.999999694891865e-9,4,1
48,-9.999999694893818e-9,4,1
18,-9.999999694893632e-9,4,1
30,-9.999999694891865e-9,4,1
3,-9.999999694891865e-9,4,1
32,-9.999999648820848e-9,5,1
29,-9.999999648820848e-9,5,1
1,-9.999999648820848e-9,5,1
2,-9.999999648820848e-9,5,1
41,-9.99999964882321e-9,5,1
27,-9.999999648820848e-9,5,1
42,-9.99999964882321e-9,5,1
33,-9.999999648820848e-9,5,1
28,-9.999999648820848e-9,5,1
26,-9.999999648820848e-9,5,1
10,-9.999999648820848e-9,5,1
24,-9.99999964881014e-9,5,1
25,-9.99999964881014e-9,5,1
23,-9.99999964881014e-9,5,1
49,-9.999999648823434e-9,5,1
5,-9.999999648820848e-9,5,1
31,-9.99999964881014e-9,5,1
43,-9.99999964882321e-9,5,1
39,-9.999999648823275e-9,5,1
34,-9.999999648820848e-9,5,1
44,-9.99999964882321e-9,5,1
17,-9.999999648823244e-9,5,1
37,-9.999999648823705e-9,5,1
47,-9.999999648813922e-9,5,1
9,-9.999999648820848e-9,5,1
12,-9.999999648820848e-9,5,1
20,-9.9999996488232e-9,5,1
6,-9.99999964881014e-9,5,1
14,-9.999999648823191e-9,5,1
7,-9.999999648820848e-9,5,1
8,-9.999999648820848e-9,5,1
19,-9.999999648823194e-9,5,1
4,-9.999999648820848e-9,5,1
22,-9.99999964881014e-9,5,1
11,-9.999999648820848e-9,5,1
35,-9.999999648820848e-9,5,1
13,-9.999999648820848e-9,5,1
15,-9.999999648823184e-9,5,1
16,-9.999999648823244e-9,5,1
40,-9.99999964882321e-9,5,1
46,-9.999999648820848e-9,5,1
21,-9.999999648820848e-9,5,1
38,-9.99999964882322e-9,5,1
45,-9.999999648820848e-9,5,1
36,-9.999999648820848e-9,5,1
48,-9.999999648823434e-9,5,1
18,-9.999999648823188e-9,5,1
30,-9.999999648820848e-9,5,1
3,-9.999999648820848e-9,5,1
32,-9.999999798122219e-9,6,1
29,-9.999999798122219e-9,6,1
1,-9.999999798122219e-9,6,1
2,-9.999999798122219e-9,6,1
41,-9.999999798123e-9,6,1
27,-9.999999798122219e-9,6,1
42,-9.999999798123e-9,6,1
33,-9.999999798122219e-9,6,1
28,-9.999999798122219e-9,6,1
26,-9.999999798122219e-9,6,1
10,-9.999999798122219e-9,6,1
24,-9.99999979811868e-9,6,1
25,-9.99999979811868e-9,6,1
23,-9.99999979811868e-9,6,1
49,-9.999999798123074e-9,6,1
5,-9.999999798122219e-9,6,1
31,-9.99999979811868e-9,6,1
43,-9.999999798123e-9,6,1
39,-9.999999798123021e-9,6,1
34,-9.999999798122219e-9,6,1
44,-9.999999798123e-9,6,1
17,-9.999999798123012e-9,6,1
37,-9.999999798123164e-9,6,1
47,-9.99999979811993e-9,6,1
9,-9.999999798122219e-9,6,1
12,-9.999999798122219e-9,6,1
20,-9.999999798122997e-9,6,1
6,-9.99999979811868e-9,6,1
14,-9.999999798122993e-9,6,1
7,-9.999999798122219e-9,6,1
8,-9.999999798122219e-9,6,1
19,-9.999999798122995e-9,6,1
4,-9.999999798122219e-9,6,1
22,-9.99999979811868e-9,6,1
11,-9.999999798122219e-9,6,1
35,-9.999999798122219e-9,6,1
13,-9.999999798122219e-9,6,1
15,-9.999999798122992e-9,6,1
16,-9.999999798123012e-9,6,1
40,-9.999999798123e-9,6,1
46,-9.999999798122219e-9,6,1
21,-9.999999798122219e-9,6,1
38,-9.999999798123003e-9,6,1
45,-9.999999798122219e-9,6,1
36,-9.999999798122219e-9,6,1
48,-9.999999798123074e-9,6,1
18,-9.999999798122992e-9,6,1
30,-9.999999798122219e-9,6,1
3,-9.999999798122219e-9,6,1
32,-9.999999697356144e-9,7,1
29,-9.999999697356144e-9,7,1
1,-9.999999697356144e-9,7,1
2,-9.999999697356144e-9,7,1
41,-9.999999697357901e-9,7,1
27,-9.999999697356144e-9,7,1
42,-9.999999697357901e-9,7,1
33,-9.999999697356144e-9,7,1
28,-9.999999697356144e-9,7,1
26,-9.999999697356144e-9,7,1
10,-9.999999697356144e-9,7,1
24,-9.999999697348191e-9,7,1
25,-9.999999697348191e-9,7,1
23,-9.999999697348191e-9,7,1
49,-9.999999697358065e-9,7,1
5,-9.999999697356144e-9,7,1
31,-9.999999697348191e-9,7,1
43,-9.999999697357901e-9,7,1
39,-9.999999697357947e-9,7,1
34,-9.999999697356144e-9,7,1
44,-9.999999697357901e-9,7,1
17,-9.999999697357924e-9,7,1
37,-9.999999697358266e-9,7,1
47,-9.999999697351e-9,7,1
9,-9.999999697356144e-9,7,1
12,-9.999999697356144e-9,7,1
20,-9.999999697357891e-9,7,1
6,-9.999999697348191e-9,7,1
14,-9.999999697357884e-9,7,1
7,-9.999999697356144e-9,7,1
8,-9.999999697356144e-9,7,1
19,-9.999999697357888e-9,7,1
4,-9.999999697356144e-9,7,1
22,-9.999999697348191e-9,7,1
11,-9.999999697356144e-9,7,1
35,-9.999999697356144e-9,7,1
13,-9.999999697356144e-9,7,1
15,-9.99999969735788e-9,7,1
16,-9.999999697357924e-9,7,1
40,-9.999999697357901e-9,7,1
46,-9.999999697356144e-9,7,1
21,-9.999999697356144e-9,7,1
38,-9.999999697357907e-9,7,1
45,-9.999999697356144e-9,7,1
36,-9.999999697356144e-9,7,1
48,-9.999999697358065e-9,7,1
18,-9.999999697357883e-9,7,1
30,-9.999999697356144e-9,7,1
3,-9.999999697356144e-9,7,1
32,-9.999999666270817e-9,8,1
29,-9.999999666270817e-9,8,1
1,-9.999999666270817e-9,8,1
2,-9.999999666270817e-9,8,1
41,-9.999999666272953e-9,8,1
27,-9.999999666270817e-9,8,1
42,-9.999999666272953e-9,8,1
33,-9.999999666270817e-9,8,1
28,-9.999999666270817e-9,8,1
26,-9.999999666270817e-9,8,1
10,-9.999999666270817e-9,8,1
24,-9.999999666261148e-9,8,1
25,-9.999999666261148e-9,8,1
23,-9.999999666261148e-9,8,1
49,-9.999999666273153e-9,8,1
5,-9.999999666270817e-9,8,1
31,-9.999999666261148e-9,8,1
43,-9.999999666272953e-9,8,1
39,-9.99999966627301e-9,8,1
34,-9.999999666270817e-9,8,1
44,-9.999999666272953e-9,8,1
17,-9.999999666272983e-9,8,1
37,-9.999999666273398e-9,8,1
47,-9.999999666264562e-9,8,1
9,-9.999999666270817e-9,8,1
12,-9.999999666270817e-9,8,1
20,-9.999999666272941e-9,8,1
6,-9.999999666261148e-9,8,1
14,-9.999999666272933e-9,8,1
7,-9.999999666270817e-9,8,1
8,-9.999999666270817e-9,8,1
19,-9.999999666272937e-9,8,1
4,-9.999999666270817e-9,8,1
22,-9.999999666261148e-9,8,1
11,-9.999999666270817e-9,8,1
35,-9.999999666270817e-9,8,1
13,-9.999999666270817e-9,8,1
15,-9.999999666272928e-9,8,1
16,-9.999999666272983e-9,8,1
40,-9.999999666272953e-9,8,1
46,-9.999999666270817e-9,8,1
21,-9.999999666270817e-9,8,1
38,-9.999999666272961e-9,8,1
45,-9.999999666270817e-9,8,1
36,-9.999999666270817e-9,8,1
48,-9.999999666273153e-9,8,1
18,-9.999999666272932e-9,8,1
30,-9.999999666270817e-9,8,1
3,-9.999999666270817e-9,8,1
32,-9.999999660451698e-9,9,1
29,-9.999999660451698e-9,9,1
1,-9.999999660451698e-9,9,1
2,-9.999999660451698e-9,9,1
41,-9.999999660453908e-9,9,1
27,-9.999999660451698e-9,9,1
42,-9.999999660453908e-9,9,1
33,-9.999999660451698e-9,9,1
28,-9.999999660451698e-9,9,1
26,-9.999999660451698e-9,9,1
10,-9.999999660451698e-9,9,1
24,-9.999999660441685e-9,9,1
25,-9.999999660441685e-9,9,1
23,-9.999999660441685e-9,9,1
49,-9.999999660454115e-9,9,1
5,-9.999999660451698e-9,9,1
31,-9.999999660441685e-9,9,1
43,-9.999999660453908e-9,9,1
39,-9.999999660453966e-9,9,1
34,-9.999999660451698e-9,9,1
44,-9.999999660453908e-9,9,1
17,-9.999999660453938e-9,9,1
37,-9.99999966045437e-9,9,1
47,-9.999999660445222e-9,9,1
9,-9.999999660451698e-9,9,1
12,-9.999999660451698e-9,9,1
20,-9.999999660453896e-9,9,1
6,-9.999999660441685e-9,9,1
14,-9.999999660453888e-9,9,1
7,-9.999999660451698e-9,9,1
8,-9.999999660451698e-9,9,1
19,-9.999999660453891e-9,9,1
4,-9.999999660451698e-9,9,1
22,-9.999999660441685e-9,9,1
11,-9.999999660451698e-9,9,1
35,-9.999999660451698e-9,9,1
13,-9.999999660451698e-9,9,1
15,-9.999999660453881e-9,9,1
16,-9.999999660453938e-9,9,1
40,-9.999999660453908e-9,9,1
46,-9.999999660451698e-9,9,1
21,-9.999999660451698e-9,9,1
38,-9.999999660453916e-9,9,1
45,-9.999999660451698e-9,9,1
36,-9.999999660451698e-9,9,1
48,-9.999999660454115e-9,9,1
18,-9.999999660453885e-9,9,1
30,-9.999999660451698e-9,9,1
3,-9.999999660451698e-9,9,1
32,-9.999999695445982e-9,10,1
29,-9.999999695445982e-9,10,1
1,-9.999999695445982e-9,10,1
2,-9.999999695445982e-9,10,1
41,-9.99999969544776e-9,10,1
27,-9.999999695445982e-9,10,1
42,-9.99999969544776e-9,10,1
33,-9.999999695445982e-9,10,1
28,-9.999999695445982e-9,10,1
26,-9.999999695445982e-9,10,1
10,-9.999999695445982e-9,10,1
24,-9.999999695437929e-9,10,1
25,-9.999999695437929e-9,10,1
23,-9.999999695437929e-9,10,1
49,-9.999999695447928e-9,10,1
5,-9.999999695445982e-9,10,1
31,-9.999999695437929e-9,10,1
43,-9.99999969544776e-9,10,1
39,-9.999999695447807e-9,10,1
34,-9.999999695445982e-9,10,1
44,-9.99999969544776e-9,10,1
17,-9.999999695447784e-9,10,1
37,-9.999999695448131e-9,10,1
47,-9.999999695440772e-9,10,1
9,-9.999999695445982e-9,10,1
12,-9.999999695445982e-9,10,1
20,-9.99999969544775e-9,10,1
6,-9.999999695437929e-9,10,1
14,-9.999999695447744e-9,10,1
7,-9.999999695445982e-9,10,1
8,-9.999999695445982e-9,10,1
19,-9.999999695447747e-9,10,1
4,-9.999999695445982e-9,10,1
22,-9.999999695437929e-9,10,1
11,-9.999999695445982e-9,10,1
35,-9.999999695445982e-9,10,1
13,-9.999999695445982e-9,10,1
15,-9.999999695447739e-9,10,1
16,-9.999999695447784e-9,10,1
40,-9.99999969544776e-9,10,1
46,-9.999999695445982e-9,10,1
21,-9.999999695445982e-9,10,1
38,-9.999999695447767e-9,10,1
45,-9.999999695445982e-9,10,1
36,-9.999999695445982e-9,10,1
48,-9.999999695447928e-9,10,1
18,-9.999999695447742e-9,10,1
30,-9.999999695445982e-9,10,1
3,-9.999999695445982e-9,10,1
32,-9.99999980306194e-9,11,1
29,-9.99999980306194e-9,11,1
1,-9.99999980306194e-9,11,1
2,-9.99999980306194e-9,11,1
41,-9.999999803062683e-9,11,1
27,-9.99999980306194e-9,11,1
42,-9.999999803062683e-9,11,1
33,-9.99999980306194e-9,11,1
28,-9.99999980306194e-9,11,1
26,-9.99999980306194e-9,11,1
10,-9.99999980306194e-9,11,1
24,-9.999999803058572e-9,11,1
25,-9.999999803058572e-9,11,1
23,-9.999999803058572e-9,11,1
49,-9.999999803062752e-9,11,1
5,-9.99999980306194e-9,11,1
31,-9.999999803058572e-9,11,1
43,-9.999999803062683e-9,11,1
39,-9.999999803062703e-9,11,1
34,-9.99999980306194e-9,11,1
44,-9.999999803062683e-9,11,1
17,-9.999999803062693e-9,11,1
37,-9.999999803062838e-9,11,1
47,-9.999999803059761e-9,11,1
9,-9.99999980306194e-9,11,1
12,-9.99999980306194e-9,11,1
20,-9.99999980306268e-9,11,1
6,-9.999999803058572e-9,11,1
14,-9.999999803062676e-9,11,1
7,-9.99999980306194e-9,11,1
8,-9.99999980306194e-9,11,1
19,-9.999999803062678e-9,11,1
4,-9.99999980306194e-9,11,1
22,-9.999999803058572e-9,11,1
11,-9.99999980306194e-9,11,1
35,-9.99999980306194e-9,11,1
13,-9.99999980306194e-9,11,1
15,-9.999999803062674e-9,11,1
16,-9.999999803062693e-9,11,1
40,-9.999999803062683e-9,11,1
46,-9.99999980306194e-9,11,1
21,-9.99999980306194e-9,11,1
38,-9.999999803062686e-9,11,1
45,-9.99999980306194e-9,11,1
36,-9.99999980306194e-9,11,1
48,-9.999999803062752e-9,11,1
18,-9.999999803062674e-9,11,1
30,-9.99999980306194e-9,11,1
3,-9.99999980306194e-9,11,1
32,-9.999999654092396e-9,12,1
29,-9.999999654092396e-9,12,1
1,-9.999999654092396e-9,12,1
2,-9.999999654092396e-9,12,1
41,-9.99999965409469e-9,12,1
27,-9.999999654092396e-9,12,1
42,-9.99999965409469e-9,12,1
33,-9.999999654092396e-9,12,1
28,-9.999999654092396e-9,12,1
26,-9.999999654092396e-9,12,1
10,-9.999999654092396e-9,12,1
24,-9.999999654082007e-9,12,1
25,-9.999999654082007e-9,12,1
23,-9.999999654082007e-9,12,1
49,-9.999999654094906e-9,12,1
5,-9.999999654092396e-9,12,1
31,-9.999999654082007e-9,12,1
43,-9.99999965409469e-9,12,1
39,-9.999999654094752e-9,12,1
34,-9.999999654092396e-9,12,1
44,-9.99999965409469e-9,12,1
17,-9.999999654094722e-9,12,1
37,-9.999999654095169e-9,12,1
47,-9.999999654081168e-9,12,1
9,-9.999999654092396e-9,12,1
12,-9.999999654092396e-9,12,1
20,-9.999999654094679e-9,12,1
6,-9.999999654082007e-9,12,1
14,-9.999999654094669e-9,12,1
7,-9.999999654092396e-9,12,1
8,-9.999999654092396e-9,12,1
19,-9.999999654094674e-9,12,1
4,-9.999999654092396e-9,12,1
22,-9.999999654082007e-9,12,1
11,-9.999999654092396e-9,12,1
35,-9.999999654092396e-9,12,1
13,-9.999999654092396e-9,12,1
15,-9.999999654094664e-9,12,1
16,-9.999999654094722e-9,12,1
40,-9.99999965409469e-9,12,1
46,-9.999999654092396e-9,12,1
21,-9.999999654092396e-9,12,1
38,-9.999999654094699e-9,12,1
45,-9.999999654092396e-9,12,1
36,-9.999999654092396e-9,12,1
48,-9.999999654094906e-9,12,1
18,-9.999999654094667e-9,12,1
30,-9.999999654092396e-9,12,1
3,-9.999999654092396e-9,12,1
32,0.05400000994761572,13,1
29,4.464000044549323,13,1
1,0.045300009947659314,13,1
2,0.045300009947659314,13,1
41,0.011955003648350802,13,1
27,1.3005000129455155,13,1
42,0.011955003586845196,13,1
33,0.772200009943747,13,1
28,1.3005000129455155,13,1
26,1.3005000129455155,13,1
10,0.27920000994646116,13,1
24,0.01400000999056768,13,1
25,1.3350000133405677,13,1
23,1.5480000154705678,13,1
49,-9.437804808610267e-9,13,1
5,0.09070000994743097,13,1
31,0.9240000099905677,13,1
43,0.011955003592955989,13,1
39,-7.95887187551132e-9,13,1
34,0.772200009943747,13,1
44,0.01195500346218654,13,1
17,-5.885476231382166e-9,13,1
37,-9.748838368554957e-9,13,1
47,1.138300001356455,13,1
9,0.27920000994646116,13,1
12,0.27920000994646116,13,1
20,0.06284034038437013,13,1
6,0.8650000099905677,13,1
14,0.04000000146022166,13,1
7,0.0470000099476508,13,1
8,0.27920000994646116,13,1
19,0.0499999949069711,13,1
4,0.045300009947659314,13,1
22,0.6760000099905676,13,1
11,0.27920000994646116,13,1
35,0.772200009943747,13,1
13,0.27920000994646116,13,1
15,0.02400000492089785,13,1
16,-5.885476288844544e-9,13,1
40,0.011955003640522717,13,1
46,0.2660000099465302,13,1
21,0.18000000994697593,13,1
38,6.6045235111804285e-9,13,1
45,0.1750000099470016,13,1
36,0.772200009943747,13,1
48,-9.437804808608932e-9,13,1
18,0.032000003538220724,13,1
30,4.464000044549323,13,1
3,0.045300009947659314,13,1
32,-9.9999996595261e-9,14,1
29,-9.9999996595261e-9,14,1
1,-9.9999996595261e-9,14,1
2,-9.9999996595261e-9,14,1
41,-9.999999659528323e-9,14,1
27,-9.9999996595261e-9,14,1
42,-9.999999659528323e-9,14,1
33,-9.9999996595261e-9,14,1
28,-9.9999996595261e-9,14,1
26,-9.9999996595261e-9,14,1
10,-9.9999996595261e-9,14,1
24,-9.999999659516034e-9,14,1
25,-9.999999659516034e-9,14,1
23,-9.999999659516034e-9,14,1
49,-9.999999659528531e-9,14,1
5,-9.9999996595261e-9,14,1
31,-9.999999659516034e-9,14,1
43,-9.999999659528323e-9,14,1
39,-9.99999965952838e-9,14,1
34,-9.9999996595261e-9,14,1
44,-9.999999659528323e-9,14,1
17,-9.999999659528352e-9,14,1
37,-9.999999659528786e-9,14,1
47,-9.999999659515222e-9,14,1
9,-9.9999996595261e-9,14,1
12,-9.9999996595261e-9,14,1
20,-9.999999659528311e-9,14,1
6,-9.999999659516034e-9,14,1
14,-9.999999659528303e-9,14,1
7,-9.9999996595261e-9,14,1
8,-9.9999996595261e-9,14,1
19,-9.999999659528306e-9,14,1
4,-9.9999996595261e-9,14,1
22,-9.999999659516034e-9,14,1
11,-9.9999996595261e-9,14,1
35,-9.9999996595261e-9,14,1
13,-9.9999996595261e-9,14,1
15,-9.999999659528296e-9,14,1
16,-9.999999659528352e-9,14,1
40,-9.999999659528323e-9,14,1
46,-9.9999996595261e-9,14,1
21,-9.9999996595261e-9,14,1
38,-9.99999965952833e-9,14,1
45,-9.9999996595261e-9,14,1
36,-9.9999996595261e-9,14,1
48,-9.999999659528531e-9,14,1
18,-9.9999996595283e-9,14,1
30,-9.9999996595261e-9,14,1
3,-9.9999996595261e-9,14,1
32,-9.999999696005699e-9,15,1
29,-9.999999696005699e-9,15,1
1,-9.999999696005699e-9,15,1
2,-9.999999696005699e-9,15,1
41,-9.99999969600747e-9,15,1
27,-9.999999696005699e-9,15,1
42,-9.99999969600747e-9,15,1
33,-9.999999696005699e-9,15,1
28,-9.999999696005699e-9,15,1
26,-9.999999696005699e-9,15,1
10,-9.999999696005699e-9,15,1
24,-9.999999695997673e-9,15,1
25,-9.999999695997673e-9,15,1
23,-9.999999695997673e-9,15,1
49,-9.999999696007636e-9,15,1
5,-9.999999696005699e-9,15,1
31,-9.999999695997673e-9,15,1
43,-9.99999969600747e-9,15,1
39,-9.999999696007517e-9,15,1
34,-9.999999696005699e-9,15,1
44,-9.99999969600747e-9,15,1
17,-9.999999696007494e-9,15,1
37,-9.99999969600784e-9,15,1
47,-9.999999696000507e-9,15,1
9,-9.999999696005699e-9,15,1
12,-9.999999696005699e-9,15,1
20,-9.99999969600746e-9,15,1
6,-9.999999695997673e-9,15,1
14,-9.999999696007454e-9,15,1
7,-9.999999696005699e-9,15,1
8,-9.999999696005699e-9,15,1
19,-9.999999696007457e-9,15,1
4,-9.999999696005699e-9,15,1
22,-9.999999695997673e-9,15,1
11,-9.999999696005699e-9,15,1
35,-9.999999696005699e-9,15,1
13,-9.999999696005699e-9,15,1
15,-9.999999696007449e-9,15,1
16,-9.999999696007494e-9,15,1
40,-9.99999969600747e-9,15,1
46,-9.999999696005699e-9,15,1
21,-9.999999696005699e-9,15,1
38,-9.999999696007477e-9,15,1
45,-9.999999696005699e-9,15,1
36,-9.999999696005699e-9,15,1
48,-9.999999696007636e-9,15,1
18,-9.999999696007452e-9,15,1
30,-9.999999696005699e-9,15,1
3,-9.999999696005699e-9,15,1
32,-9.999999688787625e-9,16,1
29,-9.999999688787625e-9,16,1
1,-9.999999688787625e-9,16,1
2,-9.999999688787625e-9,16,1
41,-9.999999688789481e-9,16,1
27,-9.999999688787625e-9,16,1
42,-9.999999688789481e-9,16,1
33,-9.999999688787625e-9,16,1
28,-9.999999688787625e-9,16,1
26,-9.999999688787625e-9,16,1
10,-9.999999688787625e-9,16,1
24,-9.999999688779214e-9,16,1
25,-9.999999688779214e-9,16,1
23,-9.999999688779214e-9,16,1
49,-9.999999688789655e-9,16,1
5,-9.999999688787625e-9,16,1
31,-9.999999688779214e-9,16,1
43,-9.999999688789481e-9,16,1
39,-9.99999968878953e-9,16,1
34,-9.999999688787625e-9,16,1
44,-9.999999688789481e-9,16,1
17,-9.999999688789506e-9,16,1
37,-9.999999688789868e-9,16,1
47,-9.999999688782185e-9,16,1
9,-9.999999688787625e-9,16,1
12,-9.999999688787625e-9,16,1
20,-9.999999688789471e-9,16,1
6,-9.999999688779214e-9,16,1
14,-9.999999688789464e-9,16,1
7,-9.999999688787625e-9,16,1
8,-9.999999688787625e-9,16,1
19,-9.999999688789468e-9,16,1
4,-9.999999688787625e-9,16,1
22,-9.999999688779214e-9,16,1
11,-9.999999688787625e-9,16,1
35,-9.999999688787625e-9,16,1
13,-9.999999688787625e-9,16,1
15,-9.99999968878946e-9,16,1
16,-9.999999688789506e-9,16,1
40,-9.999999688789481e-9,16,1
46,-9.999999688787625e-9,16,1
21,-9.999999688787625e-9,16,1
38,-9.999999688789488e-9,16,1
45,-9.999999688787625e-9,16,1
36,-9.999999688787625e-9,16,1
48,-9.999999688789655e-9,16,1
18,-9.999999688789463e-9,16,1
30,-9.999999688787625e-9,16,1
3,-9.999999688787625e-9,16,1
32,-9.999999651465553e-9,17,1
29,-9.999999651465553e-9,17,1
1,-9.999999651465553e-9,17,1
2,-9.999999651465553e-9,17,1
41,-9.999999651467883e-9,17,1
27,-9.999999651465553e-9,17,1
42,-9.999999651467883e-9,17,1
33,-9.999999651465553e-9,17,1
28,-9.999999651465553e-9,17,1
26,-9.999999651465553e-9,17,1
10,-9.999999651465553e-9,17,1
24,-9.999999651455007e-9,17,1
25,-9.999999651455007e-9,17,1
23,-9.999999651455007e-9,17,1
49,-9.999999651468101e-9,17,1
5,-9.999999651465553e-9,17,1
31,-9.999999651455007e-9,17,1
43,-9.999999651467883e-9,17,1
39,-9.999999651467944e-9,17,1
34,-9.999999651465553e-9,17,1
44,-9.999999651467883e-9,17,1
17,-9.999999651467914e-9,17,1
37,-9.999999651468369e-9,17,1
47,-9.99999965145873e-9,17,1
9,-9.999999651465553e-9,17,1
12,-9.999999651465553e-9,17,1
20,-9.999999651467871e-9,17,1
6,-9.999999651455007e-9,17,1
14,-9.999999651467861e-9,17,1
7,-9.999999651465553e-9,17,1
8,-9.999999651465553e-9,17,1
19,-9.999999651467866e-9,17,1
4,-9.999999651465553e-9,17,1
22,-9.999999651455007e-9,17,1
11,-9.999999651465553e-9,17,1
35,-9.999999651465553e-9,17,1
13,-9.999999651465553e-9,17,1
15,-9.999999651467856e-9,17,1
16,-9.999999651467914e-9,17,1
40,-9.999999651467883e-9,17,1
46,-9.999999651465553e-9,17,1
21,-9.999999651465553e-9,17,1
38,-9.999999651467892e-9,17,1
45,-9.999999651465553e-9,17,1
36,-9.999999651465553e-9,17,1
48,-9.999999651468101e-9,17,1
18,-9.99999965146786e-9,17,1
30,-9.999999651465553e-9,17,1
3,-9.999999651465553e-9,17,1
32,-9.99999968450923e-9,18,1
29,-9.99999968450923e-9,18,1
1,-9.99999968450923e-9,18,1
2,-9.99999968450923e-9,18,1
41,-9.999999684511137e-9,18,1
27,-9.99999968450923e-9,18,1
42,-9.999999684511137e-9,18,1
33,-9.99999968450923e-9,18,1
28,-9.99999968450923e-9,18,1
26,-9.99999968450923e-9,18,1
10,-9.99999968450923e-9,18,1
24,-9.999999684500588e-9,18,1
25,-9.999999684500588e-9,18,1
23,-9.999999684500588e-9,18,1
49,-9.999999684511318e-9,18,1
5,-9.99999968450923e-9,18,1
31,-9.999999684500588e-9,18,1
43,-9.999999684511137e-9,18,1
39,-9.999999684511189e-9,18,1
34,-9.99999968450923e-9,18,1
44,-9.999999684511137e-9,18,1
17,-9.999999684511164e-9,18,1
37,-9.999999684511536e-9,18,1
47,-9.99999968450364e-9,18,1
9,-9.99999968450923e-9,18,1
12,-9.99999968450923e-9,18,1
20,-9.999999684511129e-9,18,1
6,-9.999999684500588e-9,18,1
14,-9.999999684511121e-9,18,1
7,-9.99999968450923e-9,18,1
8,-9.99999968450923e-9,18,1
19,-9.999999684511124e-9,18,1
4,-9.99999968450923e-9,18,1
22,-9.999999684500588e-9,18,1
11,-9.99999968450923e-9,18,1
35,-9.99999968450923e-9,18,1
13,-9.99999968450923e-9,18,1
15,-9.999999684511116e-9,18,1
16,-9.999999684511164e-9,18,1
40,-9.999999684511137e-9,18,1
46,-9.99999968450923e-9,18,1
21,-9.99999968450923e-9,18,1
38,-9.999999684511146e-9,18,1
45,-9.99999968450923e-9,18,1
36,-9.99999968450923e-9,18,1
48,-9.999999684511318e-9,18,1
18,-9.99999968451112e-9,18,1
30,-9.99999968450923e-9,18,1
3,-9.99999968450923e-9,18,1
32,-9.99999972447299e-9,19,1
29,-9.99999972447299e-9,19,1
1,-9.99999972447299e-9,19,1
2,-9.99999972447299e-9,19,1
41,-9.999999724474445e-9,19,1
27,-9.99999972447299e-9,19,1
42,-9.999999724474445e-9,19,1
33,-9.99999972447299e-9,19,1
28,-9.99999972447299e-9,19,1
26,-9.99999972447299e-9,19,1
10,-9.99999972447299e-9,19,1
24,-9.999999724466398e-9,19,1
25,-9.999999724466398e-9,19,1
23,-9.999999724466398e-9,19,1
49,-9.999999724474582e-9,19,1
5,-9.99999972447299e-9,19,1
31,-9.999999724466398e-9,19,1
43,-9.999999724474445e-9,19,1
39,-9.999999724474484e-9,19,1
34,-9.99999972447299e-9,19,1
44,-9.999999724474445e-9,19,1
17,-9.999999724474466e-9,19,1
37,-9.999999724474749e-9,19,1
47,-9.999999724468727e-9,19,1
9,-9.99999972447299e-9,19,1
12,-9.99999972447299e-9,19,1
20,-9.999999724474438e-9,19,1
6,-9.999999724466398e-9,19,1
14,-9.999999724474433e-9,19,1
7,-9.99999972447299e-9,19,1
8,-9.99999972447299e-9,19,1
19,-9.999999724474435e-9,19,1
4,-9.99999972447299e-9,19,1
22,-9.999999724466398e-9,19,1
11,-9.99999972447299e-9,19,1
35,-9.99999972447299e-9,19,1
13,-9.99999972447299e-9,19,1
15,-9.999999724474428e-9,19,1
16,-9.999999724474466e-9,19,1
40,-9.999999724474445e-9,19,1
46,-9.99999972447299e-9,19,1
21,-9.99999972447299e-9,19,1
38,-9.999999724474451e-9,19,1
45,-9.99999972447299e-9,19,1
36,-9.99999972447299e-9,19,1
48,-9.999999724474582e-9,19,1
18,-9.999999724474431e-9,19,1
30,-9.99999972447299e-9,19,1
3,-9.99999972447299e-9,19,1
32,-9.999999649952233e-9,20,1
29,-9.999999649952233e-9,20,1
1,-9.999999649952233e-9,20,1
2,-9.999999649952233e-9,20,1
41,-9.999999649954582e-9,20,1
27,-9.999999649952233e-9,20,1
42,-9.999999649954582e-9,20,1
33,-9.999999649952233e-9,20,1
28,-9.999999649952233e-9,20,1
26,-9.999999649952233e-9,20,1
10,-9.999999649952233e-9,20,1
24,-9.999999649941594e-9,20,1
25,-9.999999649941594e-9,20,1
23,-9.999999649941594e-9,20,1
49,-9.999999649954802e-9,20,1
5,-9.999999649952233e-9,20,1
31,-9.999999649941594e-9,20,1
43,-9.999999649954582e-9,20,1
39,-9.999999649954645e-9,20,1
34,-9.999999649952233e-9,20,1
44,-9.999999649954582e-9,20,1
17,-9.999999649954615e-9,20,1
37,-9.999999649955073e-9,20,1
47,-9.99999964994535e-9,20,1
9,-9.999999649952233e-9,20,1
12,-9.999999649952233e-9,20,1
20,-9.99999964995457e-9,20,1
6,-9.999999649941594e-9,20,1
14,-9.99999964995456e-9,20,1
7,-9.999999649952233e-9,20,1
8,-9.999999649952233e-9,20,1
19,-9.999999649954566e-9,20,1
4,-9.999999649952233e-9,20,1
22,-9.999999649941594e-9,20,1
11,-9.999999649952233e-9,20,1
35,-9.999999649952233e-9,20,1
13,-9.999999649952233e-9,20,1
15,-9.999999649954556e-9,20,1
16,-9.999999649954615e-9,20,1
40,-9.999999649954582e-9,20,1
46,-9.999999649952233e-9,20,1
21,-9.999999649952233e-9,20,1
38,-9.999999649954592e-9,20,1
45,-9.999999649952233e-9,20,1
36,-9.999999649952233e-9,20,1
48,-9.999999649954802e-9,20,1
18,-9.999999649954559e-9,20,1
30,-9.999999649952233e-9,20,1
3,-9.999999649952233e-9,20,1
32,-9.999999690916055e-9,21,1
29,-9.999999690916055e-9,21,1
1,-9.999999690916055e-9,21,1
2,-9.999999690916055e-9,21,1
41,-9.999999690917886e-9,21,1
27,-9.999999690916055e-9,21,1
42,-9.999999690917886e-9,21,1
33,-9.999999690916055e-9,21,1
28,-9.999999690916055e-9,21,1
26,-9.999999690916055e-9,21,1
10,-9.999999690916055e-9,21,1
24,-9.99999969090776e-9,21,1
25,-9.99999969090776e-9,21,1
23,-9.99999969090776e-9,21,1
49,-9.999999690918058e-9,21,1
5,-9.999999690916055e-9,21,1
31,-9.99999969090776e-9,21,1
43,-9.999999690917886e-9,21,1
39,-9.999999690917936e-9,21,1
34,-9.999999690916055e-9,21,1
44,-9.999999690917886e-9,21,1
17,-9.999999690917913e-9,21,1
37,-9.999999690918268e-9,21,1
47,-9.99999969091069e-9,21,1
9,-9.999999690916055e-9,21,1
12,-9.999999690916055e-9,21,1
20,-9.999999690917878e-9,21,1
6,-9.99999969090776e-9,21,1
14,-9.99999969091787e-9,21,1
7,-9.999999690916055e-9,21,1
8,-9.999999690916055e-9,21,1
19,-9.999999690917873e-9,21,1
4,-9.999999690916055e-9,21,1
22,-9.99999969090776e-9,21,1
11,-9.999999690916055e-9,21,1
35,-9.999999690916055e-9,21,1
13,-9.999999690916055e-9,21,1
15,-9.999999690917866e-9,21,1
16,-9.999999690917913e-9,21,1
40,-9.999999690917886e-9,21,1
46,-9.999999690916055e-9,21,1
21,-9.999999690916055e-9,21,1
38,-9.999999690917894e-9,21,1
45,-9.999999690916055e-9,21,1
36,-9.999999690916055e-9,21,1
48,-9.999999690918058e-9,21,1
18,-9.999999690917868e-9,21,1
30,-9.999999690916055e-9,21,1
3,-9.999999690916055e-9,21,1
32,-9.999999692154566e-9,22,1
29,-9.999999692154566e-9,22,1
1,-9.999999692154566e-9,22,1
2,-9.999999692154566e-9,22,1
41,-9.999999692156382e-9,22,1
27,-9.999999692154566e-9,22,1
42,-9.999999692156382e-9,22,1
33,-9.999999692154566e-9,22,1
28,-9.999999692154566e-9,22,1
26,-9.999999692154566e-9,22,1
10,-9.999999692154566e-9,22,1
24,-9.999999692146337e-9,22,1
25,-9.999999692146337e-9,22,1
23,-9.999999692146337e-9,22,1
49,-9.999999692156553e-9,22,1
5,-9.999999692154566e-9,22,1
31,-9.999999692146337e-9,22,1
43,-9.999999692156382e-9,22,1
39,-9.99999969215643e-9,22,1
34,-9.999999692154566e-9,22,1
44,-9.999999692156382e-9,22,1
17,-9.999999692156407e-9,22,1
37,-9.999999692156761e-9,22,1
47,-9.999999692149244e-9,22,1
9,-9.999999692154566e-9,22,1
12,-9.999999692154566e-9,22,1
20,-9.999999692156374e-9,22,1
6,-9.999999692146337e-9,22,1
14,-9.999999692156366e-9,22,1
7,-9.999999692154566e-9,22,1
8,-9.999999692154566e-9,22,1
19,-9.999999692156369e-9,22,1
4,-9.999999692154566e-9,22,1
22,-9.999999692146337e-9,22,1
11,-9.999999692154566e-9,22,1
35,-9.999999692154566e-9,22,1
13,-9.999999692154566e-9,22,1
15,-9.999999692156363e-9,22,1
16,-9.999999692156407e-9,22,1
40,-9.999999692156382e-9,22,1
46,-9.999999692154566e-9,22,1
21,-9.999999692154566e-9,22,1
38,-9.99999969215639e-9,22,1
45,-9.999999692154566e-9,22,1
36,-9.999999692154566e-9,22,1
48,-9.999999692156553e-9,22,1
18,-9.999999692156364e-9,22,1
30,-9.999999692154566e-9,22,1
3,-9.999999692154566e-9,22,1
32,-9.99999964979324e-9,23,1
29,-9.99999964979324e-9,23,1
1,-9.99999964979324e-9,23,1
2,-9.99999964979324e-9,23,1
41,-9.999999649795591e-9,23,1
27,-9.99999964979324e-9,23,1
42,-9.999999649795591e-9,23,1
33,-9.99999964979324e-9,23,1
28,-9.99999964979324e-9,23,1
26,-9.99999964979324e-9,23,1
10,-9.99999964979324e-9,23,1
24,-9.999999649782591e-9,23,1
25,-9.999999649782591e-9,23,1
23,-9.999999649782591e-9,23,1
49,-9.999999649795813e-9,23,1
5,-9.99999964979324e-9,23,1
31,-9.999999649782591e-9,23,1
43,-9.999999649795591e-9,23,1
39,-9.999999649795654e-9,23,1
34,-9.99999964979324e-9,23,1
44,-9.999999649795591e-9,23,1
17,-9.999999649795624e-9,23,1
37,-9.999999649796083e-9,23,1
47,-9.999999649786352e-9,23,1
9,-9.99999964979324e-9,23,1
12,-9.99999964979324e-9,23,1
20,-9.99999964979558e-9,23,1
6,-9.999999649782591e-9,23,1
14,-9.999999649795572e-9,23,1
7,-9.99999964979324e-9,23,1
8,-9.99999964979324e-9,23,1
19,-9.999999649795575e-9,23,1
4,-9.99999964979324e-9,23,1
22,-9.999999649782591e-9,23,1
11,-9.99999964979324e-9,23,1
35,-9.99999964979324e-9,23,1
13,-9.99999964979324e-9,23,1
15,-9.999999649795565e-9,23,1
16,-9.999999649795624e-9,23,1
40,-9.999999649795591e-9,23,1
46,-9.99999964979324e-9,23,1
21,-9.99999964979324e-9,23,1
38,-9.999999649795601e-9,23,1
45,-9.99999964979324e-9,23,1
36,-9.99999964979324e-9,23,1
48,-9.999999649795813e-9,23,1
18,-9.999999649795568e-9,23,1
30,-9.99999964979324e-9,23,1
3,-9.99999964979324e-9,23,1
32,-9.999999661375976e-9,24,1
29,-9.999999661375976e-9,24,1
1,-9.999999661375976e-9,24,1
2,-9.999999661375976e-9,24,1
41,-9.999999661378175e-9,24,1
27,-9.999999661375976e-9,24,1
42,-9.999999661378175e-9,24,1
33,-9.999999661375976e-9,24,1
28,-9.999999661375976e-9,24,1
26,-9.999999661375976e-9,24,1
10,-9.999999661375976e-9,24,1
24,-9.99999966136602e-9,24,1
25,-9.99999966136602e-9,24,1
23,-9.99999966136602e-9,24,1
49,-9.999999661378381e-9,24,1
5,-9.999999661375976e-9,24,1
31,-9.99999966136602e-9,24,1
43,-9.999999661378175e-9,24,1
39,-9.999999661378233e-9,24,1
34,-9.999999661375976e-9,24,1
44,-9.999999661378175e-9,24,1
17,-9.999999661378204e-9,24,1
37,-9.999999661378633e-9,24,1
47,-9.999999661369536e-9,24,1
9,-9.999999661375976e-9,24,1
12,-9.999999661375976e-9,24,1
20,-9.999999661378163e-9,24,1
6,-9.99999966136602e-9,24,1
14,-9.999999661378155e-9,24,1
7,-9.999999661375976e-9,24,1
8,-9.999999661375976e-9,24,1
19,-9.999999661378158e-9,24,1
4,-9.999999661375976e-9,24,1
22,-9.99999966136602e-9,24,1
11,-9.999999661375976e-9,24,1
35,-9.999999661375976e-9,24,1
13,-9.999999661375976e-9,24,1
15,-9.99999966137815e-9,24,1
16,-9.999999661378204e-9,24,1
40,-9.999999661378175e-9,24,1
46,-9.999999661375976e-9,24,1
21,-9.999999661375976e-9,24,1
38,-9.999999661378183e-9,24,1
45,-9.999999661375976e-9,24,1
36,-9.999999661375976e-9,24,1
48,-9.999999661378381e-9,24,1
18,-9.999999661378151e-9,24,1
30,-9.999999661375976e-9,24,1
3,-9.999999661375976e-9,24,1
32,-9.999105655028292e-9,1,2
29,-9.99910565146502e-9,1,2
1,-9.999105656265288e-9,1,2
2,-9.999105656267336e-9,1,2
41,-9.99910570306507e-9,1,2
27,-9.999105651738062e-9,1,2
42,-9.99910570306042e-9,1,2
33,-9.999105650787437e-9,1,2
28,-9.999105651737837e-9,1,2
26,-9.9991056517385e-9,1,2
10,-9.999105650037273e-9,1,2
24,-9.999108580272585e-9,1,2
25,-9.999106525603078e-9,1,2
23,-9.99910717364683e-9,1,2
49,-9.999105703879925e-9,1,2
5,-9.999105652371914e-9,1,2
31,-9.999105044803284e-9,1,2
43,-9.999105703061642e-9,1,2
39,-9.999105702771784e-9,1,2
34,-9.99910565078726e-9,1,2
44,-9.999105703057552e-9,1,2
17,-9.999105702788384e-9,1,2
37,-9.999105706330431e-9,1,2
47,-9.999105202724684e-9,1,2
9,-9.999105650038206e-9,1,2
12,-9.999105650036671e-9,1,2
20,-9.999105703665083e-9,1,2
6,-9.999105254474862e-9,1,2
14,-9.999105704760055e-9,1,2
7,-9.99910565597873e-9,1,2
8,-9.999105650037879e-9,1,2
19,-9.999105704147859e-9,1,2
4,-9.999105656256189e-9,1,2
22,-9.999103408422266e-9,1,2
11,-9.999105650036638e-9,1,2
35,-9.999105650787553e-9,1,2
13,-9.999105650034054e-9,1,2
15,-9.99910570667896e-9,1,2
16,-9.999105702789087e-9,1,2
40,-9.999105703063496e-9,1,2
46,-9.999105650306142e-9,1,2
21,-9.99910565058776e-9,1,2
38,-9.999105702858953e-9,1,2
45,-9.99910565077102e-9,1,2
36,-9.999105650787559e-9,1,2
48,-9.999105703876653e-9,1,2
18,-9.999105705376245e-9,1,2
30,-9.999105651464979e-9,1,2
3,-9.999105656251481e-9,1,2
32,-9.999183186969054e-9,2,2
29,-9.9991831842456e-9,2,2
1,-9.99918318796502e-9,2,2
2,-9.999183187966803e-9,2,2
41,-9.9991832258205e-9,2,2
27,-9.99918318447387e-9,2,2
42,-9.999183225816527e-9,2,2
33,-9.999183183668946e-9,2,2
28,-9.999183184473652e-9,2,2
26,-9.999183184474293e-9,2,2
10,-9.999183182988043e-9,2,2
24,-9.99918550781795e-9,2,2
25,-9.999183827642915e-9,2,2
23,-9.999184411615057e-9,2,2
49,-9.999183226441948e-9,2,2
5,-9.999183184843814e-9,2,2
31,-9.999182669248425e-9,2,2
43,-9.999183225817569e-9,2,2
39,-9.999183225570477e-9,2,2
34,-9.999183183668872e-9,2,2
44,-9.99918322581406e-9,2,2
17,-9.999183225592629e-9,2,2
37,-9.999183228409993e-9,2,2
47,-9.99918282475706e-9,2,2
9,-9.99918318298883e-9,2,2
12,-9.999183182987535e-9,2,2
20,-9.999183226310112e-9,2,2
6,-9.999182860551912e-9,2,2
14,-9.99918322719716e-9,2,2
7,-9.999183187730082e-9,2,2
8,-9.999183182988555e-9,2,2
19,-9.999183226701477e-9,2,2
4,-9.999183187956917e-9,2,2
22,-9.999181497767283e-9,2,2
11,-9.999183182987507e-9,2,2
35,-9.999183183668994e-9,2,2
13,-9.99918318298533e-9,2,2
15,-9.999183228721673e-9,2,2
16,-9.999183225593221e-9,2,2
40,-9.999183225819157e-9,2,2
46,-9.99918318321419e-9,2,2
21,-9.99918318342127e-9,2,2
38,-9.99918322565164e-9,2,2
45,-9.999183183575357e-9,2,2
36,-9.999183183668998e-9,2,2
48,-9.999183226439241e-9,2,2
18,-9.999183227676867e-9,2,2
30,-9.999183184245562e-9,2,2
3,-9.999183187952797e-9,2,2
32,-9.998920648063684e-9,3,2
29,-9.998920644864612e-9,3,2
1,-9.998920649235302e-9,3,2
2,-9.998920649237407e-9,3,2
41,-9.99892069742422e-9,3,2
27,-9.998920645133334e-9,3,2
42,-9.99892069741954e-9,3,2
33,-9.998920644184546e-9,3,2
28,-9.998920645133079e-9,3,2
26,-9.998920645133832e-9,3,2
10,-9.998920643380889e-9,3,2
24,-9.998923365368083e-9,3,2
25,-9.998921376463326e-9,3,2
23,-9.9989220859262e-9,3,2
49,-9.998920698497284e-9,3,2
5,-9.998920645563454e-9,3,2
31,-9.998920013302563e-9,3,2
43,-9.998920697420767e-9,3,2
39,-9.998920697228275e-9,3,2
34,-9.998920644184458e-9,3,2
44,-9.998920697416631e-9,3,2
17,-9.998920697207503e-9,3,2
37,-9.998920701228799e-9,3,2
47,-9.99892021113434e-9,3,2
9,-9.998920643381815e-9,3,2
12,-9.998920643380288e-9,3,2
20,-9.998920697980924e-9,3,2
6,-9.998920243035468e-9,3,2
14,-9.998920699008626e-9,3,2
7,-9.998920648958921e-9,3,2
8,-9.99892064338149e-9,3,2
19,-9.998920698432624e-9,3,2
4,-9.998920649225753e-9,3,2
22,-9.998918654279307e-9,3,2
11,-9.998920643380257e-9,3,2
35,-9.998920644184604e-9,3,2
13,-9.998920643377689e-9,3,2
15,-9.998920700788232e-9,3,2
16,-9.998920697208198e-9,3,2
40,-9.998920697422636e-9,3,2
46,-9.998920643647277e-9,3,2
21,-9.998920643890278e-9,3,2
38,-9.99892069724077e-9,3,2
45,-9.998920644071785e-9,3,2
36,-9.998920644184607e-9,3,2
48,-9.998920698494096e-9,3,2
18,-9.998920699566764e-9,3,2
30,-9.99892064486457e-9,3,2
3,-9.998920649220903e-9,3,2
32,-9.999224285702525e-9,4,2
29,-9.999224285110494e-9,4,2
1,-9.999224285919475e-9,4,2
2,-9.999224285919863e-9,4,2
41,-9.999224298500695e-9,4,2
27,-9.999224285160265e-9,4,2
42,-9.999224298499826e-9,4,2
33,-9.999224284984438e-9,4,2
28,-9.999224285160217e-9,4,2
26,-9.999224285160356e-9,4,2
10,-9.99922428483543e-9,4,2
24,-9.99922477263963e-9,4,2
25,-9.999224403854099e-9,4,2
23,-9.999224535872649e-9,4,2
49,-9.999224299042942e-9,4,2
5,-9.999224285239545e-9,4,2
31,-9.999224151418582e-9,4,2
43,-9.999224298500053e-9,4,2
39,-9.999224298562174e-9,4,2
34,-9.999224284984421e-9,4,2
44,-9.999224298499287e-9,4,2
17,-9.99922429851124e-9,4,2
37,-9.999224299968775e-9,4,2
47,-9.999224194044818e-9,4,2
9,-9.999224284835602e-9,4,2
12,-9.999224284835319e-9,4,2
20,-9.999224298585352e-9,4,2
6,-9.999224194056867e-9,4,2
14,-9.999224298761483e-9,4,2
7,-9.999224285868295e-9,4,2
8,-9.999224284835542e-9,4,2
19,-9.999224298661049e-9,4,2
4,-9.999224285917706e-9,4,2
22,-9.999223899899815e-9,4,2
11,-9.999224284835314e-9,4,2
35,-9.999224284984448e-9,4,2
13,-9.999224284834837e-9,4,2
15,-9.999224299080989e-9,4,2
16,-9.999224298511369e-9,4,2
40,-9.9992242985004e-9,4,2
46,-9.999224284884783e-9,4,2
21,-9.999224284929738e-9,4,2
38,-9.999224298481594e-9,4,2
45,-9.999224284963365e-9,4,2
36,-9.99922428498445e-9,4,2
48,-9.99922429904235e-9,4,2
18,-9.9992242988603e-9,4,2
30,-9.999224285110487e-9,4,2
3,-9.999224285916806e-9,4,2
32,-9.999094371269907e-9,5,2
29,-9.99909436769314e-9,5,2
1,-9.99909437257821e-9,5,2
2,-9.999094372580554e-9,5,2
41,-9.999094421762142e-9,5,2
27,-9.999094367993073e-9,5,2
42,-9.99909442175692e-9,5,2
33,-9.999094366935365e-9,5,2
28,-9.999094367992788e-9,5,2
26,-9.999094367993629e-9,5,2
10,-9.9990943660404e-9,5,2
24,-9.99909742178144e-9,5,2
25,-9.99909520219524e-9,5,2
23,-9.99909599713901e-9,5,2
49,-9.999094422526983e-9,5,2
5,-9.999094368478019e-9,5,2
31,-9.999093683239702e-9,5,2
43,-9.99909442175829e-9,5,2
39,-9.999094421418733e-9,5,2
34,-9.999094366935268e-9,5,2
44,-9.999094421753678e-9,5,2
17,-9.999094421454977e-9,5,2
37,-9.999094425050182e-9,5,2
47,-9.999093897385675e-9,5,2
9,-9.999094366041434e-9,5,2
12,-9.999094366039732e-9,5,2
20,-9.999094422408405e-9,5,2
6,-9.999093939867162e-9,5,2
14,-9.999094423576493e-9,5,2
7,-9.99909437226961e-9,5,2
8,-9.999094366041072e-9,5,2
19,-9.999094422923998e-9,5,2
4,-9.99909437256756e-9,5,2
22,-9.999092169760352e-9,5,2
11,-9.999094366039696e-9,5,2
35,-9.99909436693543e-9,5,2
13,-9.999094366036834e-9,5,2
15,-9.999094425581536e-9,5,2
16,-9.999094421455754e-9,5,2
40,-9.999094421760378e-9,5,2
46,-9.99909436633754e-9,5,2
21,-9.999094366609441e-9,5,2
38,-9.999094421537953e-9,5,2
45,-9.99909436681192e-9,5,2
36,-9.999094366935433e-9,5,2
48,-9.999094422523426e-9,5,2
18,-9.99909442420755e-9,5,2
30,-9.999094367693092e-9,5,2
3,-9.99909437256215e-9,5,2
32,-9.999159343193193e-9,6,2
29,-9.999159340475372e-9,6,2
1,-9.999159344187443e-9,6,2
2,-9.999159344189224e-9,6,2
41,-9.999159382361672e-9,6,2
27,-9.999159340703317e-9,6,2
42,-9.999159382357705e-9,6,2
33,-9.999159339899371e-9,6,2
28,-9.999159340703101e-9,6,2
26,-9.99915934070374e-9,6,2
10,-9.999159339219047e-9,6,2
24,-9.999161658185209e-9,6,2
25,-9.999159971141307e-9,6,2
23,-9.999160575398015e-9,6,2
49,-9.999159383017671e-9,6,2
5,-9.999159341071488e-9,6,2
31,-9.999158816662081e-9,6,2
43,-9.999159382358746e-9,6,2
39,-9.999159382122058e-9,6,2
34,-9.999159339899297e-9,6,2
44,-9.999159382355242e-9,6,2
17,-9.999159382139353e-9,6,2
37,-9.999159385026383e-9,6,2
47,-9.999158980694941e-9,6,2
9,-9.999159339219833e-9,6,2
12,-9.999159339218539e-9,6,2
20,-9.999159382848701e-9,6,2
6,-9.999159011716838e-9,6,2
14,-9.999159383733136e-9,6,2
7,-9.999159343952919e-9,6,2
8,-9.99915933921956e-9,6,2
19,-9.999159383238722e-9,6,2
4,-9.999159344179348e-9,6,2
22,-9.999157666331568e-9,6,2
11,-9.99915933921851e-9,6,2
35,-9.99915933989942e-9,6,2
13,-9.999159339216337e-9,6,2
15,-9.999159385254344e-9,6,2
16,-9.999159382139943e-9,6,2
40,-9.999159382360332e-9,6,2
46,-9.999159339444885e-9,6,2
21,-9.999159339651474e-9,6,2
38,-9.999159382194574e-9,6,2
45,-9.999159339805366e-9,6,2
36,-9.999159339899423e-9,6,2
48,-9.999159383014968e-9,6,2
18,-9.999159384211582e-9,6,2
30,-9.999159340475336e-9,6,2
3,-9.999159344175237e-9,6,2
32,-9.999078562421295e-9,7,2
29,-9.999078558930636e-9,7,2
1,-9.999078563698144e-9,7,2
2,-9.999078563700434e-9,7,2
41,-9.999078612160658e-9,7,2
27,-9.99907855922336e-9,7,2
42,-9.999078612155562e-9,7,2
33,-9.999078558191037e-9,7,2
28,-9.999078559223084e-9,7,2
26,-9.999078559223904e-9,7,2
10,-9.999078557317521e-9,7,2
24,-9.999081537632322e-9,7,2
25,-9.999079371287492e-9,7,2
23,-9.999080147224674e-9,7,2
49,-9.999078612950387e-9,7,2
5,-9.999078559696526e-9,7,2
31,-9.999077888820848e-9,7,2
43,-9.999078612156899e-9,7,2
39,-9.999078611837842e-9,7,2
34,-9.99907855819094e-9,7,2
44,-9.9990786121524e-9,7,2
17,-9.999078611867282e-9,7,2
37,-9.999078615465784e-9,7,2
47,-9.999078098566763e-9,7,2
9,-9.99907855731853e-9,7,2
12,-9.99907855731687e-9,7,2
20,-9.999078612789037e-9,7,2
6,-9.999078139291495e-9,7,2
14,-9.999078613927211e-9,7,2
7,-9.999078563396961e-9,7,2
8,-9.999078557318178e-9,7,2
19,-9.999078613291212e-9,7,2
4,-9.999078563687751e-9,7,2
22,-9.999076411678318e-9,7,2
11,-9.999078557316833e-9,7,2
35,-9.999078558191098e-9,7,2
13,-9.99907855731404e-9,7,2
15,-9.999078615882693e-9,7,2
16,-9.999078611868041e-9,7,2
40,-9.999078612158937e-9,7,2
46,-9.999078557607527e-9,7,2
21,-9.999078557872877e-9,7,2
38,-9.999078611943741e-9,7,2
45,-9.999078558070494e-9,7,2
36,-9.999078558191103e-9,7,2
48,-9.999078612946916e-9,7,2
18,-9.999078614542485e-9,7,2
30,-9.99907855893059e-9,7,2
3,-9.99907856368247e-9,7,2
32,-9.99916693728672e-9,8,2
29,-9.99916693502431e-9,8,2
1,-9.99916693811449e-9,8,2
2,-9.999166938115974e-9,8,2
41,-9.999166970902075e-9,8,2
27,-9.999166935214099e-9,8,2
42,-9.999166970898771e-9,8,2
33,-9.999166934544635e-9,8,2
28,-9.999166935213917e-9,8,2
26,-9.99916693521445e-9,8,2
10,-9.999166933978043e-9,8,2
24,-9.999168860447773e-9,8,2
25,-9.999167455647374e-9,8,2
23,-9.999167958818216e-9,8,2
49,-9.999166971542581e-9,8,2
5,-9.999166935520275e-9,8,2
31,-9.999166494316388e-9,8,2
43,-9.999166970899637e-9,8,2
39,-9.999166970729504e-9,8,2
34,-9.999166934544572e-9,8,2
44,-9.99916697089672e-9,8,2
17,-9.999166970730968e-9,8,2
37,-9.999166973330136e-9,8,2
47,-9.999166632506508e-9,8,2
9,-9.999166933978696e-9,8,2
12,-9.99916693397762e-9,8,2
20,-9.999166971302414e-9,8,2
6,-9.999166656738448e-9,8,2
14,-9.99916697203471e-9,8,2
7,-9.999166937919234e-9,8,2
8,-9.99916693397847e-9,8,2
19,-9.999166971624875e-9,8,2
4,-9.999166938107752e-9,8,2
22,-9.999165536437575e-9,8,2
11,-9.999166933977596e-9,8,2
35,-9.999166934544676e-9,8,2
13,-9.999166933975786e-9,8,2
15,-9.999166973298144e-9,8,2
16,-9.99916697073146e-9,8,2
40,-9.999166970900958e-9,8,2
46,-9.99916693416609e-9,8,2
21,-9.999166934338047e-9,8,2
38,-9.999166970767073e-9,8,2
45,-9.999166934466185e-9,8,2
36,-9.999166934544678e-9,8,2
48,-9.999166971540331e-9,8,2
18,-9.999166972431676e-9,8,2
30,-9.999166935024279e-9,8,2
3,-9.999166938104327e-9,8,2
32,-9.999143297796348e-9,9,2
29,-9.999143294829192e-9,9,2
1,-9.999143298881771e-9,9,2
2,-9.999143298883717e-9,9,2
41,-9.999143340199132e-9,9,2
27,-9.999143295078034e-9,9,2
42,-9.9991433401948e-9,9,2
33,-9.999143294200409e-9,9,2
28,-9.999143295077799e-9,9,2
26,-9.999143295078495e-9,9,2
10,-9.999143293457759e-9,9,2
24,-9.999145826582256e-9,9,2
25,-9.99914398490602e-9,9,2
23,-9.99914464455545e-9,9,2
49,-9.999143340881731e-9,9,2
5,-9.99914329548008e-9,9,2
31,-9.999142724615889e-9,9,2
43,-9.999143340195939e-9,9,2
39,-9.999143339927972e-9,9,2
34,-9.999143294200327e-9,9,2
44,-9.99914334019211e-9,9,2
17,-9.99914333995145e-9,9,2
37,-9.999143343033678e-9,9,2
47,-9.9991429031149e-9,9,2
9,-9.999143293458616e-9,9,2
12,-9.999143293457207e-9,9,2
20,-9.999143340732647e-9,9,2
6,-9.999142937548727e-9,9,2
14,-9.999143341699617e-9,9,2
7,-9.999143298625742e-9,9,2
8,-9.999143293458318e-9,9,2
19,-9.999143341159229e-9,9,2
4,-9.999143298872935e-9,9,2
22,-9.999141468851442e-9,9,2
11,-9.999143293457175e-9,9,2
35,-9.999143294200463e-9,9,2
13,-9.999143293454801e-9,9,2
15,-9.999143343361397e-9,9,2
16,-9.999143339952097e-9,9,2
40,-9.999143340197669e-9,9,2
46,-9.999143293704299e-9,9,2
21,-9.999143293929846e-9,9,2
38,-9.99914334001525e-9,9,2
45,-9.999143294097841e-9,9,2
36,-9.999143294200465e-9,9,2
48,-9.999143340878781e-9,9,2
18,-9.999143342222419e-9,9,2
30,-9.999143294829148e-9,9,2
3,-9.999143298868445e-9,9,2
32,-9.999082368274995e-9,10,2
29,-9.99908236447545e-9,10,2
1,-9.999082369664727e-9,10,2
2,-9.999082369667216e-9,10,2
41,-9.999082421629844e-9,10,2
27,-9.999082364794044e-9,10,2
42,-9.9990824216243e-9,10,2
33,-9.999082363670572e-9,10,2
28,-9.999082364793743e-9,10,2
26,-9.999082364794636e-9,10,2
10,-9.999082362719994e-9,10,2
24,-9.999085609742665e-9,10,2
25,-9.999083252088748e-9,10,2
23,-9.999084096549338e-9,10,2
49,-9.999082422416033e-9,10,2
5,-9.999082365309344e-9,10,2
31,-9.999081638708597e-9,10,2
43,-9.999082421625753e-9,10,2
39,-9.999082421257548e-9,10,2
34,-9.999082363670468e-9,10,2
44,-9.999082421620856e-9,10,2
17,-9.999082421299647e-9,10,2
37,-9.999082425064271e-9,10,2
47,-9.999081865733534e-9,10,2
9,-9.999082362721093e-9,10,2
12,-9.999082362719286e-9,10,2
20,-9.999082422317785e-9,10,2
6,-9.999081911297918e-9,10,2
14,-9.999082423559747e-9,10,2
7,-9.99908236933692e-9,10,2
8,-9.999082362720709e-9,10,2
19,-9.999082422866117e-9,10,2
4,-9.999082369653416e-9,10,2
22,-9.999080031122071e-9,10,2
11,-9.999082362719247e-9,10,2
35,-9.99908236367064e-9,10,2
13,-9.999082362716206e-9,10,2
15,-9.999082425690525e-9,10,2
16,-9.999082421300472e-9,10,2
40,-9.999082421627971e-9,10,2
46,-9.999082363035617e-9,10,2
21,-9.999082363324462e-9,10,2
38,-9.999082421390547e-9,10,2
45,-9.999082363539535e-9,10,2
36,-9.999082363670645e-9,10,2
48,-9.999082422412256e-9,10,2
18,-9.999082424230496e-9,10,2
30,-9.999082364475397e-9,10,2
3,-9.999082369647668e-9,10,2
32,-9.999142482580774e-9,11,2
29,-9.99914247950535e-9,11,2
1,-9.999142483705842e-9,11,2
2,-9.999142483707859e-9,11,2
41,-9.999142526294947e-9,11,2
27,-9.999142479763288e-9,11,2
42,-9.999142526290457e-9,11,2
33,-9.99914247885356e-9,11,2
28,-9.999142479763043e-9,11,2
26,-9.999142479763764e-9,11,2
10,-9.99914247808372e-9,11,2
24,-9.99914510493135e-9,11,2
25,-9.999143195903578e-9,11,2
23,-9.999143879677064e-9,11,2
49,-9.99914252698014e-9,11,2
5,-9.999142480179899e-9,11,2
31,-9.999141889523403e-9,11,2
43,-9.999142526291635e-9,11,2
39,-9.999142526007567e-9,11,2
34,-9.999142478853475e-9,11,2
44,-9.999142526287669e-9,11,2
17,-9.999142526034964e-9,11,2
37,-9.99914252918328e-9,11,2
47,-9.999142074167323e-9,11,2
9,-9.999142478084609e-9,11,2
12,-9.999142478083145e-9,11,2
20,-9.999142526849101e-9,11,2
6,-9.999142110243404e-9,11,2
14,-9.999142527852223e-9,11,2
7,-9.99914248344046e-9,11,2
8,-9.999142478084298e-9,11,2
19,-9.999142527291744e-9,11,2
4,-9.999142483696684e-9,11,2
22,-9.999140587834406e-9,11,2
11,-9.999142478083113e-9,11,2
35,-9.999142478853614e-9,11,2
13,-9.999142478080653e-9,11,2
15,-9.999142529575184e-9,11,2
16,-9.999142526035632e-9,11,2
40,-9.99914252629343e-9,11,2
46,-9.999142478339273e-9,11,2
21,-9.999142478573044e-9,11,2
38,-9.999142526103396e-9,11,2
45,-9.999142478747182e-9,11,2
36,-9.999142478853617e-9,11,2
48,-9.999142526977083e-9,11,2
18,-9.999142528394347e-9,11,2
30,-9.999142479505306e-9,11,2
3,-9.999142483692028e-9,11,2
32,-9.999209118875219e-9,12,2
29,-9.999209116731231e-9,12,2
1,-9.999209119659705e-9,12,2
2,-9.999209119661112e-9,12,2
41,-9.999209150431335e-9,12,2
27,-9.9992091169111e-9,12,2
42,-9.999209150428204e-9,12,2
33,-9.999209116276593e-9,12,2
28,-9.99920911691093e-9,12,2
26,-9.999209116911434e-9,12,2
10,-9.999209115739556e-9,12,2
24,-9.999210942966769e-9,12,2
25,-9.999209611538646e-9,12,2
23,-9.999210088429229e-9,12,2
49,-9.999209151009986e-9,12,2
5,-9.999209117201136e-9,12,2
31,-9.999208700417605e-9,12,2
43,-9.999209150429026e-9,12,2
39,-9.999209150259763e-9,12,2
34,-9.999209116276533e-9,12,2
44,-9.999209150426258e-9,12,2
17,-9.999209150265039e-9,12,2
37,-9.999209152669287e-9,12,2
47,-9.999208830903626e-9,12,2
9,-9.999209115740176e-9,12,2
12,-9.999209115739156e-9,12,2
20,-9.999209150812212e-9,12,2
6,-9.99920885435643e-9,12,2
14,-9.999209151507292e-9,12,2
7,-9.999209119474658e-9,12,2
8,-9.999209115739961e-9,12,2
19,-9.999209151118426e-9,12,2
4,-9.999209119653316e-9,12,2
22,-9.999207792568374e-9,12,2
11,-9.999209115739134e-9,12,2
35,-9.99920911627663e-9,12,2
13,-9.999209115737417e-9,12,2
15,-9.9992091527053e-9,12,2
16,-9.999209150265504e-9,12,2
40,-9.999209150430278e-9,12,2
46,-9.999209115917782e-9,12,2
21,-9.99920911608073e-9,12,2
38,-9.999209150302188e-9,12,2
45,-9.999209116202173e-9,12,2
36,-9.999209116276633e-9,12,2
48,-9.999209151007852e-9,12,2
18,-9.999209151883798e-9,12,2
30,-9.999209116731201e-9,12,2
3,-9.999209119650072e-9,12,2
32,-9.999184803525138e-9,13,2
29,-9.999184800607731e-9,13,2
1,-9.9991848045924e-9,13,2
2,-9.999184804594312e-9,13,2
41,-9.999184844682161e-9,13,2
27,-9.999184800852415e-9,13,2
42,-9.9991848446779e-9,13,2
33,-9.99918479998943e-9,13,2
28,-9.999184800852183e-9,13,2
26,-9.999184800852868e-9,13,2
10,-9.999184799259146e-9,13,2
24,-9.999187292538163e-9,13,2
25,-9.999185481603886e-9,13,2
23,-9.999186130242217e-9,13,2
49,-9.99918484530292e-9,13,2
5,-9.999184801247622e-9,13,2
31,-9.99918424235101e-9,13,2
43,-9.999184844679018e-9,13,2
39,-9.999184844401236e-9,13,2
34,-9.999184799989351e-9,13,2
44,-9.999184844675256e-9,13,2
17,-9.99918484443123e-9,13,2
37,-9.999184847357113e-9,13,2
47,-9.999184417008878e-9,13,2
9,-9.999184799259988e-9,13,2
12,-9.9991847992586e-9,13,2
20,-9.9991848452094e-9,13,2
6,-9.999184451729492e-9,13,2
14,-9.999184846162169e-9,13,2
7,-9.999184804340652e-9,13,2
8,-9.999184799259692e-9,13,2
19,-9.999184845629964e-9,13,2
4,-9.99918480458371e-9,13,2
22,-9.999183007548259e-9,13,2
11,-9.99918479925857e-9,13,2
35,-9.999184799989482e-9,13,2
13,-9.999184799256234e-9,13,2
15,-9.999184847797419e-9,13,2
16,-9.999184844431866e-9,13,2
40,-9.99918484468072e-9,13,2
46,-9.999184799501569e-9,13,2
21,-9.999184799723328e-9,13,2
38,-9.999184844499189e-9,13,2
45,-9.999184799888518e-9,13,2
36,-9.999184799989487e-9,13,2
48,-9.999184845300022e-9,13,2
18,-9.99918484667681e-9,13,2
30,-9.99918480060769e-9,13,2
3,-9.999184804579297e-9,13,2
32,-9.998767601005727e-9,14,2
29,-9.998767595985803e-9,14,2
1,-9.998767602844013e-9,14,2
2,-9.998767602847314e-9,14,2
41,-9.998767675510563e-9,14,2
27,-9.998767596407413e-9,14,2
42,-9.998767675503218e-9,14,2
33,-9.998767594918956e-9,14,2
28,-9.998767596407015e-9,14,2
26,-9.998767596408196e-9,14,2
10,-9.998767593658279e-9,14,2
24,-9.998771877240556e-9,14,2
25,-9.99876875435742e-9,14,2
23,-9.99876987291622e-9,14,2
49,-9.998767676917888e-9,14,2
5,-9.998767597082803e-9,14,2
31,-9.9987666173001e-9,14,2
43,-9.998767675505145e-9,14,2
39,-9.998767675124379e-9,14,2
34,-9.99876759491882e-9,14,2
44,-9.998767675498658e-9,14,2
17,-9.998767675129666e-9,14,2
37,-9.99876768086608e-9,14,2
47,-9.998766924147064e-9,14,2
9,-9.998767593659734e-9,14,2
12,-9.99876759365734e-9,14,2
20,-9.998767676398973e-9,14,2
6,-9.998766978367426e-9,14,2
14,-9.998767678023078e-9,14,2
7,-9.998767602410372e-9,14,2
8,-9.998767593659227e-9,14,2
19,-9.998767677114188e-9,14,2
4,-9.998767602829032e-9,14,2
22,-9.998764487916756e-9,14,2
11,-9.99876759365729e-9,14,2
35,-9.998767594919047e-9,14,2
13,-9.998767593653263e-9,14,2
15,-9.998767680823802e-9,14,2
16,-9.998767675130758e-9,14,2
40,-9.998767675508082e-9,14,2
46,-9.998767594076213e-9,14,2
21,-9.998767594457549e-9,14,2
38,-9.998767675210717e-9,14,2
45,-9.998767594742312e-9,14,2
36,-9.998767594919054e-9,14,2
48,-9.998767676912886e-9,14,2
18,-9.998767678902622e-9,14,2
30,-9.998767595985733e-9,14,2
3,-9.998767602821422e-9,14,2
32,-9.999137889907597e-9,15,2
29,-9.999137886966097e-9,15,2
1,-9.999137890983678e-9,15,2
2,-9.999137890985606e-9,15,2
41,-9.999137932095127e-9,15,2
27,-9.999137887212802e-9,15,2
42,-9.999137932090833e-9,15,2
33,-9.999137886342684e-9,15,2
28,-9.999137887212569e-9,15,2
26,-9.99913788721326e-9,15,2
10,-9.99913788560636e-9,15,2
24,-9.999140396376698e-9,15,2
25,-9.999138570466608e-9,15,2
23,-9.999139224469204e-9,15,2
49,-9.999137932785883e-9,15,2
5,-9.999137887611265e-9,15,2
31,-9.999137320965065e-9,15,2
43,-9.999137932091959e-9,15,2
39,-9.999137931830325e-9,15,2
34,-9.999137886342603e-9,15,2
44,-9.999137932088167e-9,15,2
17,-9.999137931851681e-9,15,2
37,-9.999137934936385e-9,15,2
47,-9.999137498172435e-9,15,2
9,-9.99913788560721e-9,15,2
12,-9.99913788560581e-9,15,2
20,-9.999137932623264e-9,15,2
6,-9.999137532075114e-9,15,2
14,-9.999137933581265e-9,15,2
7,-9.999137890729851e-9,15,2
8,-9.999137885606913e-9,15,2
19,-9.99913793304582e-9,15,2
4,-9.999137890974919e-9,15,2
22,-9.999136075950453e-9,15,2
11,-9.999137885605779e-9,15,2
35,-9.999137886342737e-9,15,2
13,-9.999137885603426e-9,15,2
15,-9.9991379352282e-9,15,2
16,-9.99913793185232e-9,15,2
40,-9.999137932093676e-9,15,2
46,-9.999137885850786e-9,15,2
21,-9.999137886074378e-9,15,2
38,-9.999137931913449e-9,15,2
45,-9.999137886240934e-9,15,2
36,-9.99913788634274e-9,15,2
48,-9.99913793278296e-9,15,2
18,-9.99913793409933e-9,15,2
30,-9.999137886966056e-9,15,2
3,-9.999137890970468e-9,15,2
32,-9.999192969373609e-9,16,2
29,-9.999192966673956e-9,16,2
1,-9.99919297036126e-9,16,2
2,-9.99919297036303e-9,16,2
41,-9.999193007806262e-9,16,2
27,-9.999192966900392e-9,16,2
42,-9.999193007802321e-9,16,2
33,-9.999192966101733e-9,16,2
28,-9.999192966900179e-9,16,2
26,-9.999192966900812e-9,16,2
10,-9.99919296542585e-9,16,2
24,-9.99919527128881e-9,16,2
25,-9.999193595349636e-9,16,2
23,-9.999194195635924e-9,16,2
49,-9.99919300841316e-9,16,2
5,-9.999192967265983e-9,16,2
31,-9.999192448475524e-9,16,2
43,-9.999193007803355e-9,16,2
39,-9.999193007555558e-9,16,2
34,-9.999192966101656e-9,16,2
44,-9.999193007799874e-9,16,2
17,-9.99919300757887e-9,16,2
37,-9.999193010353717e-9,16,2
47,-9.999192610663414e-9,16,2
9,-9.99919296542663e-9,16,2
12,-9.999192965425345e-9,16,2
20,-9.9991930082924e-9,16,2
6,-9.999192642246112e-9,16,2
14,-9.9991930091727e-9,16,2
7,-9.99919297012829e-9,16,2
8,-9.999192965426358e-9,16,2
19,-9.999193008680818e-9,16,2
4,-9.999192970353218e-9,16,2
22,-9.999191305719807e-9,16,2
11,-9.999192965425317e-9,16,2
35,-9.999192966101779e-9,16,2
13,-9.999192965423157e-9,16,2
15,-9.999193010684895e-9,16,2
16,-9.999193007579457e-9,16,2
40,-9.99919300780493e-9,16,2
46,-9.999192965650198e-9,16,2
21,-9.9991929658554e-9,16,2
38,-9.99919300763836e-9,16,2
45,-9.999192966008274e-9,16,2
36,-9.999192966101782e-9,16,2
48,-9.999193008410476e-9,16,2
18,-9.999193009648469e-9,16,2
30,-9.99919296667392e-9,16,2
3,-9.999192970349133e-9,16,2
32,-9.99859408909018e-9,17,2
29,-9.99859409059767e-9,17,2
1,-9.99859408854414e-9,17,2
2,-9.998594088543172e-9,17,2
41,-9.998594090108806e-9,17,2
27,-9.998594090472901e-9,17,2
42,-9.998594090110957e-9,17,2
33,-9.998594090908766e-9,17,2
28,-9.998594090473019e-9,17,2
26,-9.998594090472673e-9,17,2
10,-9.99859409127444e-9,17,2
24,-9.998592720106762e-9,17,2
25,-9.998593643970501e-9,17,2
23,-9.99859331274181e-9,17,2
49,-9.998594091859418e-9,17,2
5,-9.998594090255396e-9,17,2
31,-9.998594276795144e-9,17,2
43,-9.998594090110394e-9,17,2
39,-9.99859409084371e-9,17,2
34,-9.998594090908806e-9,17,2
44,-9.998594090112294e-9,17,2
17,-9.998594090544982e-9,17,2
37,-9.998594093331694e-9,17,2
47,-9.998594221942396e-9,17,2
9,-9.998594091274013e-9,17,2
12,-9.998594091274716e-9,17,2
20,-9.99859408972543e-9,17,2
6,-9.998594169875864e-9,17,2
14,-9.998594089147422e-9,17,2
7,-9.99859408867287e-9,17,2
8,-9.998594091274161e-9,17,2
19,-9.998594089460048e-9,17,2
4,-9.998594088548535e-9,17,2
22,-9.99859490734189e-9,17,2
11,-9.99859409127473e-9,17,2
35,-9.998594090908738e-9,17,2
13,-9.998594091275912e-9,17,2
15,-9.998594088239802e-9,17,2
16,-9.998594090544661e-9,17,2
40,-9.998594090109534e-9,17,2
46,-9.998594091151448e-9,17,2
21,-9.998594091036137e-9,17,2
38,-9.998594090293135e-9,17,2
45,-9.998594090952266e-9,17,2
36,-9.998594090908736e-9,17,2
48,-9.998594091860884e-9,17,2
18,-9.998594088852251e-9,17,2
30,-9.99859409059769e-9,17,2
3,-9.998594088550769e-9,17,2
32,-9.999123630701062e-9,18,2
29,-9.999123627884479e-9,18,2
1,-9.999123631731405e-9,18,2
2,-9.999123631733251e-9,18,2
41,-9.999123671625303e-9,18,2
27,-9.999123628120695e-9,18,2
42,-9.99912367162119e-9,18,2
33,-9.9991236272876e-9,18,2
28,-9.99912362812047e-9,18,2
26,-9.999123628121132e-9,18,2
10,-9.999123626582629e-9,18,2
24,-9.999126028132895e-9,18,2
25,-9.999124279899573e-9,18,2
23,-9.999124906079927e-9,18,2
49,-9.999123672336497e-9,18,2
5,-9.99912362850233e-9,18,2
31,-9.999123083553681e-9,18,2
43,-9.99912367162227e-9,18,2
39,-9.99912367138588e-9,18,2
34,-9.999123627287523e-9,18,2
44,-9.999123671618638e-9,18,2
17,-9.999123671399503e-9,18,2
37,-9.999123674456594e-9,18,2
47,-9.99912325407304e-9,18,2
9,-9.999123626583443e-9,18,2
12,-9.999123626582103e-9,18,2
20,-9.999123672128371e-9,18,2
6,-9.999123285682798e-9,18,2
14,-9.999123673043696e-9,18,2
7,-9.99912363148837e-9,18,2
8,-9.999123626583158e-9,18,2
19,-9.999123672531857e-9,18,2
4,-9.999123631723017e-9,18,2
22,-9.999121891503843e-9,18,2
11,-9.999123626582073e-9,18,2
35,-9.999123627287652e-9,18,2
13,-9.99912362657982e-9,18,2
15,-9.99912367461937e-9,18,2
16,-9.999123671400115e-9,18,2
40,-9.999123671623914e-9,18,2
46,-9.99912362681666e-9,18,2
21,-9.999123627030759e-9,18,2
38,-9.999123671453478e-9,18,2
45,-9.999123627190233e-9,18,2
36,-9.999123627287655e-9,18,2
48,-9.999123672333697e-9,18,2
18,-9.999123673539161e-9,18,2
30,-9.99912362788444e-9,18,2
3,-9.999123631718756e-9,18,2
32,-9.99905704712348e-9,19,2
29,-9.999057046211063e-9,19,2
1,-9.99905704745822e-9,19,2
2,-9.99905704745882e-9,19,2
41,-9.999057066503125e-9,19,2
27,-9.999057046287881e-9,19,2
42,-9.999057066501785e-9,19,2
33,-9.99905704601621e-9,19,2
28,-9.99905704628781e-9,19,2
26,-9.999057046288025e-9,19,2
10,-9.999057045785755e-9,19,2
24,-9.999057799685897e-9,19,2
25,-9.999057230928193e-9,19,2
23,-9.999057434601846e-9,19,2
49,-9.999057067304792e-9,19,2
5,-9.999057046409141e-9,19,2
31,-9.999056841800067e-9,19,2
43,-9.999057066502136e-9,19,2
39,-9.999057066588179e-9,19,2
34,-9.999057046016184e-9,19,2
44,-9.999057066500953e-9,19,2
17,-9.999057066514403e-9,19,2
37,-9.999057068690262e-9,19,2
47,-9.999056906846682e-9,19,2
9,-9.999057045786021e-9,19,2
12,-9.999057045785584e-9,19,2
20,-9.999057066635485e-9,19,2
6,-9.999056907545344e-9,19,2
14,-9.999057066908409e-9,19,2
7,-9.999057047379249e-9,19,2
8,-9.999057045785928e-9,19,2
19,-9.99905706675296e-9,19,2
4,-9.999057047455485e-9,19,2
22,-9.999056454068524e-9,19,2
11,-9.999057045785576e-9,19,2
35,-9.999057046016227e-9,19,2
13,-9.999057045784841e-9,19,2
15,-9.999057067401817e-9,19,2
16,-9.999057066514603e-9,19,2
40,-9.999057066502672e-9,19,2
46,-9.999057045861974e-9,19,2
21,-9.999057045931203e-9,19,2
38,-9.999057066472212e-9,19,2
45,-9.99905704598313e-9,19,2
36,-9.999057046016227e-9,19,2
48,-9.999057067303879e-9,19,2
18,-9.99905706706106e-9,19,2
30,-9.999057046211051e-9,19,2
3,-9.999057047454097e-9,19,2
32,-9.999114735879003e-9,20,2
29,-9.999114732395421e-9,20,2
1,-9.999114737153232e-9,20,2
2,-9.999114737155516e-9,20,2
41,-9.999114784914189e-9,20,2
27,-9.999114732687542e-9,20,2
42,-9.999114784909105e-9,20,2
33,-9.999114731657371e-9,20,2
28,-9.999114732687265e-9,20,2
26,-9.999114732688084e-9,20,2
10,-9.999114730785698e-9,20,2
24,-9.999117707609514e-9,20,2
25,-9.999115545779202e-9,20,2
23,-9.999116320100376e-9,20,2
49,-9.999114785645762e-9,20,2
5,-9.999114733159827e-9,20,2
31,-9.999114066403577e-9,20,2
43,-9.999114784910438e-9,20,2
39,-9.99911478457594e-9,20,2
34,-9.999114731657275e-9,20,2
44,-9.999114784905947e-9,20,2
17,-9.999114784613067e-9,20,2
37,-9.999114788086896e-9,20,2
47,-9.999114274750734e-9,20,2
9,-9.999114730786704e-9,20,2
12,-9.999114730785046e-9,20,2
20,-9.999114785544323e-9,20,2
6,-9.999114316352104e-9,20,2
14,-9.999114786682515e-9,20,2
7,-9.999114736852669e-9,20,2
8,-9.999114730786353e-9,20,2
19,-9.999114786046786e-9,20,2
4,-9.99911473714286e-9,20,2
22,-9.999112592340367e-9,20,2
11,-9.999114730785011e-9,20,2
35,-9.999114731657434e-9,20,2
13,-9.999114730782224e-9,20,2
15,-9.999114788635673e-9,20,2
16,-9.999114784613824e-9,20,2
40,-9.99911478491247e-9,20,2
46,-9.999114731075102e-9,20,2
21,-9.999114731339919e-9,20,2
38,-9.999114784695267e-9,20,2
45,-9.999114731537124e-9,20,2
36,-9.999114731657437e-9,20,2
48,-9.999114785642298e-9,20,2
18,-9.999114787297291e-9,20,2
30,-9.999114732395373e-9,20,2
3,-9.999114737137591e-9,20,2
32,-9.999218557827129e-9,21,2
29,-9.999218555330704e-9,21,2
1,-9.999218558740488e-9,21,2
2,-9.999218558742126e-9,21,2
41,-9.999218593451407e-9,21,2
27,-9.999218555540113e-9,21,2
42,-9.999218593447763e-9,21,2
33,-9.999218554801463e-9,21,2
28,-9.999218555539915e-9,21,2
26,-9.999218555540502e-9,21,2
10,-9.99921855417633e-9,21,2
24,-9.999220686386974e-9,21,2
25,-9.999219136398898e-9,21,2
23,-9.999219691572449e-9,21,2
49,-9.999218594020362e-9,21,2
5,-9.999218555878037e-9,21,2
31,-9.999218075714706e-9,21,2
43,-9.999218593448719e-9,21,2
39,-9.9992185932218e-9,21,2
34,-9.999218554801395e-9,21,2
44,-9.9992185934455e-9,21,2
17,-9.999218593242301e-9,21,2
37,-9.99921859582426e-9,21,2
47,-9.999218225841333e-9,21,2
9,-9.999218554177052e-9,21,2
12,-9.999218554175864e-9,21,2
20,-9.999218593900515e-9,21,2
6,-9.999218254923038e-9,21,2
14,-9.999218594714181e-9,21,2
7,-9.999218558525043e-9,21,2
8,-9.9992185541768e-9,21,2
19,-9.999218594259492e-9,21,2
4,-9.999218558733052e-9,21,2
22,-9.999217018839398e-9,21,2
11,-9.999218554175838e-9,21,2
35,-9.999218554801507e-9,21,2
13,-9.999218554173841e-9,21,2
15,-9.99921859611221e-9,21,2
16,-9.999218593242845e-9,21,2
40,-9.999218593450176e-9,21,2
46,-9.999218554383816e-9,21,2
21,-9.999218554573563e-9,21,2
38,-9.999218593296488e-9,21,2
45,-9.999218554714946e-9,21,2
36,-9.99921855480151e-9,21,2
48,-9.999218594017879e-9,21,2
18,-9.999218595153985e-9,21,2
30,-9.999218555330671e-9,21,2
3,-9.999218558729273e-9,21,2
32,-9.999172083998098e-9,22,2
29,-9.999172086605288e-9,22,2
1,-9.999172083046529e-9,22,2
2,-9.999172083044827e-9,22,2
41,-9.999172059453081e-9,22,2
27,-9.99917208638728e-9,22,2
42,-9.999172059456867e-9,22,2
33,-9.9991720871545e-9,22,2
28,-9.999172086387487e-9,22,2
26,-9.999172086386876e-9,22,2
10,-9.99917208780247e-9,22,2
24,-9.999169807786045e-9,22,2
25,-9.9991714239854e-9,22,2
23,-9.9991708448404e-9,22,2
49,-9.999172060038269e-9,22,2
5,-9.99917208602877e-9,22,2
31,-9.999172530466132e-9,22,2
43,-9.999172059455874e-9,22,2
39,-9.999172060028081e-9,22,2
34,-9.999172087154571e-9,22,2
44,-9.999172059459216e-9,22,2
17,-9.999172059845377e-9,22,2
37,-9.999172059598235e-9,22,2
47,-9.999172393359266e-9,22,2
9,-9.999172087801719e-9,22,2
12,-9.999172087802955e-9,22,2
20,-9.999172058921479e-9,22,2
6,-9.999172343520203e-9,22,2
14,-9.99917205802412e-9,22,2
7,-9.999172083270955e-9,22,2
8,-9.99917208780198e-9,22,2
19,-9.999172058519747e-9,22,2
4,-9.999172083054255e-9,22,2
22,-9.999173632969462e-9,22,2
11,-9.99917208780298e-9,22,2
35,-9.999172087154454e-9,22,2
13,-9.999172087805056e-9,22,2
15,-9.99917205653093e-9,22,2
16,-9.999172059844813e-9,22,2
40,-9.99917205945436e-9,22,2
46,-9.999172087586727e-9,22,2
21,-9.99917208738825e-9,22,2
38,-9.99917205966573e-9,22,2
45,-9.999172087241215e-9,22,2
36,-9.99917208715445e-9,22,2
48,-9.999172060040848e-9,22,2
18,-9.999172057549228e-9,22,2
30,-9.999172086605321e-9,22,2
3,-9.99917208305818e-9,22,2
32,-9.999102265182221e-9,23,2
29,-9.999102261874783e-9,23,2
1,-9.999102266392066e-9,23,2
2,-9.999102266394233e-9,23,2
41,-9.999102312325527e-9,23,2
27,-9.999102262152145e-9,23,2
42,-9.9991023123207e-9,23,2
33,-9.999102261173982e-9,23,2
28,-9.999102262151883e-9,23,2
26,-9.999102262152659e-9,23,2
10,-9.999102260346287e-9,23,2
24,-9.999105084229646e-9,23,2
25,-9.999103031547264e-9,23,2
23,-9.99910376677441e-9,23,2
49,-9.999102313075135e-9,23,2
5,-9.999102262600442e-9,23,2
31,-9.999101626862553e-9,23,2
43,-9.999102312321967e-9,23,2
39,-9.99910231202004e-9,23,2
34,-9.99910226117389e-9,23,2
44,-9.999102312317702e-9,23,2
17,-9.999102312047754e-9,23,2
37,-9.99910231546012e-9,23,2
47,-9.999101825625184e-9,23,2
9,-9.999102260347245e-9,23,2
12,-9.99910226034567e-9,23,2
20,-9.99910231292085e-9,23,2
6,-9.999101864191646e-9,23,2
14,-9.999102313999218e-9,23,2
7,-9.999102266106688e-9,23,2
8,-9.99910226034691e-9,23,2
19,-9.99910231339663e-9,23,2
4,-9.999102266382215e-9,23,2
22,-9.999100227222042e-9,23,2
11,-9.999102260345637e-9,23,2
35,-9.999102261174042e-9,23,2
13,-9.99910226034299e-9,23,2
15,-9.999102315851997e-9,23,2
16,-9.999102312048472e-9,23,2
40,-9.999102312323896e-9,23,2
46,-9.999102260621078e-9,23,2
21,-9.999102260872498e-9,23,2
38,-9.999102312120056e-9,23,2
45,-9.999102261059745e-9,23,2
36,-9.999102261174045e-9,23,2
48,-9.999102313071846e-9,23,2
18,-9.999102314582169e-9,23,2
30,-9.999102261874736e-9,23,2
3,-9.999102266377213e-9,23,2
32,-9.999136214727828e-9,24,2
29,-9.99913621169337e-9,24,2
1,-9.999136215837886e-9,24,2
2,-9.999136215839876e-9,24,2
41,-9.999136258051325e-9,24,2
27,-9.999136211947862e-9,24,2
42,-9.999136258046896e-9,24,2
33,-9.999136211050302e-9,24,2
28,-9.999136211947621e-9,24,2
26,-9.999136211948334e-9,24,2
10,-9.999136210290773e-9,24,2
24,-9.999138801141443e-9,24,2
25,-9.999136917635747e-9,24,2
23,-9.999137592267724e-9,24,2
49,-9.99913625874549e-9,24,2
5,-9.999136212358991e-9,24,2
31,-9.999135628720833e-9,24,2
43,-9.999136258048057e-9,24,2
39,-9.999136257772904e-9,24,2
34,-9.99913621105022e-9,24,2
44,-9.999136258044143e-9,24,2
17,-9.999136257797458e-9,24,2
37,-9.999136260941446e-9,24,2
47,-9.999135811206424e-9,24,2
9,-9.999136210291652e-9,24,2
12,-9.999136210290207e-9,24,2
20,-9.999136258597143e-9,24,2
6,-9.999135846489988e-9,24,2
14,-9.999136259586193e-9,24,2
7,-9.999136215576045e-9,24,2
8,-9.999136210291346e-9,24,2
19,-9.999136259033484e-9,24,2
4,-9.99913621582885e-9,24,2
22,-9.99913434443439e-9,24,2
11,-9.999136210290176e-9,24,2
35,-9.999136211050357e-9,24,2
13,-9.999136210287747e-9,24,2
15,-9.999136261285745e-9,24,2
16,-9.999136257798118e-9,24,2
40,-9.999136258049828e-9,24,2
46,-9.999136210542913e-9,24,2
21,-9.999136210773574e-9,24,2
38,-9.999136257863103e-9,24,2
45,-9.999136210945386e-9,24,2
36,-9.999136211050362e-9,24,2
48,-9.999136258742472e-9,24,2
18,-9.999136260120888e-9,24,2
30,-9.999136211693327e-9,24,2
3,-9.999136215824259e-9,24,2
32,0.054000009133654,1,3
29,1.7945602808193977,1,3
1,0.045300009137962796,1,3
2,0.045300009137962796,1,3
41,-9.826484330490387e-9,1,3
27,1.3005000099528878,1,3
42,-9.826484330490387e-9,1,3
33,0.7722000085250528,1,3
28,1.3005000099528878,1,3
26,1.3005000099528878,1,3
10,0.279200009004905,1,3
24,0.014000009969409859,1,3
25,1.3350000133194098,1,3
23,1.5480000154494098,1,3
49,-9.844148947013879e-9,1,3
5,0.09070000911499347,1,3
31,0.92400000996941,1,3
43,-9.826484330490387e-9,1,3
39,-9.831900384467124e-9,1,3
34,0.7722000085250528,1,3
44,-9.826484330490387e-9,1,3
17,-9.82933192741258e-9,1,3
37,-9.861409326521642e-9,1,3
47,1.1383000013720643,1,3
9,0.279200009004905,1,3
12,0.279200009004905,1,3
20,-9.825429730491259e-9,1,3
6,0.86500000996941,1,3
14,-9.824617581484552e-9,1,3
7,0.04700000913712422,1,3
8,0.279200009004905,1,3
19,-9.824973824571564e-9,1,3
4,0.045300009137962796,1,3
22,0.6760000099694099,1,3
11,0.279200009004905,1,3
35,0.7722000085250528,1,3
13,0.279200009004905,1,3
15,-9.824054831820624e-9,1,3
16,-9.82933192741258e-9,1,3
40,-9.826484330490387e-9,1,3
46,0.2660000090134982,1,3
21,0.1800000090660445,1,3
38,-9.8273287672536e-9,1,3
45,0.17500000906892785,1,3
36,0.7722000085250528,1,3
48,-9.844148947013879e-9,1,3
18,-9.82436223303482e-9,1,3
30,1.7945602808212244,1,3
3,0.045300009137962796,1,3
32,0.054000008776399266,2,3
29,1.2863688576068226,2,3
1,0.045300008784976815,2,3
2,0.045300008784976815,2,3
41,-9.836070449746027e-9,2,3
27,1.2863687482483692,2,3
42,-9.836070449746027e-9,2,3
33,0.7722000070672524,2,3
28,1.286368748260347,2,3
26,1.286368748224441,2,3
10,0.2792000085028057,2,3
24,0.014000009969091213,2,3
25,1.3350000133190911,2,3
23,1.5480000154490912,2,3
49,-9.85192634659696e-9,2,3
5,0.0907000087388419,2,3
31,0.9240000099690913,2,3
43,-9.836070449746027e-9,2,3
39,-9.840912949862812e-9,2,3
34,0.7722000070672524,2,3
44,-9.836070449746027e-9,2,3
17,-9.838614405442682e-9,2,3
37,-9.867593616000058e-9,2,3
47,2.276600012739237,2,3
9,0.2792000085028057,2,3
12,0.2792000085028057,2,3
20,-9.835129472636983e-9,2,3
6,0.8650000099690912,2,3
14,-9.834405255227601e-9,2,3
7,0.047000008783310204,2,3
8,0.2792000085028057,2,3
19,-9.834722881689412e-9,2,3
4,0.045300008784976815,2,3
22,0.6760000099690912,2,3
11,0.2792000085028057,2,3
35,0.7722000070672524,2,3
13,0.2792000085028057,2,3
15,-9.833903654135839e-9,2,3
16,-9.838614405442682e-9,2,3
40,-9.836070449746027e-9,2,3
46,0.26600000852217415,2,3
21,0.18000000863704815,2,3
38,-9.836824362357695e-9,2,3
45,0.17500000864318,2,3
36,0.7722000070672524,2,3
48,-9.85192634659696e-9,2,3
18,-9.834177630771743e-9,2,3
30,1.286368857608126,2,3
3,0.045300008784976815,2,3
32,0.054000008448691475,3,3
29,1.0260358105447465,3,3
1,0.045300008462452974,3,3
2,0.045300008462452974,3,3
41,-9.840582178365094e-9,3,3
27,1.0260358038759714,3,3
42,-9.840582178365094e-9,3,3
33,0.7722000040594375,3,3
28,1.0260358038855082,3,3
26,1.026035803857049,3,3
10,0.27920000798091166,3,3
24,0.014000009968925392,3,3
25,1.3350000133189253,3,3
23,1.5480000154489253,3,3
49,-9.855617326841954e-9,3,3
5,0.09070000838782238,3,3
31,0.9240000099689255,3,3
43,-9.840582178365094e-9,3,3
39,-9.845165518808004e-9,3,3
34,0.7722000040594375,3,3
44,-9.840582178365094e-9,3,3
17,-9.842989057702206e-9,3,3
37,-9.870552656559345e-9,3,3
47,3.4149000240984004,3,3
9,0.27920000798091166,3,3
12,0.27920000798091166,3,3
20,-9.839692424873583e-9,3,3
6,0.8650000099689255,3,3
14,-9.83900782280673e-9,3,3
7,0.047000008459783166,3,3
8,0.27920000798091166,3,3
19,-9.839308054328053e-9,3,3
4,0.04530000846245297,3,3
22,0.6760000099689254,3,3
11,0.27920000798091166,3,3
35,0.7722000040594375,3,3
13,0.27920000798091166,3,3
15,-9.838533757298877e-9,3,3
16,-9.842989057702206e-9,3,3
40,-9.840582178365094e-9,3,3
46,0.2660000080159784,3,3
21,0.18000000821765524,3,3
38,-9.84129525339522e-9,3,3
45,0.17500000822812686,3,3
36,0.7722000040594375,3,3
48,-9.855617326841954e-9,3,3
18,-9.838792683996604e-9,3,3
30,1.0260358105457845,3,3
3,0.04530000846245297,3,3
32,0.054000007935409204,4,3
29,0.7843759368273192,4,3
1,0.045300007959712466,4,3
2,0.045300007959712466,4,3
41,-9.844553561082178e-9,4,3
27,0.7843759333941094,4,3
42,-9.844553561082178e-9,4,3
33,0.7721998861561182,4,3
28,0.7843759334013731,4,3
26,0.7843759333797343,4,3
10,0.2792000070150449,4,3
24,0.014000009968769865,4,3
25,1.3350000133187698,4,3
23,1.5480000154487699,4,3
49,-9.858882601615487e-9,4,3
5,0.09070000782617879,4,3
31,0.92400000996877,4,3
43,-9.844553561082178e-9,4,3
39,-9.848914510962818e-9,4,3
34,0.772199886156118,4,3
44,-9.844553561082178e-9,4,3
17,-9.846842875837224e-9,4,3
37,-9.87318348809751e-9,4,3
47,4.553200035433544,4,3
9,0.2792000070150449,4,3
12,0.2792000070150449,4,3
20,-9.84370770371869e-9,4,3
6,0.8650000099687699,4,3
14,-9.843057036671447e-9,4,3
7,0.04700000795500863,4,3
8,0.2792000070150449,4,3
19,-9.843342368893364e-9,4,3
4,0.045300007959712466,4,3
22,0.6760000099687699,4,3
11,0.2792000070150449,4,3
35,0.7721998861561183,4,3
13,0.2792000070150449,4,3
15,-9.842606551661872e-9,4,3
16,-9.846842875837224e-9,4,3
40,-9.844553561082178e-9,4,3
46,0.26600000709105426,4,3
21,0.18000000750498424,4,3
38,-9.845231626255953e-9,4,3
45,0.17500000752545614,4,3
36,0.7721998861561183,4,3
48,-9.858882601615487e-9,4,3
18,-9.842852590821012e-9,4,3
30,0.7843759368281101,4,3
3,0.045300007959712466,4,3
32,0.05400000794763434,5,3
29,0.7887264988468984,5,3
1,0.04530000797165231,5,3
2,0.04530000797165231,5,3
41,-9.844483814763335e-9,5,3
27,0.7887264953798966,5,3
42,-9.844483814763335e-9,5,3
33,0.7721999187574046,5,3
28,0.7887264953872085,5,3
26,0.7887264953654388,5,3
10,0.2792000070405318,5,3
24,0.01400000996877268,5,3
25,1.3350000133187727,5,3
23,1.5480000154487727,5,3
49,-9.858825123450616e-9,5,3
5,0.09070000783972748,5,3
31,0.9240000099687727,5,3
43,-9.844483814763335e-9,5,3
39,-9.848848623955952e-9,5,3
34,0.7721999187574043,5,3
44,-9.844483814763335e-9,5,3
17,-9.846775169196682e-9,5,3
37,-9.87313707127066e-9,5,3
47,4.5532005249617935,5,3
9,0.2792000070405318,5,3
12,0.2792000070405318,5,3
20,-9.843637196118412e-9,5,3
6,0.8650000099687727,5,3
14,-9.842985940649313e-9,5,3
7,0.04700000796700343,5,3
8,0.2792000070405318,5,3
19,-9.843271531208679e-9,5,3
4,0.04530000797165231,5,3
22,0.6760000099687726,5,3
11,0.2792000070405318,5,3
35,0.7721999187574047,5,3
13,0.2792000070405318,5,3
15,-9.842535046816644e-9,5,3
16,-9.846775169196682e-9,5,3
40,-9.844483814763335e-9,5,3
46,0.2660000071152649,5,3
21,0.1800000075228161,5,3
38,-9.845162487219224e-9,5,3
45,0.1750000075429976,5,3
36,0.7721999187574047,5,3
48,-9.858825123450616e-9,5,3
18,-9.84278130940597e-9,5,3
30,0.7887264988476995,5,3
3,0.04530000797165231,5,3
32,0.054000008407617414,6,3
29,1.0009630280972184,6,3
1,0.045300008422113874,6,3
2,0.045300008422113874,6,3
41,-9.841003628469184e-9,6,3
27,1.000963021975779,6,3
42,-9.841003628469184e-9,6,3
33,0.7722000034083426,6,3
28,1.0009630219850671,6,3
26,1.0009630219573242,6,3
10,0.27920000791077204,6,3
24,0.014000009968909329,6,3
25,1.3350000133189093,6,3
23,1.5480000154489093,6,3
49,-9.855963115607309e-9,6,3
5,0.09070000834341568,6,3
31,0.9240000099689094,6,3
43,-9.841003628469184e-9,6,3
39,-9.8455631137051e-9,6,3
34,0.7722000034083426,6,3
44,-9.841003628469184e-9,6,3
17,-9.843397894143254e-9,6,3
37,-9.8708306756455e-9,6,3
47,3.4149005136266433,6,3
9,0.27920000791077204,6,3
12,0.27920000791077204,6,3
20,-9.840118586270045e-9,6,3
6,0.8650000099689094,6,3
14,-9.839437626984938e-9,6,3
7,0.04700000841930202,6,3
8,0.27920000791077204,6,3
19,-9.839736259065178e-9,6,3
4,0.045300008422113874,6,3
22,0.6760000099689093,6,3
11,0.27920000791077204,6,3
35,0.7722000034083426,6,3
13,0.27920000791077204,6,3
15,-9.838966093050317e-9,6,3
16,-9.843397894143254e-9,6,3
40,-9.841003628469184e-9,6,3
46,0.2660000079482948,6,3
21,0.1800000081632212,6,3
38,-9.841712946582899e-9,6,3
45,0.17500000817434022,6,3
36,0.7722000034083426,6,3
48,-9.855963115607309e-9,6,3
18,-9.839223636126994e-9,6,3
30,1.0009630280982236,6,3
3,0.045300008422113874,6,3
32,0.054000008758415693,7,3
29,1.268518766967012,7,3
1,0.04530000876724632,7,3
2,0.04530000876724632,7,3
41,-9.836387941559432e-9,7,3
27,1.2685187173207304,7,3
42,-9.836387941559432e-9,7,3
33,0.7722000069617763,7,3
28,1.2685187173325396,7,3
26,1.2685187172971424,7,3
10,0.2792000084757921,7,3
24,0.014000009969079899,7,3
25,1.3350000133190798,7,3
23,1.5480000154490798,7,3
49,-9.852185439181698e-9,7,3
5,0.09070000871972879,7,3
31,0.92400000996908,7,3
43,-9.836387941559432e-9,7,3
39,-9.841211978335258e-9,7,3
34,0.7722000069617763,7,3
44,-9.836387941559432e-9,7,3
17,-9.838922128913246e-9,7,3
37,-9.86780081977328e-9,7,3
47,2.2766005022674873,7,3
9,0.2792000084757921,7,3
12,0.2792000084757921,7,3
20,-9.835450616229646e-9,7,3
6,0.86500000996908,7,3
14,-9.834729223583367e-9,7,3
7,0.04700000876553068,7,3
8,0.2792000084757921,7,3
19,-9.83504560964392e-9,7,3
4,0.04530000876724632,7,3
22,0.6760000099690799,7,3
11,0.2792000084757921,7,3
35,0.7722000069617763,7,3
13,0.2792000084757921,7,3
15,-9.8342295861901e-9,7,3
16,-9.838922128913246e-9,7,3
40,-9.836387941559432e-9,7,3
46,0.2660000084958611,7,3
21,0.18000000861469775,7,3
38,-9.837138943396276e-9,7,3
45,0.1750000086210319,7,3
36,0.7722000069617763,7,3
48,-9.852185439181698e-9,7,3
18,-9.834502489511676e-9,7,3
30,1.2685187669682894,7,3
3,0.04530000876724632,7,3
32,0.05400000913514566,8,3
29,1.7975623271709096,8,3
1,0.04530000913943967,8,3
2,0.04530000913943967,8,3
41,-9.826424370107083e-9,8,3
27,1.3005000099713213,8,3
42,-9.826424370107083e-9,8,3
33,0.7722000085293711,8,3
28,1.3005000099713213,8,3
26,1.3005000099713213,8,3
10,0.2792000090068724,8,3
24,0.014000009969411722,8,3
25,1.3350000133194118,8,3
23,1.5480000154494118,8,3
49,-9.844100575330874e-9,8,3
5,0.09070000911655003,8,3
31,0.9240000099694118,8,3
43,-9.826424370107083e-9,8,3
39,-9.831844109434458e-9,8,3
34,0.7722000085293711,8,3
44,-9.826424370107083e-9,8,3
17,-9.829273919251776e-9,8,3
37,-9.861371077105119e-9,8,3
47,1.1383004909003214,8,3
9,0.2792000090068724,8,3
12,0.2792000090068724,8,3
20,-9.82536903890598e-9,8,3
6,0.8650000099694117,8,3
14,-9.824556323780534e-9,8,3
7,0.047000009138603964,8,3
8,0.2792000090068724,8,3
19,-9.824912815513912e-9,8,3
4,0.04530000913943967,8,3
22,0.6760000099694117,8,3
11,0.2792000090068724,8,3
35,0.7722000085293711,8,3
13,0.2792000090068724,8,3
15,-9.82399318030156e-9,8,3
16,-9.829273919251776e-9,8,3
40,-9.826424370107083e-9,8,3
46,0.26600000901543186,8,3
21,0.18000000906777783,8,3
38,-9.827269389160186e-9,8,3
45,0.1750000090706505,8,3
36,0.7722000085293711,8,3
48,-9.844100575330874e-9,8,3
18,-9.824300796791208e-9,8,3
30,1.7975623271727443,8,3
3,0.04530000913943967,8,3
32,-9.990485292617808e-9,9,3
29,-9.990485292616154e-9,9,3
1,-9.990485292618129e-9,9,3
2,-9.990485292618129e-9,9,3
41,-9.991075707396673e-9,9,3
27,-9.990485292616203e-9,9,3
42,-9.991075707396673e-9,9,3
33,-9.990485292616251e-9,9,3
28,-9.990485292616203e-9,9,3
26,-9.990485292616203e-9,9,3
10,-9.990485292616456e-9,9,3
24,-9.986413091163504e-9,9,3
25,-9.986413091150427e-9,9,3
23,-9.986413091150402e-9,9,3
49,-9.991127429838035e-9,9,3
5,-9.99048529261713e-9,9,3
31,-9.9864130911505e-9,9,3
43,-9.991075707396673e-9,9,3
39,-9.991090471466404e-9,9,3
34,-9.990485292616251e-9,9,3
44,-9.991075707396673e-9,9,3
17,-9.9910833591789e-9,9,3
37,-9.99118989489301e-9,9,3
47,4.795291243157645e-7,9,3
9,-9.990485292616456e-9,9,3
12,-9.990485292616456e-9,9,3
20,-9.991072933684783e-9,9,3
6,-9.986413091150514e-9,9,3
14,-9.991070819223359e-9,9,3
7,-9.990485292618056e-9,9,3
8,-9.990485292616456e-9,9,3
19,-9.99107174442339e-9,9,3
4,-9.990485292618129e-9,9,3
22,-9.986413091150577e-9,9,3
11,-9.990485292616456e-9,9,3
35,-9.990485292616251e-9,9,3
13,-9.990485292616456e-9,9,3
15,-9.991069364950821e-9,9,3
16,-9.9910833591789e-9,9,3
40,-9.991075707396673e-9,9,3
46,-9.990485292616473e-9,9,3
21,-9.990485292616635e-9,9,3
38,-9.991077951520529e-9,9,3
45,-9.99048529261665e-9,9,3
36,-9.990485292616251e-9,9,3
48,-9.991127429838035e-9,9,3
18,-9.991070158249e-9,9,3
30,-9.990485292616154e-9,9,3
3,-9.990485292618129e-9,9,3
32,-9.968266527569989e-9,10,3
29,-9.968266527551566e-9,10,3
1,-9.96826652757357e-9,10,3
2,-9.96826652757357e-9,10,3
41,-9.974002825818244e-9,10,3
27,-9.968266527552115e-9,10,3
42,-9.974002825818244e-9,10,3
33,-9.968266527552644e-9,10,3
28,-9.968266527552115e-9,10,3
26,-9.968266527552115e-9,10,3
10,-9.968266527554947e-9,10,3
24,7.144575507472177e-8,10,3
25,7.144621184033858e-8,10,3
23,7.144621208308525e-8,10,3
49,-9.974436930939828e-9,10,3
5,-9.968266527562443e-9,10,3
31,7.144620790918474e-8,10,3
43,-9.974002825818244e-9,10,3
39,-9.974127718913329e-9,10,3
34,-9.968266527552644e-9,10,3
44,-9.974002825818244e-9,10,3
17,-9.974067652754864e-9,10,3
37,-9.974948672088393e-9,10,3
47,-9.910207748566132e-9,10,3
9,-9.968266527554947e-9,10,3
12,-9.968266527554947e-9,10,3
20,-9.973979274005507e-9,10,3
6,7.144621207322328e-8,10,3
14,-9.973961301108777e-9,10,3
7,-9.968266527572766e-9,10,3
8,-9.968266527554947e-9,10,3
19,-9.973969167304535e-9,10,3
4,-9.96826652757357e-9,10,3
22,7.144620785707927e-8,10,3
11,-9.968266527554947e-9,10,3
35,-9.968266527552644e-9,10,3
13,-9.968266527554947e-9,10,3
15,-9.973948930340142e-9,10,3
16,-9.974067652754864e-9,10,3
40,-9.974002825818244e-9,10,3
46,-9.968266527555126e-9,10,3
21,-9.968266527556934e-9,10,3
38,-9.97402186036909e-9,10,3
45,-9.968266527557095e-9,10,3
36,-9.968266527552644e-9,10,3
48,-9.974436930939828e-9,10,3
18,-9.973955679488018e-9,10,3
30,-9.968266527551566e-9,10,3
3,-9.96826652757357e-9,10,3
32,-9.968266527569975e-9,11,3
29,-9.968266527551554e-9,11,3
1,-9.968266527573557e-9,11,3
2,-9.968266527573557e-9,11,3
41,-9.974002825818237e-9,11,3
27,-9.968266527552102e-9,11,3
42,-9.974002825818237e-9,11,3
33,-9.968266527552633e-9,11,3
28,-9.968266527552102e-9,11,3
26,-9.968266527552102e-9,11,3
10,-9.968266527554934e-9,11,3
24,7.144574527555999e-8,11,3
25,7.144621412647478e-8,11,3
23,7.144621481018063e-8,11,3
49,-9.974436930939821e-9,11,3
5,-9.96826652756243e-9,11,3
31,7.144621191628015e-8,11,3
43,-9.974002825818237e-9,11,3
39,-9.97412771891332e-9,11,3
34,-9.968266527552633e-9,11,3
44,-9.974002825818237e-9,11,3
17,-9.974067652754857e-9,11,3
37,-9.974948672088389e-9,11,3
47,-9.910207748565857e-9,11,3
9,-9.968266527554934e-9,11,3
12,-9.968266527554934e-9,11,3
20,-9.973979274005499e-9,11,3
6,7.144621142660812e-8,11,3
14,-9.973961301108771e-9,11,3
7,-9.968266527572753e-9,11,3
8,-9.968266527554934e-9,11,3
19,-9.973969167304527e-9,11,3
4,-9.968266527573557e-9,11,3
22,7.14462092825285e-8,11,3
11,-9.968266527554934e-9,11,3
35,-9.968266527552633e-9,11,3
13,-9.968266527554934e-9,11,3
15,-9.973948930340135e-9,11,3
16,-9.974067652754857e-9,11,3
40,-9.974002825818237e-9,11,3
46,-9.968266527555114e-9,11,3
21,-9.968266527556922e-9,11,3
38,-9.974021860369083e-9,11,3
45,-9.968266527557083e-9,11,3
36,-9.968266527552633e-9,11,3
48,-9.974436930939821e-9,11,3
18,-9.973955679488012e-9,11,3
30,-9.968266527551554e-9,11,3
3,-9.968266527573557e-9,11,3
32,-9.968266527667573e-9,12,3
29,-9.96826652764915e-9,12,3
1,-9.968266527671154e-9,12,3
2,-9.968266527671154e-9,12,3
41,-9.97400282587208e-9,12,3
27,-9.968266527649699e-9,12,3
42,-9.97400282587208e-9,12,3
33,-9.968266527650228e-9,12,3
28,-9.968266527649699e-9,12,3
26,-9.968266527649699e-9,12,3
10,-9.968266527652531e-9,12,3
24,7.172880330023095e-8,12,3
25,7.139003858644403e-8,12,3
23,7.13915362938902e-8,12,3
49,-9.974436930991024e-9,12,3
5,-9.968266527660027e-9,12,3
31,7.138998057788688e-8,12,3
43,-9.97400282587208e-9,12,3
39,-9.974127718966396e-9,12,3
34,-9.968266527650228e-9,12,3
44,-9.97400282587208e-9,12,3
17,-9.974067652808301e-9,12,3
37,-9.974948672136592e-9,12,3
47,-9.910207750667282e-9,12,3
9,-9.968266527652531e-9,12,3
12,-9.968266527652531e-9,12,3
20,-9.973979274059489e-9,12,3
6,7.138944648384223e-8,12,3
14,-9.973961301162872e-9,12,3
7,-9.96826652767035e-9,12,3
8,-9.968266527652531e-9,12,3
19,-9.973969167358578e-9,12,3
4,-9.968266527671154e-9,12,3
22,7.138700160078326e-8,12,3
11,-9.968266527652531e-9,12,3
35,-9.968266527650228e-9,12,3
13,-9.968266527652531e-9,12,3
15,-9.973948930394312e-9,12,3
16,-9.974067652808301e-9,12,3
40,-9.97400282587208e-9,12,3
46,-9.96826652765271e-9,12,3
21,-9.968266527654518e-9,12,3
38,-9.974021860422808e-9,12,3
45,-9.968266527654679e-9,12,3
36,-9.968266527650228e-9,12,3
48,-9.974436930991024e-9,12,3
18,-9.973955679542146e-9,12,3
30,-9.96826652764915e-9,12,3
3,-9.968266527671154e-9,12,3
32,-9.968266527569977e-9,13,3
29,-9.968266527551554e-9,13,3
1,-9.968266527573557e-9,13,3
2,-9.968266527573557e-9,13,3
41,-9.974002825818237e-9,13,3
27,-9.968266527552102e-9,13,3
42,-9.974002825818237e-9,13,3
33,-9.968266527552633e-9,13,3
28,-9.968266527552102e-9,13,3
26,-9.968266527552102e-9,13,3
10,-9.968266527554934e-9,13,3
24,7.144574527556e-8,13,3
25,7.144621412647476e-8,13,3
23,7.144621481018065e-8,13,3
49,-9.974436930939821e-9,13,3
5,-9.96826652756243e-9,13,3
31,7.144621191628017e-8,13,3
43,-9.974002825818237e-9,13,3
39,-9.97412771891332e-9,13,3
34,-9.968266527552633e-9,13,3
44,-9.974002825818237e-9,13,3
17,-9.974067652754857e-9,13,3
37,-9.974948672088389e-9,13,3
47,-9.910207748565859e-9,13,3
9,-9.968266527554934e-9,13,3
12,-9.968266527554934e-9,13,3
20,-9.973979274005499e-9,13,3
6,7.144621142660813e-8,13,3
14,-9.973961301108771e-9,13,3
7,-9.968266527572753e-9,13,3
8,-9.968266527554934e-9,13,3
19,-9.973969167304527e-9,13,3
4,-9.968266527573557e-9,13,3
22,7.14462092825285e-8,13,3
11,-9.968266527554934e-9,13,3
35,-9.968266527552633e-9,13,3
13,-9.968266527554934e-9,13,3
15,-9.973948930340135e-9,13,3
16,-9.974067652754857e-9,13,3
40,-9.974002825818237e-9,13,3
46,-9.968266527555114e-9,13,3
21,-9.968266527556922e-9,13,3
38,-9.974021860369083e-9,13,3
45,-9.968266527557083e-9,13,3
36,-9.968266527552633e-9,13,3
48,-9.974436930939821e-9,13,3
18,-9.973955679488012e-9,13,3
30,-9.968266527551554e-9,13,3
3,-9.968266527573557e-9,13,3
32,-9.96826652756993e-9,14,3
29,-9.968266527551508e-9,14,3
1,-9.968266527573512e-9,14,3
2,-9.968266527573512e-9,14,3
41,-9.974002825818212e-9,14,3
27,-9.968266527552057e-9,14,3
42,-9.974002825818212e-9,14,3
33,-9.968266527552586e-9,14,3
28,-9.968266527552057e-9,14,3
26,-9.968266527552057e-9,14,3
10,-9.96826652755489e-9,14,3
24,7.14457451352665e-8,14,3
25,7.144621414568461e-8,14,3
23,7.144621483175337e-8,14,3
49,-9.974436930939797e-9,14,3
5,-9.968266527562385e-9,14,3
31,7.1446211939239e-8,14,3
43,-9.974002825818212e-9,14,3
39,-9.974127718913296e-9,14,3
34,-9.968266527552586e-9,14,3
44,-9.974002825818212e-9,14,3
17,-9.974067652754832e-9,14,3
37,-9.974948672088365e-9,14,3
47,-9.910207748565017e-9,14,3
9,-9.96826652755489e-9,14,3
12,-9.96826652755489e-9,14,3
20,-9.973979274005474e-9,14,3
6,7.144621147570321e-8,14,3
14,-9.973961301108746e-9,14,3
7,-9.968266527572708e-9,14,3
8,-9.96826652755489e-9,14,3
19,-9.973969167304502e-9,14,3
4,-9.968266527573512e-9,14,3
22,7.144620930998308e-8,14,3
11,-9.96826652755489e-9,14,3
35,-9.968266527552586e-9,14,3
13,-9.96826652755489e-9,14,3
15,-9.973948930340109e-9,14,3
16,-9.974067652754832e-9,14,3
40,-9.974002825818212e-9,14,3
46,-9.968266527555068e-9,14,3
21,-9.968266527556876e-9,14,3
38,-9.974021860369056e-9,14,3
45,-9.968266527557037e-9,14,3
36,-9.968266527552586e-9,14,3
48,-9.974436930939797e-9,14,3
18,-9.973955679487985e-9,14,3
30,-9.968266527551508e-9,14,3
3,-9.968266527573512e-9,14,3
32,-9.968266526828418e-9,15,3
29,-9.968266526809993e-9,15,3
1,-9.96826652683201e-9,15,3
2,-9.96826652683201e-9,15,3
41,-9.974002825402091e-9,15,3
27,-9.968266526810543e-9,15,3
42,-9.974002825402091e-9,15,3
33,-9.968266526811074e-9,15,3
28,-9.968266526810543e-9,15,3
26,-9.968266526810543e-9,15,3
10,-9.968266526813376e-9,15,3
24,7.069295243196542e-8,15,3
25,7.220310450517817e-8,15,3
23,7.076424323272563e-8,15,3
49,-9.974436930543584e-9,15,3
5,-9.968266526820882e-9,15,3
31,7.164823062403591e-8,15,3
43,-9.974002825402091e-9,15,3
39,-9.974127718502968e-9,15,3
34,-9.968266526811074e-9,15,3
44,-9.974002825402091e-9,15,3
17,-9.974067652341723e-9,15,3
37,-9.97494867171482e-9,15,3
47,-9.910207734764772e-9,15,3
9,-9.968266526813376e-9,15,3
12,-9.968266526813376e-9,15,3
20,-9.973979273588254e-9,15,3
6,7.208560866781038e-8,15,3
14,-9.973961300690686e-9,15,3
7,-9.968266526831196e-9,15,3
8,-9.968266526813376e-9,15,3
19,-9.973969166886811e-9,15,3
4,-9.96826652683201e-9,15,3
22,7.1282667336588e-8,15,3
11,-9.968266526813376e-9,15,3
35,-9.968266526811074e-9,15,3
13,-9.968266526813376e-9,15,3
15,-9.973948929921471e-9,15,3
16,-9.974067652341723e-9,15,3
40,-9.974002825402091e-9,15,3
46,-9.968266526813555e-9,15,3
21,-9.968266526815367e-9,15,3
38,-9.974021859953822e-9,15,3
45,-9.968266526815524e-9,15,3
36,-9.968266526811074e-9,15,3
48,-9.974436930543584e-9,15,3
18,-9.973955679069663e-9,15,3
30,-9.968266526809993e-9,15,3
3,-9.96826652683201e-9,15,3
32,-9.990474741478788e-9,16,3
29,-9.99047474147713e-9,16,3
1,-9.990474741479109e-9,16,3
2,-9.990474741479109e-9,16,3
41,-9.99106642572523e-9,16,3
27,-9.99047474147718e-9,16,3
42,-9.99106642572523e-9,16,3
33,-9.990474741477226e-9,16,3
28,-9.99047474147718e-9,16,3
26,-9.99047474147718e-9,16,3
10,-9.990474741477434e-9,16,3
24,-9.986391565528833e-9,16,3
25,-9.986391565515712e-9,16,3
23,-9.986391565515687e-9,16,3
49,-9.991118255497519e-9,16,3
5,-9.990474741478108e-9,16,3
31,-9.986391565515785e-9,16,3
43,-9.99106642572523e-9,16,3
39,-9.991081220496086e-9,16,3
34,-9.990474741477226e-9,16,3
44,-9.99106642572523e-9,16,3
17,-9.991074093425301e-9,16,3
37,-9.991180849342797e-9,16,3
47,4.795285740641001e-7,16,3
9,-9.990474741477434e-9,16,3
12,-9.990474741477434e-9,16,3
20,-9.991063646239866e-9,16,3
6,-9.9863915655158e-9,16,3
14,-9.99106152737599e-9,16,3
7,-9.990474741479038e-9,16,3
8,-9.990474741477434e-9,16,3
19,-9.991062454502479e-9,16,3
4,-9.990474741479109e-9,16,3
22,-9.986391565515864e-9,16,3
11,-9.990474741477434e-9,16,3
35,-9.990474741477226e-9,16,3
13,-9.990474741477434e-9,16,3
15,-9.991060070074954e-9,16,3
16,-9.991074093425301e-9,16,3
40,-9.99106642572523e-9,16,3
46,-9.99047474147745e-9,16,3
21,-9.990474741477613e-9,16,3
38,-9.991068674518907e-9,16,3
45,-9.990474741477626e-9,16,3
36,-9.990474741477226e-9,16,3
48,-9.991118255497519e-9,16,3
18,-9.991060865025225e-9,16,3
30,-9.99047474147713e-9,16,3
3,-9.990474741479109e-9,16,3
32,0.0540000090853879,17,3
29,1.7027070766470898,17,3
1,0.045300009090188845,17,3
2,0.045300009090188845,17,3
41,-9.828299115120876e-9,17,3
27,1.300500009255868,17,3
42,-9.828299115120876e-9,17,3
33,0.7722000083794562,17,3
28,1.300500009255868,17,3
26,1.300500009255868,17,3
10,0.27920000894069547,17,3
24,0.014000009969352753,17,3
25,1.3350000133193527,17,3
23,1.5480000154493527,17,3
49,-9.845614595553653e-9,17,3
5,0.09070000906456523,17,3
31,0.9240000099693528,17,3
43,-9.828299115120876e-9,17,3
39,-9.833604201421e-9,17,3
34,0.7722000083794562,17,3
44,-9.828299115120876e-9,17,3
17,-9.831087936705634e-9,17,3
37,-9.862569521343962e-9,17,3
47,1.138300490899755,17,3
9,0.27920000894069547,17,3
12,0.27920000894069547,17,3
20,-9.827266525329625e-9,17,3
6,0.8650000099693528,17,3
14,-9.826471415885737e-9,17,3
7,0.047000009089254696,17,3
8,0.27920000894069547,17,3
19,-9.826820175111397e-9,17,3
4,0.045300009090188845,17,3
22,0.6760000099693527,17,3
11,0.27920000894069547,17,3
35,0.7722000083794562,17,3
13,0.27920000894069547,17,3
15,-9.825920518829375e-9,17,3
16,-9.831087936705634e-9,17,3
40,-9.828299115120876e-9,17,3
46,0.266000008950428,17,3
21,0.18000000900970614,17,3
38,-9.829126022570455e-9,17,3
45,0.17500000901294724,17,3
36,0.7722000083794562,17,3
48,-9.845614595553653e-9,17,3
18,-9.826221440940157e-9,17,3
30,1.7027070766488237,17,3
3,0.045300009090188845,17,3
32,0.054000008730920535,18,3
29,1.2422056867377747,18,3
1,0.04530000874014515,18,3
2,0.04530000874014515,18,3
41,-9.836853724642617e-9,18,3
27,1.2422056585837074,18,3
42,-9.836853724642617e-9,18,3
33,0.7722000067916824,18,3
28,1.2422056585952728,18,3
26,1.242205658560643,18,3
10,0.2792000084341448,18,3
24,0.014000009969063207,18,3
25,1.3350000133190632,18,3
23,1.5480000154490632,18,3
49,-9.852565722191722e-9,18,3
5,0.09070000869047329,18,3
31,0.9240000099690633,18,3
43,-9.836853724642617e-9,18,3
39,-9.841650736312437e-9,18,3
34,0.7722000067916824,18,3
44,-9.836853724642617e-9,18,3
17,-9.83937361462003e-9,18,3
37,-9.868105082017964e-9,18,3
47,2.2766005022669074,18,3
9,0.2792000084341448,18,3
12,0.2792000084341448,18,3
20,-9.835921743813409e-9,18,3
6,0.8650000099690632,18,3
14,-9.835204485147895e-9,18,3
7,0.047000008738353194,18,3
8,0.2792000084341448,18,3
19,-9.835519055924828e-9,18,3
4,0.04530000874014515,18,3
22,0.6760000099690632,18,3
11,0.2792000084341448,18,3
35,0.7722000067916824,18,3
13,0.2792000084341448,18,3
15,-9.834707721510065e-9,18,3
16,-9.83937361462003e-9,18,3
40,-9.836853724642617e-9,18,3
46,0.2660000084553179,18,3
21,0.1800000085803809,18,3
38,-9.837600466307438e-9,18,3
45,0.175000008587032,18,3
36,0.7722000067916824,18,3
48,-9.852565722191722e-9,18,3
18,-9.83497905411009e-9,18,3
30,1.2422056867390272,18,3
3,0.04530000874014515,18,3
32,0.054000008369998735,19,3
29,0.9791081414143634,19,3
1,0.04530000838518496,19,3
2,0.04530000838518496,19,3
41,-9.841369175199521e-9,19,3
27,0.9791081356974982,19,3
42,-9.841369175199521e-9,19,3
33,0.7722000027120919,19,3
28,0.9791081357065808,19,3
26,0.979108135679466,19,3
10,0.27920000784553517,19,3
24,0.014000009968895312,19,3
25,1.3350000133188953,19,3
23,1.5480000154488953,19,3
49,-9.85626317682586e-9,19,3
5,0.09070000830266362,19,3
31,0.9240000099688954,19,3
43,-9.841369175199521e-9,19,3
39,-9.845908018462572e-9,19,3
34,0.7722000027120919,19,3
44,-9.841369175199521e-9,19,3
17,-9.843752526786086e-9,19,3
37,-9.871072040817587e-9,19,3
47,3.4149005136260424,19,3
9,0.27920000784553517,19,3
12,0.27920000784553517,19,3
20,-9.840488209176824e-9,19,3
6,0.8650000099688954,19,3
14,-9.839810401487206e-9,19,3
7,0.04700000838223982,19,3
8,0.27920000784553517,19,3
19,-9.840107649803787e-9,19,3
4,0.04530000838518496,19,3
22,0.6760000099688953,19,3
11,0.27920000784553517,19,3
35,0.7722000027120919,19,3
13,0.27920000784553517,19,3
15,-9.839341057713133e-9,19,3
16,-9.843752526786086e-9,19,3
40,-9.841369175199521e-9,19,3
46,0.26600000788541545,19,3
21,0.18000000811298697,19,3
38,-9.842075242734264e-9,19,3
45,0.17500000812472052,19,3
36,0.7722000027120919,19,3
48,-9.85626317682586e-9,19,3
18,-9.839597403771148e-9,19,3
30,0.9791081414153514,19,3
3,0.04530000838518496,19,3
32,0.05400000784289621,20,3
29,0.7530518659312846,20,3
1,0.0453000078694123,20,3
2,0.0453000078694123,20,3
41,-9.84505389413145e-9,20,3
27,0.7530518627240351,20,3
42,-9.84505389413145e-9,20,3
33,0.7530517812268289,20,3
28,0.7530518627310121,20,3
26,0.7530518627102426,20,3
10,0.27920000681772383,20,3
24,0.014000009968749592,20,3
25,1.3350000133187496,20,3
23,1.5480000154487497,20,3
49,-9.859295067119035e-9,20,3
5,0.09070000772337403,20,3
31,0.9240000099687496,20,3
43,-9.84505389413145e-9,20,3
39,-9.8493872074374e-9,20,3
34,0.7530517811968936,20,3
44,-9.84505389413145e-9,20,3
17,-9.847328603267029e-9,20,3
37,-9.873516689464946e-9,20,3
47,4.553200524963214,20,3
9,0.27920000681772383,20,3
12,0.27920000681772383,20,3
20,-9.84421348781939e-9,20,3
6,0.8650000099687496,20,3
14,-9.843567033970355e-9,20,3
7,0.047000007864282364,20,3
8,0.27920000681772383,20,3
19,-9.843850516464672e-9,20,3
4,0.045300007869412295,20,3
22,0.6760000099687495,20,3
11,0.27920000681772383,20,3
35,0.7530517812467779,20,3
13,0.27920000681772383,20,3
15,-9.843119476144405e-9,20,3
16,-9.847328603267029e-9,20,3
40,-9.84505389413145e-9,20,3
46,0.2660000069039694,20,3
21,0.18000000736860208,20,3
38,-9.84572761083318e-9,20,3
45,0.175000007391363,20,3
36,0.7530517812480965,20,3
48,-9.859295067119035e-9,20,3
18,-9.843363915542654e-9,20,3
30,0.7530518659320529,20,3
3,0.045300007869412295,20,3
32,0.05400000739806104,21,3
29,0.6335398939489489,21,3
1,0.045300007436543444,21,3
2,0.045300007436543444,21,3
41,-9.846933606839335e-9,21,3
27,0.6335398914664367,21,3
42,-9.846933606839335e-9,21,3
33,0.6335398791528376,21,3
28,0.6335398914723045,21,3
26,0.6335398914548639,21,3
10,0.27920000574440385,21,3
24,0.014000009968672,21,3
25,1.335000013318672,21,3
23,1.548000015448672,21,3
49,-9.860846858379518e-9,21,3
5,0.09070000722215063,21,3
31,0.924000009968672,21,3
43,-9.846933606839335e-9,21,3
39,-9.851163854807263e-9,21,3
34,0.6335398791278556,21,3
44,-9.846933606839335e-9,21,3
17,-9.849153855361622e-9,21,3
37,-9.87477204137424e-9,21,3
47,5.691500056897966,21,3
9,0.27920000574440385,21,3
12,0.27920000574440385,21,3
20,-9.846113521410673e-9,21,3
6,0.865000009968672,21,3
14,-9.845482772128272e-9,21,3
7,0.04700000742911364,21,3
8,0.27920000574440385,21,3
19,-9.84575936001022e-9,21,3
4,0.045300007436543444,21,3
22,0.6760000099686719,21,3
11,0.27920000574440385,21,3
35,0.6335398791695287,21,3
13,0.27920000574440385,21,3
15,-9.845046124409125e-9,21,3
16,-9.849153855361622e-9,21,3
40,-9.846933606839335e-9,21,3
46,0.2660000058972413,21,3
21,0.18000000667520433,21,3
38,-9.847591111125229e-9,21,3
45,0.1750000067114585,21,3
36,0.6335398791706429,21,3
48,-9.860846858379518e-9,21,3
18,-9.845284601327165e-9,21,3
30,0.6335398939495839,21,3
3,0.045300007436543444,21,3
32,0.05400000760960622,22,3
29,0.6848280440554363,22,3
1,0.04530000764212464,22,3
2,0.04530000764212464,22,3
41,-9.846132550263357e-9,22,3
27,0.6848280412918947,22,3
42,-9.846132550263357e-9,22,3
33,0.684828022151502,22,3
28,0.6848280412982347,22,3
26,0.684828041279368,22,3
10,0.2792000062824871,22,3
24,0.014000009968705346,22,3
25,1.3350000133187052,22,3
23,1.5480000154487052,22,3
49,-9.86018512509569e-9,22,3
5,0.0907000074619487,22,3
31,0.9240000099687055,22,3
43,-9.846132550263357e-9,22,3
39,-9.850406573022945e-9,22,3
34,0.6848280221244148,22,3
44,-9.846132550263357e-9,22,3
17,-9.848375928165332e-9,22,3
37,-9.874236376799131e-9,22,3
47,5.691500056866992,22,3
9,0.2792000062824871,22,3
12,0.2792000062824871,22,3
20,-9.845303835480515e-9,22,3
6,0.8650000099687054,22,3
14,-9.844666417515453e-9,22,3
7,0.0470000076358402,22,3
8,0.2792000062824871,22,3
19,-9.844945933044776e-9,22,3
4,0.04530000764212464,22,3
22,0.6760000099687054,22,3
11,0.2792000062824871,22,3
35,0.6848280221695936,22,3
13,0.2792000062824871,22,3
15,-9.844225137173547e-9,22,3
16,-9.848375928165332e-9,22,3
40,-9.846132550263357e-9,22,3
46,0.26600000639965016,22,3
21,0.18000000701298788,22,3
38,-9.846796939578101e-9,22,3
45,0.1750000070422822,22,3
36,0.6848280221707911,22,3
48,-9.86018512509569e-9,22,3
18,-9.844466145849604e-9,22,3
30,0.6848280440561234,22,3
3,0.04530000764212464,22,3
32,0.05400000751931319,23,3
29,0.6618669123715396,23,3
1,0.04530000755431668,23,3
2,0.04530000755431668,23,3
41,-9.846492208508025e-9,23,3
27,0.6618669097381703,23,3
42,-9.846492208508025e-9,23,3
33,0.6618668943499806,23,3
28,0.6618669097442966,23,3
26,0.6618669097260662,23,3
10,0.27920000605942547,23,3
24,0.014000009968690426,23,3
25,1.3350000133186903,23,3
23,1.5480000154486904,23,3
49,-9.860482152135209e-9,23,3
5,0.09070000735991805,23,3
31,0.9240000099686905,23,3
43,-9.846492208508025e-9,23,3
39,-9.850746550174291e-9,23,3
34,0.6618668943238466,23,3
44,-9.846492208508025e-9,23,3
17,-9.848725187174812e-9,23,3
37,-9.874476753319304e-9,23,3
47,5.691500056866956,23,3
9,0.27920000605942547,23,3
12,0.27920000605942547,23,3
20,-9.845667373745904e-9,23,3
6,0.8650000099686904,23,3
14,-9.845032954287358e-9,23,3
7,0.04700000754755478,23,3
8,0.27920000605942547,23,3
19,-9.84531115342237e-9,23,3
4,0.04530000755431668,23,3
22,0.6760000099686904,23,3
11,0.27920000605942547,23,3
