obj_name,pg,hour,day
32,-9.99980503254733e-9,1,1
29,-9.999805032547328e-9,1,1
1,-9.99980503254733e-9,1,1
2,-9.99980503254733e-9,1,1
41,-9.999805032906333e-9,1,1
27,-9.999805032547328e-9,1,1
42,-9.999805032906333e-9,1,1
33,-9.999805032547328e-9,1,1
28,-9.999805032547328e-9,1,1
26,-9.999805032547328e-9,1,1
10,-9.999805032547328e-9,1,1
24,-9.999805030920925e-9,1,1
25,-9.999805030920922e-9,1,1
23,-9.999805030920922e-9,1,1
49,-9.999805032940058e-9,1,1
5,-9.99980503254733e-9,1,1
31,-9.999805030920922e-9,1,1
43,-9.999805032906333e-9,1,1
39,-9.99980503291592e-9,1,1
34,-9.999805032547328e-9,1,1
44,-9.999805032906333e-9,1,1
17,-9.999805032911297e-9,1,1
37,-9.999805032981318e-9,1,1
47,-9.999805031495303e-9,1,1
9,-9.999805032547328e-9,1,1
12,-9.999805032547328e-9,1,1
20,-9.999805032904536e-9,1,1
6,-9.999805030920922e-9,1,1
14,-9.999805032903166e-9,1,1
7,-9.99980503254733e-9,1,1
8,-9.999805032547328e-9,1,1
19,-9.999805032903765e-9,1,1
4,-9.99980503254733e-9,1,1
22,-9.999805030920922e-9,1,1
11,-9.999805032547328e-9,1,1
35,-9.999805032547328e-9,1,1
13,-9.999805032547328e-9,1,1
15,-9.999805032902225e-9,1,1
16,-9.999805032911297e-9,1,1
40,-9.999805032906333e-9,1,1
46,-9.999805032547328e-9,1,1
21,-9.999805032547328e-9,1,1
38,-9.999805032907788e-9,1,1
45,-9.999805032547328e-9,1,1
36,-9.999805032547328e-9,1,1
48,-9.999805032940058e-9,1,1
18,-9.99980503290274e-9,1,1
30,-9.999805032547328e-9,1,1
3,-9.99980503254733e-9,1,1
32,-9.999783385273463e-9,2,1
29,-9.999783385273463e-9,2,1
1,-9.999783385273463e-9,2,1
2,-9.999783385273463e-9,2,1
41,-9.999783385716613e-9,2,1
27,-9.999783385273463e-9,2,1
42,-9.999783385716613e-9,2,1
33,-9.999783385273463e-9,2,1
28,-9.999783385273463e-9,2,1
26,-9.999783385273463e-9,2,1
10,-9.999783385273463e-9,2,1
24,-9.999783383265847e-9,2,1
25,-9.999783383265844e-9,2,1
23,-9.999783383265844e-9,2,1
49,-9.999783385758243e-9,2,1
5,-9.999783385273463e-9,2,1
31,-9.999783383265844e-9,2,1
43,-9.999783385716613e-9,2,1
39,-9.999783385728447e-9,2,1
34,-9.999783385273463e-9,2,1
44,-9.999783385716613e-9,2,1
17,-9.999783385722741e-9,2,1
37,-9.999783385809173e-9,2,1
47,-9.999783383974854e-9,2,1
9,-9.999783385273463e-9,2,1
12,-9.999783385273463e-9,2,1
20,-9.999783385714395e-9,2,1
6,-9.999783383265844e-9,2,1
14,-9.999783385712704e-9,2,1
7,-9.999783385273463e-9,2,1
8,-9.999783385273463e-9,2,1
19,-9.999783385713443e-9,2,1
4,-9.999783385273463e-9,2,1
22,-9.999783383265844e-9,2,1
11,-9.999783385273463e-9,2,1
35,-9.999783385273463e-9,2,1
13,-9.999783385273463e-9,2,1
15,-9.999783385711542e-9,2,1
16,-9.999783385722741e-9,2,1
40,-9.999783385716613e-9,2,1
46,-9.999783385273463e-9,2,1
21,-9.999783385273463e-9,2,1
38,-9.99978338571841e-9,2,1
45,-9.999783385273463e-9,2,1
36,-9.999783385273463e-9,2,1
48,-9.999783385758243e-9,2,1
18,-9.999783385712176e-9,2,1
30,-9.999783385273463e-9,2,1
3,-9.999783385273463e-9,2,1
32,-9.999710053062945e-9,3,1
29,-9.999710053062944e-9,3,1
1,-9.999710053062945e-9,3,1
2,-9.999710053062945e-9,3,1
41,-9.99971005385693e-9,3,1
27,-9.999710053062944e-9,3,1
42,-9.99971005385693e-9,3,1
33,-9.999710053062944e-9,3,1
28,-9.999710053062944e-9,3,1
26,-9.999710053062944e-9,3,1
10,-9.999710053062944e-9,3,1
24,-9.999710049465922e-9,3,1
25,-9.999710049465917e-9,3,1
23,-9.999710049465917e-9,3,1
49,-9.999710053931518e-9,3,1
5,-9.999710053062945e-9,3,1
31,-9.999710049465917e-9,3,1
43,-9.99971005385693e-9,3,1
39,-9.999710053878132e-9,3,1
34,-9.999710053062944e-9,3,1
44,-9.99971005385693e-9,3,1
17,-9.99971005386791e-9,3,1
37,-9.999710054022768e-9,3,1
47,-9.999710050736245e-9,3,1
9,-9.999710053062944e-9,3,1
12,-9.999710053062944e-9,3,1
20,-9.999710053852954e-9,3,1
6,-9.999710049465917e-9,3,1
14,-9.999710053849926e-9,3,1
7,-9.999710053062945e-9,3,1
8,-9.999710053062944e-9,3,1
19,-9.99971005385125e-9,3,1
4,-9.999710053062945e-9,3,1
22,-9.999710049465917e-9,3,1
11,-9.999710053062944e-9,3,1
35,-9.999710053062944e-9,3,1
13,-9.999710053062944e-9,3,1
15,-9.999710053847845e-9,3,1
16,-9.99971005386791e-9,3,1
40,-9.99971005385693e-9,3,1
46,-9.999710053062944e-9,3,1
21,-9.999710053062945e-9,3,1
38,-9.999710053860147e-9,3,1
45,-9.999710053062945e-9,3,1
36,-9.999710053062944e-9,3,1
48,-9.999710053931518e-9,3,1
18,-9.99971005384898e-9,3,1
30,-9.999710053062944e-9,3,1
3,-9.999710053062945e-9,3,1
32,-9.999792380048938e-9,4,1
29,-9.999792380048937e-9,4,1
1,-9.999792380048938e-9,4,1
2,-9.999792380048938e-9,4,1
41,-9.999792380456048e-9,4,1
27,-9.999792380048937e-9,4,1
42,-9.999792380456048e-9,4,1
33,-9.999792380048937e-9,4,1
28,-9.999792380048937e-9,4,1
26,-9.999792380048937e-9,4,1
10,-9.999792380048937e-9,4,1
24,-9.99979237820459e-9,4,1
25,-9.999792378204587e-9,4,1
23,-9.999792378204587e-9,4,1
49,-9.999792380494294e-9,4,1
5,-9.999792380048937e-9,4,1
31,-9.999792378204587e-9,4,1
43,-9.999792380456048e-9,4,1
39,-9.99979238046692e-9,4,1
34,-9.999792380048937e-9,4,1
44,-9.999792380456048e-9,4,1
17,-9.999792380461678e-9,4,1
37,-9.999792380541081e-9,4,1
47,-9.999792378855937e-9,4,1
9,-9.999792380048937e-9,4,1
12,-9.999792380048937e-9,4,1
20,-9.99979238045401e-9,4,1
6,-9.999792378204587e-9,4,1
14,-9.999792380452458e-9,4,1
7,-9.999792380048938e-9,4,1
8,-9.999792380048937e-9,4,1
19,-9.999792380453137e-9,4,1
4,-9.999792380048938e-9,4,1
22,-9.999792378204587e-9,4,1
11,-9.999792380048937e-9,4,1
35,-9.999792380048937e-9,4,1
13,-9.999792380048937e-9,4,1
15,-9.999792380451391e-9,4,1
16,-9.999792380461678e-9,4,1
40,-9.999792380456048e-9,4,1
46,-9.999792380048937e-9,4,1
21,-9.999792380048937e-9,4,1
38,-9.9997923804577e-9,4,1
45,-9.999792380048937e-9,4,1
36,-9.999792380048937e-9,4,1
48,-9.999792380494294e-9,4,1
18,-9.999792380451972e-9,4,1
30,-9.999792380048937e-9,4,1
3,-9.999792380048938e-9,4,1
32,-9.999793778347769e-9,5,1
29,-9.999793778347769e-9,5,1
1,-9.99979377834777e-9,5,1
2,-9.99979377834777e-9,5,1
41,-9.999793778749416e-9,5,1
27,-9.999793778347769e-9,5,1
42,-9.999793778749416e-9,5,1
33,-9.999793778347769e-9,5,1
28,-9.999793778347769e-9,5,1
26,-9.999793778347769e-9,5,1
10,-9.999793778347769e-9,5,1
24,-9.999793776528182e-9,5,1
25,-9.999793776528178e-9,5,1
23,-9.999793776528178e-9,5,1
49,-9.999793778787147e-9,5,1
5,-9.999793778347769e-9,5,1
31,-9.999793776528178e-9,5,1
43,-9.999793778749416e-9,5,1
39,-9.999793778760142e-9,5,1
34,-9.999793778347769e-9,5,1
44,-9.999793778749416e-9,5,1
17,-9.99979377875497e-9,5,1
37,-9.999793778833307e-9,5,1
47,-9.999793777170785e-9,5,1
9,-9.999793778347769e-9,5,1
12,-9.999793778347769e-9,5,1
20,-9.999793778747405e-9,5,1
6,-9.999793776528178e-9,5,1
14,-9.999793778745873e-9,5,1
7,-9.99979377834777e-9,5,1
8,-9.999793778347769e-9,5,1
19,-9.999793778746543e-9,5,1
4,-9.99979377834777e-9,5,1
22,-9.999793776528178e-9,5,1
11,-9.999793778347769e-9,5,1
35,-9.999793778347769e-9,5,1
13,-9.999793778347769e-9,5,1
15,-9.99979377874482e-9,5,1
16,-9.99979377875497e-9,5,1
40,-9.999793778749416e-9,5,1
46,-9.999793778347769e-9,5,1
21,-9.999793778347769e-9,5,1
38,-9.999793778751044e-9,5,1
45,-9.999793778347769e-9,5,1
36,-9.999793778347769e-9,5,1
48,-9.999793778787147e-9,5,1
18,-9.999793778745395e-9,5,1
30,-9.999793778347769e-9,5,1
3,-9.99979377834777e-9,5,1
32,-9.999565679062516e-9,6,1
29,-9.999565679062513e-9,6,1
1,-9.999565679062516e-9,6,1
2,-9.999565679062516e-9,6,1
41,-9.999565680844055e-9,6,1
27,-9.999565679062513e-9,6,1
42,-9.999565680844055e-9,6,1
33,-9.999565679062513e-9,6,1
28,-9.999565679062513e-9,6,1
26,-9.999565679062513e-9,6,1
10,-9.999565679062513e-9,6,1
24,-9.99956567099146e-9,6,1
25,-9.999565670991447e-9,6,1
23,-9.999565670991447e-9,6,1
49,-9.999565681011418e-9,6,1
5,-9.999565679062514e-9,6,1
31,-9.999565670991447e-9,6,1
43,-9.999565680844055e-9,6,1
39,-9.999565680891629e-9,6,1
34,-9.999565679062513e-9,6,1
44,-9.999565680844055e-9,6,1
17,-9.999565680868691e-9,6,1
37,-9.999565681216162e-9,6,1
47,-9.999565673841842e-9,6,1
9,-9.999565679062513e-9,6,1
12,-9.999565679062513e-9,6,1
20,-9.999565680835136e-9,6,1
6,-9.999565670991447e-9,6,1
14,-9.999565680828341e-9,6,1
7,-9.999565679062516e-9,6,1
8,-9.999565679062513e-9,6,1
19,-9.999565680831313e-9,6,1
4,-9.999565679062516e-9,6,1
22,-9.999565670991447e-9,6,1
11,-9.999565679062513e-9,6,1
35,-9.999565679062513e-9,6,1
13,-9.999565679062513e-9,6,1
15,-9.999565680823671e-9,6,1
16,-9.999565680868691e-9,6,1
40,-9.999565680844055e-9,6,1
46,-9.999565679062513e-9,6,1
21,-9.999565679062513e-9,6,1
38,-9.999565680851276e-9,6,1
45,-9.999565679062513e-9,6,1
36,-9.999565679062513e-9,6,1
48,-9.999565681011418e-9,6,1
18,-9.999565680826219e-9,6,1
30,-9.999565679062513e-9,6,1
3,-9.999565679062516e-9,6,1
32,-9.99979153773311e-9,7,1
29,-9.99979153773311e-9,7,1
1,-9.999791537733112e-9,7,1
2,-9.999791537733112e-9,7,1
41,-9.999791538143533e-9,7,1
27,-9.99979153773311e-9,7,1
42,-9.999791538143533e-9,7,1
33,-9.99979153773311e-9,7,1
28,-9.99979153773311e-9,7,1
26,-9.99979153773311e-9,7,1
10,-9.99979153773311e-9,7,1
24,-9.99979153587377e-9,7,1
25,-9.999791535873766e-9,7,1
23,-9.999791535873766e-9,7,1
49,-9.99979153818209e-9,7,1
5,-9.99979153773311e-9,7,1
31,-9.999791535873766e-9,7,1
43,-9.999791538143533e-9,7,1
39,-9.999791538154493e-9,7,1
34,-9.99979153773311e-9,7,1
44,-9.999791538143533e-9,7,1
17,-9.999791538149209e-9,7,1
37,-9.999791538229257e-9,7,1
47,-9.999791536530412e-9,7,1
9,-9.99979153773311e-9,7,1
12,-9.99979153773311e-9,7,1
20,-9.999791538141478e-9,7,1
6,-9.999791535873766e-9,7,1
14,-9.999791538139913e-9,7,1
7,-9.999791537733112e-9,7,1
8,-9.99979153773311e-9,7,1
19,-9.999791538140598e-9,7,1
4,-9.999791537733112e-9,7,1
22,-9.999791535873766e-9,7,1
11,-9.99979153773311e-9,7,1
35,-9.99979153773311e-9,7,1
13,-9.99979153773311e-9,7,1
15,-9.999791538138836e-9,7,1
16,-9.999791538149209e-9,7,1
40,-9.999791538143533e-9,7,1
46,-9.99979153773311e-9,7,1
21,-9.99979153773311e-9,7,1
38,-9.999791538145196e-9,7,1
45,-9.99979153773311e-9,7,1
36,-9.99979153773311e-9,7,1
48,-9.99979153818209e-9,7,1
18,-9.999791538139424e-9,7,1
30,-9.99979153773311e-9,7,1
3,-9.999791537733112e-9,7,1
32,-9.999797720667376e-9,8,1
29,-9.999797720667376e-9,8,1
1,-9.999797720667376e-9,8,1
2,-9.999797720667376e-9,8,1
41,-9.999797721053813e-9,8,1
27,-9.999797720667376e-9,8,1
42,-9.999797721053813e-9,8,1
33,-9.999797720667376e-9,8,1
28,-9.999797720667376e-9,8,1
26,-9.999797720667376e-9,8,1
10,-9.999797720667376e-9,8,1
24,-9.999797718916693e-9,8,1
25,-9.999797718916691e-9,8,1
23,-9.999797718916691e-9,8,1
49,-9.999797721090115e-9,8,1
5,-9.999797720667376e-9,8,1
31,-9.999797718916691e-9,8,1
43,-9.999797721053813e-9,8,1
39,-9.999797721064131e-9,8,1
34,-9.999797720667376e-9,8,1
44,-9.999797721053813e-9,8,1
17,-9.999797721059157e-9,8,1
37,-9.999797721134528e-9,8,1
47,-9.999797719534962e-9,8,1
9,-9.999797720667376e-9,8,1
12,-9.999797720667376e-9,8,1
20,-9.999797721051878e-9,8,1
6,-9.999797718916691e-9,8,1
14,-9.999797721050403e-9,8,1
7,-9.999797720667376e-9,8,1
8,-9.999797720667376e-9,8,1
19,-9.999797721051049e-9,8,1
4,-9.999797720667376e-9,8,1
22,-9.999797718916691e-9,8,1
11,-9.999797720667376e-9,8,1
35,-9.999797720667376e-9,8,1
13,-9.999797720667376e-9,8,1
15,-9.999797721049391e-9,8,1
16,-9.999797721059157e-9,8,1
40,-9.999797721053813e-9,8,1
46,-9.999797720667376e-9,8,1
21,-9.999797720667376e-9,8,1
38,-9.999797721055378e-9,8,1
45,-9.999797720667376e-9,8,1
36,-9.999797720667376e-9,8,1
48,-9.999797721090115e-9,8,1
18,-9.999797721049944e-9,8,1
30,-9.999797720667376e-9,8,1
3,-9.999797720667376e-9,8,1
32,-9.999356558746248e-9,9,1
29,-9.99935655874624e-9,9,1
1,-9.99935655874625e-9,9,1
2,-9.99935655874625e-9,9,1
41,-9.999356562656376e-9,9,1
27,-9.999356558746242e-9,9,1
42,-9.999356562656376e-9,9,1
33,-9.999356558746242e-9,9,1
28,-9.999356558746242e-9,9,1
26,-9.999356558746242e-9,9,1
10,-9.999356558746242e-9,9,1
24,-9.999356541031682e-9,9,1
25,-9.999356541031654e-9,9,1
23,-9.999356541031654e-9,9,1
49,-9.999356563023702e-9,9,1
5,-9.999356558746245e-9,9,1
31,-9.999356541031654e-9,9,1
43,-9.999356562656376e-9,9,1
39,-9.99935656276079e-9,9,1
34,-9.999356558746242e-9,9,1
44,-9.999356562656376e-9,9,1
17,-9.999356562710447e-9,9,1
37,-9.999356563473074e-9,9,1
47,-9.999356547287811e-9,9,1
9,-9.999356558746242e-9,9,1
12,-9.999356558746242e-9,9,1
20,-9.9993565626368e-9,9,1
6,-9.999356541031654e-9,9,1
14,-9.999356562621886e-9,9,1
7,-9.99935655874625e-9,9,1
8,-9.999356558746242e-9,9,1
19,-9.99935656262841e-9,9,1
4,-9.99935655874625e-9,9,1
22,-9.999356541031654e-9,9,1
11,-9.999356558746242e-9,9,1
35,-9.999356558746242e-9,9,1
13,-9.999356558746242e-9,9,1
15,-9.999356562611637e-9,9,1
16,-9.999356562710447e-9,9,1
40,-9.999356562656376e-9,9,1
46,-9.999356558746242e-9,9,1
21,-9.999356558746243e-9,9,1
38,-9.999356562672224e-9,9,1
45,-9.999356558746243e-9,9,1
36,-9.999356558746242e-9,9,1
48,-9.999356563023702e-9,9,1
18,-9.999356562617227e-9,9,1
30,-9.99935655874624e-9,9,1
3,-9.99935655874625e-9,9,1
32,-9.999712801541188e-9,10,1
29,-9.999712801541186e-9,10,1
1,-9.999712801541188e-9,10,1
2,-9.999712801541188e-9,10,1
41,-9.99971280232019e-9,10,1
27,-9.999712801541186e-9,10,1
42,-9.99971280232019e-9,10,1
33,-9.999712801541186e-9,10,1
28,-9.999712801541186e-9,10,1
26,-9.999712801541186e-9,10,1
10,-9.999712801541186e-9,10,1
24,-9.999712798012036e-9,10,1
25,-9.99971279801203e-9,10,1
23,-9.99971279801203e-9,10,1
49,-9.99971280239337e-9,10,1
5,-9.999712801541186e-9,10,1
31,-9.99971279801203e-9,10,1
43,-9.99971280232019e-9,10,1
39,-9.999712802340992e-9,10,1
34,-9.999712801541186e-9,10,1
44,-9.99971280232019e-9,10,1
17,-9.999712802330962e-9,10,1
37,-9.999712802482898e-9,10,1
47,-9.99971279925839e-9,10,1
9,-9.999712801541186e-9,10,1
12,-9.999712801541186e-9,10,1
20,-9.999712802316289e-9,10,1
6,-9.99971279801203e-9,10,1
14,-9.999712802313318e-9,10,1
7,-9.999712801541188e-9,10,1
8,-9.999712801541186e-9,10,1
19,-9.999712802314618e-9,10,1
4,-9.999712801541188e-9,10,1
22,-9.99971279801203e-9,10,1
11,-9.999712801541186e-9,10,1
35,-9.999712801541186e-9,10,1
13,-9.999712801541186e-9,10,1
15,-9.999712802311276e-9,10,1
16,-9.999712802330962e-9,10,1
40,-9.99971280232019e-9,10,1
46,-9.999712801541186e-9,10,1
21,-9.999712801541186e-9,10,1
38,-9.999712802323347e-9,10,1
45,-9.999712801541186e-9,10,1
36,-9.999712801541186e-9,10,1
48,-9.99971280239337e-9,10,1
18,-9.99971280231239e-9,10,1
30,-9.999712801541186e-9,10,1
3,-9.999712801541188e-9,10,1
32,-9.99979256502115e-9,11,1
29,-9.99979256502115e-9,11,1
1,-9.999792565021151e-9,11,1
2,-9.999792565021151e-9,11,1
41,-9.999792565427537e-9,11,1
27,-9.99979256502115e-9,11,1
42,-9.999792565427537e-9,11,1
33,-9.99979256502115e-9,11,1
28,-9.99979256502115e-9,11,1
26,-9.99979256502115e-9,11,1
10,-9.99979256502115e-9,11,1
24,-9.999792563180087e-9,11,1
25,-9.999792563180085e-9,11,1
23,-9.999792563180085e-9,11,1
49,-9.999792565465713e-9,11,1
5,-9.99979256502115e-9,11,1
31,-9.999792563180085e-9,11,1
43,-9.999792565427537e-9,11,1
39,-9.99979256543839e-9,11,1
34,-9.99979256502115e-9,11,1
44,-9.999792565427537e-9,11,1
17,-9.999792565433156e-9,11,1
37,-9.999792565512417e-9,11,1
47,-9.999792563830274e-9,11,1
9,-9.99979256502115e-9,11,1
12,-9.99979256502115e-9,11,1
20,-9.999792565425502e-9,11,1
6,-9.999792563180085e-9,11,1
14,-9.999792565423952e-9,11,1
7,-9.999792565021151e-9,11,1
8,-9.99979256502115e-9,11,1
19,-9.99979256542463e-9,11,1
4,-9.999792565021151e-9,11,1
22,-9.999792563180085e-9,11,1
11,-9.99979256502115e-9,11,1
35,-9.99979256502115e-9,11,1
13,-9.99979256502115e-9,11,1
15,-9.999792565422886e-9,11,1
16,-9.999792565433156e-9,11,1
40,-9.999792565427537e-9,11,1
46,-9.99979256502115e-9,11,1
21,-9.99979256502115e-9,11,1
38,-9.999792565429183e-9,11,1
45,-9.99979256502115e-9,11,1
36,-9.99979256502115e-9,11,1
48,-9.999792565465713e-9,11,1
18,-9.999792565423467e-9,11,1
30,-9.99979256502115e-9,11,1
3,-9.999792565021151e-9,11,1
32,-9.999794169809674e-9,12,1
29,-9.999794169809672e-9,12,1
1,-9.999794169809674e-9,12,1
2,-9.999794169809674e-9,12,1
41,-9.999794170209796e-9,12,1
27,-9.999794169809672e-9,12,1
42,-9.999794170209796e-9,12,1
33,-9.999794169809672e-9,12,1
28,-9.999794169809672e-9,12,1
26,-9.999794169809672e-9,12,1
10,-9.999794169809672e-9,12,1
24,-9.999794167996987e-9,12,1
25,-9.999794167996983e-9,12,1
23,-9.999794167996983e-9,12,1
49,-9.999794170247385e-9,12,1
5,-9.999794169809672e-9,12,1
31,-9.999794167996983e-9,12,1
43,-9.999794170209796e-9,12,1
39,-9.99979417022048e-9,12,1
34,-9.999794169809672e-9,12,1
44,-9.999794170209796e-9,12,1
17,-9.999794170215328e-9,12,1
37,-9.999794170293369e-9,12,1
47,-9.999794167850594e-9,12,1
9,-9.999794169809672e-9,12,1
12,-9.999794169809672e-9,12,1
20,-9.999794170207792e-9,12,1
6,-9.999794167996983e-9,12,1
14,-9.999794170206265e-9,12,1
7,-9.999794169809674e-9,12,1
8,-9.999794169809672e-9,12,1
19,-9.999794170206934e-9,12,1
4,-9.999794169809674e-9,12,1
22,-9.999794167996983e-9,12,1
11,-9.999794169809672e-9,12,1
35,-9.999794169809672e-9,12,1
13,-9.999794169809672e-9,12,1
15,-9.999794170205218e-9,12,1
16,-9.999794170215328e-9,12,1
40,-9.999794170209796e-9,12,1
46,-9.999794169809672e-9,12,1
21,-9.999794169809672e-9,12,1
38,-9.999794170211417e-9,12,1
45,-9.999794169809672e-9,12,1
36,-9.999794169809672e-9,12,1
48,-9.999794170247385e-9,12,1
18,-9.999794170205789e-9,12,1
30,-9.999794169809672e-9,12,1
3,-9.999794169809674e-9,12,1
32,0.05399990369145811,13,1
29,4.46399986062114,13,1
1,0.045299903780012106,13,1
2,0.04529990378001204,13,1
41,0.0120356475941488,13,1
27,1.3004998922870104,13,1
42,0.012035627254723,13,1
33,0.7721998958400583,13,1
28,1.3004998922870106,13,1
26,1.3004998922870101,13,1
10,0.27919990134825895,13,1
24,0.013999990858033556,13,1
25,1.3349999942080073,13,1
23,1.5479999963380076,13,1
49,1.1309292075765787e-6,13,1
5,0.09069990331647,13,1
31,0.9239999908580074,13,1
43,0.012035629286586854,13,1
39,4.13166029768114e-6,13,1
34,0.772199895840058,13,1
44,0.012035586102602655,13,1
17,8.333449848647107e-6,13,1
37,4.997129109848739e-7,13,1
47,1.1382999475198605,13,1
9,0.2791999013482591,13,1
12,0.27919990134825773,13,1
20,0.06245092913405621,13,1
6,0.864999990858008,13,1
14,0.0399827972465485,13,1
7,0.04699990376272278,13,1
8,0.27919990134826,13,1
19,0.04997001097685575,13,1
4,0.045299903780006846,13,1
22,0.6759999908580077,13,1
11,0.27919990134825773,13,1
35,0.7721998958400584,13,1
13,0.2791999013482556,13,1
15,0.023989730477825457,13,1
16,8.333449848748104e-6,13,1
40,0.012035644990342912,13,1
46,0.26599990148845004,13,1
21,0.17999990239300087,13,1
38,3.6284061408820364e-5,13,1
45,0.1749999024451323,13,1
36,0.7721998958400585,13,1
48,1.1309292075765834e-6,13,1
18,0.031986947857099185,13,1
30,4.46399986062114,13,1
3,0.04529990378000663,13,1
32,-9.999701634834216e-9,14,1
29,-9.999701634834214e-9,14,1
1,-9.999701634834216e-9,14,1
2,-9.999701634834216e-9,14,1
41,-9.999701635674974e-9,14,1
27,-9.999701634834214e-9,14,1
42,-9.999701635674974e-9,14,1
33,-9.999701634834214e-9,14,1
28,-9.999701634834214e-9,14,1
26,-9.999701634834214e-9,14,1
10,-9.999701634834214e-9,14,1
24,-9.99970163102529e-9,14,1
25,-9.999701631025284e-9,14,1
23,-9.999701631025284e-9,14,1
49,-9.999701635753957e-9,14,1
5,-9.999701634834214e-9,14,1
31,-9.999701631025284e-9,14,1
43,-9.999701635674974e-9,14,1
39,-9.999701635697425e-9,14,1
34,-9.999701634834214e-9,14,1
44,-9.999701635674974e-9,14,1
17,-9.9997016356866e-9,14,1
37,-9.999701635850581e-9,14,1
47,-9.99970163071768e-9,14,1
9,-9.999701634834214e-9,14,1
12,-9.999701634834214e-9,14,1
20,-9.999701635670764e-9,14,1
6,-9.999701631025284e-9,14,1
14,-9.999701635667558e-9,14,1
7,-9.999701634834216e-9,14,1
8,-9.999701634834214e-9,14,1
19,-9.99970163566896e-9,14,1
4,-9.999701634834216e-9,14,1
22,-9.999701631025284e-9,14,1
11,-9.999701634834214e-9,14,1
35,-9.999701634834214e-9,14,1
13,-9.999701634834214e-9,14,1
15,-9.999701635665354e-9,14,1
16,-9.9997016356866e-9,14,1
40,-9.999701635674974e-9,14,1
46,-9.999701634834214e-9,14,1
21,-9.999701634834214e-9,14,1
38,-9.99970163567838e-9,14,1
45,-9.999701634834214e-9,14,1
36,-9.999701634834214e-9,14,1
48,-9.999701635753957e-9,14,1
18,-9.999701635666555e-9,14,1
30,-9.999701634834214e-9,14,1
3,-9.999701634834216e-9,14,1
32,-9.999795131275947e-9,15,1
29,-9.999795131275947e-9,15,1
1,-9.999795131275947e-9,15,1
2,-9.999795131275947e-9,15,1
41,-9.99979513167234e-9,15,1
27,-9.999795131275947e-9,15,1
42,-9.99979513167234e-9,15,1
33,-9.999795131275947e-9,15,1
28,-9.999795131275947e-9,15,1
26,-9.999795131275947e-9,15,1
10,-9.999795131275947e-9,15,1
24,-9.999795129480156e-9,15,1
25,-9.999795129480152e-9,15,1
23,-9.999795129480152e-9,15,1
49,-9.999795131709578e-9,15,1
5,-9.999795131275947e-9,15,1
31,-9.999795129480152e-9,15,1
43,-9.99979513167234e-9,15,1
39,-9.999795131682926e-9,15,1
34,-9.999795131275947e-9,15,1
44,-9.99979513167234e-9,15,1
17,-9.999795131677822e-9,15,1
37,-9.999795131755134e-9,15,1
47,-9.999795130114355e-9,15,1
9,-9.999795131275947e-9,15,1
12,-9.999795131275947e-9,15,1
20,-9.999795131670356e-9,15,1
6,-9.999795129480152e-9,15,1
14,-9.999795131668844e-9,15,1
7,-9.999795131275947e-9,15,1
8,-9.999795131275947e-9,15,1
19,-9.999795131669506e-9,15,1
4,-9.999795131275947e-9,15,1
22,-9.999795129480152e-9,15,1
11,-9.999795131275947e-9,15,1
35,-9.999795131275947e-9,15,1
13,-9.999795131275947e-9,15,1
15,-9.999795131667805e-9,15,1
16,-9.999795131677822e-9,15,1
40,-9.99979513167234e-9,15,1
46,-9.999795131275947e-9,15,1
21,-9.999795131275947e-9,15,1
38,-9.999795131673946e-9,15,1
45,-9.999795131275947e-9,15,1
36,-9.999795131275947e-9,15,1
48,-9.999795131709578e-9,15,1
18,-9.999795131668371e-9,15,1
30,-9.999795131275947e-9,15,1
3,-9.999795131275947e-9,15,1
32,-9.999783785801848e-9,16,1
29,-9.999783785801848e-9,16,1
1,-9.999783785801848e-9,16,1
2,-9.999783785801848e-9,16,1
41,-9.99978378624336e-9,16,1
27,-9.999783785801848e-9,16,1
42,-9.99978378624336e-9,16,1
33,-9.999783785801848e-9,16,1
28,-9.999783785801848e-9,16,1
26,-9.999783785801848e-9,16,1
10,-9.999783785801848e-9,16,1
24,-9.999783783801649e-9,16,1
25,-9.999783783801645e-9,16,1
23,-9.999783783801645e-9,16,1
49,-9.999783786284837e-9,16,1
5,-9.999783785801848e-9,16,1
31,-9.999783783801645e-9,16,1
43,-9.99978378624336e-9,16,1
39,-9.99978378625515e-9,16,1
34,-9.999783785801848e-9,16,1
44,-9.99978378624336e-9,16,1
17,-9.999783786249466e-9,16,1
37,-9.99978378633558e-9,16,1
47,-9.999783784508036e-9,16,1
9,-9.999783785801848e-9,16,1
12,-9.999783785801848e-9,16,1
20,-9.99978378624115e-9,16,1
6,-9.999783783801645e-9,16,1
14,-9.999783786239466e-9,16,1
7,-9.999783785801848e-9,16,1
8,-9.999783785801848e-9,16,1
19,-9.999783786240202e-9,16,1
4,-9.999783785801848e-9,16,1
22,-9.999783783801645e-9,16,1
11,-9.999783785801848e-9,16,1
35,-9.999783785801848e-9,16,1
13,-9.999783785801848e-9,16,1
15,-9.99978378623831e-9,16,1
16,-9.999783786249466e-9,16,1
40,-9.99978378624336e-9,16,1
46,-9.999783785801848e-9,16,1
21,-9.999783785801848e-9,16,1
38,-9.99978378624515e-9,16,1
45,-9.999783785801848e-9,16,1
36,-9.999783785801848e-9,16,1
48,-9.999783786284837e-9,16,1
18,-9.99978378623894e-9,16,1
30,-9.999783785801848e-9,16,1
3,-9.999783785801848e-9,16,1
32,-9.999764837874064e-9,17,1
29,-9.999764837874062e-9,17,1
1,-9.999764837874064e-9,17,1
2,-9.999764837874064e-9,17,1
41,-9.99976483839635e-9,17,1
27,-9.999764837874062e-9,17,1
42,-9.99976483839635e-9,17,1
33,-9.999764837874062e-9,17,1
28,-9.999764837874062e-9,17,1
26,-9.999764837874062e-9,17,1
10,-9.999764837874064e-9,17,1
24,-9.999764835507927e-9,17,1
25,-9.999764835507924e-9,17,1
23,-9.999764835507924e-9,17,1
49,-9.999764838445416e-9,17,1
5,-9.999764837874064e-9,17,1
31,-9.999764835507924e-9,17,1
43,-9.99976483839635e-9,17,1
39,-9.999764838410299e-9,17,1
34,-9.999764837874062e-9,17,1
44,-9.99976483839635e-9,17,1
17,-9.999764838403574e-9,17,1
37,-9.999764838505441e-9,17,1
47,-9.99976483634355e-9,17,1
9,-9.999764837874064e-9,17,1
12,-9.999764837874064e-9,17,1
20,-9.999764838393737e-9,17,1
6,-9.999764835507924e-9,17,1
14,-9.999764838391745e-9,17,1
7,-9.999764837874064e-9,17,1
8,-9.999764837874064e-9,17,1
19,-9.999764838392615e-9,17,1
4,-9.999764837874064e-9,17,1
22,-9.999764835507924e-9,17,1
11,-9.999764837874064e-9,17,1
35,-9.999764837874062e-9,17,1
13,-9.999764837874064e-9,17,1
15,-9.999764838390375e-9,17,1
16,-9.999764838403574e-9,17,1
40,-9.99976483839635e-9,17,1
46,-9.999764837874064e-9,17,1
21,-9.999764837874064e-9,17,1
38,-9.999764838398468e-9,17,1
45,-9.999764837874064e-9,17,1
36,-9.999764837874062e-9,17,1
48,-9.999764838445416e-9,17,1
18,-9.999764838391123e-9,17,1
30,-9.999764837874062e-9,17,1
3,-9.999764837874064e-9,17,1
32,-9.999780997210343e-9,18,1
29,-9.999780997210342e-9,18,1
1,-9.999780997210343e-9,18,1
2,-9.999780997210343e-9,18,1
41,-9.999780997663317e-9,18,1
27,-9.999780997210342e-9,18,1
42,-9.999780997663317e-9,18,1
33,-9.999780997210342e-9,18,1
28,-9.999780997210342e-9,18,1
26,-9.999780997210342e-9,18,1
10,-9.999780997210342e-9,18,1
24,-9.999780995158216e-9,18,1
25,-9.999780995158212e-9,18,1
23,-9.999780995158212e-9,18,1
49,-9.99978099770587e-9,18,1
5,-9.999780997210343e-9,18,1
31,-9.999780995158212e-9,18,1
43,-9.999780997663317e-9,18,1
39,-9.999780997675414e-9,18,1
34,-9.999780997210342e-9,18,1
44,-9.999780997663317e-9,18,1
17,-9.999780997669582e-9,18,1
37,-9.99978099775793e-9,18,1
47,-9.999780995882943e-9,18,1
9,-9.999780997210342e-9,18,1
12,-9.999780997210342e-9,18,1
20,-9.999780997661049e-9,18,1
6,-9.999780995158212e-9,18,1
14,-9.999780997659322e-9,18,1
7,-9.999780997210343e-9,18,1
8,-9.999780997210342e-9,18,1
19,-9.999780997660078e-9,18,1
4,-9.999780997210343e-9,18,1
22,-9.999780995158212e-9,18,1
11,-9.999780997210342e-9,18,1
35,-9.999780997210342e-9,18,1
13,-9.999780997210342e-9,18,1
15,-9.999780997658134e-9,18,1
16,-9.999780997669582e-9,18,1
40,-9.999780997663317e-9,18,1
46,-9.999780997210342e-9,18,1
21,-9.999780997210342e-9,18,1
38,-9.999780997665154e-9,18,1
45,-9.999780997210342e-9,18,1
36,-9.999780997210342e-9,18,1
48,-9.99978099770587e-9,18,1
18,-9.999780997658783e-9,18,1
30,-9.999780997210342e-9,18,1
3,-9.999780997210343e-9,18,1
32,7.236963158971928e-9,19,1
29,7.236846667574525e-9,19,1
1,7.236984706508111e-9,19,1
2,7.236984691711915e-9,19,1
41,4.8285922941017685e-9,19,1
27,7.236850576624188e-9,19,1
42,4.82859222037139e-9,19,1
33,7.2368535836271495e-9,19,1
28,7.236850577408095e-9,19,1
26,7.236850575081771e-9,19,1
10,7.236869020042251e-9,19,1
24,5.7643461551810565e-8,19,1
25,5.219995083701136e-8,19,1
23,5.220236655367885e-8,19,1
49,4.636388958251974e-9,19,1
5,7.236918603267103e-9,19,1
31,5.219888885525796e-8,19,1
43,4.8285922277401235e-9,19,1
39,4.773433954571865e-9,19,1
34,7.236853580346893e-9,19,1
44,4.828592071254506e-9,19,1
17,4.799973161396894e-9,19,1
37,4.407941342196652e-9,19,1
47,2.281106803674156e-8,19,1
9,7.236869027242729e-9,19,1
12,7.23686898943251e-9,19,1
20,4.8389903856714755e-9,19,1
6,5.2233244704532896e-8,19,1
14,4.846932646439857e-9,19,1
7,7.236981313614579e-9,19,1
8,7.236869047649257e-9,19,1
19,4.843455185188177e-9,19,1
4,7.236983473676243e-9,19,1
22,5.235330083166317e-8,19,1
11,7.236868989179206e-9,19,1
35,7.236853585840422e-9,19,1
13,7.236868933349664e-9,19,1
15,4.85239997618006e-9,19,1
16,4.7999731867310135e-9,19,1
40,4.828592284657842e-9,19,1
46,7.2368709824923286e-9,19,1
21,7.2368835050178875e-9,19,1
38,4.820190456996998e-9,19,1
45,7.236884998631954e-9,19,1
36,7.23685358598727e-9,19,1
48,4.636388960904938e-9,19,1
18,4.849411322305815e-9,19,1
30,7.236846667660677e-9,19,1
3,7.2369834199568525e-9,19,1
32,-9.999803677247304e-9,20,1
29,-9.999803677247304e-9,20,1
1,-9.999803677247304e-9,20,1
2,-9.999803677247304e-9,20,1
41,-9.999803677611317e-9,20,1
27,-9.999803677247304e-9,20,1
42,-9.999803677611317e-9,20,1
33,-9.999803677247304e-9,20,1
28,-9.999803677247304e-9,20,1
26,-9.999803677247304e-9,20,1
10,-9.999803677247304e-9,20,1
24,-9.999803675598209e-9,20,1
25,-9.999803675598207e-9,20,1
23,-9.999803675598207e-9,20,1
49,-9.999803677645514e-9,20,1
5,-9.999803677247304e-9,20,1
31,-9.999803675598207e-9,20,1
43,-9.999803677611317e-9,20,1
39,-9.999803677621038e-9,20,1
34,-9.999803677247304e-9,20,1
44,-9.999803677611317e-9,20,1
17,-9.999803677616351e-9,20,1
37,-9.999803677687348e-9,20,1
47,-9.999803676180602e-9,20,1
9,-9.999803677247304e-9,20,1
12,-9.999803677247304e-9,20,1
20,-9.999803677609495e-9,20,1
6,-9.999803675598207e-9,20,1
14,-9.999803677608106e-9,20,1
7,-9.999803677247304e-9,20,1
8,-9.999803677247304e-9,20,1
19,-9.999803677608713e-9,20,1
4,-9.999803677247304e-9,20,1
22,-9.999803675598207e-9,20,1
11,-9.999803677247304e-9,20,1
35,-9.999803677247304e-9,20,1
13,-9.999803677247304e-9,20,1
15,-9.999803677607153e-9,20,1
16,-9.999803677616351e-9,20,1
40,-9.999803677611317e-9,20,1
46,-9.999803677247304e-9,20,1
21,-9.999803677247304e-9,20,1
38,-9.999803677612792e-9,20,1
45,-9.999803677247304e-9,20,1
36,-9.999803677247304e-9,20,1
48,-9.999803677645514e-9,20,1
18,-9.999803677607672e-9,20,1
30,-9.999803677247304e-9,20,1
3,-9.999803677247304e-9,20,1
32,-9.999802300552995e-9,21,1
29,-9.999802300552993e-9,21,1
1,-9.999802300552995e-9,21,1
2,-9.999802300552995e-9,21,1
41,-9.99980230092213e-9,21,1
27,-9.999802300552993e-9,21,1
42,-9.99980230092213e-9,21,1
33,-9.999802300552993e-9,21,1
28,-9.999802300552993e-9,21,1
26,-9.999802300552993e-9,21,1
10,-9.999802300552993e-9,21,1
24,-9.99980229888069e-9,21,1
25,-9.999802298880687e-9,21,1
23,-9.999802298880687e-9,21,1
49,-9.999802300956808e-9,21,1
5,-9.999802300552995e-9,21,1
31,-9.999802298880687e-9,21,1
43,-9.99980230092213e-9,21,1
39,-9.999802300931988e-9,21,1
34,-9.999802300552993e-9,21,1
44,-9.99980230092213e-9,21,1
17,-9.999802300927235e-9,21,1
37,-9.999802300999231e-9,21,1
47,-9.99980229947128e-9,21,1
9,-9.999802300552993e-9,21,1
12,-9.999802300552993e-9,21,1
20,-9.999802300920281e-9,21,1
6,-9.999802298880687e-9,21,1
14,-9.999802300918874e-9,21,1
7,-9.999802300552995e-9,21,1
8,-9.999802300552993e-9,21,1
19,-9.99980230091949e-9,21,1
4,-9.999802300552995e-9,21,1
22,-9.999802298880687e-9,21,1
11,-9.999802300552993e-9,21,1
35,-9.999802300552993e-9,21,1
13,-9.999802300552993e-9,21,1
15,-9.999802300917906e-9,21,1
16,-9.999802300927235e-9,21,1
40,-9.99980230092213e-9,21,1
46,-9.999802300552993e-9,21,1
21,-9.999802300552993e-9,21,1
38,-9.999802300923627e-9,21,1
45,-9.999802300552993e-9,21,1
36,-9.999802300552993e-9,21,1
48,-9.999802300956808e-9,21,1
18,-9.999802300918434e-9,21,1
30,-9.999802300552993e-9,21,1
3,-9.999802300552995e-9,21,1
32,-9.999760731096181e-9,22,1
29,-9.99976073109618e-9,22,1
1,-9.999760731096181e-9,22,1
2,-9.999760731096181e-9,22,1
41,-9.99976073163687e-9,22,1
27,-9.99976073109618e-9,22,1
42,-9.99976073163687e-9,22,1
33,-9.999760731096181e-9,22,1
28,-9.99976073109618e-9,22,1
26,-9.99976073109618e-9,22,1
10,-9.999760731096181e-9,22,1
24,-9.999760728646679e-9,22,1
25,-9.999760728646676e-9,22,1
23,-9.999760728646676e-9,22,1
49,-9.999760731687663e-9,22,1
5,-9.999760731096181e-9,22,1
31,-9.999760728646676e-9,22,1
43,-9.99976073163687e-9,22,1
39,-9.999760731651308e-9,22,1
34,-9.999760731096181e-9,22,1
44,-9.99976073163687e-9,22,1
17,-9.999760731644347e-9,22,1
37,-9.999760731749803e-9,22,1
47,-9.999760729511743e-9,22,1
9,-9.999760731096181e-9,22,1
12,-9.999760731096181e-9,22,1
20,-9.999760731634163e-9,22,1
6,-9.999760728646676e-9,22,1
14,-9.999760731632101e-9,22,1
7,-9.999760731096181e-9,22,1
8,-9.999760731096181e-9,22,1
19,-9.999760731633003e-9,22,1
4,-9.999760731096181e-9,22,1
22,-9.999760728646676e-9,22,1
11,-9.999760731096181e-9,22,1
35,-9.999760731096181e-9,22,1
13,-9.999760731096181e-9,22,1
15,-9.999760731630684e-9,22,1
16,-9.999760731644347e-9,22,1
40,-9.99976073163687e-9,22,1
46,-9.999760731096181e-9,22,1
21,-9.999760731096181e-9,22,1
38,-9.999760731639061e-9,22,1
45,-9.999760731096181e-9,22,1
36,-9.999760731096181e-9,22,1
48,-9.999760731687663e-9,22,1
18,-9.999760731631456e-9,22,1
30,-9.99976073109618e-9,22,1
3,-9.999760731096181e-9,22,1
32,-9.99979020042186e-9,23,1
29,-9.999790200421858e-9,23,1
1,-9.99979020042186e-9,23,1
2,-9.99979020042186e-9,23,1
41,-9.999790200837563e-9,23,1
27,-9.999790200421858e-9,23,1
42,-9.999790200837563e-9,23,1
33,-9.999790200421858e-9,23,1
28,-9.999790200421858e-9,23,1
26,-9.999790200421858e-9,23,1
10,-9.999790200421858e-9,23,1
24,-9.999790198538583e-9,23,1
25,-9.999790198538581e-9,23,1
23,-9.999790198538581e-9,23,1
49,-9.999790200876616e-9,23,1
5,-9.999790200421858e-9,23,1
31,-9.999790198538581e-9,23,1
43,-9.999790200837563e-9,23,1
39,-9.999790200848664e-9,23,1
34,-9.999790200421858e-9,23,1
44,-9.999790200837563e-9,23,1
17,-9.999790200843312e-9,23,1
37,-9.99979020092439e-9,23,1
47,-9.99979019920368e-9,23,1
9,-9.999790200421858e-9,23,1
12,-9.999790200421858e-9,23,1
20,-9.999790200835482e-9,23,1
6,-9.999790198538581e-9,23,1
14,-9.999790200833897e-9,23,1
7,-9.99979020042186e-9,23,1
8,-9.999790200421858e-9,23,1
19,-9.99979020083459e-9,23,1
4,-9.99979020042186e-9,23,1
22,-9.999790198538581e-9,23,1
11,-9.999790200421858e-9,23,1
35,-9.999790200421858e-9,23,1
13,-9.999790200421858e-9,23,1
15,-9.999790200832807e-9,23,1
16,-9.999790200843312e-9,23,1
40,-9.999790200837563e-9,23,1
46,-9.999790200421858e-9,23,1
21,-9.999790200421858e-9,23,1
38,-9.999790200839249e-9,23,1
45,-9.999790200421858e-9,23,1
36,-9.999790200421858e-9,23,1
48,-9.999790200876616e-9,23,1
18,-9.9997902008334e-9,23,1
30,-9.999790200421858e-9,23,1
3,-9.99979020042186e-9,23,1
32,-9.999792724290071e-9,24,1
29,-9.999792724290071e-9,24,1
1,-9.999792724290071e-9,24,1
2,-9.999792724290071e-9,24,1
41,-9.999792724695835e-9,24,1
27,-9.999792724290071e-9,24,1
42,-9.999792724695835e-9,24,1
33,-9.999792724290071e-9,24,1
28,-9.999792724290071e-9,24,1
26,-9.999792724290071e-9,24,1
10,-9.999792724290071e-9,24,1
24,-9.999792722451836e-9,24,1
25,-9.999792722451833e-9,24,1
23,-9.999792722451833e-9,24,1
49,-9.999792724733953e-9,24,1
5,-9.999792724290071e-9,24,1
31,-9.999792722451833e-9,24,1
43,-9.999792724695835e-9,24,1
39,-9.99979272470667e-9,24,1
34,-9.999792724290071e-9,24,1
44,-9.999792724695835e-9,24,1
17,-9.999792724701445e-9,24,1
37,-9.999792724780584e-9,24,1
47,-9.999792723101024e-9,24,1
9,-9.999792724290071e-9,24,1
12,-9.999792724290071e-9,24,1
20,-9.999792724693803e-9,24,1
6,-9.999792722451833e-9,24,1
14,-9.999792724692255e-9,24,1
7,-9.999792724290071e-9,24,1
8,-9.999792724290071e-9,24,1
19,-9.999792724692931e-9,24,1
4,-9.999792724290071e-9,24,1
22,-9.999792722451833e-9,24,1
11,-9.999792724290071e-9,24,1
35,-9.999792724290071e-9,24,1
13,-9.999792724290071e-9,24,1
15,-9.999792724691191e-9,24,1
16,-9.999792724701445e-9,24,1
40,-9.999792724695835e-9,24,1
46,-9.999792724290071e-9,24,1
21,-9.999792724290071e-9,24,1
38,-9.99979272469748e-9,24,1
45,-9.999792724290071e-9,24,1
36,-9.999792724290071e-9,24,1
48,-9.999792724733953e-9,24,1
18,-9.999792724691772e-9,24,1
30,-9.999792724290071e-9,24,1
3,-9.999792724290071e-9,24,1
32,-9.999156913091046e-9,1,2
29,-9.999156913090854e-9,1,2
1,-9.999156913091115e-9,1,2
2,-9.999156913091115e-9,1,2
41,-9.99915691980347e-9,1,2
27,-9.999156913090869e-9,1,2
42,-9.99915691980347e-9,1,2
33,-9.999156913090816e-9,1,2
28,-9.999156913090869e-9,1,2
26,-9.999156913090869e-9,1,2
10,-9.999156913090773e-9,1,2
24,-9.99915688284549e-9,1,2
25,-9.999156882737437e-9,1,2
23,-9.999156882780412e-9,1,2
49,-9.999156920433849e-9,1,2
5,-9.999156913090902e-9,1,2
31,-9.999156882655288e-9,1,2
43,-9.99915691980347e-9,1,2
39,-9.999156919982633e-9,1,2
34,-9.999156913090816e-9,1,2
44,-9.99915691980347e-9,1,2
17,-9.999156919896243e-9,1,2
37,-9.999156921205109e-9,1,2
47,-9.999156893405034e-9,1,2
9,-9.999156913090773e-9,1,2
12,-9.999156913090773e-9,1,2
20,-9.999156919769909e-9,1,2
6,-9.999156882669171e-9,1,2
14,-9.999156919744377e-9,1,2
7,-9.999156913091099e-9,1,2
8,-9.999156913090773e-9,1,2
19,-9.999156919755539e-9,1,2
4,-9.999156913091114e-9,1,2
22,-9.999156882573431e-9,1,2
11,-9.999156913090773e-9,1,2
35,-9.999156913090816e-9,1,2
13,-9.999156913090773e-9,1,2
15,-9.999156919726892e-9,1,2
16,-9.999156919896243e-9,1,2
40,-9.99915691980347e-9,1,2
46,-9.999156913090788e-9,1,2
21,-9.999156913090804e-9,1,2
38,-9.999156919830655e-9,1,2
45,-9.999156913090814e-9,1,2
36,-9.999156913090816e-9,1,2
48,-9.999156920433849e-9,1,2
18,-9.999156919736415e-9,1,2
30,-9.999156913090854e-9,1,2
3,-9.999156913091114e-9,1,2
32,-9.999174578809204e-9,2,2
29,-9.999174578806586e-9,2,2
1,-9.99917457881016e-9,2,2
2,-9.999174578810162e-9,2,2
41,-9.999174585272698e-9,2,2
27,-9.999174578806804e-9,2,2
42,-9.999174585272695e-9,2,2
33,-9.999174578806036e-9,2,2
28,-9.999174578806804e-9,2,2
26,-9.999174578806804e-9,2,2
10,-9.99917457880539e-9,2,2
24,-9.999174551943741e-9,2,2
25,-9.999174550359643e-9,2,2
23,-9.99917455098996e-9,2,2
49,-9.99917458587699e-9,2,2
5,-9.999174578807168e-9,2,2
31,-9.999174549154781e-9,2,2
43,-9.999174585272695e-9,2,2
39,-9.999174585444062e-9,2,2
34,-9.999174578806036e-9,2,2
44,-9.999174585272691e-9,2,2
17,-9.999174585361343e-9,2,2
37,-9.99917458661742e-9,2,2
47,-9.999174559641719e-9,2,2
9,-9.99917457880539e-9,2,2
12,-9.999174578805388e-9,2,2
20,-9.999174585240995e-9,2,2
6,-9.99917454935841e-9,2,2
14,-9.999174585217341e-9,2,2
7,-9.999174578809934e-9,2,2
8,-9.99917457880539e-9,2,2
19,-9.999174585227587e-9,2,2
4,-9.999174578810152e-9,2,2
22,-9.999174547954201e-9,2,2
11,-9.999174578805388e-9,2,2
35,-9.999174578806036e-9,2,2
13,-9.999174578805386e-9,2,2
15,-9.999174585201969e-9,2,2
16,-9.999174585361343e-9,2,2
40,-9.999174585272696e-9,2,2
46,-9.999174578805605e-9,2,2
21,-9.999174578805805e-9,2,2
38,-9.999174585298582e-9,2,2
45,-9.999174578805952e-9,2,2
36,-9.999174578806036e-9,2,2
48,-9.999174585876988e-9,2,2
18,-9.999174585210148e-9,2,2
30,-9.999174578806586e-9,2,2
3,-9.999174578810149e-9,2,2
32,-9.999159163975188e-9,3,2
29,-9.999159163975303e-9,3,2
1,-9.999159163975145e-9,3,2
2,-9.999159163975143e-9,3,2
41,-9.999159170648128e-9,3,2
27,-9.999159163975294e-9,3,2
42,-9.999159170648128e-9,3,2
33,-9.999159163975332e-9,3,2
28,-9.999159163975294e-9,3,2
26,-9.999159163975294e-9,3,2
10,-9.999159163975365e-9,3,2
24,-9.999159133622913e-9,3,2
25,-9.999159133702032e-9,3,2
23,-9.99915913367053e-9,3,2
49,-9.999159171275141e-9,3,2
5,-9.999159163975282e-9,3,2
31,-9.999159133762249e-9,3,2
43,-9.999159170648128e-9,3,2
39,-9.999159170826382e-9,3,2
34,-9.999159163975332e-9,3,2
44,-9.999159170648128e-9,3,2
17,-9.999159170740441e-9,3,2
37,-9.999159172042146e-9,3,2
47,-9.999159144431636e-9,3,2
9,-9.999159163975365e-9,3,2
12,-9.999159163975365e-9,3,2
20,-9.999159170614687e-9,3,2
6,-9.999159133752071e-9,3,2
14,-9.999159170589188e-9,3,2
7,-9.999159163975155e-9,3,2
8,-9.999159163975365e-9,3,2
19,-9.999159170600349e-9,3,2
4,-9.999159163975145e-9,3,2
22,-9.99915913382225e-9,3,2
11,-9.999159163975365e-9,3,2
35,-9.999159163975332e-9,3,2
13,-9.999159163975365e-9,3,2
15,-9.999159170571622e-9,3,2
16,-9.999159170740441e-9,3,2
40,-9.999159170648128e-9,3,2
46,-9.999159163975355e-9,3,2
21,-9.999159163975346e-9,3,2
38,-9.99915917067519e-9,3,2
45,-9.999159163975338e-9,3,2
36,-9.999159163975332e-9,3,2
48,-9.999159171275141e-9,3,2
18,-9.999159170581213e-9,3,2
30,-9.999159163975303e-9,3,2
3,-9.999159163975145e-9,3,2
32,-9.999168961321944e-9,4,2
29,-9.999168961320174e-9,4,2
1,-9.99916896132259e-9,4,2
2,-9.999168961322591e-9,4,2
41,-9.999168967863032e-9,4,2
27,-9.999168961320322e-9,4,2
42,-9.999168967863029e-9,4,2
33,-9.999168961319804e-9,4,2
28,-9.999168961320322e-9,4,2
26,-9.999168961320322e-9,4,2
10,-9.999168961319367e-9,4,2
24,-9.999168933317608e-9,4,2
25,-9.999168932249486e-9,4,2
23,-9.999168932674488e-9,4,2
49,-9.999168968475558e-9,4,2
5,-9.99916896132057e-9,4,2
31,-9.999168931437087e-9,4,2
43,-9.999168967863029e-9,4,2
39,-9.999168968036871e-9,4,2
34,-9.999168961319804e-9,4,2
44,-9.999168967863027e-9,4,2
17,-9.99916896795299e-9,4,2
37,-9.999168969225682e-9,4,2
47,-9.999168942000815e-9,4,2
9,-9.999168961319367e-9,4,2
12,-9.999168961319367e-9,4,2
20,-9.999168967830728e-9,4,2
6,-9.999168931574387e-9,4,2
14,-9.999168967806453e-9,4,2
7,-9.999168961322437e-9,4,2
8,-9.999168961319367e-9,4,2
19,-9.999168967817003e-9,4,2
4,-9.999168961322585e-9,4,2
22,-9.999168930627575e-9,4,2
11,-9.999168961319367e-9,4,2
35,-9.999168961319804e-9,4,2
13,-9.999168961319365e-9,4,2
15,-9.999168967790366e-9,4,2
16,-9.99916896795299e-9,4,2
40,-9.99916896786303e-9,4,2
46,-9.999168961319513e-9,4,2
21,-9.999168961319648e-9,4,2
38,-9.999168967889332e-9,4,2
45,-9.999168961319747e-9,4,2
36,-9.999168961319804e-9,4,2
48,-9.999168968475556e-9,4,2
18,-9.999168967799002e-9,4,2
30,-9.999168961320174e-9,4,2
3,-9.999168961322581e-9,4,2
32,-9.999156942860275e-9,5,2
29,-9.99915694286025e-9,5,2
1,-9.999156942860282e-9,5,2
2,-9.999156942860282e-9,5,2
41,-9.999156949570202e-9,5,2
27,-9.999156942860252e-9,5,2
42,-9.999156949570202e-9,5,2
33,-9.999156942860249e-9,5,2
28,-9.999156942860252e-9,5,2
26,-9.999156942860252e-9,5,2
10,-9.999156942860247e-9,5,2
24,-9.999156912470272e-9,5,2
25,-9.999156912464293e-9,5,2
23,-9.999156912466652e-9,5,2
49,-9.999156950200534e-9,5,2
5,-9.99915694286026e-9,5,2
31,-9.999156912459785e-9,5,2
43,-9.999156949570202e-9,5,2
39,-9.999156949749378e-9,5,2
34,-9.999156942860249e-9,5,2
44,-9.999156949570202e-9,5,2
17,-9.999156949662989e-9,5,2
37,-9.999156950971661e-9,5,2
47,-9.999156923196167e-9,5,2
9,-9.999156942860247e-9,5,2
12,-9.999156942860247e-9,5,2
20,-9.999156949536612e-9,5,2
6,-9.999156912460546e-9,5,2
14,-9.999156949511026e-9,5,2
7,-9.99915694286028e-9,5,2
8,-9.999156942860247e-9,5,2
19,-9.999156949522219e-9,5,2
4,-9.999156942860282e-9,5,2
22,-9.999156912455291e-9,5,2
11,-9.999156942860247e-9,5,2
35,-9.999156942860249e-9,5,2
13,-9.999156942860247e-9,5,2
15,-9.999156949493446e-9,5,2
16,-9.999156949662989e-9,5,2
40,-9.999156949570202e-9,5,2
46,-9.999156942860249e-9,5,2
21,-9.99915694286025e-9,5,2
38,-9.999156949597398e-9,5,2
45,-9.999156942860252e-9,5,2
36,-9.999156942860249e-9,5,2
48,-9.999156950200534e-9,5,2
18,-9.999156949503033e-9,5,2
30,-9.99915694286025e-9,5,2
3,-9.999156942860282e-9,5,2
32,-9.999192160030349e-9,6,2
29,-9.999192160024354e-9,6,2
1,-9.999192160032538e-9,6,2
2,-9.999192160032543e-9,6,2
41,-9.99919216626358e-9,6,2
27,-9.999192160024855e-9,6,2
42,-9.99919216626357e-9,6,2
33,-9.999192160023091e-9,6,2
28,-9.999192160024855e-9,6,2
26,-9.999192160024855e-9,6,2
10,-9.9991921600216e-9,6,2
24,-9.999192137344525e-9,6,2
25,-9.999192133704967e-9,6,2
23,-9.999192135153192e-9,6,2
49,-9.99919216684248e-9,6,2
5,-9.99919216002568e-9,6,2
31,-9.999192130936673e-9,6,2
43,-9.999192166263574e-9,6,2
39,-9.999192166427193e-9,6,2
34,-9.99919216002309e-9,6,2
44,-9.999192166263565e-9,6,2
17,-9.999192166348088e-9,6,2
37,-9.999192167553355e-9,6,2
47,-9.999192141243866e-9,6,2
9,-9.999192160021602e-9,6,2
12,-9.999192160021599e-9,6,2
20,-9.999192166233883e-9,6,2
6,-9.999192131404531e-9,6,2
14,-9.999192166212397e-9,6,2
7,-9.999192160032022e-9,6,2
8,-9.999192160021602e-9,6,2
19,-9.99919216622156e-9,6,2
4,-9.99919216003252e-9,6,2
22,-9.999192128178211e-9,6,2
11,-9.999192160021599e-9,6,2
35,-9.999192160023091e-9,6,2
13,-9.999192160021594e-9,6,2
15,-9.999192166199657e-9,6,2
16,-9.99919216634809e-9,6,2
40,-9.999192166263577e-9,6,2
46,-9.999192160022097e-9,6,2
21,-9.999192160022554e-9,6,2
38,-9.999192166288123e-9,6,2
45,-9.999192160022891e-9,6,2
36,-9.999192160023091e-9,6,2
48,-9.999192166842474e-9,6,2
18,-9.999192166206136e-9,6,2
30,-9.999192160024354e-9,6,2
3,-9.999192160032511e-9,6,2
32,-9.999211955129922e-9,7,2
29,-9.999211955121897e-9,7,2
1,-9.999211955132854e-9,7,2
2,-9.999211955132859e-9,7,2
41,-9.999211961089474e-9,7,2
27,-9.999211955122569e-9,7,2
42,-9.999211961089463e-9,7,2
33,-9.999211955120205e-9,7,2
28,-9.999211955122569e-9,7,2
26,-9.99921195512257e-9,7,2
10,-9.99921195511821e-9,7,2
24,-9.999211935570163e-9,7,2
25,-9.999211930694522e-9,7,2
23,-9.999211932634607e-9,7,2
49,-9.999211961640405e-9,7,2
5,-9.99921195512367e-9,7,2
31,-9.999211926986032e-9,7,2
43,-9.999211961089466e-9,7,2
39,-9.999211961244817e-9,7,2
34,-9.999211955120205e-9,7,2
44,-9.999211961089456e-9,7,2
17,-9.999211961169626e-9,7,2
37,-9.999211962317966e-9,7,2
47,-9.99921193696879e-9,7,2
9,-9.999211955118211e-9,7,2
12,-9.999211955118208e-9,7,2
20,-9.999211961061661e-9,7,2
6,-9.999211927612788e-9,7,2
14,-9.999211961041996e-9,7,2
7,-9.999211955132162e-9,7,2
8,-9.999211955118211e-9,7,2
19,-9.99921196105028e-9,7,2
4,-9.999211955132829e-9,7,2
22,-9.999211923290712e-9,7,2
11,-9.999211955118208e-9,7,2
35,-9.999211955120206e-9,7,2
13,-9.999211955118201e-9,7,2
15,-9.999211961031193e-9,7,2
16,-9.999211961169628e-9,7,2
40,-9.99921196108947e-9,7,2
46,-9.999211955118873e-9,7,2
21,-9.999211955119485e-9,7,2
38,-9.999211961112665e-9,7,2
45,-9.999211955119937e-9,7,2
36,-9.999211955120206e-9,7,2
48,-9.999211961640396e-9,7,2
18,-9.999211961036453e-9,7,2
30,-9.999211955121897e-9,7,2
3,-9.999211955132817e-9,7,2
32,-9.999181554106636e-9,8,2
29,-9.999181554102761e-9,8,2
1,-9.99918155410805e-9,8,2
2,-9.999181554108053e-9,8,2
41,-9.999181560477055e-9,8,2
27,-9.999181554103085e-9,8,2
42,-9.99918156047705e-9,8,2
33,-9.999181554101946e-9,8,2
28,-9.999181554103084e-9,8,2
26,-9.999181554103085e-9,8,2
10,-9.999181554100986e-9,8,2
24,-9.999181528829243e-9,8,2
25,-9.999181526480747e-9,8,2
23,-9.999181527415233e-9,8,2
49,-9.999181561071205e-9,8,2
5,-9.99918155410362e-9,8,2
31,-9.999181524694469e-9,8,2
43,-9.99918156047705e-9,8,2
39,-9.999181560645338e-9,8,2
34,-9.999181554101946e-9,8,2
44,-9.999181560477045e-9,8,2
17,-9.999181560564059e-9,8,2
37,-9.99918156179979e-9,8,2
47,-9.99918153510265e-9,8,2
9,-9.999181554100986e-9,8,2
12,-9.999181554100984e-9,8,2
20,-9.999181560446136e-9,8,2
6,-9.99918152499636e-9,8,2
14,-9.999181560423318e-9,8,2
7,-9.999181554107718e-9,8,2
8,-9.999181554100986e-9,8,2
19,-9.999181560433146e-9,8,2
4,-9.999181554108039e-9,8,2
22,-9.999181522914533e-9,8,2
11,-9.999181554100984e-9,8,2
35,-9.999181554101946e-9,8,2
13,-9.999181554100981e-9,8,2
15,-9.999181560408943e-9,8,2
16,-9.99918156056406e-9,8,2
40,-9.999181560477053e-9,8,2
46,-9.999181554101305e-9,8,2
21,-9.999181554101601e-9,8,2
38,-9.99918156050241e-9,8,2
45,-9.99918155410182e-9,8,2
36,-9.999181554101946e-9,8,2
48,-9.9991815610712e-9,8,2
18,-9.999181560416479e-9,8,2
30,-9.999181554102761e-9,8,2
3,-9.999181554108034e-9,8,2
32,-9.999169368491458e-9,9,2
29,-9.999169368488262e-9,9,2
1,-9.999169368492624e-9,9,2
2,-9.999169368492628e-9,9,2
41,-9.99916937504337e-9,9,2
27,-9.999169368488528e-9,9,2
42,-9.999169375043367e-9,9,2
33,-9.99916936848759e-9,9,2
28,-9.999169368488528e-9,9,2
26,-9.999169368488528e-9,9,2
10,-9.999169368486798e-9,9,2
24,-9.999169341762488e-9,9,2
25,-9.999169339826406e-9,9,2
23,-9.999169340596785e-9,9,2
49,-9.999169375655327e-9,9,2
5,-9.999169368488972e-9,9,2
31,-9.999169338353819e-9,9,2
43,-9.999169375043367e-9,9,2
39,-9.999169375216822e-9,9,2
34,-9.99916936848759e-9,9,2
44,-9.999169375043364e-9,9,2
17,-9.999169375133077e-9,9,2
37,-9.99916937640539e-9,9,2
47,-9.99916934901455e-9,9,2
9,-9.9991693684868e-9,9,2
12,-9.999169368486798e-9,9,2
20,-9.999169375011373e-9,9,2
6,-9.999169338602695e-9,9,2
14,-9.999169374987602e-9,9,2
7,-9.99916936849235e-9,9,2
8,-9.9991693684868e-9,9,2
19,-9.999169374997874e-9,9,2
4,-9.999169368492616e-9,9,2
22,-9.99916933688646e-9,9,2
11,-9.999169368486798e-9,9,2
35,-9.99916936848759e-9,9,2
13,-9.999169368486794e-9,9,2
15,-9.999169374972344e-9,9,2
16,-9.999169375133078e-9,9,2
40,-9.99916937504337e-9,9,2
46,-9.999169368487062e-9,9,2
21,-9.999169368487306e-9,9,2
38,-9.999169375069544e-9,9,2
45,-9.999169368487486e-9,9,2
36,-9.99916936848759e-9,9,2
48,-9.999169375655324e-9,9,2
18,-9.999169374980415e-9,9,2
30,-9.999169368488262e-9,9,2
3,-9.999169368492611e-9,9,2
32,-9.999168659659282e-9,10,2
29,-9.999168659657592e-9,10,2
1,-9.999168659659895e-9,10,2
2,-9.999168659659897e-9,10,2
41,-9.999168666204105e-9,10,2
27,-9.999168659657733e-9,10,2
42,-9.999168666204102e-9,10,2
33,-9.999168659657238e-9,10,2
28,-9.999168659657733e-9,10,2
26,-9.999168659657733e-9,10,2
10,-9.999168659656823e-9,10,2
24,-9.999168631561567e-9,10,2
25,-9.999168630543545e-9,10,2
23,-9.999168630948613e-9,10,2
49,-9.999168666817072e-9,10,2
5,-9.99916865965797e-9,10,2
31,-9.999168629769256e-9,10,2
43,-9.999168666204102e-9,10,2
39,-9.999168666378083e-9,10,2
34,-9.999168659657238e-9,10,2
44,-9.9991686662041e-9,10,2
17,-9.999168666294137e-9,10,2
37,-9.999168667567702e-9,10,2
47,-9.999168640334362e-9,10,2
9,-9.999168659656823e-9,10,2
12,-9.999168659656823e-9,10,2
20,-9.99916866617176e-9,10,2
6,-9.999168629900114e-9,10,2
14,-9.99916866614744e-9,10,2
7,-9.999168659659751e-9,10,2
8,-9.999168659656823e-9,10,2
19,-9.999168666158013e-9,10,2
4,-9.99916865965989e-9,10,2
22,-9.999168628997715e-9,10,2
11,-9.999168659656823e-9,10,2
35,-9.99916865965724e-9,10,2
13,-9.999168659656822e-9,10,2
15,-9.999168666131293e-9,10,2
16,-9.999168666294139e-9,10,2
40,-9.999168666204103e-9,10,2
46,-9.999168659656962e-9,10,2
21,-9.999168659657091e-9,10,2
38,-9.999168666230429e-9,10,2
45,-9.999168659657185e-9,10,2
36,-9.99916865965724e-9,10,2
48,-9.99916866681707e-9,10,2
18,-9.999168666139969e-9,10,2
30,-9.999168659657592e-9,10,2
3,-9.999168659659889e-9,10,2
32,-9.999163534807447e-9,11,2
29,-9.999163534804766e-9,11,2
1,-9.999163534808423e-9,11,2
2,-9.999163534808425e-9,11,2
41,-9.999163541444917e-9,11,2
27,-9.999163534804989e-9,11,2
42,-9.999163541444912e-9,11,2
33,-9.999163534804203e-9,11,2
28,-9.999163534804989e-9,11,2
26,-9.99916353480499e-9,11,2
10,-9.999163534803541e-9,11,2
24,-9.999163507211036e-9,11,2
25,-9.999163505589403e-9,11,2
23,-9.999163506234659e-9,11,2
49,-9.999163542065484e-9,11,2
5,-9.999163534805361e-9,11,2
31,-9.999163504355991e-9,11,2
43,-9.999163541444913e-9,11,2
39,-9.999163541620898e-9,11,2
34,-9.999163534804203e-9,11,2
44,-9.99916354144491e-9,11,2
17,-9.999163541535951e-9,11,2
37,-9.999163542825852e-9,11,2
47,-9.999163515124754e-9,11,2
9,-9.999163534803541e-9,11,2
12,-9.99916353480354e-9,11,2
20,-9.999163541412359e-9,11,2
6,-9.999163504564445e-9,11,2
14,-9.999163541388065e-9,11,2
7,-9.999163534808194e-9,11,2
8,-9.999163534803541e-9,11,2
19,-9.999163541398586e-9,11,2
4,-9.999163534808415e-9,11,2
22,-9.99916350312696e-9,11,2
11,-9.99916353480354e-9,11,2
35,-9.999163534804203e-9,11,2
13,-9.999163534803538e-9,11,2
15,-9.999163541372272e-9,11,2
16,-9.999163541535951e-9,11,2
40,-9.999163541444915e-9,11,2
46,-9.999163534803761e-9,11,2
21,-9.999163534803967e-9,11,2
38,-9.999163541471497e-9,11,2
45,-9.999163534804117e-9,11,2
36,-9.999163534804203e-9,11,2
48,-9.999163542065481e-9,11,2
18,-9.999163541380675e-9,11,2
30,-9.999163534804766e-9,11,2
3,-9.999163534808412e-9,11,2
32,-9.999158744750953e-9,12,2
29,-9.999158744751093e-9,12,2
1,-9.9991587447509e-9,12,2
2,-9.9991587447509e-9,12,2
41,-9.999158751430244e-9,12,2
27,-9.999158744751082e-9,12,2
42,-9.999158751430244e-9,12,2
33,-9.999158744751126e-9,12,2
28,-9.999158744751082e-9,12,2
26,-9.999158744751082e-9,12,2
10,-9.999158744751166e-9,12,2
24,-9.999158714346202e-9,12,2
25,-9.999158714440853e-9,12,2
23,-9.99915871440317e-9,12,2
49,-9.99915875205788e-9,12,2
5,-9.999158744751067e-9,12,2
31,-9.999158714512886e-9,12,2
43,-9.999158751430244e-9,12,2
39,-9.99915875160868e-9,12,2
34,-9.999158744751126e-9,12,2
44,-9.999158751430244e-9,12,2
17,-9.999158751522653e-9,12,2
37,-9.999158752825638e-9,12,2
47,-9.999158725191008e-9,12,2
9,-9.999158744751166e-9,12,2
12,-9.999158744751166e-9,12,2
20,-9.999158751396765e-9,12,2
6,-9.999158714500711e-9,12,2
14,-9.999158751371231e-9,12,2
7,-9.999158744750911e-9,12,2
8,-9.999158744751166e-9,12,2
19,-9.999158751382408e-9,12,2
4,-9.9991587447509e-9,12,2
22,-9.99915871458466e-9,12,2
11,-9.999158744751166e-9,12,2
35,-9.999158744751126e-9,12,2
13,-9.999158744751166e-9,12,2
15,-9.999158751353632e-9,12,2
16,-9.999158751522653e-9,12,2
40,-9.999158751430244e-9,12,2
46,-9.999158744751154e-9,12,2
21,-9.999158744751143e-9,12,2
38,-9.999158751457334e-9,12,2
45,-9.999158744751135e-9,12,2
36,-9.999158744751126e-9,12,2
48,-9.99915875205788e-9,12,2
18,-9.999158751363244e-9,12,2
30,-9.999158744751093e-9,12,2
3,-9.9991587447509e-9,12,2
32,-9.999172642466962e-9,13,2
29,-9.999172642464522e-9,13,2
1,-9.999172642467853e-9,13,2
2,-9.999172642467854e-9,13,2
41,-9.999172648958489e-9,13,2
27,-9.999172642464727e-9,13,2
42,-9.999172648958486e-9,13,2
33,-9.999172642464011e-9,13,2
28,-9.999172642464726e-9,13,2
26,-9.999172642464727e-9,13,2
10,-9.999172642463409e-9,13,2
24,-9.999172615307786e-9,13,2
25,-9.999172613832936e-9,13,2
23,-9.999172614419783e-9,13,2
49,-9.999172649565615e-9,13,2
5,-9.999172642465067e-9,13,2
31,-9.999172612711171e-9,13,2
43,-9.999172648958487e-9,13,2
39,-9.999172649130688e-9,13,2
34,-9.999172642464011e-9,13,2
44,-9.999172648958484e-9,13,2
17,-9.999172649047573e-9,13,2
37,-9.999172650309432e-9,13,2
47,-9.999172623232937e-9,13,2
9,-9.999172642463409e-9,13,2
12,-9.999172642463409e-9,13,2
20,-9.999172648926603e-9,13,2
6,-9.999172612900756e-9,13,2
14,-9.999172648902772e-9,13,2
7,-9.999172642467642e-9,13,2
8,-9.999172642463409e-9,13,2
19,-9.9991726489131e-9,13,2
4,-9.999172642467844e-9,13,2
22,-9.999172611593392e-9,13,2
11,-9.999172642463409e-9,13,2
35,-9.999172642464011e-9,13,2
13,-9.999172642463407e-9,13,2
15,-9.999172648887217e-9,13,2
16,-9.999172649047575e-9,13,2
40,-9.999172648958489e-9,13,2
46,-9.99917264246361e-9,13,2
21,-9.999172642463796e-9,13,2
38,-9.999172648984509e-9,13,2
45,-9.999172642463933e-9,13,2
36,-9.999172642464011e-9,13,2
48,-9.999172649565613e-9,13,2
18,-9.999172648895509e-9,13,2
30,-9.999172642464522e-9,13,2
3,-9.999172642467841e-9,13,2
32,-9.99928662747535e-9,14,2
29,-9.999286627461636e-9,14,2
1,-9.999286627480367e-9,14,2
2,-9.999286627480377e-9,14,2
41,-9.999286632445992e-9,14,2
27,-9.999286627462788e-9,14,2
42,-9.999286632445972e-9,14,2
33,-9.999286627458733e-9,14,2
28,-9.999286627462786e-9,14,2
26,-9.99928662746279e-9,14,2
10,-9.999286627455302e-9,14,2
24,-9.9992866177185e-9,14,2
25,-9.9992866093548e-9,14,2
23,-9.999286612682907e-9,14,2
49,-9.99928663289766e-9,14,2
5,-9.999286627464647e-9,14,2
31,-9.999286602993095e-9,14,2
43,-9.999286632445977e-9,14,2
39,-9.999286632572225e-9,14,2
34,-9.999286627458731e-9,14,2
44,-9.99928663244596e-9,14,2
17,-9.999286632510864e-9,14,2
37,-9.999286633456322e-9,14,2
47,-9.99928661171375e-9,14,2
9,-9.999286627455305e-9,14,2
12,-9.999286627455299e-9,14,2
20,-9.999286632424566e-9,14,2
6,-9.999286604068259e-9,14,2
14,-9.999286632410843e-9,14,2
7,-9.999286627479184e-9,14,2
8,-9.999286627455305e-9,14,2
19,-9.999286632416301e-9,14,2
4,-9.999286627480326e-9,14,2
22,-9.999286596653983e-9,14,2
11,-9.999286627455299e-9,14,2
35,-9.999286627458733e-9,14,2
13,-9.999286627455289e-9,14,2
15,-9.999286632406039e-9,14,2
16,-9.999286632510868e-9,14,2
40,-9.999286632445985e-9,14,2
46,-9.999286627456442e-9,14,2
21,-9.999286627457484e-9,14,2
38,-9.999286632464491e-9,14,2
45,-9.99928662745826e-9,14,2
36,-9.999286627458733e-9,14,2
48,-9.999286632897647e-9,14,2
18,-9.99928663240758e-9,14,2
30,-9.999286627461636e-9,14,2
3,-9.999286627480306e-9,14,2
32,-9.999156987458474e-9,15,2
29,-9.999156987458591e-9,15,2
1,-9.99915698745843e-9,15,2
2,-9.99915698745843e-9,15,2
41,-9.999156994165982e-9,15,2
27,-9.999156987458582e-9,15,2
42,-9.999156994165982e-9,15,2
33,-9.99915698745862e-9,15,2
28,-9.999156987458582e-9,15,2
26,-9.999156987458582e-9,15,2
10,-9.999156987458654e-9,15,2
24,-9.99915695694794e-9,15,2
25,-9.999156957028137e-9,15,2
23,-9.999156956996206e-9,15,2
49,-9.999156994796244e-9,15,2
5,-9.99915698745857e-9,15,2
31,-9.999156957089176e-9,15,2
43,-9.999156994165982e-9,15,2
39,-9.999156994345161e-9,15,2
34,-9.99915698745862e-9,15,2
44,-9.999156994165982e-9,15,2
17,-9.999156994258774e-9,15,2
37,-9.999156995567223e-9,15,2
47,-9.999156967813775e-9,15,2
9,-9.999156987458654e-9,15,2
12,-9.999156987458654e-9,15,2
20,-9.999156994132367e-9,15,2
6,-9.99915695707886e-9,15,2
14,-9.999156994106736e-9,15,2
7,-9.999156987458441e-9,15,2
8,-9.999156987458654e-9,15,2
19,-9.999156994117955e-9,15,2
4,-9.99915698745843e-9,15,2
22,-9.999156957149997e-9,15,2
11,-9.999156987458654e-9,15,2
35,-9.99915698745862e-9,15,2
13,-9.999156987458654e-9,15,2
15,-9.999156994089078e-9,15,2
16,-9.999156994258774e-9,15,2
40,-9.999156994165982e-9,15,2
46,-9.999156987458643e-9,15,2
21,-9.999156987458634e-9,15,2
38,-9.999156994193185e-9,15,2
45,-9.999156987458628e-9,15,2
36,-9.99915698745862e-9,15,2
48,-9.999156994796244e-9,15,2
18,-9.99915699409872e-9,15,2
30,-9.999156987458591e-9,15,2
3,-9.99915698745843e-9,15,2
32,-9.99915855942395e-9,16,2
29,-9.99915855942431e-9,16,2
1,-9.999158559423816e-9,16,2
2,-9.999158559423816e-9,16,2
41,-9.999158566103545e-9,16,2
27,-9.99915855942428e-9,16,2
42,-9.999158566103545e-9,16,2
33,-9.999158559424389e-9,16,2
28,-9.99915855942428e-9,16,2
26,-9.999158559424278e-9,16,2
10,-9.999158559424483e-9,16,2
24,-9.999158528814855e-9,16,2
25,-9.999158529042523e-9,16,2
23,-9.99915852895191e-9,16,2
49,-9.999158566731454e-9,16,2
5,-9.999158559424235e-9,16,2
31,-9.999158529215731e-9,16,2
43,-9.999158566103545e-9,16,2
39,-9.999158566282092e-9,16,2
34,-9.999158559424389e-9,16,2
44,-9.999158566103545e-9,16,2
17,-9.999158566196019e-9,16,2
37,-9.999158567499447e-9,16,2
47,-9.99915853988213e-9,16,2
9,-9.999158559424483e-9,16,2
12,-9.999158559424483e-9,16,2
20,-9.999158566070009e-9,16,2
6,-9.999158529186459e-9,16,2
14,-9.999158566044391e-9,16,2
7,-9.999158559423848e-9,16,2
8,-9.999158559424483e-9,16,2
19,-9.999158566055613e-9,16,2
4,-9.999158559423818e-9,16,2
22,-9.999158529388326e-9,16,2
11,-9.999158559424483e-9,16,2
35,-9.999158559424389e-9,16,2
13,-9.999158559424483e-9,16,2
15,-9.99915856602666e-9,16,2
16,-9.999158566196019e-9,16,2
40,-9.999158566103545e-9,16,2
46,-9.999158559424453e-9,16,2
21,-9.999158559424425e-9,16,2
38,-9.999158566130663e-9,16,2
45,-9.999158559424405e-9,16,2
36,-9.999158559424389e-9,16,2
48,-9.999158566731454e-9,16,2
18,-9.99915856603636e-9,16,2
30,-9.99915855942431e-9,16,2
3,-9.999158559423818e-9,16,2
32,-9.99923245056742e-9,17,2
29,-9.999232450557051e-9,17,2
1,-9.999232450571209e-9,17,2
2,-9.999232450571216e-9,17,2
41,-9.999232456254405e-9,17,2
27,-9.999232450557918e-9,17,2
42,-9.99923245625439e-9,17,2
33,-9.999232450554862e-9,17,2
28,-9.999232450557918e-9,17,2
26,-9.99923245055792e-9,17,2
10,-9.99923245055228e-9,17,2
24,-9.999232434424354e-9,17,2
25,-9.999232428118872e-9,17,2
23,-9.999232430627924e-9,17,2
49,-9.999232456777117e-9,17,2
5,-9.999232450559339e-9,17,2
31,-9.999232423322796e-9,17,2
43,-9.999232456254395e-9,17,2
39,-9.999232456401358e-9,17,2
34,-9.999232450554862e-9,17,2
44,-9.99923245625438e-9,17,2
17,-9.999232456330127e-9,17,2
37,-9.999232457421201e-9,17,2
47,-9.999232433000689e-9,17,2
9,-9.999232450552283e-9,17,2
12,-9.999232450552278e-9,17,2
20,-9.999232456228549e-9,17,2
6,-9.999232424133359e-9,17,2
14,-9.999232456210819e-9,17,2
7,-9.999232450570314e-9,17,2
8,-9.999232450552282e-9,17,2
19,-9.999232456218163e-9,17,2
4,-9.999232450571178e-9,17,2
22,-9.999232418543754e-9,17,2
11,-9.999232450552278e-9,17,2
35,-9.999232450554862e-9,17,2
13,-9.99923245055227e-9,17,2
15,-9.999232456202137e-9,17,2
16,-9.99923245633013e-9,17,2
40,-9.9992324562544e-9,17,2
46,-9.999232450553139e-9,17,2
21,-9.999232450553928e-9,17,2
38,-9.99923245627621e-9,17,2
45,-9.999232450554513e-9,17,2
36,-9.999232450554862e-9,17,2
48,-9.999232456777107e-9,17,2
18,-9.999232456206056e-9,17,2
30,-9.999232450557051e-9,17,2
3,-9.999232450571161e-9,17,2
32,-9.999166972154369e-9,18,2
29,-9.999166972153262e-9,18,2
1,-9.99916697215477e-9,18,2
2,-9.99916697215477e-9,18,2
41,-9.999166978718684e-9,18,2
27,-9.999166972153353e-9,18,2
42,-9.999166978718682e-9,18,2
33,-9.999166972153032e-9,18,2
28,-9.999166972153353e-9,18,2
26,-9.999166972153353e-9,18,2
10,-9.99916697215276e-9,18,2
24,-9.999166943428279e-9,18,2
25,-9.999166942764191e-9,18,2
23,-9.999166943028423e-9,18,2
49,-9.999166979334131e-9,18,2
5,-9.99916697215351e-9,18,2
31,-9.999166942259112e-9,18,2
43,-9.999166978718682e-9,18,2
39,-9.999166978893457e-9,18,2
34,-9.99916697215303e-9,18,2
44,-9.99916697871868e-9,18,2
17,-9.99916697880915e-9,18,2
37,-9.999166980087534e-9,18,2
47,-9.999166952822916e-9,18,2
9,-9.99916697215276e-9,18,2
12,-9.99916697215276e-9,18,2
20,-9.999166978686094e-9,18,2
6,-9.999166942344473e-9,18,2
14,-9.999166978661478e-9,18,2
7,-9.999166972154675e-9,18,2
8,-9.99916697215276e-9,18,2
19,-9.999166978672203e-9,18,2
4,-9.999166972154767e-9,18,2
22,-9.999166941755825e-9,18,2
11,-9.99916697215276e-9,18,2
35,-9.999166972153032e-9,18,2
13,-9.999166972152759e-9,18,2
15,-9.99916697864493e-9,18,2
16,-9.99916697880915e-9,18,2
40,-9.999166978718682e-9,18,2
46,-9.999166972152852e-9,18,2
21,-9.999166972152936e-9,18,2
38,-9.999166978745158e-9,18,2
45,-9.999166972152997e-9,18,2
36,-9.999166972153032e-9,18,2
48,-9.99916697933413e-9,18,2
18,-9.999166978653869e-9,18,2
30,-9.999166972153262e-9,18,2
3,-9.999166972154766e-9,18,2
32,-9.99919093027309e-9,19,2
29,-9.999190930267416e-9,19,2
1,-9.99919093027516e-9,19,2
2,-9.999190930275165e-9,19,2
41,-9.999190936521184e-9,19,2
27,-9.99919093026789e-9,19,2
42,-9.999190936521176e-9,19,2
33,-9.999190930266221e-9,19,2
28,-9.99919093026789e-9,19,2
26,-9.999190930267892e-9,19,2
10,-9.999190930264813e-9,19,2
24,-9.999190907219806e-9,19,2
25,-9.99919090377693e-9,19,2
23,-9.99919090514689e-9,19,2
49,-9.999190937101842e-9,19,2
5,-9.999190930268671e-9,19,2
31,-9.999190901158239e-9,19,2
43,-9.999190936521178e-9,19,2
39,-9.999190936685348e-9,19,2
34,-9.999190930266221e-9,19,2
44,-9.999190936521171e-9,19,2
17,-9.99919093660599e-9,19,2
37,-9.99919093781472e-9,19,2
47,-9.999190911471159e-9,19,2
9,-9.999190930264815e-9,19,2
12,-9.999190930264812e-9,19,2
20,-9.999190936491331e-9,19,2
6,-9.999190901600812e-9,19,2
14,-9.999190936469667e-9,19,2
7,-9.999190930274672e-9,19,2
8,-9.999190930264813e-9,19,2
19,-9.99919093647892e-9,19,2
4,-9.999190930275143e-9,19,2
22,-9.999190898548846e-9,19,2
11,-9.999190930264812e-9,19,2
35,-9.999190930266223e-9,19,2
13,-9.999190930264807e-9,19,2
15,-9.999190936456694e-9,19,2
16,-9.999190936605992e-9,19,2
40,-9.99919093652118e-9,19,2
46,-9.999190930265282e-9,19,2
21,-9.999190930265715e-9,19,2
38,-9.999190936545827e-9,19,2
45,-9.999190930266034e-9,19,2
36,-9.999190930266223e-9,19,2
48,-9.999190937101835e-9,19,2
18,-9.999190936463323e-9,19,2
30,-9.999190930267416e-9,19,2
3,-9.999190930275135e-9,19,2
32,-9.999190134671648e-9,20,2
29,-9.999190134666731e-9,20,2
1,-9.999190134673443e-9,20,2
2,-9.999190134673446e-9,20,2
41,-9.99919014092275e-9,20,2
27,-9.999190134667141e-9,20,2
42,-9.999190140922741e-9,20,2
33,-9.999190134665697e-9,20,2
28,-9.999190134667141e-9,20,2
26,-9.999190134667143e-9,20,2
10,-9.999190134664476e-9,20,2
24,-9.999190110901769e-9,20,2
25,-9.999190107919588e-9,20,2
23,-9.999190109106228e-9,20,2
49,-9.99919014150453e-9,20,2
5,-9.99919013466782e-9,20,2
31,-9.999190105651313e-9,20,2
43,-9.999190140922744e-9,20,2
39,-9.999190141087352e-9,20,2
34,-9.999190134665697e-9,20,2
44,-9.999190140922738e-9,20,2
17,-9.99919014100781e-9,20,2
37,-9.999190142218448e-9,20,2
47,-9.99919011592675e-9,20,2
9,-9.999190134664478e-9,20,2
12,-9.999190134664476e-9,20,2
20,-9.999190140892691e-9,20,2
6,-9.999190106034665e-9,20,2
14,-9.999190140870725e-9,20,2
7,-9.99919013467302e-9,20,2
8,-9.999190134664478e-9,20,2
19,-9.99919014088014e-9,20,2
4,-9.999190134673428e-9,20,2
22,-9.999190103391095e-9,20,2
11,-9.999190134664476e-9,20,2
35,-9.999190134665697e-9,20,2
13,-9.999190134664471e-9,20,2
15,-9.99919014085729e-9,20,2
16,-9.999190141007812e-9,20,2
40,-9.999190140922746e-9,20,2
46,-9.999190134664883e-9,20,2
21,-9.999190134665257e-9,20,2
38,-9.999190140947495e-9,20,2
45,-9.999190134665535e-9,20,2
36,-9.999190134665697e-9,20,2
48,-9.999190141504525e-9,20,2
18,-9.999190140864231e-9,20,2
30,-9.999190134666731e-9,20,2
3,-9.999190134673421e-9,20,2
32,-9.999160458593672e-9,21,2
29,-9.999160458593447e-9,21,2
1,-9.999160458593753e-9,21,2
2,-9.999160458593753e-9,21,2
41,-9.99916046525019e-9,21,2
27,-9.999160458593465e-9,21,2
42,-9.99916046525019e-9,21,2
33,-9.999160458593402e-9,21,2
28,-9.999160458593465e-9,21,2
26,-9.999160458593465e-9,21,2
10,-9.999160458593351e-9,21,2
24,-9.999160428632101e-9,21,2
25,-9.99916042850393e-9,21,2
23,-9.999160428554912e-9,21,2
49,-9.99916046587528e-9,21,2
5,-9.999160458593501e-9,21,2
31,-9.99916042840648e-9,21,2
43,-9.99916046525019e-9,21,2
39,-9.999160465427843e-9,21,2
34,-9.999160458593402e-9,21,2
44,-9.99916046525019e-9,21,2
17,-9.99916046534218e-9,21,2
37,-9.999160466640084e-9,21,2
47,-9.999160439068618e-9,21,2
9,-9.999160458593351e-9,21,2
12,-9.999160458593351e-9,21,2
20,-9.999160465216917e-9,21,2
6,-9.999160428422949e-9,21,2
14,-9.99916046519161e-9,21,2
7,-9.999160458593733e-9,21,2
8,-9.999160458593351e-9,21,2
19,-9.999160465202673e-9,21,2
4,-9.999160458593751e-9,21,2
22,-9.999160428309374e-9,21,2
11,-9.999160458593351e-9,21,2
35,-9.999160458593402e-9,21,2
13,-9.999160458593351e-9,21,2
15,-9.999160465174292e-9,21,2
16,-9.99916046534218e-9,21,2
40,-9.99916046525019e-9,21,2
46,-9.999160458593369e-9,21,2
21,-9.999160458593386e-9,21,2
38,-9.999160465277144e-9,21,2
45,-9.999160458593397e-9,21,2
36,-9.999160458593402e-9,21,2
48,-9.999160465875278e-9,21,2
18,-9.99916046518372e-9,21,2
30,-9.999160458593447e-9,21,2
3,-9.999160458593751e-9,21,2
32,-9.999484382135201e-9,22,2
29,-9.999484382135481e-9,22,2
1,-9.999484382135147e-9,22,2
2,-9.999484382135147e-9,22,2
41,-9.999484384646158e-9,22,2
27,-9.999484382135473e-9,22,2
42,-9.999484384646158e-9,22,2
33,-9.999484382135466e-9,22,2
28,-9.999484382135473e-9,22,2
26,-9.999484382135473e-9,22,2
10,-9.999484382135431e-9,22,2
24,-9.999484370758088e-9,22,2
25,-9.999484370759901e-9,22,2
23,-9.999484370759545e-9,22,2
49,-9.999484384882175e-9,22,2
5,-9.999484382135317e-9,22,2
31,-9.999484370760578e-9,22,2
43,-9.999484384646158e-9,22,2
39,-9.999484384713313e-9,22,2
34,-9.999484382135466e-9,22,2
44,-9.999484384646158e-9,22,2
17,-9.999484384680959e-9,22,2
37,-9.999484385170747e-9,22,2
47,-9.999484374777772e-9,22,2
9,-9.999484382135431e-9,22,2
12,-9.999484382135431e-9,22,2
20,-9.999484384633507e-9,22,2
6,-9.999484370760462e-9,22,2
14,-9.999484384623787e-9,22,2
7,-9.999484382135158e-9,22,2
8,-9.999484382135431e-9,22,2
19,-9.999484384628056e-9,22,2
4,-9.999484382135147e-9,22,2
22,-9.999484370761251e-9,22,2
11,-9.999484382135431e-9,22,2
35,-9.999484382135466e-9,22,2
13,-9.999484382135431e-9,22,2
15,-9.999484384616948e-9,22,2
16,-9.999484384680959e-9,22,2
40,-9.999484384646158e-9,22,2
46,-9.999484382135428e-9,22,2
21,-9.999484382135401e-9,22,2
38,-9.99948438465637e-9,22,2
45,-9.999484382135398e-9,22,2
36,-9.999484382135466e-9,22,2
48,-9.999484384882175e-9,22,2
18,-9.999484384620699e-9,22,2
30,-9.999484382135481e-9,22,2
3,-9.999484382135147e-9,22,2
32,-9.999159469709334e-9,23,2
29,-9.999159469708901e-9,23,2
1,-9.999159469709492e-9,23,2
2,-9.999159469709492e-9,23,2
41,-9.999159476384047e-9,23,2
27,-9.999159469708937e-9,23,2
42,-9.999159476384045e-9,23,2
33,-9.999159469708813e-9,23,2
28,-9.999159469708937e-9,23,2
26,-9.999159469708937e-9,23,2
10,-9.99915946970871e-9,23,2
24,-9.999159439858497e-9,23,2
25,-9.999159439603737e-9,23,2
23,-9.999159439705092e-9,23,2
49,-9.999159477010613e-9,23,2
5,-9.999159469709002e-9,23,2
31,-9.99915943941e-9,23,2
43,-9.999159476384045e-9,23,2
39,-9.999159476562087e-9,23,2
34,-9.999159469708813e-9,23,2
44,-9.999159476384045e-9,23,2
17,-9.99915947647623e-9,23,2
37,-9.99915947777732e-9,23,2
47,-9.999159450112872e-9,23,2
9,-9.99915946970871e-9,23,2
12,-9.99915946970871e-9,23,2
20,-9.999159476350735e-9,23,2
6,-9.999159439442743e-9,23,2
14,-9.99915947632544e-9,23,2
7,-9.999159469709455e-9,23,2
8,-9.99915946970871e-9,23,2
19,-9.999159476336489e-9,23,2
4,-9.99915946970949e-9,23,2
22,-9.99915943921695e-9,23,2
11,-9.99915946970871e-9,23,2
35,-9.999159469708813e-9,23,2
13,-9.999159469708709e-9,23,2
15,-9.999159476308198e-9,23,2
16,-9.99915947647623e-9,23,2
40,-9.999159476384047e-9,23,2
46,-9.999159469708746e-9,23,2
21,-9.999159469708779e-9,23,2
38,-9.99915947641105e-9,23,2
45,-9.999159469708802e-9,23,2
36,-9.999159469708813e-9,23,2
48,-9.999159477010613e-9,23,2
18,-9.999159476317568e-9,23,2
30,-9.999159469708901e-9,23,2
3,-9.99915946970949e-9,23,2
32,-9.999171928357637e-9,24,2
29,-9.999171928355441e-9,24,2
1,-9.999171928358437e-9,24,2
2,-9.999171928358439e-9,24,2
41,-9.999171934857385e-9,24,2
27,-9.999171928355625e-9,24,2
42,-9.999171934857382e-9,24,2
33,-9.999171928354981e-9,24,2
28,-9.999171928355625e-9,24,2
26,-9.999171928355625e-9,24,2
10,-9.999171928354439e-9,24,2
24,-9.999171900934971e-9,24,2
25,-9.999171899608389e-9,24,2
23,-9.999171900136238e-9,24,2
49,-9.999171935465555e-9,24,2
5,-9.999171928355931e-9,24,2
31,-9.9991718985994e-9,24,2
43,-9.999171934857384e-9,24,2
39,-9.999171935029919e-9,24,2
34,-9.999171928354981e-9,24,2
44,-9.99917193485738e-9,24,2
17,-9.999171934946651e-9,24,2
37,-9.99917193621054e-9,24,2
47,-9.99917190912071e-9,24,2
9,-9.99917192835444e-9,24,2
12,-9.999171928354439e-9,24,2
20,-9.999171934825395e-9,24,2
6,-9.999171898769925e-9,24,2
14,-9.999171934801441e-9,24,2
7,-9.999171928358249e-9,24,2
8,-9.999171928354439e-9,24,2
19,-9.999171934811832e-9,24,2
4,-9.99917192835843e-9,24,2
22,-9.999171897593997e-9,24,2
11,-9.999171928354439e-9,24,2
35,-9.999171928354981e-9,24,2
13,-9.999171928354437e-9,24,2
15,-9.999171934785718e-9,24,2
16,-9.999171934946653e-9,24,2
40,-9.999171934857384e-9,24,2
46,-9.99917192835462e-9,24,2
21,-9.999171928354788e-9,24,2
38,-9.999171934883466e-9,24,2
45,-9.99917192835491e-9,24,2
36,-9.999171928354981e-9,24,2
48,-9.999171935465553e-9,24,2
18,-9.999171934794121e-9,24,2
30,-9.999171928355441e-9,24,2
3,-9.999171928358427e-9,24,2
32,0.05400000911133333,1,3
29,0.6695800673267027,1,3
1,0.04530000912371782,1,3
2,0.04530000912371782,1,3
41,-9.944266729422396e-9,1,3
27,0.66958006635628,1,3
42,-9.944266729422396e-9,1,3
33,0.6695800603761797,1,3
28,0.6695800663585202,1,3
26,0.6695800663518392,1,3
10,0.2792000085986849,1,3
24,0.01400000998864334,1,3
25,1.3350000133386433,1,3
23,1.5480000154686433,1,3
49,-9.949349612534173e-9,1,3
5,0.09070000905499338,1,3
31,0.9240000099886434,1,3
43,-9.944266729422396e-9,1,3
39,-9.94581251120233e-9,1,3
34,0.6695800603665906,1,3
44,-9.944266729422396e-9,1,3
17,-9.945078073183712e-9,1,3
37,-9.954433459436787e-9,1,3
47,5.691500056897574,1,3
9,0.2792000085986849,1,3
12,0.2792000085986849,1,3
20,-9.943967024306595e-9,1,3
6,0.8650000099886433,1,3
14,-9.94373650511993e-9,1,3
7,0.04700000912132507,1,3
8,0.2792000085986849,1,3
19,-9.94383759023415e-9,1,3
4,0.04530000912371782,1,3
22,0.6760000099886433,1,3
11,0.2792000085986849,1,3
35,0.6695800603825982,1,3
13,0.2792000085986849,1,3
15,-9.943576919749063e-9,1,3
16,-9.945078073183712e-9,1,3
40,-9.944266729422396e-9,1,3
46,0.26600000864451806,1,3
21,0.18000000888262302,1,3
38,-9.944507009741507e-9,1,3
45,0.17500000889391923,1,3
36,0.6695800603830208,1,3
48,-9.949349612534166e-9,1,3
18,-9.943664078374647e-9,1,3
30,0.6695800673269485,1,3
3,0.04530000912371782,1,3
32,0.05400000912390859,2,3
29,0.6784159971925741,2,3
1,0.04530000913594744,2,3
2,0.04530000913594744,2,3
41,-9.944216512626225e-9,2,3
27,0.6784159962024329,2,3
42,-9.944216512626225e-9,2,3
33,0.6784159897151755,2,3
28,0.6784159962047138,2,3
26,0.6784159961979377,2,3
10,0.27920000862970046,2,3
24,0.014000009988645423,2,3
25,1.3350000133386455,2,3
23,1.5480000154686455,2,3
49,-9.949308141028445e-9,2,3
5,0.09070000906920095,2,3
31,0.9240000099886455,2,3
43,-9.944216512626225e-9,2,3
39,-9.945765042524013e-9,2,3
34,0.6784159897054486,2,3
44,-9.944216512626225e-9,2,3
17,-9.94502930845865e-9,2,3
37,-9.954399897989362e-9,2,3
47,5.6915000568975795,2,3
9,0.27920000862970046,2,3
12,0.27920000862970046,2,3
20,-9.94391626573169e-9,2,3
6,0.8650000099886455,2,3
14,-9.943685327854088e-9,2,3
7,0.0470000091336211,2,3
8,0.27920000862970046,2,3
19,-9.943786596780885e-9,2,3
4,0.04530000913594744,2,3
22,0.6760000099886454,2,3
11,0.27920000862970046,2,3
35,0.6784159897216819,2,3
13,0.27920000862970046,2,3
15,-9.943525451621054e-9,2,3
16,-9.94502930845865e-9,2,3
40,-9.944216512626225e-9,2,3
46,0.266000008673559,2,3
21,0.1800000089024319,2,3
38,-9.944457225200137e-9,2,3
45,0.17500000891333312,2,3
36,0.6784159897221111,2,3
48,-9.949308141028445e-9,2,3
18,-9.943612769205644e-9,2,3
30,0.6784159971928231,2,3
3,0.04530000913594744,2,3
32,0.05400000909767826,3,3
29,0.6602643373841722,3,3
1,0.045300009110443545,3,3
2,0.045300009110443545,3,3
41,-9.944319575227169e-9,3,3
27,0.6602643364319183,3,3
42,-9.944319575227169e-9,3,3
33,0.6602643309398377,3,3
28,0.6602643364341393,3,3
26,0.6602643364275421,3,3
10,0.27920000856442745,3,3
24,0.014000009988641144,3,3
25,1.335000013338641,3,3
23,1.548000015468641,3,3
49,-9.94939326256549e-9,3,3
5,0.09070000903953697,3,3
31,0.9240000099886413,3,3
43,-9.944319575227169e-9,3,3
39,-9.945862467578683e-9,3,3
34,0.6602643309303772,3,3
44,-9.944319575227169e-9,3,3
17,-9.945129392278055e-9,3,3
37,-9.954468789848844e-9,3,3
47,5.69150005689757,3,3
9,0.27920000856442745,3,3
12,0.27920000856442745,3,3
20,-9.944020439723469e-9,3,3
6,0.8650000099886412,3,3
14,-9.943790360730231e-9,3,3
7,0.04700000910797765,3,3
8,0.27920000856442745,3,3
19,-9.943891252593096e-9,3,3
4,0.045300009110443545,3,3
22,0.6760000099886412,3,3
11,0.27920000856442745,3,3
35,0.6602643309461588,3,3
13,0.27920000856442745,3,3
15,-9.943631081156921e-9,3,3
16,-9.945129392278055e-9,3,3
40,-9.944319575227169e-9,3,3
46,0.26600000861249057,3,3
21,0.18000000886094916,3,3
38,-9.944559401079252e-9,3,3
45,0.17500000887268555,3,3
36,0.6602643309465769,3,3
48,-9.949393262565496e-9,3,3
18,-9.943718072662476e-9,3,3
30,0.6602643373844186,3,3
3,0.045300009110443545,3,3
32,0.05400000908595195,4,3
29,0.6524865782508055,4,3
1,0.045300009099048764,4,3
2,0.045300009099048764,4,3
41,-9.944363619805883e-9,4,3
27,0.6524865773134795,4,3
42,-9.944363619805883e-9,4,3
33,0.6524865721901202,4,3
28,0.6524865773156708,4,3
26,0.6524865773091539,4,3
10,0.27920000853451604,4,3
24,0.014000009988639308,4,3
25,1.3350000133386393,4,3
23,1.5480000154686393,4,3
49,-9.949429648653213e-9,4,3
5,0.09070000902623966,4,3
31,0.9240000099886394,4,3
43,-9.944363619805883e-9,4,3
39,-9.945904105957688e-9,4,3
34,0.6524865721807763,4,3
44,-9.944363619805883e-9,4,3
17,-9.945172165494979e-9,4,3
37,-9.954498245483609e-9,4,3
47,5.691500056897566,4,3
9,0.27920000853451604,4,3
12,0.27920000853451604,4,3
20,-9.94406495863059e-9,4,3
6,0.8650000099886394,4,3
14,-9.943835246193145e-9,4,3
7,0.047000009096519205,4,3
8,0.27920000853451604,4,3
19,-9.943935977132723e-9,4,3
4,0.045300009099048764,4,3
22,0.6760000099886393,4,3
11,0.27920000853451604,4,3
35,0.6524865721963679,4,3
13,0.27920000853451604,4,3
15,-9.943676221259295e-9,4,3
16,-9.945172165494979e-9,4,3
40,-9.944363619805883e-9,4,3
46,0.26600000858456796,4,3
21,0.18000000884219886,4,3
38,-9.944603067207612e-9,4,3
45,0.17500000885432276,4,3
36,0.6524865721967726,4,3
48,-9.949429648653207e-9,4,3
18,-9.943763073602491e-9,4,3
30,0.6524865782510408,4,3
3,0.045300009099048764,4,3
32,0.054000009255443245,5,3
29,0.7887264461510706,5,3
1,0.04530000926415646,5,3
2,0.04530000926415646,5,3
41,-9.943581887662946e-9,5,3
27,0.7887264448932515,5,3
42,-9.943581887662946e-9,5,3
33,0.7721999768984488,5,3
28,0.7887264448959012,5,3
26,0.7887264448880105,5,3
10,0.2792000089263647,5,3
24,0.01400000998867136,5,3
25,1.3350000133386712,5,3
23,1.5480000154686713,5,3
49,-9.948784623135525e-9,5,3
5,0.09070000921629683,5,3
31,0.9240000099886715,5,3
43,-9.943581887662946e-9,5,3
39,-9.945165351837595e-9,5,3
34,0.7721999768984489,5,3
44,-9.943581887662946e-9,5,3
17,-9.944413144563683e-9,5,3
37,-9.953976706969394e-9,5,3
47,4.55320052532513,5,3
9,0.2792000089263647,5,3
12,0.2792000089263647,5,3
20,-9.943274751539622e-9,5,3
6,0.8650000099886714,5,3
14,-9.94303848914809e-9,5,3
7,0.047000009262469944,5,3
8,0.2792000089263647,5,3
19,-9.943142095676293e-9,5,3
4,0.04530000926415646,5,3
22,0.6760000099886714,5,3
11,0.2792000089263647,5,3
35,0.7721999768984488,5,3
13,0.2792000089263647,5,3
15,-9.942874913763887e-9,5,3
16,-9.944413144563683e-9,5,3
40,-9.943581887662946e-9,5,3
46,0.2660000089534764,5,3
21,0.18000000910132777,5,3
38,-9.943828096273468e-9,5,3
45,0.17500000910864918,5,3
36,0.7721999768984488,5,3
48,-9.948784623135525e-9,5,3
18,-9.942964252990269e-9,5,3
30,0.7887264461513599,5,3
3,0.04530000926415646,5,3
32,0.054000009422315906,6,3
29,1.0009630188960035,6,3
1,0.045300009427574915,6,3
2,0.045300009427574915,6,3
41,-9.942319346075728e-9,6,3
27,1.0009630166752708,6,3
42,-9.942319346075728e-9,6,3
33,0.7722000076086803,6,3
28,1.0009630166786436,6,3
26,1.0009630166685737,6,3
10,0.2792000092420705,6,3
24,0.014000009988720934,6,3
25,1.335000013338721,6,3
23,1.548000015468721,6,3
49,-9.947746344259244e-9,6,3
5,0.09070000939902483,6,3
31,0.924000009988721,6,3
43,-9.942319346075728e-9,6,3
39,-9.943973434807146e-9,6,3
34,0.7722000076086803,6,3
44,-9.942319346075728e-9,6,3
17,-9.943187937105063e-9,6,3
37,-9.953139993029724e-9,6,3
47,3.4149005139594903,6,3
9,0.2792000092420705,6,3
12,0.2792000092420705,6,3
20,-9.941998270657214e-9,6,3
6,0.865000009988721,6,3
14,-9.941751232308185e-9,6,3
7,0.047000009426554835,6,3
8,0.2792000092420705,6,3
19,-9.94185957004542e-9,6,3
4,0.045300009427574915,6,3
22,0.6760000099887209,6,3
11,0.2792000092420705,6,3
35,0.7722000076086803,6,3
13,0.2792000092420705,6,3
15,-9.941580169098012e-9,6,3
16,-9.943187937105063e-9,6,3
40,-9.942319346075728e-9,6,3
46,0.266000009255683,6,3
21,0.18000000933365393,6,3
38,-9.94257667231603e-9,6,3
45,0.17500000933768767,6,3
36,0.7722000076086803,6,3
48,-9.947746344259244e-9,6,3
18,-9.9416736006699e-9,6,3
30,1.0009630188963787,6,3
3,0.045300009427574915,6,3
32,0.0540000095495784,7,3
29,1.2685187438777863,7,3
1,0.04530000955278196,7,3
2,0.04530000955278196,7,3
41,-9.940644868878728e-9,7,3
27,1.2685187258671065,7,3
42,-9.940644868878728e-9,7,3
33,0.772200008897794,7,3
28,1.2685187258713928,7,3
26,1.26851872585855,7,3
10,0.2792000094470483,7,3
24,0.014000009988782815,7,3
25,1.3350000133387827,7,3
23,1.5480000154687827,7,3
49,-9.946375880201018e-9,7,3
5,0.09070000953554357,7,3
31,0.924000009988783,7,3
43,-9.940644868878728e-9,7,3
39,-9.942394931526089e-9,7,3
34,0.772200008897794,7,3
44,-9.940644868878728e-9,7,3
17,-9.941564220641916e-9,7,3
37,-9.952040823035705e-9,7,3
47,2.276600502585141,7,3
9,0.2792000094470483,7,3
12,0.2792000094470483,7,3
20,-9.940304826199045e-9,7,3
6,0.8650000099887829,7,3
14,-9.94004311943602e-9,7,3
7,0.04700000955215956,7,3
8,0.2792000094470483,7,3
19,-9.940157897965777e-9,7,3
4,0.04530000955278196,7,3
22,0.6760000099887828,7,3
11,0.2792000094470483,7,3
35,0.772200008897794,7,3
13,0.2792000094470483,7,3
15,-9.939861860846885e-9,7,3
16,-9.941564220641916e-9,7,3
40,-9.940644868878728e-9,7,3
46,0.26600000945432895,7,3
21,0.18000000949744044,7,3
38,-9.940917317126883e-9,7,3
45,0.17500000949973835,7,3
36,0.772200008897794,7,3
48,-9.946375880201018e-9,7,3
18,-9.939960864818309e-9,7,3
30,1.2685187438782546,7,3
3,0.04530000955278196,7,3
32,0.05400000968624841,8,3
29,1.7975623183685892,8,3
1,0.04530000968780618,8,3
2,0.04530000968780618,8,3
41,-9.937030287300956e-9,8,3
27,1.300500011904443,8,3
42,-9.937030287300956e-9,8,3
33,0.7722000094664857,8,3
28,1.300500011904443,8,3
26,1.300500011904443,8,3
10,0.2792000096397135,8,3
24,0.014000009988903193,8,3
25,1.335000013338903,8,3
23,1.548000015468903,8,3
49,-9.943442855636556e-9,8,3
5,0.09070000967950229,8,3
31,0.9240000099889033,8,3
43,-9.937030287300956e-9,8,3
39,-9.93899645876105e-9,8,3
34,0.7722000094664857,8,3
44,-9.937030287300956e-9,8,3
17,-9.938064045927911e-9,8,3
37,-9.949708242853006e-9,8,3
47,1.1383004912078851,8,3
9,0.2792000096397135,8,3
12,0.2792000096397135,8,3
20,-9.93664743447328e-9,8,3
6,0.8650000099889033,8,3
14,-9.936352597741744e-9,8,3
7,0.047000009687503,8,3
8,0.2792000096397135,8,3
19,-9.93648192581266e-9,8,3
4,0.04530000968780618,8,3
22,0.6760000099889032,8,3
11,0.2792000096397135,8,3
35,0.7722000094664857,8,3
13,0.2792000096397135,8,3
15,-9.936148300395696e-9,8,3
16,-9.938064045927911e-9,8,3
40,-9.937030287300956e-9,8,3
46,0.26600000964281867,8,3
21,0.1800000096618087,8,3
38,-9.937336843092515e-9,8,3
45,0.17500000966285087,8,3
36,0.7722000094664857,8,3
48,-9.943442855636556e-9,8,3
18,-9.936259897629293e-9,8,3
30,1.7975623183692528,8,3
3,0.04530000968780618,8,3
32,-9.996548087578073e-9,9,3
29,-9.996548087578528e-9,9,3
1,-9.996548087577984e-9,9,3
2,-9.996548087577984e-9,9,3
41,-9.996762298492867e-9,9,3
27,-9.996548087578513e-9,9,3
42,-9.996762298492867e-9,9,3
33,-9.9965480875785e-9,9,3
28,-9.996548087578513e-9,9,3
26,-9.996548087578513e-9,9,3
10,-9.996548087578444e-9,9,3
24,-9.9950705991007e-9,9,3
25,-9.995070599104308e-9,9,3
23,-9.995070599104314e-9,9,3
49,-9.996781064071465e-9,9,3
5,-9.996548087578259e-9,9,3
31,-9.995070599104288e-9,9,3
43,-9.996762298492867e-9,9,3
39,-9.996767655091814e-9,9,3
34,-9.9965480875785e-9,9,3
44,-9.996762298492867e-9,9,3
17,-9.996765074660417e-9,9,3
37,-9.996803727196958e-9,9,3
47,4.798291670093699e-7,9,3
9,-9.996548087578444e-9,9,3
12,-9.996548087578444e-9,9,3
20,-9.99676129215337e-9,9,3
6,-9.995070599104283e-9,9,3
14,-9.996760524998414e-9,9,3
7,-9.996548087578004e-9,9,3
8,-9.996548087578444e-9,9,3
19,-9.996760860673443e-9,9,3
4,-9.996548087577984e-9,9,3
22,-9.995070599104265e-9,9,3
11,-9.996548087578444e-9,9,3
35,-9.9965480875785e-9,9,3
13,-9.996548087578444e-9,9,3
15,-9.996759997368298e-9,9,3
16,-9.996765074660417e-9,9,3
40,-9.996762298492867e-9,9,3
46,-9.996548087578439e-9,9,3
21,-9.996548087578394e-9,9,3
38,-9.996763112690675e-9,9,3
45,-9.996548087578391e-9,9,3
36,-9.9965480875785e-9,9,3
48,-9.996781064071465e-9,9,3
18,-9.996760285187877e-9,9,3
30,-9.996548087578528e-9,9,3
3,-9.996548087577984e-9,9,3
32,-9.9884761479196e-9,10,3
29,-9.988476148130403e-9,10,3
1,-9.988476147878618e-9,10,3
2,-9.988476147878618e-9,10,3
41,-9.990560725810671e-9,10,3
27,-9.988476148124123e-9,10,3
42,-9.990560725810671e-9,10,3
33,-9.988476148118062e-9,10,3
28,-9.988476148124123e-9,10,3
26,-9.988476148124123e-9,10,3
10,-9.988476148091713e-9,10,3
24,7.153931096192797e-8,10,3
25,7.159625380469732e-8,10,3
23,7.159633698268178e-8,10,3
49,-9.990718457993366e-9,10,3
5,-9.98847614800594e-9,10,3
31,7.15959849206762e-8,10,3
43,-9.990560725810671e-9,10,3
39,-9.990606106099756e-9,10,3
34,-9.988476148118062e-9,10,3
44,-9.990560725810671e-9,10,3
17,-9.990584280920073e-9,10,3
37,-9.990904394997942e-9,10,3
47,-9.967354543451495e-9,10,3
9,-9.988476148091713e-9,10,3
12,-9.988476148091713e-9,10,3
20,-9.990552168132431e-9,10,3
6,7.159592534962477e-8,10,3
14,-9.990545637544701e-9,10,3
7,-9.988476147887818e-9,10,3
8,-9.988476148091713e-9,10,3
19,-9.990548495793338e-9,10,3
4,-9.988476147878618e-9,10,3
22,7.159566451392725e-8,10,3
11,-9.988476148091713e-9,10,3
35,-9.988476148118062e-9,10,3
13,-9.988476148091713e-9,10,3
15,-9.990541142463885e-9,10,3
16,-9.990584280920073e-9,10,3
40,-9.990560725810671e-9,10,3
46,-9.988476148089665e-9,10,3
21,-9.988476148068969e-9,10,3
38,-9.990567642098352e-9,10,3
45,-9.988476148067139e-9,10,3
36,-9.988476148118062e-9,10,3
48,-9.990718457993366e-9,10,3
18,-9.990543594863844e-9,10,3
30,-9.988476148130403e-9,10,3
3,-9.988476147878618e-9,10,3
32,-9.988476804380778e-9,11,3
29,-9.988476804569373e-9,11,3
1,-9.988476804344114e-9,11,3
2,-9.988476804344114e-9,11,3
41,-9.990561239969674e-9,11,3
27,-9.988476804563757e-9,11,3
42,-9.990561239969674e-9,11,3
33,-9.988476804558332e-9,11,3
28,-9.988476804563757e-9,11,3
26,-9.988476804563757e-9,11,3
10,-9.98847680453476e-9,11,3
24,7.155269303810017e-8,11,3
25,7.159316511643273e-8,11,3
23,7.159291868006829e-8,11,3
49,-9.990718960553513e-9,11,3
5,-9.988476804458023e-9,11,3
31,7.159348575064589e-8,11,3
43,-9.990561239969674e-9,11,3
39,-9.990606616927514e-9,11,3
34,-9.988476804558332e-9,11,3
44,-9.990561239969674e-9,11,3
17,-9.990584793349847e-9,11,3
37,-9.990904883792361e-9,11,3
47,-9.967353199386168e-9,11,3
9,-9.98847680453476e-9,11,3
12,-9.98847680453476e-9,11,3
20,-9.99055268292134e-9,11,3
6,7.15935107354385e-8,11,3
14,-9.990546152817387e-9,11,3
7,-9.988476804352344e-9,11,3
8,-9.98847680453476e-9,11,3
19,-9.99054901085367e-9,11,3
4,-9.988476804344114e-9,11,3
22,7.159372697018285e-8,11,3
11,-9.98847680453476e-9,11,3
35,-9.988476804558332e-9,11,3
13,-9.98847680453476e-9,11,3
15,-9.99054165807604e-9,11,3
16,-9.990584793349847e-9,11,3
40,-9.990561239969674e-9,11,3
46,-9.988476804532928e-9,11,3
21,-9.98847680451441e-9,11,3
38,-9.9905681557493e-9,11,3
45,-9.988476804512774e-9,11,3
36,-9.988476804558332e-9,11,3
48,-9.990718960553513e-9,11,3
18,-9.990544110289963e-9,11,3
30,-9.988476804569373e-9,11,3
3,-9.988476804344114e-9,11,3
32,-9.988474620558205e-9,12,3
29,-9.988474620834396e-9,12,3
1,-9.988474620504513e-9,12,3
2,-9.988474620504513e-9,12,3
41,-9.990559417814643e-9,12,3
27,-9.988474620826168e-9,12,3
42,-9.990559417814643e-9,12,3
33,-9.988474620818227e-9,12,3
28,-9.988474620826168e-9,12,3
26,-9.988474620826168e-9,12,3
10,-9.988474620783706e-9,12,3
24,3.626327610625332e-8,12,3
25,7.207635131769373e-8,12,3
23,1.8770564392231962e-7,12,3
49,-9.990717172437206e-9,12,3
5,-9.988474620671328e-9,12,3
31,4.654409062514309e-8,12,3
43,-9.990559417814643e-9,12,3
39,-9.990604804496926e-9,12,3
34,-9.988474620818227e-9,12,3
44,-9.990559417814643e-9,12,3
17,-9.990582976238192e-9,12,3
37,-9.990903136735477e-9,12,3
47,-9.967367698462586e-9,12,3
9,-9.988474620783706e-9,12,3
12,-9.988474620783706e-9,12,3
20,-9.990550858929926e-9,12,3
6,4.51347373781919e-8,12,3
14,-9.99054432741334e-9,12,3
7,-9.988474620516568e-9,12,3
8,-9.988474620783706e-9,12,3
19,-9.990547186070232e-9,12,3
4,-9.988474620504513e-9,12,3
22,4.179533001828963e-8,12,3
11,-9.988474620783706e-9,12,3
35,-9.988474620818227e-9,12,3
13,-9.988474620783706e-9,12,3
15,-9.990539831674551e-9,12,3
16,-9.990582976238192e-9,12,3
40,-9.990559417814643e-9,12,3
46,-9.988474620781023e-9,12,3
21,-9.988474620753906e-9,12,3
38,-9.990566335075322e-9,12,3
45,-9.988474620751509e-9,12,3
36,-9.988474620818227e-9,12,3
48,-9.990717172437206e-9,12,3
18,-9.99054228443588e-9,12,3
30,-9.988474620834396e-9,12,3
3,-9.988474620504513e-9,12,3
32,-9.988476479544908e-9,13,3
29,-9.988476479744242e-9,13,3
1,-9.988476479506156e-9,13,3
2,-9.988476479506156e-9,13,3
41,-9.990560987878076e-9,13,3
27,-9.988476479738305e-9,13,3
42,-9.990560987878076e-9,13,3
33,-9.988476479732574e-9,13,3
28,-9.988476479738305e-9,13,3
26,-9.988476479738305e-9,13,3
10,-9.988476479707658e-9,13,3
24,7.15469237952867e-8,13,3
25,7.159469830999364e-8,13,3
23,7.159476695273866e-8,13,3
49,-9.99071871429602e-9,13,3
5,-9.988476479626553e-9,13,3
31,7.159447281320178e-8,13,3
43,-9.990560987878076e-9,13,3
39,-9.990606366512579e-9,13,3
34,-9.988476479732574e-9,13,3
44,-9.990560987878076e-9,13,3
17,-9.99058454212869e-9,13,3
37,-9.990904644445072e-9,13,3
47,-9.967353654517404e-9,13,3
9,-9.988476479707658e-9,13,3
12,-9.988476479707658e-9,13,3
20,-9.990552430512646e-9,13,3
6,7.159442255689051e-8,13,3
14,-9.9905459001652e-9,13,3
7,-9.988476479514857e-9,13,3
8,-9.988476479707658e-9,13,3
19,-9.990548758308355e-9,13,3
4,-9.988476479506156e-9,13,3
22,7.159420393698379e-8,13,3
11,-9.988476479707658e-9,13,3
35,-9.988476479732574e-9,13,3
13,-9.988476479707658e-9,13,3
15,-9.990541405253112e-9,13,3
16,-9.99058454212869e-9,13,3
40,-9.990560987878076e-9,13,3
46,-9.988476479705722e-9,13,3
21,-9.988476479686151e-9,13,3
38,-9.990567903913457e-9,13,3
45,-9.988476479684422e-9,13,3
36,-9.988476479732574e-9,13,3
48,-9.99071871429602e-9,13,3
18,-9.99054385756059e-9,13,3
30,-9.988476479744242e-9,13,3
3,-9.988476479506156e-9,13,3
32,-9.988479271347587e-9,14,3
29,-9.988479271452105e-9,14,3
1,-9.988479271327321e-9,14,3
2,-9.988479271327321e-9,14,3
41,-9.99056305113285e-9,14,3
27,-9.988479271448988e-9,14,3
42,-9.99056305113285e-9,14,3
33,-9.988479271445956e-9,14,3
28,-9.988479271448988e-9,14,3
26,-9.988479271448988e-9,14,3
10,-9.988479271432885e-9,14,3
24,6.572364795324106e-8,14,3
25,7.125199355695654e-8,14,3
23,7.350821093572063e-8,14,3
49,-9.990720723194922e-9,14,3
5,-9.988479271390414e-9,14,3
31,7.331636536607056e-8,14,3
43,-9.99056305113285e-9,14,3
39,-9.990608414097198e-9,14,3
34,-9.988479271445956e-9,14,3
44,-9.99056305113285e-9,14,3
17,-9.990586597243484e-9,14,3
37,-9.990906589568453e-9,14,3
47,-9.967359014509876e-9,14,3
9,-9.988479271432885e-9,14,3
12,-9.988479271432885e-9,14,3
20,-9.990554496734973e-9,14,3
6,7.165002406321417e-8,14,3
14,-9.990547968666458e-9,14,3
7,-9.988479271331841e-9,14,3
8,-9.988479271432885e-9,14,3
19,-9.990550825809419e-9,14,3
4,-9.988479271327316e-9,14,3
22,7.406935648292095e-8,14,3
11,-9.988479271432885e-9,14,3
35,-9.988479271445956e-9,14,3
13,-9.988479271432885e-9,14,3
15,-9.990543475351371e-9,14,3
16,-9.990586597243484e-9,14,3
40,-9.99056305113285e-9,14,3
46,-9.988479271431882e-9,14,3
21,-9.98847927142163e-9,14,3
38,-9.99056996477551e-9,14,3
45,-9.98847927142072e-9,14,3
36,-9.988479271445956e-9,14,3
48,-9.990720723194922e-9,14,3
18,-9.990545926783945e-9,14,3
30,-9.988479271452105e-9,14,3
3,-9.988479271327315e-9,14,3
32,-9.988475109818499e-9,15,3
29,-9.988475110070531e-9,15,3
1,-9.988475109769503e-9,15,3
2,-9.988475109769503e-9,15,3
41,-9.990559862008022e-9,15,3
27,-9.988475110063023e-9,15,3
42,-9.990559862008022e-9,15,3
33,-9.988475110055776e-9,15,3
28,-9.988475110063023e-9,15,3
26,-9.988475110063023e-9,15,3
10,-9.988475110024275e-9,15,3
24,7.145343586767641e-8,15,3
25,7.161382573655458e-8,15,3
23,7.1614056904781e-8,15,3
49,-9.99071761046825e-9,15,3
5,-9.988475109921728e-9,15,3
31,7.161306629982525e-8,15,3
43,-9.990559862008022e-9,15,3
39,-9.990605246948624e-9,15,3
34,-9.988475110055776e-9,15,3
44,-9.990559862008022e-9,15,3
17,-9.990583419529939e-9,15,3
37,-9.990903567091803e-9,15,3
47,-9.967361224082004e-9,15,3
9,-9.988475110024275e-9,15,3
12,-9.988475110024275e-9,15,3
20,-9.990551303451333e-9,15,3
6,7.16128970440876e-8,15,3
14,-9.990544772187935e-9,15,3
7,-9.988475109780503e-9,15,3
8,-9.988475110024275e-9,15,3
19,-9.990547630733396e-9,15,3
4,-9.988475109769503e-9,15,3
22,7.161216079584442e-8,15,3
11,-9.988475110024275e-9,15,3
35,-9.988475110055776e-9,15,3
13,-9.988475110024275e-9,15,3
15,-9.990540276630224e-9,15,3
16,-9.990583419529939e-9,15,3
40,-9.990559862008022e-9,15,3
46,-9.988475110021825e-9,15,3
21,-9.98847510999708e-9,15,3
38,-9.990566779004183e-9,15,3
45,-9.988475109994895e-9,15,3
36,-9.988475110055776e-9,15,3
48,-9.99071761046825e-9,15,3
18,-9.990542729291883e-9,15,3
30,-9.988475110070531e-9,15,3
3,-9.988475109769503e-9,15,3
32,-9.996544190790119e-9,16,3
29,-9.996544190790573e-9,16,3
1,-9.99654419079003e-9,16,3
2,-9.99654419079003e-9,16,3
41,-9.996758870574786e-9,16,3
27,-9.99654419079056e-9,16,3
42,-9.996758870574786e-9,16,3
33,-9.996544190790547e-9,16,3
28,-9.99654419079056e-9,16,3
26,-9.99654419079056e-9,16,3
10,-9.99654419079049e-9,16,3
24,-9.995062648767023e-9,16,3
25,-9.995062648770638e-9,16,3
23,-9.995062648770646e-9,16,3
49,-9.996777675795149e-9,16,3
5,-9.996544190790305e-9,16,3
31,-9.995062648770618e-9,16,3
43,-9.996758870574786e-9,16,3
39,-9.996764238512936e-9,16,3
34,-9.996544190790547e-9,16,3
44,-9.996758870574786e-9,16,3
17,-9.996761652621459e-9,16,3
37,-9.996800386488194e-9,16,3
47,4.798289637862954e-7,16,3
9,-9.99654419079049e-9,16,3
12,-9.99654419079049e-9,16,3
20,-9.996757862102905e-9,16,3
6,-9.995062648770615e-9,16,3
14,-9.996757093321938e-9,16,3
7,-9.996544190790049e-9,16,3
8,-9.99654419079049e-9,16,3
19,-9.99675742970849e-9,16,3
4,-9.99654419079003e-9,16,3
22,-9.995062648770597e-9,16,3
11,-9.99654419079049e-9,16,3
35,-9.996544190790547e-9,16,3
13,-9.99654419079049e-9,16,3
15,-9.996756564573269e-9,16,3
16,-9.996761652621459e-9,16,3
40,-9.996758870574786e-9,16,3
46,-9.996544190790486e-9,16,3
21,-9.996544190790441e-9,16,3
38,-9.996759686497355e-9,16,3
45,-9.996544190790438e-9,16,3
36,-9.996544190790547e-9,16,3
48,-9.996777675795149e-9,16,3
18,-9.996756853003036e-9,16,3
30,-9.996544190790573e-9,16,3
3,-9.99654419079003e-9,16,3
32,0.0540000096681973,17,3
29,1.702707066664836,17,3
1,0.04530000966993898,17,3
2,0.04530000966993898,17,3
41,-9.9377104067323e-9,17,3
27,1.300500011644891,17,3
42,-9.9377104067323e-9,17,3
33,0.7722000094120997,17,3
28,1.300500011644891,17,3
26,1.300500011644891,17,3
10,0.27920000961570585,17,3
24,0.0140000099888818,17,3
25,1.3350000133388817,17,3
23,1.5480000154688818,17,3
49,-9.9439921114346e-9,17,3
5,0.09070000966064326,17,3
31,0.9240000099888819,17,3
43,-9.9377104067323e-9,17,3
39,-9.939634984399156e-9,17,3
34,0.7722000094120997,17,3
44,-9.9377104067323e-9,17,3
17,-9.938722134631871e-9,17,3
37,-9.95014301409069e-9,17,3
47,1.138300491207676,17,3
9,0.27920000961570585,17,3
12,0.27920000961570585,17,3
20,-9.93733580402903e-9,17,3
6,0.8650000099888818,17,3
14,-9.937047354285424e-9,17,3
7,0.047000009669600086,17,3
8,0.27920000961570585,17,3
19,-9.93717387715721e-9,17,3
4,0.04530000966993898,17,3
22,0.6760000099888818,17,3
11,0.27920000961570585,17,3
35,0.7722000094120997,17,3
13,0.27920000961570585,17,3
15,-9.936847499700112e-9,17,3
16,-9.938722134631871e-9,17,3
40,-9.9377104067323e-9,17,3
46,0.2660000096192366,17,3
21,0.18000000964074148,17,3
38,-9.938010392000852e-9,17,3
45,0.17500000964191728,17,3
36,0.7722000094120997,17,3
48,-9.9439921114346e-9,17,3
18,-9.936956668344275e-9,17,3
30,1.7027070666654596,17,3
3,0.04530000966993898,17,3
32,0.05400000953960372,18,3
29,1.2422056717077463,18,3
1,0.045300009542950215,18,3
2,0.045300009542950215,18,3
41,-9.940813845375259e-9,18,3
27,1.2422056614940198,18,3
42,-9.940813845375259e-9,18,3
33,0.7722000088360875,18,3
28,1.2422056614982169,18,3
26,1.2422056614856538,18,3
10,0.2792000094319395,18,3
24,0.01400000998877676,18,3
25,1.3350000133387767,18,3
23,1.5480000154687767,18,3
49,-9.946513839034183e-9,18,3
5,0.09070000952493028,18,3
31,0.9240000099887768,18,3
43,-9.940813845375259e-9,18,3
39,-9.942554103870936e-9,18,3
34,0.7722000088360875,18,3
44,-9.940813845375259e-9,18,3
17,-9.941728010345394e-9,18,3
37,-9.95215120310218e-9,18,3
47,2.2766005025849267,18,3
9,0.2792000094319395,18,3
12,0.2792000094319395,18,3
20,-9.940475741570095e-9,18,3
6,0.8650000099887768,18,3
14,-9.94021553453227e-9,18,3
7,0.04700000954230013,18,3
8,0.2792000094319395,18,3
19,-9.94032965451274e-9,18,3
4,0.045300009542950215,18,3
22,0.6760000099887767,18,3
11,0.2792000094319395,18,3
35,0.7722000088360875,18,3
13,0.2792000094319395,18,3
15,-9.940035318484037e-9,18,3
16,-9.941728010345394e-9,18,3
40,-9.940813845375259e-9,18,3
46,0.26600000943962065,18,3
21,0.18000000948499098,18,3
38,-9.941084748120648e-9,18,3
45,0.17500000948740388,18,3
36,0.7722000088360875,18,3
48,-9.946513839034183e-9,18,3
18,-9.940133752627684e-9,18,3
30,1.2422056717082042,18,3
3,0.045300009542950215,18,3
32,0.054000009408668614,19,3
29,0.9791081319079225,19,3
1,0.045300009414177854,19,3
2,0.045300009414177854,19,3
41,-9.94245195900885e-9,19,3
27,0.9791081298339521,19,3
42,-9.94245195900885e-9,19,3
33,0.7722000073560946,19,3
28,0.9791081298372549,19,3
26,0.9791081298274187,19,3
10,0.2792000092184039,19,3
24,0.01400000998871585,19,3
25,1.3350000133387159,19,3
23,1.548000015468716,19,3
49,-9.9478552003776e-9,19,3
5,0.0907000093842408,19,3
31,0.9240000099887159,19,3
43,-9.94245195900885e-9,19,3
39,-9.944098559251084e-9,19,3
34,0.7722000073560946,19,3
44,-9.94245195900885e-9,19,3
17,-9.943316590628442e-9,19,3
37,-9.9532275554142e-9,19,3
47,3.4149005139592683,19,3
9,0.2792000092184039,19,3
12,0.2792000092184039,19,3
20,-9.942132362345082e-9,19,3
6,0.8650000099887158,19,3
14,-9.941886467331343e-9,19,3
7,0.04700000941310942,19,3
8,0.2792000092184039,19,3
19,-9.941994303067108e-9,19,3
4,0.045300009414177854,19,3
22,0.6760000099887158,19,3
11,0.2792000092184039,19,3
35,0.7722000073560946,19,3
13,0.2792000092184039,19,3
15,-9.941716198668247e-9,19,3
16,-9.943316590628442e-9,19,3
40,-9.94245195900885e-9,19,3
46,0.26600000923287165,19,3
21,0.18000000931542995,19,3
38,-9.942708106004917e-9,19,3
45,0.17500000931968665,19,3
36,0.7722000073560946,19,3
48,-9.947855200377594e-9,19,3
18,-9.941809195985538e-9,19,3
30,0.9791081319082852,19,3
3,0.045300009414177854,19,3
32,0.05400000921744644,20,3
29,0.7530518383796073,20,3
1,0.04530000922706592,20,3
2,0.04530000922706592,20,3
41,-9.943788700469564e-9,20,3
27,0.753051837216085,20,3
42,-9.943788700469564e-9,20,3
33,0.7530518076504477,20,3
28,0.7530518372186239,20,3
26,0.7530518372110904,20,3
10,0.27920000884553464,20,3
24,0.014000009988662986,20,3
25,1.335000013338663,20,3
23,1.548000015468663,20,3
49,-9.948955108815787e-9,20,3
5,0.09070000917408622,20,3
31,0.924000009988663,20,3
43,-9.943788700469564e-9,20,3
39,-9.94536073859824e-9,20,3
34,0.7530518076395852,20,3
44,-9.943788700469564e-9,20,3
17,-9.944613918806451e-9,20,3
37,-9.954114424467906e-9,20,3
47,4.553200525324889,20,3
9,0.27920000884553464,20,3
12,0.27920000884553464,20,3
20,-9.94348381805174e-9,20,3
6,0.865000009988663,20,3
14,-9.943249297587535e-9,20,3
7,0.047000009225204885,20,3
8,0.27920000884553464,20,3
19,-9.943352139354006e-9,20,3
4,0.04530000922706592,20,3
22,0.6760000099886629,20,3
11,0.27920000884553464,20,3
35,0.7530518076576855,20,3
13,0.27920000884553464,20,3
15,-9.943086932438375e-9,20,3
16,-9.944613918806451e-9,20,3
40,-9.943788700469564e-9,20,3
46,0.2660000088768228,20,3
21,0.18000000904538213,20,3
38,-9.94403311123645e-9,20,3
45,0.17500000905363933,20,3
36,0.7530518076581604,20,3
48,-9.948955108815787e-9,20,3
18,-9.94317561024867e-9,20,3
30,0.7530518383798841,20,3
3,0.04530000922706592,20,3
32,0.054000009056069304,21,3
29,0.6335398855418052,21,3
1,0.04530000907002991,21,3
2,0.04530000907002991,21,3
41,-9.94447062174697e-9,21,3
27,0.6335398846412004,21,3
42,-9.94447062174697e-9,21,3
33,0.6335398801740727,21,3
28,0.6335398846433292,21,3
26,0.6335398846369993,21,3
10,0.279200008456156,21,3
24,0.014000009988634836,21,3
25,1.3350000133386348,21,3
23,1.5480000154686349,21,3
49,-9.949518066905746e-9,21,3
5,0.09070000899225258,21,3
31,0.924000009988635,21,3
43,-9.94447062174697e-9,21,3
39,-9.94600526987936e-9,21,3
34,0.6335398801650146,21,3
44,-9.94447062174697e-9,21,3
17,-9.945276082889636e-9,21,3
37,-9.954569840432892e-9,21,3
47,5.691500056907908,21,3
9,0.279200008456156,21,3
12,0.279200008456156,21,3
20,-9.944173111330977e-9,21,3
6,0.8650000099886349,21,3
14,-9.943944288168829e-9,21,3
7,0.04700000906733453,21,3
8,0.279200008456156,21,3
19,-9.944044628705802e-9,21,3
4,0.045300009070029915,21,3
22,0.6760000099886349,21,3
11,0.279200008456156,21,3
35,0.6335398801801421,21,3
13,0.279200008456156,21,3
15,-9.943785880989437e-9,21,3
16,-9.945276082889636e-9,21,3
40,-9.94447062174697e-9,21,3
46,0.2660000085116024,21,3
21,0.18000000879383157,21,3
38,-9.94470915098056e-9,21,3
45,0.17500000880698383,21,3
36,0.6335398801805378,21,3
48,-9.94951806690574e-9,21,3
18,-9.943872395726564e-9,21,3
30,0.6335398855420408,21,3
3,0.045300009070029915,21,3
32,0.0540000091328136,22,3
29,0.6848280339905821,22,3
1,0.0453000091446106,22,3
2,0.0453000091446106,22,3
41,-9.944180014721718e-9,22,3
27,0.6848280329880277,22,3
42,-9.944180014721718e-9,22,3
33,0.6848280260442775,22,3
28,0.6848280329903267,22,3
26,0.6848280329834852,22,3
10,0.2792000086513617,22,3
24,0.014000009988646934,22,3
25,1.3350000133386468,22,3
23,1.5480000154686469,22,3
49,-9.949278003536433e-9,22,3
5,0.09070000907924645,22,3
31,0.9240000099886471,22,3
43,-9.944180014721718e-9,22,3
39,-9.94573054345875e-9,22,3
34,0.6848280260344459,22,3
44,-9.944180014721718e-9,22,3
17,-9.944993866732143e-9,22,3
37,-9.954375512225167e-9,22,3
47,5.691500056897583,22,3
9,0.2792000086513617,22,3
12,0.2792000086513617,22,3
20,-9.943879373749811e-9,22,3
6,0.865000009988647,22,3
14,-9.943648131323419e-9,22,3
7,0.04700000914233074,22,3
8,0.2792000086513617,22,3
19,-9.943749533952486e-9,22,3
4,0.0453000091446106,22,3
22,0.676000009988647,22,3
11,0.2792000086513617,22,3
35,0.6848280260508401,22,3
13,0.27920000865136174,22,3
15,-9.94348804352002e-9,22,3
16,-9.944993866732143e-9,22,3
40,-9.944180014721718e-9,22,3
46,0.2660000086938661,22,3
21,0.18000000891637258,22,3
38,-9.944421041704033e-9,22,3
45,0.17500000892699996,22,3
36,0.6848280260512734,22,3
48,-9.949278003536427e-9,22,3
18,-9.943575476729535e-9,22,3
30,0.6848280339908316,22,3
3,0.0453000091446106,22,3
32,0.054000009100057124,23,3
29,0.6618669032591868,23,3
1,0.045300009112755654,23,3
2,0.045300009112755654,23,3
41,-9.944310491410352e-9,23,3
27,0.661866902303859,23,3
42,-9.944310491410352e-9,23,3
33,0.6618668967213335,23,3
28,0.661866902306077,23,3
26,0.6618669022994703,23,3
10,0.2792000085704395,23,3
24,0.014000009988641522,23,3
25,1.3350000133386415,23,3
23,1.5480000154686415,23,3
49,-9.949385758899107e-9,23,3
5,0.09070000904223181,23,3
31,0.9240000099886416,23,3
43,-9.944310491410352e-9,23,3
39,-9.945853880246985e-9,23,3
34,0.6618668967118513,23,3
44,-9.944310491410352e-9,23,3
17,-9.94512057079102e-9,23,3
37,-9.954462715932957e-9,23,3
47,5.691500056897571,23,3
9,0.2792000085704395,23,3
12,0.2792000085704395,23,3
20,-9.944011258033013e-9,23,3
6,0.8650000099886416,23,3
14,-9.943781103404188e-9,23,3
7,0.04700000911030258,23,3
8,0.2792000085704395,23,3
19,-9.943882028472058e-9,23,3
4,0.045300009112755654,23,3
